{"learner":{"attributes":{"scikit_learn":"{\"use_label_encoder\": true, \"n_estimators\": 80, \"objective\": \"binary:logistic\", \"max_depth\": 6, \"learning_rate\": 0.25, \"verbosity\": null, \"booster\": null, \"tree_method\": null, \"gamma\": 0, \"min_child_weight\": 3, \"max_delta_step\": 4, \"subsample\": 1, \"colsample_bytree\": 1, \"colsample_bylevel\": null, \"colsample_bynode\": null, \"reg_alpha\": 0, \"reg_lambda\": 1, \"scale_pos_weight\": 20, \"base_score\": null, \"missing\": NaN, \"num_parallel_tree\": null, \"kwargs\": {\"eval_metric\": \"logloss\"}, \"random_state\": 42, \"n_jobs\": null, \"monotone_constraints\": null, \"interaction_constraints\": null, \"importance_type\": \"gain\", \"gpu_id\": null, \"validate_parameters\": null, \"classes_\": [0, 1], \"n_classes_\": 2, \"_le\": {\"classes_\": [0, 1]}, \"_features_count\": 64, \"n_features_in_\": 64, \"evals_result_\": {\"validation_0\": {\"logloss\": [0.789973, 0.890708, 0.933406, 0.9256, 0.942622, 0.897714, 0.881253, 0.856223, 0.834975, 0.802551, 0.75649, 0.71106, 0.68009, 0.653825, 0.616322, 0.582105, 0.553923, 0.529355, 0.495419, 0.472884, 0.422407, 0.379537, 0.358854, 0.32972, 0.313741, 0.288319, 0.273772, 0.258057, 0.244825, 0.228413, 0.213832, 0.197788, 0.184044, 0.168638, 0.162663, 0.153431, 0.14255, 0.138822, 0.135118, 0.125012, 0.117655, 0.114441, 0.107358, 0.103781, 0.098435, 0.091347, 0.089101, 0.083442, 0.080511, 0.075645, 0.074078, 0.072436, 0.06934, 0.065898, 0.063422, 0.061544, 0.059454, 0.058224, 0.055063, 0.053341, 0.051622, 0.048111, 0.046183, 0.04483, 0.043676, 0.041962, 0.041106, 0.039968, 0.038648, 0.038149, 0.036614, 0.034927, 0.03444, 0.033243, 0.032202, 0.03138, 0.030256, 0.029923, 0.02885, 0.02818]}, \"validation_1\": {\"logloss\": [0.783141, 0.881926, 0.922096, 0.915578, 0.930033, 0.888739, 0.874436, 0.857837, 0.840036, 0.817374, 0.773959, 0.729172, 0.699905, 0.675982, 0.64344, 0.611376, 0.589696, 0.565572, 0.538728, 0.520569, 0.468293, 0.429846, 0.414533, 0.390151, 0.378475, 0.353924, 0.342086, 0.327263, 0.311193, 0.294842, 0.280238, 0.267182, 0.257045, 0.243884, 0.240452, 0.233048, 0.222871, 0.220015, 0.215755, 0.207603, 0.200196, 0.197271, 0.191548, 0.187948, 0.183483, 0.176578, 0.174716, 0.168829, 0.166298, 0.16366, 0.162183, 0.159953, 0.157084, 0.152783, 0.150703, 0.149368, 0.147891, 0.146578, 0.144103, 0.142776, 0.141895, 0.137831, 0.135662, 0.13514, 0.133865, 0.132093, 0.131855, 0.131829, 0.131042, 0.130865, 0.129382, 0.127528, 0.126848, 0.126424, 0.126598, 0.126291, 0.124674, 0.124489, 0.123604, 0.123084]}}, \"type\": \"XGBClassifier\"}"},"gradient_booster":{"model":{"gbtree_model_param":{"num_trees":"80","size_leaf_vector":"0"},"tree_info":[0,0,0,0,0,0,0,0,0,0,0,0,0,0,0,0,0,0,0,0,0,0,0,0,0,0,0,0,0,0,0,0,0,0,0,0,0,0,0,0,0,0,0,0,0,0,0,0,0,0,0,0,0,0,0,0,0,0,0,0,0,0,0,0,0,0,0,0,0,0,0,0,0,0,0,0,0,0,0,0],"trees":[{"base_weights":[1.8094418E0,1.8855072E0,1.4713382E0,1.8889045E0,-1.8804274E0,-1.0496324E0,1.6224597E0,1.8915982E0,-1.8513004E0,1.8449216E0,-1.9885136E0,-1.951495E0,1.6609529E0,1.8938695E0,-1.825847E0,1.6821097E0,-1.9121058E0,1.895916E0,-1.8083509E0,-1.8822721E0,1.6978152E0,1.8975661E0,-1.7674692E0,1.7119609E0,-1.8691498E0],"categories":[],"categories_nodes":[],"categories_segments":[],"categories_sizes":[],"default_left":[true,false,false,false,false,true,false,true,false,false,false,false,false,false,false,true,false,true,false,false,false,false,false,false,false],"id":0,"left_children":[1,3,5,7,-1,9,11,13,-1,-1,-1,-1,15,17,-1,19,-1,21,-1,-1,23,-1,-1,-1,-1],"loss_changes":[5.6446875E2,2.3386328E2,1.5466836E3,1.8471875E2,0E0,6.2861725E2,5.2965234E2,1.5522266E2,0E0,0E0,0E0,0E0,2.894297E2,1.3951953E2,0E0,2.1392676E2,0E0,1.11875E2,0E0,0E0,1.9233496E2,0E0,0E0,0E0,0E0],"parents":[2147483647,0,0,1,1,2,2,3,3,5,5,6,6,7,7,12,12,13,13,15,15,17,17,20,20],"right_children":[2,4,6,8,-1,10,12,14,-1,-1,-1,-1,16,18,-1,20,-1,22,-1,-1,24,-1,-1,-1,-1],"split_conditions":[-2.2955062E-2,1.5518554E-3,-3.0990385E-2,5.2556336E-1,-4.7010684E-1,-2.5121033E-1,-4.073693E-2,2.1304092E0,-4.628251E-1,4.612304E-1,-4.971284E-1,-4.8787376E-1,4.7895934E-2,3.2668673E-2,-4.5646176E-1,-1.1888431E-1,-4.7802645E-1,8.0978535E-2,-4.5208773E-1,-4.7056803E-1,1.6426314E-2,4.7439152E-1,-4.418673E-1,4.2799023E-1,-4.6728745E-1],"split_indices":[25,40,26,23,0,34,36,28,0,0,0,0,38,4,0,47,0,9,0,0,4,0,0,0,0],"split_type":[0,0,0,0,0,0,0,0,0,0,0,0,0,0,0,0,0,0,0,0,0,0,0,0,0],"sum_hessian":[2.205525E4,1.8000893E4,4.054357E3,1.7985166E4,1.572623E1,2.2895985E2,3.825397E3,1.7972717E4,1.2449932E1,5.584027E1,1.7311958E2,4.0232937E1,3.785164E3,1.7962232E4,1.0484153E1,3.7634094E3,2.1754618E1,1.7952797E4,9.435738E0,1.5988334E1,3.7474211E3,1.7945195E4,7.601011E0,3.7331365E3,1.4284658E1],"tree_param":{"num_deleted":"0","num_feature":"64","num_nodes":"25","size_leaf_vector":"0"}},{"base_weights":[1.440745E0,1.5144345E0,1.19501E0,-2.0497565E0,1.5164621E0,-2.1059268E0,1.2473792E0,1.5184255E0,-1.5069209E0,-2.4708989E0,-1.5967016E0,1.2756852E0,-2.1202886E0,1.5203319E0,-1.4804856E0,-2.0113971E0,1.3030386E0,-1.5308787E0,-2.2686825E0,1.5216707E0,-1.8471451E0,1.3193899E0,-1.9673657E0,1.5834442E0,1.4483634E0,1.4337167E0,9.8380035E-1],"categories":[],"categories_nodes":[],"categories_segments":[],"categories_sizes":[],"default_left":[false,true,true,false,false,false,true,false,false,false,false,true,false,true,false,false,false,false,false,true,false,true,false,false,false,false,false],"id":1,"left_children":[1,3,5,-1,7,9,11,13,-1,-1,-1,15,17,19,-1,-1,21,-1,-1,23,-1,25,-1,-1,-1,-1,-1],"loss_changes":[3.7658594E2,1.1924609E2,8.367832E2,0E0,9.7640625E1,1.0129669E1,4.5556543E2,9.403125E1,0E0,0E0,0E0,4.262661E2,2.3223877E-2,7.515625E1,0E0,0E0,2.5250928E2,0E0,0E0,7.033203E1,0E0,1.7702393E2,0E0,0E0,0E0,0E0,0E0],"parents":[2147483647,0,0,1,1,2,2,4,4,5,5,6,6,7,7,11,11,12,12,13,13,16,16,19,19,21,21],"right_children":[2,4,6,-1,8,10,12,14,-1,-1,-1,16,18,20,-1,-1,22,-1,-1,24,-1,26,-1,-1,-1,-1,-1],"split_conditions":[-3.244645E-2,-1.8537305E-2,-6.976593E-2,-5.1243913E-1,1.5518554E-3,-2.2956584E-2,8.1329435E-2,3.3022843E-2,-3.7673023E-1,-6.177247E-1,-3.991754E-1,-2.656891E-2,-3.0990181E-2,4.1843362E-2,-3.701214E-1,-5.028493E-1,8.168817E-3,-3.8271967E-1,-5.671706E-1,-3.1083131E-2,-4.6178627E-1,3.873982E-2,-4.9184144E-1,3.9586106E-1,3.6209086E-1,3.5842916E-1,2.4595009E-1],"split_indices":[23,4,33,0,40,25,5,4,0,0,0,23,26,38,0,0,15,0,0,26,0,24,0,0,0,0,0],"split_type":[0,0,0,0,0,0,0,0,0,0,0,0,0,0,0,0,0,0,0,0,0,0,0,0,0,0,0],"sum_hessian":[2.0895371E4,1.6070953E4,4.8244175E3,8.563295E0,1.606239E4,7.4731445E1,4.749686E3,1.6052463E4,9.926688E0,4.1287537E1,3.3443905E1,4.710713E3,3.897345E1,1.6042758E4,9.7054205E0,3.8278038E1,4.6724346E3,1.0114745E1,2.8858706E1,1.603693E4,5.8278494E0,4.649783E3,2.2651295E1,8.691939E3,7.3449907E3,3.4658013E3,1.1839822E3],"tree_param":{"num_deleted":"0","num_feature":"64","num_nodes":"27","size_leaf_vector":"0"}},{"base_weights":[1.2313777E0,1.2986183E0,9.4380987E-1,1.301166E0,-1.4247444E0,-1.0411502E0,1.0696602E0,1.3031584E0,-1.5950817E0,1.2715524E0,-1.7171067E0,-2.0468364E0,1.1004895E0,1.30495E0,-1.6140025E0,-1.7043797E0,-2.4988558E0,1.276244E0,7.9002786E-1,1.306258E0,-2.3704064E0,-1.6810836E0,1.2911788E0,-7.075853E-1,1.0951105E0,1.3746406E0,1.2336638E0,1.3024012E0,-1.8805016E0,-2.5505264E0,1.2311512E0,1.1681305E0,-2.015359E0],"categories":[],"categories_nodes":[],"categories_segments":[],"categories_sizes":[],"default_left":[true,false,false,true,false,true,false,true,false,false,false,false,false,true,false,false,false,true,true,true,false,false,true,true,false,false,false,false,false,false,false,false,false],"id":2,"left_children":[1,3,5,7,-1,9,11,13,-1,-1,-1,15,17,19,-1,-1,-1,21,23,25,-1,-1,27,29,31,-1,-1,-1,-1,-1,-1,-1,-1],"loss_changes":[3.5938086E2,1.0670117E2,8.849048E2,8.920703E1,0E0,3.3272745E2,3.2195093E2,8.096094E1,0E0,0E0,0E0,8.404999E-1,1.788103E2,7.558789E1,0E0,0E0,0E0,9.503735E1,5.462458E2,7.314453E1,0E0,0E0,7.693359E1,7.272148E2,2.2771094E2,0E0,0E0,0E0,0E0,0E0,0E0,0E0,0E0],"parents":[2147483647,0,0,1,1,2,2,3,3,5,5,6,6,7,7,11,11,12,12,13,13,17,17,18,18,19,19,22,22,23,23,24,24],"right_children":[2,4,6,8,-1,10,12,14,-1,-1,-1,16,18,20,-1,-1,-1,22,24,26,-1,-1,28,30,32,-1,-1,-1,-1,-1,-1,-1,-1],"split_conditions":[-2.2955062E-2,1.5518554E-3,-3.0990385E-2,2.1304092E0,-3.561861E-1,-2.5121033E-1,-1.5193874E-2,8.0978535E-2,-3.9877042E-1,3.178881E-1,-4.2927667E-1,-4.072938E-2,3.408265E-2,3.3077878E-1,-4.0350062E-1,-4.2609492E-1,-6.2471396E-1,-1.1888431E-1,-3.8189314E-2,-3.1087857E-2,-5.926016E-1,-4.202709E-1,-1.5573775E-2,-1.7395497E-3,1.4026353E-2,3.4366015E-1,3.0841595E-1,3.256003E-1,-4.701254E-1,-6.376316E-1,3.077878E-1,2.9203263E-1,-5.0383973E-1],"split_indices":[25,40,26,28,0,34,49,9,0,0,0,36,23,34,0,0,0,47,52,26,0,0,58,26,4,0,0,0,0,0,0,0,0],"split_type":[0,0,0,0,0,0,0,0,0,0,0,0,0,0,0,0,0,0,0,0,0,0,0,0,0,0,0,0,0,0,0,0,0],"sum_hessian":[1.864801E4,1.5111126E4,3.5368826E3,1.5097525E4,1.3601229E1,2.1044177E2,3.326441E3,1.5087696E4,9.8290205E0,4.7397133E1,1.6304465E2,3.1943192E1,3.2944978E3,1.5078988E4,8.708027E0,2.0888409E1,1.1054784E1,2.1016357E3,1.1928619E3,1.5074268E4,4.7198596E0,9.99958E0,2.0916362E3,2.0165303E2,9.912089E2,7.7530576E3,7.3212104E3,2.0848489E3,6.7873926E0,1.0321883E2,9.843421E1,9.690836E2,2.212532E1],"tree_param":{"num_deleted":"0","num_feature":"64","num_nodes":"33","size_leaf_vector":"0"}},{"base_weights":[1.0939146E0,1.1592691E0,8.2134116E-1,1.2387515E0,1.0770297E0,-8.95023E-1,9.307285E-1,1.2411624E0,-2.6642225E0,-1.8572702E0,1.1333693E0,1.1285386E0,-1.4706126E0,-1.5102336E0,9.605949E-1,-2.1469166E0,1.2435367E0,-3.4164832E0,1.2696642E0,1.1482172E0,-3.1434076E0,-2.214882E0,9.765785E-1,1.2455039E0,-2.1891253E0,-3.8131042E0,-2.0327656E0,-3.2007174E0,1.1555917E0,1.0427516E0,2.5406826E-1,1.2474173E0,-1.2834182E0,-3.9476507E0,-1.2492667E0,1.1607898E0,-3.0826752E0,1.056883E0,-1.5693527E0,-2.2016838E0,7.233045E-1],"categories":[],"categories_nodes":[],"categories_segments":[],"categories_sizes":[],"default_left":[true,true,false,true,true,true,false,true,false,false,true,false,false,false,true,false,false,false,false,true,false,false,false,true,false,true,false,false,true,false,true,false,false,false,false,false,false,false,false,false,false],"id":3,"left_children":[1,3,5,7,9,11,13,15,-1,17,19,-1,-1,-1,21,-1,23,25,-1,27,-1,-1,29,31,-1,33,-1,-1,35,37,39,-1,-1,-1,-1,-1,-1,-1,-1,-1,-1],"loss_changes":[2.8595898E2,8.356836E1,5.8629346E2,6.539746E1,1.058706E3,2.1986201E2,2.1520068E2,5.5725586E1,0E0,5.932245E2,4.0186182E2,0E0,0E0,0E0,1.4920996E2,0E0,4.723047E1,3.662921E1,0E0,2.0416504E2,0E0,0E0,1.3758911E2,3.348242E1,0E0,1.6355225E1,0E0,0E0,1.4106738E2,9.9148926E1,2.8188907E2,0E0,0E0,0E0,0E0,0E0,0E0,0E0,0E0,0E0,0E0],"parents":[2147483647,0,0,1,1,2,2,3,3,4,4,5,5,6,6,7,7,9,9,10,10,14,14,16,16,17,17,19,19,22,22,23,23,25,25,28,28,29,29,30,30],"right_children":[2,4,6,8,10,12,14,16,-1,18,20,-1,-1,-1,22,-1,24,26,-1,28,-1,-1,30,32,-1,34,-1,-1,36,38,40,-1,-1,-1,-1,-1,-1,-1,-1,-1,-1],"split_conditions":[-2.2955062E-2,-3.1087857E-2,-3.0990385E-2,1.0103774E-1,-7.209501E-2,-2.5121033E-1,-4.073693E-2,-3.6608973E-1,-6.660556E-1,5.6200093E-3,5.024956E-2,2.8213465E-1,-3.6765316E-1,-3.775584E-1,1.1940532E-2,-5.3672916E-1,2.014814E-2,-3.2495823E-2,3.1741604E-1,-5.3641587E-2,-7.858519E-1,-5.537205E-1,1.9582659E-1,-7.6776426E-3,-5.472813E-1,2.1266413E0,-5.081914E-1,-8.0017936E-1,2.2600181E-2,1.6426314E-2,2.6043653E-2,3.1185433E-1,-3.2085454E-1,-9.8691267E-1,-3.123167E-1,2.9019746E-1,-7.706688E-1,2.6422074E-1,-3.923382E-1,-5.5042094E-1,1.8082613E-1],"split_indices":[25,26,26,27,33,34,36,18,0,8,24,0,0,0,4,0,4,23,0,50,0,0,23,7,0,28,0,0,12,4,56,0,0,0,0,0,0,0,0,0,0],"split_type":[0,0,0,0,0,0,0,0,0,0,0,0,0,0,0,0,0,0,0,0,0,0,0,0,0,0,0,0,0,0,0,0,0,0,0,0,0,0,0,0,0],"sum_hessian":[1.6105156E4,1.2987831E4,3.1173252E3,6.597475E3,6.390356E3,1.8633981E2,2.9309856E3,6.594084E3,3.391272E0,1.1978349E2,6.2705723E3,4.105275E1,1.4528706E2,3.4829483E1,2.896156E3,3.9853384E0,6.5900986E3,7.986637E1,3.991712E1,6.249607E3,2.0965519E1,1.381563E1,2.8823403E3,6.586961E3,3.1376216E0,6.070931E1,1.9157064E1,9.84663E0,6.2397603E3,2.6400967E3,2.4224377E2,6.582487E3,4.4738173E0,5.7169395E1,3.5399127E0,6.232842E3,6.9181924E0,2.626483E3,1.3613797E1,3.826925E1,2.0397452E2],"tree_param":{"num_deleted":"0","num_feature":"64","num_nodes":"41","size_leaf_vector":"0"}},{"base_weights":[9.9154073E-1,1.0731132E0,7.3975587E-1,1.0040035E0,1.18898E0,-1.7591451E0,7.85632E-1,-1.1383418E0,1.0428194E0,-1.550765E0,1.1915672E0,-2.0089002E0,-1.1643918E0,-1.8079036E0,8.1199807E-1,-2.0882132E0,1.1781431E0,1.0564872E0,-2.0720665E0,1.1938576E0,-1.3095013E0,-1.6070288E0,-2.2773247E0,-2.0985827E0,-1.4722328E0,9.652272E-1,4.2259786E-1,-2.159079E0,-1.2229744E0,1.0610287E0,-2.1095564E0,-2.251445E0,-1.3248885E0,1.2016107E0,7.7834064E-1,9.8272914E-1,-2.1495664E0,-2.1590786E0,5.604319E-1,9.602305E-1,1.1871941E0,1.2170839E0,1.1078037E0,1.2026047E0,-2.923726E0,-2.7316966E0,9.93944E-1,-1.6948227E0,-2.5035748E0,1.1228573E0,1.3281564E-1],"categories":[],"categories_nodes":[],"categories_segments":[],"categories_sizes":[],"default_left":[false,false,true,true,true,false,true,true,true,false,false,false,false,false,true,false,false,false,false,false,false,false,false,false,false,false,false,false,false,false,false,false,false,false,true,false,false,false,true,false,false,false,false,false,false,false,false,false,false,false,false],"id":4,"left_children":[1,3,5,7,9,11,13,15,17,-1,19,21,-1,23,25,27,-1,29,31,33,-1,-1,-1,-1,-1,35,37,-1,-1,39,-1,-1,-1,41,43,45,-1,47,49,-1,-1,-1,-1,-1,-1,-1,-1,-1,-1,-1,-1],"loss_changes":[2.8034082E2,8.157715E1,3.857356E2,5.401279E2,2.9183105E1,6.684784E0,2.2664392E2,2.572927E2,2.7322266E2,0E0,2.3636719E1,8.066864E-1,0E0,1.7411804E-1,1.941377E2,2.4178162E0,0E0,9.338672E1,7.8996277E-1,1.146875E1,0E0,0E0,0E0,0E0,0E0,1.2962402E2,3.2947046E2,0E0,0E0,7.936621E1,0E0,0E0,0E0,4.135254E0,1.1874877E2,9.963452E1,0E0,3.2675476E0,2.1065738E2,0E0,0E0,0E0,0E0,0E0,0E0,0E0,0E0,0E0,0E0,0E0,0E0],"parents":[2147483647,0,0,1,1,2,2,3,3,4,4,5,5,6,6,7,7,8,8,10,10,11,11,13,13,14,14,15,15,17,17,18,18,19,19,25,25,26,26,29,29,33,33,34,34,35,35,37,37,38,38],"right_children":[2,4,6,8,10,12,14,16,18,-1,20,22,-1,24,26,28,-1,30,32,34,-1,-1,-1,-1,-1,36,38,-1,-1,40,-1,-1,-1,42,44,46,-1,48,50,-1,-1,-1,-1,-1,-1,-1,-1,-1,-1,-1,-1],"split_conditions":[-3.244645E-2,-3.0018276E-2,-6.976593E-2,-7.23336E-2,-9.711012E-3,-2.2956584E-2,-2.656891E-2,3.132746E-2,2.0590723E-2,-3.8769126E-1,-7.066473E-3,-7.209547E-2,-2.9109794E-1,1.0002404E-6,3.873982E-2,-2.2967607E-2,2.945358E-1,2.4047464E-2,1.493975E-2,1.3291077E-2,-3.2737532E-1,-4.017572E-1,-5.6933117E-1,-5.246457E-1,-3.680582E-1,-8.40562E-3,-1.4950097E-2,-5.3976977E-1,-3.057436E-1,-7.3156804E-3,-5.273891E-1,-5.6286126E-1,-3.3122212E-1,-5.6562047E-2,-1.1871864E-1,1.0163727E-2,-5.373916E-1,-5.0357934E-2,-3.1433202E-2,2.4005763E-1,2.9679853E-1,3.0427098E-1,2.7695093E-1,3.0065116E-1,-7.309315E-1,-6.8292415E-1,2.48486E-1,-4.2370567E-1,-6.258937E-1,2.8071433E-1,3.320391E-2],"split_indices":[23,26,33,33,29,25,23,34,12,0,40,33,0,23,24,25,0,4,55,55,0,0,0,0,0,11,3,0,0,20,0,0,0,33,27,4,0,33,26,0,0,0,0,0,0,0,0,0,0,0,0],"split_type":[0,0,0,0,0,0,0,0,0,0,0,0,0,0,0,0,0,0,0,0,0,0,0,0,0,0,0,0,0,0,0,0,0,0,0,0,0,0,0,0,0,0,0,0,0,0,0,0,0,0,0],"sum_hessian":[1.3687107E4,1.033541E4,3.3516975E3,6.4800146E3,3.8553953E3,5.974976E1,3.2919478E3,1.1481384E2,6.3652007E3,3.07285E0,3.8523223E3,4.040484E1,1.9344923E1,3.2449333E1,3.2594983E3,8.149533E1,3.331851E1,6.338051E3,2.714998E1,3.84932E3,3.0023336E0,1.8978333E1,2.1426506E1,1.4575537E1,1.7873798E1,2.3380112E3,9.2148706E2,7.394374E1,7.5515957E0,6.3296357E3,8.414686E0,2.0270323E1,6.879657E0,3.7769539E3,7.236607E1,2.3256282E3,1.238314E1,4.5960857E1,8.755262E2,3.5233284E3,2.8063076E3,3.2318865E3,5.450675E2,6.553122E1,6.834851E0,6.2703695E0,2.3193577E3,2.2099068E1,2.386179E1,3.7745276E2,4.9807343E2],"tree_param":{"num_deleted":"0","num_feature":"64","num_nodes":"51","size_leaf_vector":"0"}},{"base_weights":[9.0548444E-1,9.7042304E-1,5.4381746E-1,1.097021E0,8.6567223E-1,8.057954E-1,8.92514E-2,1.099056E0,-1.3654531E0,-6.125821E-1,9.395228E-1,8.3574504E-1,-2.2773685E0,-1.5244249E0,5.0804085E-1,1.1469765E0,1.0107185E0,-1.9730179E0,1.0690192E0,-3.3210833E0,9.493202E-1,9.639339E-1,3.887531E-1,-2.22156E0,1.0375296E0,6.583571E-1,-3.5040295E0,7.447021E-1,1.1509011E0,1.0271046E0,-3.2270782E0,-1.5916412E0,-2.3352697E0,-1.2192348E0,1.1493624E0,-3.9250886E0,-2.0182815E0,9.59061E-1,-2.625438E0,1.0001869E0,-2.825025E0,-2.0838275E0,9.248242E-1,-1.6191489E0,-2.6607552E0,7.4915355E-1,-2.8762057E0,-3.768504E0,-1.5960532E0,8.0442864E-1,1.1540235E0,1.0431708E0,1.9200927E-1,-2.9829307E0,-1.3321325E0,9.8024416E-1,-1.4722316E-1,-3.2917066E0,-1.3102658E0,1.0152143E0,-1.3441075E0,-2.247329E0,-1.4300123E0,1.1304643E0,-1.9555322E0,-3.3919444E0,-2.238303E0,1.0091199E0,-6.498518E-2],"categories":[],"categories_nodes":[],"categories_segments":[],"categories_sizes":[],"default_left":[true,true,false,false,true,true,false,true,false,true,false,true,false,true,false,false,false,true,false,false,false,true,false,false,false,false,false,false,false,true,false,false,false,false,false,false,false,false,false,false,false,true,false,false,false,false,false,false,false,false,false,false,false,false,false,false,false,false,false,false,false,false,false,false,false,false,false,false,false],"id":5,"left_children":[1,3,5,7,9,11,13,15,-1,17,19,21,-1,23,25,27,29,31,33,35,37,39,41,43,-1,45,47,-1,49,51,-1,-1,53,-1,-1,-1,-1,55,57,59,-1,61,63,-1,65,67,-1,-1,-1,-1,-1,-1,-1,-1,-1,-1,-1,-1,-1,-1,-1,-1,-1,-1,-1,-1,-1,-1,-1],"loss_changes":[2.70917E2,1.2897266E2,2.0971173E2,2.3713867E1,5.863684E2,1.0508533E2,4.367894E2,1.7589355E1,0E0,5.8757825E2,2.1650098E2,6.307843E1,0E0,2.4018933E2,3.1168704E2,3.6643066E0,1.12066284E2,1.5876221E1,2.2561752E1,1.480072E0,1.8010547E2,1.2094531E2,3.312804E2,2.34776E1,0E0,1.6111461E2,3.4134674E0,0E0,2.1379395E0,2.0740845E1,0E0,0E0,4.189044E1,0E0,0E0,0E0,0E0,1.19353516E2,8.065704E0,3.1397156E1,0E0,1.5519257E0,1.2357535E2,0E0,1.0689148E1,1.0244104E2,0E0,0E0,0E0,0E0,0E0,0E0,0E0,0E0,0E0,0E0,0E0,0E0,0E0,0E0,0E0,0E0,0E0,0E0,0E0,0E0,0E0,0E0,0E0],"parents":[2147483647,0,0,1,1,2,2,3,3,4,4,5,5,6,6,7,7,9,9,10,10,11,11,13,13,14,14,15,15,16,16,17,17,18,18,19,19,20,20,21,21,22,22,23,23,25,25,26,26,28,28,29,29,32,32,37,37,38,38,39,39,41,41,42,42,44,44,45,45],"right_children":[2,4,6,8,10,12,14,16,-1,18,20,22,-1,24,26,28,30,32,34,36,38,40,42,44,-1,46,48,-1,50,52,-1,-1,54,-1,-1,-1,-1,56,58,60,-1,62,64,-1,66,68,-1,-1,-1,-1,-1,-1,-1,-1,-1,-1,-1,-1,-1,-1,-1,-1,-1,-1,-1,-1,-1,-1,-1],"split_conditions":[-1.4127132E-2,-3.1083131E-2,-2.5443485E-2,4.8456228E-1,-6.912744E-2,-1.1553063E-2,-3.090306E-2,-6.354368E-2,-3.4136328E-1,-9.326603E-3,5.5335397E-3,-2.455231E-1,-5.6934214E-1,1.2203354E-2,9.298973E-2,-4.147166E-2,-1.083087E-2,-7.233107E-2,-2.6301509E-3,-3.3264324E-2,1.3801856E-2,-4.139181E-2,-3.0676913E-2,-6.38383E-2,2.593824E-1,-2.4804834E-3,1.335058E-2,1.8617553E-1,-1.5766088E-2,1.2654078E-1,-8.0676955E-1,-3.979103E-1,-2.2956584E-2,-3.048087E-1,2.873406E-1,-9.8127216E-1,-5.0457036E-1,2.558373E-2,3.1841893E-2,4.8107825E-2,-7.062563E-1,8.390782E-2,8.482741E-2,-4.047872E-1,-2.3014536E-2,-2.364857E-2,-7.190514E-1,-9.42126E-1,-3.990133E-1,2.0110716E-1,2.8850588E-1,2.607927E-1,4.8002318E-2,-7.4573267E-1,-3.330331E-1,2.4506104E-1,-3.680579E-2,-8.2292664E-1,-3.2756644E-1,2.5380358E-1,-3.3602688E-1,-5.6183225E-1,-3.575031E-1,2.8261608E-1,-4.8888305E-1,-8.479861E-1,-5.5957574E-1,2.5227997E-1,-1.6246295E-2],"split_indices":[45,26,14,23,33,26,26,33,0,51,4,28,0,50,8,36,40,33,20,23,4,36,26,33,0,44,4,0,59,50,0,0,25,0,0,0,0,38,4,38,0,5,23,0,25,33,0,0,0,0,0,0,0,0,0,0,0,0,0,0,0,0,0,0,0,0,0,0,0],"split_type":[0,0,0,0,0,0,0,0,0,0,0,0,0,0,0,0,0,0,0,0,0,0,0,0,0,0,0,0,0,0,0,0,0,0,0,0,0,0,0,0,0,0,0,0,0,0,0,0,0,0,0,0,0,0,0,0,0,0,0,0,0,0,0,0,0,0,0,0,0],"sum_hessian":[1.1556723E4,9.796112E3,1.7606102E3,4.4312266E3,5.3648853E3,1.1164177E3,6.441925E2,4.4281206E3,3.105954E0,2.5491917E2,5.1099663E3,1.1063992E3,1.0018556E1,1.3219183E2,5.120007E2,2.863031E3,1.5650895E3,1.4082043E2,1.1409874E2,1.09481735E1,5.099018E3,8.589205E2,2.4747865E2,1.04019806E2,2.817203E1,4.943165E2,1.768416E1,2.9504725E1,2.8335264E3,1.5598159E3,5.273678E0,7.122689E1,6.9593544E1,3.3894188E0,1.1070932E2,6.1049776E0,4.8431964E0,5.085891E3,1.3126803E1,8.515092E2,7.411273E0,4.3580452E1,2.0389821E2,4.583626E1,5.818354E1,4.8270474E2,1.1611758E1,1.4674869E1,3.0092921E0,2.7618414E1,2.805908E3,1.5301288E3,2.9687023E1,4.1090477E1,2.8503069E1,4.990448E3,9.544312E1,7.7153316E0,5.411472E0,8.46649E2,4.8602667E0,3.2912636E1,1.0667818E1,1.9087817E2,1.3020028E1,1.8732224E1,3.9451317E1,3.6569388E2,1.1701086E2],"tree_param":{"num_deleted":"0","num_feature":"64","num_nodes":"69","size_leaf_vector":"0"}},{"base_weights":[8.343452E-1,9.314645E-1,5.59425E-1,8.483226E-1,1.0797085E0,9.062331E-1,3.7516537E-1,-1.2860264E-1,9.1046935E-1,1.0923985E0,4.847838E-1,-2.639988E0,9.4135046E-1,-1.4482517E0,4.6353775E-1,1.0411E0,-1.3291312E0,9.197575E-1,-2.7578833E0,1.1176491E0,9.5331436E-1,1.0662125E0,-1.9720632E0,-1.1403517E0,-3.4050176E0,-1.6398431E0,9.667337E-1,-1.3023733E0,-1.8183854E0,4.9717528E-1,-3.8741424E0,7.5554293E-1,1.1006145E0,-1.8021477E0,1.0652407E0,9.297423E-1,-2.1081688E0,-3.1450996E0,-1.3823287E0,9.976104E-1,3.546743E-1,9.8328567E-1,-2.0661523E0,-1.0005903E0,-1.9497699E0,9.5188874E-1,2.6024204E-1,-1.512955E0,-2.3147972E0,-2.391981E0,9.382983E-1,-2.4770217E0,-1.0807058E0,4.0316886E-1,1.0389174E0,1.0946581E0,-3.2292745E0,-1.1514547E0,9.982822E-1,9.972758E-1,-1.9414802E0,-2.4498582E0,4.3105444E-1],"categories":[],"categories_nodes":[],"categories_segments":[],"categories_sizes":[],"default_left":[false,false,true,true,false,false,true,false,false,false,true,false,true,false,true,true,true,false,true,false,true,false,false,false,false,false,false,false,true,true,false,false,false,true,false,false,false,false,false,true,false,false,false,false,false,true,false,false,false,false,false,false,false,false,false,false,false,false,false,false,false,false,false],"id":6,"left_children":[1,3,5,7,9,11,13,15,17,19,21,23,25,27,29,31,33,35,37,-1,39,-1,-1,-1,-1,-1,41,-1,43,45,-1,-1,-1,47,-1,49,51,-1,-1,53,55,57,-1,-1,-1,59,61,-1,-1,-1,-1,-1,-1,-1,-1,-1,-1,-1,-1,-1,-1,-1,-1],"loss_changes":[2.582456E2,8.7333984E1,1.6149054E2,2.7891162E2,1.886621E1,1.1182056E2,2.674375E2,3.882919E2,1.4964282E2,7.7663574E0,8.131747E1,6.295368E0,5.8592224E1,1.7768402E0,2.3242252E2,1.5496674E0,1.5641425E2,1.3218384E2,1.5935822E0,0E0,1.007254E1,0E0,0E0,0E0,0E0,0E0,4.5316223E1,0E0,1.0972977E-1,1.6873294E2,0E0,0E0,0E0,1.3440155E1,0E0,1.2427954E2,2.8043213E0,0E0,0E0,8.557037E0,7.949289E1,2.8624817E1,0E0,0E0,0E0,7.244559E1,4.7903717E2,0E0,0E0,0E0,0E0,0E0,0E0,0E0,0E0,0E0,0E0,0E0,0E0,0E0,0E0,0E0,0E0],"parents":[2147483647,0,0,1,1,2,2,3,3,4,4,5,5,6,6,7,7,8,8,9,9,10,10,11,11,12,12,13,13,14,14,15,15,16,16,17,17,18,18,20,20,26,26,28,28,29,29,33,33,35,35,36,36,39,39,40,40,41,41,45,45,46,46],"right_children":[2,4,6,8,10,12,14,16,18,20,22,24,26,28,30,32,34,36,38,-1,40,-1,-1,-1,-1,-1,42,-1,44,46,-1,-1,-1,48,-1,50,52,-1,-1,54,56,58,-1,-1,-1,60,62,-1,-1,-1,-1,-1,-1,-1,-1,-1,-1,-1,-1,-1,-1,-1,-1],"split_conditions":[-3.244645E-2,-3.0018276E-2,-6.37341E-3,-6.912744E-2,1.325888E-2,-6.025578E-2,-6.427704E-2,-2.0374545E-1,2.4559231E-2,-5.6562047E-2,-2.6025113E-2,-5.637022E-2,-2.583905E-2,-3.0990321E-2,2.9863038E-3,-6.766043E-1,2.1723178E-1,1.681824E-2,3.8647197E-2,2.7941227E-1,-7.2884357E-1,2.6655313E-1,-4.930158E-1,-2.850879E-1,-8.512544E-1,-4.0996078E-1,2.246331E-2,-3.2559332E-1,-6.926933E-2,-4.7094035E-3,-9.685356E-1,1.8888573E-1,2.7515364E-1,-7.209043E-2,2.663102E-1,5.471871E-3,3.1841893E-2,-7.862749E-1,-3.455822E-1,-2.3093898E-2,-2.9942287E-2,-6.98175E-2,-5.165381E-1,-2.5014758E-1,-4.8744246E-1,7.835665E-2,1.6798735E-2,-3.7823874E-1,-5.786993E-1,-5.979952E-1,2.3457457E-1,-6.192554E-1,-2.7017644E-1,1.00792214E-1,2.5972936E-1,2.7366453E-1,-8.073186E-1,-2.8786367E-1,2.4957055E-1,2.4931896E-1,-4.8537004E-1,-6.1246455E-1,1.0776361E-1],"split_indices":[23,26,37,33,55,39,33,8,38,33,7,33,23,26,50,35,46,4,38,0,28,0,0,0,0,0,12,0,33,44,0,0,0,33,0,4,4,0,0,33,26,33,0,0,0,24,48,0,0,0,0,0,0,0,0,0,0,0,0,0,0,0,0],"split_type":[0,0,0,0,0,0,0,0,0,0,0,0,0,0,0,0,0,0,0,0,0,0,0,0,0,0,0,0,0,0,0,0,0,0,0,0,0,0,0,0,0,0,0,0,0,0,0,0,0,0,0,0,0,0,0,0,0,0,0,0,0,0,0],"sum_hessian":[9.690595E3,7.159143E3,2.5314514E3,4.591016E3,2.5681272E3,8.769547E2,1.6544967E3,2.745243E2,4.3164917E3,2.5136733E3,5.445388E1,7.8717794E0,8.690829E2,7.576772E1,1.578729E3,1.3911456E2,1.3540973E2,4.3063374E3,1.0154226E1,2.1214836E3,3.9218967E2,4.4490856E1,9.963024E0,3.5005279E0,4.3712516E0,7.843872E0,8.61239E2,5.7589138E1,1.8178585E1,1.5674591E3,1.1269837E1,2.635509E1,1.12759476E2,1.1327851E2,2.2131224E1,4.2928745E3,1.3463064E1,6.919872E0,3.2343547E0,3.645486E2,2.764106E1,8.5723645E2,4.002573E0,3.7088444E0,1.4469741E1,5.359213E2,1.0315378E3,7.494963E1,3.8328876E1,1.0313369E1,4.282561E3,8.868512E0,4.594552E0,2.438525E1,3.4016336E2,2.3486359E1,4.1547008E0,5.4514165E0,8.5178503E2,5.2828955E2,7.6317387E0,6.0369892E1,9.711679E2],"tree_param":{"num_deleted":"0","num_feature":"64","num_nodes":"63","size_leaf_vector":"0"}},{"base_weights":[7.680454E-1,9.5595586E-1,6.0772204E-1,9.6280164E-1,-1.7918758E0,7.397181E-1,-5.1787384E-2,9.6659184E-1,-2.6852696E0,-3.0776296E0,7.549137E-1,-1.0379497E0,6.0707104E-1,9.7059214E-1,-1.5944264E0,-1.2099761E0,-4E0,-4.2046955E-1,7.9767394E-1,3.718489E-1,-2.029298E0,7.380485E-1,-2.4371526E0,-2.9042426E-1,9.783725E-1,-1.5124896E0,9.8340714E-1,-7.045783E-1,8.145469E-1,-1.7969435E0,8.985635E-1,-1.3539069E0,-2.4138618E0,8.154058E-1,-2.1938207E0,-2.6072028E0,-1.2511874E0,1.0345674E0,-4E0,1.0537641E0,8.683603E-1,-1.2811227E0,-1.7036803E0,1.0547874E0,-2.423369E0,8.247196E-1,-1.6090523E0,-1.2191606E0,-2.6856508E0,1.046511E0,-1.4297875E0,-1.7131704E0,-1.1949885E0,-3.1708522E0,-2.1085074E0,8.533693E-1,-2.0401692E0,-2.4881353E0,-1.0538791E0],"categories":[],"categories_nodes":[],"categories_segments":[],"categories_sizes":[],"default_left":[true,true,true,true,false,true,true,false,false,false,true,true,false,false,false,false,false,true,false,false,false,true,false,true,true,true,false,false,false,true,true,false,false,false,false,false,false,false,false,false,false,false,false,false,false,false,false,false,false,false,false,false,false,false,false,false,false,false,false],"id":7,"left_children":[1,3,5,7,-1,9,11,13,-1,15,17,19,21,23,-1,-1,-1,25,27,29,31,33,35,37,39,41,-1,43,45,47,49,51,53,55,57,-1,-1,-1,-1,-1,-1,-1,-1,-1,-1,-1,-1,-1,-1,-1,-1,-1,-1,-1,-1,-1,-1,-1,-1],"loss_changes":[2.4440039E2,7.2116455E1,3.822638E2,5.4218018E1,0E0,2.1454712E2,4.7699442E2,3.9763184E1,0E0,2.8213516E1,1.8352539E2,4.1166605E2,1.7729662E2,3.683081E1,0E0,0E0,0E0,1.9863954E2,8.972778E1,1.4124475E2,4.1715942E1,9.767134E1,4.4638824E-1,1.3347371E2,2.9793213E1,1.0345306E0,0E0,1.22313736E2,8.7092285E1,9.161285E0,3.560405E1,1.661789E0,1.8467041E1,4.64722E1,1.1148682E0,0E0,0E0,0E0,0E0,0E0,0E0,0E0,0E0,0E0,0E0,0E0,0E0,0E0,0E0,0E0,0E0,0E0,0E0,0E0,0E0,0E0,0E0,0E0,0E0],"parents":[2147483647,0,0,1,1,2,2,3,3,5,5,6,6,7,7,9,9,10,10,11,11,12,12,13,13,17,17,18,18,19,19,20,20,21,21,22,22,23,23,24,24,25,25,27,27,28,28,29,29,30,30,31,31,32,32,33,33,34,34],"right_children":[2,4,6,8,-1,10,12,14,-1,16,18,20,22,24,-1,-1,-1,26,28,30,32,34,36,38,40,42,-1,44,46,48,50,52,54,56,58,-1,-1,-1,-1,-1,-1,-1,-1,-1,-1,-1,-1,-1,-1,-1,-1,-1,-1,-1,-1,-1,-1,-1,-1],"split_conditions":[-3.1048963E-2,-8.359677E-3,3.7546135E-2,6.281572E-2,-4.4796896E-1,-3.7454963E-3,1.6298754E-2,-7.5214505E-3,-6.713174E-1,-6.896417E-2,-6.912744E-2,-4.6952385E-3,1.5077668E-1,-4.5787185E-2,-3.986066E-1,-3.0249402E-1,-1E0,-9.205202E-3,1.0426169E-2,1.0737753E-2,-3.0990452E-2,5.1371254E-2,1.3406141E-2,-6.486589E-2,-6.1569624E-2,-7.2086744E-2,2.4585178E-1,-1.8124236E-2,1.645219E-2,-6.884459E-2,5.0375104E-2,-2.296921E-2,3.4464754E-2,-1.1234315E-2,2.9685805E-3,-6.518007E-1,-3.1279686E-1,2.5864184E-1,-1E0,2.6344103E-1,2.1709007E-1,-3.2028067E-1,-4.2592007E-1,2.6369685E-1,-6.0584223E-1,2.061799E-1,-4.0226308E-1,-3.0479014E-1,-6.714127E-1,2.6162776E-1,-3.5744688E-1,-4.282926E-1,-2.9874712E-1,-7.9271305E-1,-5.2712685E-1,2.1334232E-1,-5.100423E-1,-6.2203383E-1,-2.634698E-1],"split_indices":[26,15,24,5,0,30,33,40,0,33,33,44,8,26,0,0,0,51,4,30,26,28,4,56,33,33,0,3,4,33,24,25,23,26,25,0,0,0,0,0,0,0,0,0,0,0,0,0,0,0,0,0,0,0,0,0,0,0,0],"split_type":[0,0,0,0,0,0,0,0,0,0,0,0,0,0,0,0,0,0,0,0,0,0,0,0,0,0,0,0,0,0,0,0,0,0,0,0,0,0,0,0,0,0,0,0,0,0,0,0,0,0,0,0,0,0,0,0,0,0,0],"sum_hessian":[8.130791E3,3.7410508E3,4.38974E3,3.7324019E3,8.649034E0,3.6575806E3,7.321599E2,3.7292622E3,3.139535E0,1.3702873E1,3.6438777E3,2.930119E2,4.3914804E2,3.7240662E3,5.195945E0,6.286812E0,7.4160614E0,1.2760028E2,3.5162773E3,1.2123221E2,1.7177968E2,4.2175943E2,1.7388603E1,2.2613647E1,3.7014526E3,7.172831E1,5.5871975E1,3.8602627E1,3.4776748E3,2.32181E1,9.8014114E1,6.3963768E1,1.0781591E2,4.116207E2,1.01387205E1,1.41599E1,3.2287025E0,1.7717106E1,4.896543E0,2.1912249E3,1.5102279E3,3.593853E1,3.5789776E1,1.9267057E1,1.933557E1,3.4637957E3,1.3879056E1,1.5507749E1,7.71035E0,9.267586E1,5.3382525E0,1.6617266E1,4.7346504E1,2.8292671E1,7.952324E1,4.0691217E2,4.7085443E0,7.1182237E0,3.0204968E0],"tree_param":{"num_deleted":"0","num_feature":"64","num_nodes":"59","size_leaf_vector":"0"}},{"base_weights":[7.0601076E-1,8.043736E-1,3.7192413E-1,6.996105E-1,1.0051609E0,5.114017E-1,-3.1926262E-1,5.111999E-1,9.786389E-1,1.022902E0,2.1927603E-1,-2.1587367E0,5.5262E-1,6.3852644E-1,-1.9149023E0,-9.726382E-1,6.1749697E-1,9.8807603E-1,-1.7138246E0,1.0641174E0,8.147801E-1,9.756378E-1,-1.910804E0,-1.3327916E0,-3.0181863E0,-3.5635978E-1,6.1593825E-1,8.5647035E-1,-1.5482372E0,-1.5021229E0,-2.3998072E0,7.1339786E-1,-1.6026771E0,6.2983495E-1,-4E0,-1.218398E0,9.9451655E-1,7.031216E-1,1.0669987E0,8.8164306E-1,-2.4074256E0,-1.4162633E0,-3.839465E0,9.971634E-1,-2.284134E0,-2.7295809E0,6.3516825E-1,-1.6038744E0,9.8075324E-1,-1.0959607E0,-1.6532612E0,-1.2195661E0,-2.5129335E0,1.0464644E0,-1.8717424E0,-3.061109E0,-1.4140675E0,7.2942305E-1,1.2378857E-1,1.0051327E0,2.2771457E-1,7.6812696E-1,1.069322E0,1.4382058E-1,9.263311E-1,-3.4175398E0,-1.6391796E0,6.568279E-1,-1.9251542E0,4.7559685E-1,1.0594542E0,-2.7455819E0,-1.8667979E0],"categories":[],"categories_nodes":[],"categories_segments":[],"categories_sizes":[],"default_left":[false,false,true,false,false,true,false,true,true,false,true,true,false,false,false,false,true,true,false,true,true,false,false,false,false,false,true,false,false,false,false,false,false,true,false,false,true,false,false,false,false,false,false,false,false,false,true,false,false,false,false,false,false,false,false,false,false,false,false,false,false,false,false,false,false,false,false,false,false,false,false,false,false],"id":8,"left_children":[1,3,5,7,9,11,13,15,17,19,21,23,25,27,29,31,33,35,-1,37,39,-1,-1,-1,41,43,45,47,-1,49,51,53,55,57,-1,-1,59,-1,61,63,-1,-1,-1,-1,65,-1,67,-1,69,-1,-1,-1,71,-1,-1,-1,-1,-1,-1,-1,-1,-1,-1,-1,-1,-1,-1,-1,-1,-1,-1,-1,-1],"loss_changes":[2.2400073E2,1.1019849E2,1.500129E2,1.818103E2,2.4947021E1,1.4358249E2,4.0104095E2,3.2743555E2,3.718213E1,1.4275024E1,6.812738E1,1.0083481E1,7.359592E1,7.959745E1,1.6086975E1,1.4869972E2,1.23097046E2,2.0999268E1,0E0,7.7905273E-1,6.590817E1,0E0,0E0,0E0,6.3339005E0,2.2056366E2,7.843515E1,4.743698E1,0E0,1.6144409E0,2.7518768E0,3.5089737E1,2.3571686E1,9.719629E1,0E0,0E0,1.1077637E1,0E0,1.9006348E-1,9.454224E0,0E0,0E0,0E0,0E0,1.9845581E1,0E0,6.704797E1,0E0,5.1971436E0,0E0,0E0,0E0,7.0877075E-1,0E0,0E0,0E0,0E0,0E0,0E0,0E0,0E0,0E0,0E0,0E0,0E0,0E0,0E0,0E0,0E0,0E0,0E0,0E0,0E0],"parents":[2147483647,0,0,1,1,2,2,3,3,4,4,5,5,6,6,7,7,8,8,9,9,10,10,11,11,12,12,13,13,14,14,15,15,16,16,17,17,19,19,20,20,24,24,25,25,26,26,27,27,29,29,30,30,31,31,32,32,33,33,36,36,38,38,39,39,44,44,46,46,48,48,52,52],"right_children":[2,4,6,8,10,12,14,16,18,20,22,24,26,28,30,32,34,36,-1,38,40,-1,-1,-1,42,44,46,48,-1,50,52,54,56,58,-1,-1,60,-1,62,64,-1,-1,-1,-1,66,-1,68,-1,70,-1,-1,-1,72,-1,-1,-1,-1,-1,-1,-1,-1,-1,-1,-1,-1,-1,-1,-1,-1,-1,-1,-1,-1],"split_conditions":[-1.0426072E-2,-3.0018276E-2,5.84559E-2,-2.4182284E-3,1.325888E-2,-4.475548E-3,-1.11422725E-2,-6.656497E-2,1.9846197E-2,-4.8987836E-2,-1.1871864E-1,-1.0127688E-2,-4.0508084E-2,6.5044146E-3,-7.410967E-3,-1.6345987E-2,1.9719136E-1,-7.3007695E-2,-4.2845616E-1,-4.6629258E-2,-7.312958E-1,2.4390945E-1,-4.77701E-1,-3.331979E-1,-4.6411514E-2,-4.838963E-3,-6.0401462E-2,2.9143307E-2,-3.870593E-1,-3.0990306E-2,-3.0966919E-2,-9.366496E-2,-1.2628596E-1,2.7072083E-2,-1E0,-3.045995E-1,-4.11014E-3,1.757804E-1,-1.6999222E-2,1.2476581E-2,-6.018564E-1,-3.5406584E-1,-9.598662E-1,2.4929085E-1,-2.29783E-2,-6.823952E-1,5.749545E-1,-4.009686E-1,1.3582262E-2,-2.7399018E-1,-4.133153E-1,-3.0489153E-1,1.948005E-1,2.616161E-1,-4.679356E-1,-7.6527727E-1,-3.5351688E-1,1.8235576E-1,3.0947143E-2,2.5128317E-1,5.6928642E-2,1.9203174E-1,2.673305E-1,3.5955146E-2,2.3158278E-1,-8.5438496E-1,-4.097949E-1,1.6420698E-1,-4.8128855E-1,1.1889921E-1,2.6486355E-1,-6.8639547E-1,-4.6669948E-1],"split_indices":[23,26,24,20,55,23,40,33,12,33,27,23,36,11,33,45,63,33,0,5,28,0,0,0,33,44,39,33,0,26,26,14,8,37,0,0,44,0,57,4,0,0,0,0,25,0,0,0,4,0,0,0,23,0,0,0,0,0,0,0,0,0,0,0,0,0,0,0,0,0,0,0,0],"split_type":[0,0,0,0,0,0,0,0,0,0,0,0,0,0,0,0,0,0,0,0,0,0,0,0,0,0,0,0,0,0,0,0,0,0,0,0,0,0,0,0,0,0,0,0,0,0,0,0,0,0,0,0,0,0,0,0,0,0,0,0,0,0,0,0,0,0,0,0,0,0,0,0,0],"sum_hessian":[6.824586E3,5.271211E3,1.553375E3,3.4668337E3,1.804377E3,1.2927628E3,2.6061215E2,2.0711482E3,1.3956857E3,1.7642482E3,4.0128838E1,1.8871698E1,1.2738912E3,1.6323158E2,9.738057E1,1.3790689E2,1.9332412E3,1.3914417E3,4.2439985E0,1.4691848E3,2.950633E2,3.001345E1,1.0115388E1,1.0924156E1,7.947542E0,8.265733E1,1.1912339E3,1.4899075E2,1.4240833E1,5.4815865E1,4.256471E1,3.747864E1,1.0042825E2,1.929435E3,3.8061895E0,3.502018E0,1.3879397E3,1.3573716E1,1.4556111E3,2.897766E2,5.2866726E0,3.6169865E0,4.3305554E0,4.8845097E1,3.3812237E1,6.0025373E0,1.1852313E3,6.591824E0,1.4239893E2,1.7103662E1,3.77122E1,4.75339E0,3.781132E1,3.372832E1,3.750319E0,9.756417E0,9.067183E1,1.6117976E3,3.1763748E2,1.36868E3,1.9259611E1,1.3785502E1,1.4418256E3,1.6789627E1,2.7298697E2,1.0703548E1,2.3108688E1,1.1760259E3,9.205435E0,2.0144024E1,1.22254906E2,2.5412153E1,1.2399166E1],"tree_param":{"num_deleted":"0","num_feature":"64","num_nodes":"73","size_leaf_vector":"0"}},{"base_weights":[6.4493096E-1,8.408046E-1,4.6095908E-1,9.606458E-1,6.9719476E-1,-2.6060631E0,5.1061285E-1,6.948238E-1,1.0398062E0,9.547353E-1,5.540073E-1,-3.6014178E0,-1.3154613E0,6.014154E-1,-3.5229838E-1,-1.3187293E0,8.788689E-1,1.0496681E0,2.6942176E-1,9.8522836E-1,1.936451E-1,5.837557E-1,-4E0,-4E0,-1.7351348E0,9.077666E-1,4.303031E-1,1.4594857E-1,-1.7029192E0,-1.7628063E0,-1.153539E0,2.8368232E-1,9.110725E-1,7.234588E-1,1.0523261E0,9.66273E-1,-1.33269E0,1.0014673E0,5.6452996E-1,-2.062788E0,9.6637994E-1,-3.6436305E0,6.0692555E-1,-1.6700294E0,-4E0,-2.5650947E0,9.298115E-1,6.3997465E-1,-8.705682E-2,-1.3515828E0,6.7540175E-1,-2.1967154E0,-1.4669528E0,9.406746E-1,2.6110247E-1,1.0119553E0,6.434752E-1,-2.9540143E0,6.29613E-1,9.506111E-1,4.4476303E-1,-2.02003E0,6.744032E-1,2.2487894E-1,-1.9327455E0,7.7610415E-1,-2.7856925E0,-1.3732625E0,-2.7817998E0,-1.0763814E0,-1.5494937E0],"categories":[],"categories_nodes":[],"categories_segments":[],"categories_sizes":[],"default_left":[true,true,true,false,true,false,true,true,false,false,true,true,false,true,true,false,false,true,false,false,true,false,false,false,false,false,false,false,true,false,false,false,true,false,false,false,false,true,false,false,false,false,false,false,false,false,true,false,true,false,false,false,false,false,false,false,false,false,false,false,false,false,false,false,false,false,false,false,false,false,false],"id":9,"left_children":[1,3,5,7,9,11,13,15,17,19,21,23,-1,25,27,29,31,33,35,37,39,41,-1,43,-1,45,47,49,51,-1,-1,-1,53,-1,-1,-1,-1,55,-1,-1,-1,-1,57,-1,-1,-1,59,61,63,-1,65,67,69,-1,-1,-1,-1,-1,-1,-1,-1,-1,-1,-1,-1,-1,-1,-1,-1,-1,-1],"loss_changes":[2.074563E2,4.7386963E1,4.5461414E2,3.1251099E1,4.6445984E1,5.6388855E1,2.2978143E2,1.3148459E2,8.596924E0,1.0340668E1,1.4269531E2,2.878775E1,0E0,1.3859155E2,1.8839183E2,1.5640259E-1,5.9291077E0,2.3913574E-1,1.9282703E1,2.4137268E0,3.4643105E1,8.233154E1,0E0,5.799286E0,0E0,7.5059814E1,1.8479337E2,1.6357849E2,5.565735E0,0E0,0E0,0E0,5.6381836E0,0E0,0E0,0E0,0E0,9.2037964E-1,0E0,0E0,0E0,0E0,6.7653015E1,0E0,0E0,0E0,9.101257E0,1.1235809E2,2.837112E2,0E0,5.5223213E1,6.9611816E0,7.448578E-2,0E0,0E0,0E0,0E0,0E0,0E0,0E0,0E0,0E0,0E0,0E0,0E0,0E0,0E0,0E0,0E0,0E0,0E0],"parents":[2147483647,0,0,1,1,2,2,3,3,4,4,5,5,6,6,7,7,8,8,9,9,10,10,11,11,13,13,14,14,15,15,16,16,17,17,18,18,19,19,20,20,21,21,23,23,25,25,26,26,27,27,28,28,32,32,37,37,42,42,46,46,47,47,48,48,50,50,51,51,52,52],"right_children":[2,4,6,8,10,12,14,16,18,20,22,24,-1,26,28,30,32,34,36,38,40,42,-1,44,-1,46,48,50,52,-1,-1,-1,54,-1,-1,-1,-1,56,-1,-1,-1,-1,58,-1,-1,-1,60,62,64,-1,66,68,70,-1,-1,-1,-1,-1,-1,-1,-1,-1,-1,-1,-1,-1,-1,-1,-1,-1,-1],"split_conditions":[-3.1024601E-2,-6.039584E-2,6.1118184E-3,-3.1024735E-2,-1.3884539E-2,-2.4081744E-2,2.0787437E-2,-7.2369725E-2,1.3180824E-2,-1.1342766E-2,1.2718894E-1,-1.310998E-2,-3.2886532E-1,-1.3101986E-2,5.1881894E-2,-3.1084467E-2,-1.3459519E-2,-4.6629258E-2,-5.6156397E-2,5.833731E-3,4.0616646E-1,1.1351844E-2,-1E0,-6.5858275E-2,-4.337837E-1,-1.335741E-2,-1.4839981E-2,-5.697561E-2,3.9507046E-2,-4.4070157E-1,-2.8838474E-1,7.092058E-2,-1.1508537E-2,1.808647E-1,2.6308152E-1,2.4156825E-1,-3.331725E-1,-8.930897E-3,1.4113249E-1,-5.15697E-1,2.4159499E-1,-9.109076E-1,-4.3315075E-2,-4.1750735E-1,-1E0,-6.412737E-1,3.2168865E-1,1.0595636E-2,-4.110884E-2,-3.378957E-1,-1.6523084E-2,-6.746051E-2,-3.0990306E-2,2.3516865E-1,6.527562E-2,2.5298882E-1,1.608688E-1,-7.385036E-1,1.5740325E-1,2.3765278E-1,1.1119076E-1,-5.050075E-1,1.686008E-1,5.6219734E-2,-4.8318636E-1,1.9402604E-1,-6.964231E-1,-3.4331563E-1,-6.9544995E-1,-2.6909536E-1,-3.8737342E-1],"split_indices":[26,33,41,26,20,15,5,33,55,49,50,47,0,20,0,26,20,5,42,41,23,4,0,33,0,20,45,33,24,0,0,0,20,0,0,0,0,58,0,0,0,0,26,0,0,0,34,4,36,0,57,33,26,0,0,0,0,0,0,0,0,0,0,0,0,0,0,0,0,0,0],"split_type":[0,0,0,0,0,0,0,0,0,0,0,0,0,0,0,0,0,0,0,0,0,0,0,0,0,0,0,0,0,0,0,0,0,0,0,0,0,0,0,0,0,0,0,0,0,0,0,0,0,0,0,0,0,0,0,0,0,0,0,0,0,0,0,0,0,0,0,0,0,0,0],"sum_hessian":[5.7667803E3,2.7913152E3,2.9754653E3,1.5184725E3,1.2728425E3,4.6583805E1,2.9288813E3,3.5067572E2,1.1677969E3,4.5278485E2,8.2005774E2,2.5289341E1,2.1294466E1,2.6502986E3,2.785829E2,2.885216E1,3.2182355E2,1.1526786E3,1.5118255E1,4.350597E2,1.772517E1,8.1698804E2,3.069658E0,1.674394E1,8.545401E0,9.482652E2,1.7020333E3,2.0415984E2,7.442306E1,5.20048E0,2.365168E1,1.7022507E1,3.0480106E2,1.1524089E1,1.1411545E3,1.0812254E1,4.306E0,4.1756125E2,1.749843E1,4.095779E0,1.3629391E1,3.6016502E0,8.133864E2,3.0155165E0,1.3728423E1,5.253759E0,9.430114E2,1.2110084E3,4.9102496E2,5.2921444E1,1.5123839E2,2.137764E1,5.304542E1,2.9109616E2,1.3704893E1,4.039017E2,1.3659541E1,4.3314557E0,8.0905493E2,9.03316E2,3.969543E1,1.4736909E1,1.1962715E3,4.2078687E2,7.02381E1,1.4771628E2,3.522122E0,1.0270281E1,1.1107359E1,1.1704065E1,4.1341354E1],"tree_param":{"num_deleted":"0","num_feature":"64","num_nodes":"71","size_leaf_vector":"0"}},{"base_weights":[5.852861E-1,7.7881134E-1,3.8498244E-1,6.909163E-1,9.9983096E-1,2.2622354E-1,7.9476637E-1,7.330622E-1,-2.2893076E-1,3.7737063E-1,1.0084555E0,6.498294E-1,-1.4974563E-1,8.298294E-1,-1.512009E0,6.142353E-1,9.6318555E-1,8.092822E-1,-2.249381E0,1.0158292E0,5.80799E-1,3.6435607E-1,8.5409427E-1,4.7490697E-2,-1.1404625E0,-1.6209055E0,8.5557854E-1,6.452484E-1,-4E0,-2.3848963E0,9.865631E-1,1.7693041E-1,1.0022315E0,-1.3249811E0,-3.2480993E0,6.098627E-1,1.0211657E0,6.4636374E-1,-1.5842069E0,8.744531E-1,-1.519534E0,1.1147638E-1,-3.4214976E0,6.7238785E-2,-2.2046545E0,8.973973E-1,-3.0529246E-1,-3.3981245E0,6.6717714E-1,1.0098094E0,5.2889664E-2,-3.8344808E0,-1.4791998E0,1.028914E0,7.6985335E-1,-2.3156464E0,7.290879E-1,7.4821615E-1,-2.6862428E0,9.0339273E-1,-5.1248286E-2,-1.2863098E-1,7.2516626E-1,-3.810253E0,-1.5227878E0,7.39087E-1,-1.6173182E0,-2.9981241E0,-1.7088808E0,1.0028678E0,6.4796495E-1,1.0065138E0,-2.4399555E0],"categories":[],"categories_nodes":[],"categories_segments":[],"categories_sizes":[],"default_left":[true,false,false,true,true,true,false,true,true,false,false,false,false,true,false,false,true,true,true,true,false,false,true,true,false,false,true,false,false,false,false,false,false,false,false,false,true,false,false,true,false,true,true,false,true,false,true,false,false,false,false,false,false,false,false,false,false,false,false,false,false,false,false,false,false,false,false,false,false,false,false,false,false],"id":10,"left_children":[1,3,5,7,9,11,13,15,17,-1,19,21,23,25,-1,27,29,31,33,35,-1,37,39,41,43,-1,45,47,-1,-1,49,-1,-1,-1,51,-1,53,55,57,59,-1,61,63,65,67,69,71,-1,-1,-1,-1,-1,-1,-1,-1,-1,-1,-1,-1,-1,-1,-1,-1,-1,-1,-1,-1,-1,-1,-1,-1,-1,-1],"loss_changes":[1.8986816E2,4.7761963E1,1.5678064E2,6.9474E1,3.4171753E0,2.7727118E2,5.5713806E1,4.615851E1,1.6771204E2,0E0,1.6085205E0,4.741861E1,1.8038083E2,4.3280212E1,0E0,1.713205E2,4.7782227E1,6.2863464E0,2.0723267E1,8.590088E-1,0E0,1.8958347E2,2.4349518E1,1.714226E2,1.9711989E2,0E0,3.219928E1,1.0191568E2,0E0,0E0,1.2472351E1,0E0,0E0,0E0,7.129181E0,0E0,5.1971436E-1,7.531208E1,1.1426658E2,1.2716766E1,0E0,1.11724945E2,4.5223846E0,8.3541695E1,2.693689E1,1.605597E1,6.857722E1,0E0,0E0,0E0,0E0,0E0,0E0,0E0,0E0,0E0,0E0,0E0,0E0,0E0,0E0,0E0,0E0,0E0,0E0,0E0,0E0,0E0,0E0,0E0,0E0,0E0,0E0],"parents":[2147483647,0,0,1,1,2,2,3,3,4,4,5,5,6,6,7,7,8,8,10,10,11,11,12,12,13,13,15,15,16,16,17,17,18,18,19,19,21,21,22,22,23,23,24,24,26,26,27,27,30,30,34,34,36,36,37,37,38,38,39,39,41,41,42,42,43,43,44,44,45,45,46,46],"right_children":[2,4,6,8,10,12,14,16,18,-1,20,22,24,26,-1,28,30,32,34,36,-1,38,40,42,44,-1,46,48,-1,-1,50,-1,-1,-1,52,-1,54,56,58,60,-1,62,64,66,68,70,72,-1,-1,-1,-1,-1,-1,-1,-1,-1,-1,-1,-1,-1,-1,-1,-1,-1,-1,-1,-1,-1,-1,-1,-1,-1,-1],"split_conditions":[-1.5438525E-2,-2.9986696E-2,-1.6839828E-2,2.9614132E-2,-4.2190943E-2,-1.567127E-2,6.4618356E-4,1.2423388E-2,-2.4689472E-1,9.434266E-2,1.441717E-2,-1.1648692E-2,1.8993996E-2,-1.8008817E-2,-3.7800226E-1,-1.4547396E-2,-4.020989E-2,-1.558799E-2,-5.8741063E-2,-3.8011208E-1,1.4519975E-1,-1.2341006E-2,-4.3735094E-3,-1.0929765E-2,-1.7369369E-2,-4.0522638E-1,1.2743946E-2,-1.347449E-2,-1E0,-5.9622407E-1,1.5325023E-2,4.4232603E-2,2.5055787E-1,-3.3124527E-1,1.2754994E-2,1.5246567E-1,-2.8726395E-2,-7.973469E-2,1.199447E-2,-9.662857E-3,-3.798835E-1,1.1713015E-2,3.561312E-2,3.027947E-2,3.866476E-2,-3.26566E-2,-1.4333595E-2,-8.495311E-1,1.6679429E-1,2.5245234E-1,1.3222416E-2,-9.586202E-1,-3.6979994E-1,2.572285E-1,1.9246334E-1,-5.789116E-1,1.8227197E-1,1.8705404E-1,-6.715607E-1,2.2584818E-1,-1.28120715E-2,-3.2157745E-2,1.8129157E-1,-9.525632E-1,-3.8069695E-1,1.8477175E-1,-4.0432954E-1,-7.4953103E-1,-4.272202E-1,2.5071695E-1,1.6199124E-1,2.5162846E-1,-6.0998887E-1],"split_indices":[45,26,26,24,43,59,11,4,34,0,55,20,22,57,0,49,2,45,33,23,0,20,44,40,57,0,26,20,0,0,4,0,0,0,55,0,26,63,4,20,0,60,24,38,24,33,5,0,0,0,0,0,0,0,0,0,0,0,0,0,0,0,0,0,0,0,0,0,0,0,0,0,0],"split_type":[0,0,0,0,0,0,0,0,0,0,0,0,0,0,0,0,0,0,0,0,0,0,0,0,0,0,0,0,0,0,0,0,0,0,0,0,0,0,0,0,0,0,0,0,0,0,0,0,0,0,0,0,0,0,0,0,0,0,0,0,0,0,0,0,0,0,0,0,0,0,0,0,0],"sum_hessian":[4.904815E3,2.493148E3,2.4116667E3,1.786728E3,7.0642004E2,1.7393558E3,6.7231085E2,1.7086438E3,7.8084236E1,1.0265804E1,6.9615424E2,8.1752216E2,9.218336E2,6.628754E2,9.435455E0,1.1292246E3,5.794191E2,5.1975807E1,2.610843E1,6.830025E2,1.3151754E1,3.4214133E2,4.7538083E2,7.6957526E2,1.5225839E2,6.2481008E0,6.566273E2,1.1228645E3,6.3601303E0,3.317217E0,5.761019E2,1.2599737E1,3.937607E1,1.4766991E1,1.1341441E1,1.0357433E1,6.726451E2,2.9946872E2,4.2672615E1,4.7196432E2,3.416494E0,7.565878E2,1.2987439E1,7.175915E1,8.049925E1,6.340148E2,2.2612547E1,5.2263756E0,1.1176382E3,5.620272E2,1.4074677E1,7.6408243E0,3.7006168E0,6.495255E2,2.3119564E1,7.403066E0,2.9206564E2,1.3795643E1,2.887697E1,4.5768027E2,1.4284074E1,5.443861E2,2.1220172E2,9.94456E0,3.042879E0,5.1700718E1,2.0058428E1,2.9014738E1,5.1484512E1,4.434745E2,1.905403E2,1.4333021E1,8.279526E0],"tree_param":{"num_deleted":"0","num_feature":"64","num_nodes":"73","size_leaf_vector":"0"}},{"base_weights":[5.259285E-1,8.510813E-1,4.0762618E-1,8.749999E-1,-6.1385393E-1,2.3317221E-1,8.4212005E-1,-1.4558697E0,8.831384E-1,-1.9046838E0,9.27528E-1,4.861188E-1,-1.2121083E-1,8.7710744E-1,-1.7659829E0,3.422759E-2,8.9222485E-1,-4E0,5.1106995E-1,6.942322E-2,-1.9264603E0,8.9728016E-1,-1.7004828E0,9.293815E-1,-1.8429914E0,9.441167E-1,7.859556E-1,-1.4704937E0,-4E0,7.959074E-1,2.5301245E-1,-1.3452922E0,2.6907504E-1,-3.8858302E0,-7.2860533E-1,9.12825E-1,-1.5873855E0,3.931699E-1,9.4993216E-1,-5.6677558E-2,8.4629077E-1,8.229739E-1,-1.8267438E0,3.4660187E-1,-4E0,-1.7468908E0,7.604486E-1,-9.436562E-2,6.7923445E-1,-1.0895604E0,-4E0,7.7633727E-1,-1.92616E0,1.0179958E0,6.247708E-1],"categories":[],"categories_nodes":[],"categories_segments":[],"categories_sizes":[],"default_left":[true,true,false,true,false,false,true,false,false,false,false,true,false,false,false,false,false,false,false,true,true,false,false,false,false,true,false,false,false,false,false,true,false,false,false,true,false,false,false,false,false,false,false,false,false,false,false,false,false,false,false,false,false,false,false],"id":11,"left_children":[1,3,5,7,9,11,13,-1,15,-1,-1,17,19,21,-1,23,25,27,29,31,33,35,-1,-1,-1,37,39,-1,-1,41,43,45,47,49,51,53,-1,-1,-1,-1,-1,-1,-1,-1,-1,-1,-1,-1,-1,-1,-1,-1,-1,-1,-1],"loss_changes":[1.6203528E2,3.9964844E1,2.345664E2,2.2296265E1,3.890341E1,1.982763E2,8.247986E1,0E0,8.487854E0,0E0,0E0,1.4713492E2,3.173528E2,4.706665E1,0E0,2.3113083E1,5.283264E0,9.840729E0,9.4198364E1,2.3612105E2,2.0388715E2,3.503961E1,0E0,0E0,0E0,1.9627075E0,1.8576767E1,0E0,0E0,4.4804565E1,3.1597034E2,8.876535E1,1.0922661E2,3.1198547E1,1.0222448E2,2.5566406E1,0E0,0E0,0E0,0E0,0E0,0E0,0E0,0E0,0E0,0E0,0E0,0E0,0E0,0E0,0E0,0E0,0E0,0E0,0E0],"parents":[2147483647,0,0,1,1,2,2,3,3,4,4,5,5,6,6,8,8,11,11,12,12,13,13,15,15,16,16,17,17,18,18,19,19,20,20,21,21,25,25,26,26,29,29,30,30,31,31,32,32,33,33,34,34,35,35],"right_children":[2,4,6,8,10,12,14,-1,16,-1,-1,18,20,22,-1,24,26,28,30,32,34,36,-1,-1,-1,38,40,-1,-1,42,44,46,48,50,52,54,-1,-1,-1,-1,-1,-1,-1,-1,-1,-1,-1,-1,-1,-1,-1,-1,-1,-1,-1],"split_conditions":[-1.3964308E-2,2.4534697E-2,-2.03447E-2,-6.769452E-1,1.23126656E-1,-2.3894344E-2,1.2913406E-2,-3.6396742E-1,-1.4130184E-2,-4.7617096E-1,2.31882E-1,-3.0847888E-2,-1.6586794E-2,1.4257603E-2,-4.4149572E-1,-3.0783536E-2,-2.4970677E-2,-6.926595E-2,-1.6548177E-2,-4.9792856E-2,2.793686E-2,2.8519177E-1,-4.251207E-1,2.3234537E-1,-4.6074784E-1,-2.3525517E0,-3.0984856E-2,-3.6762342E-1,-1E0,1.2981655E-2,1.1870764E-2,3.3867353E-1,-1.6313434E-2,-6.454761E-2,-1.2964717E-1,-6.1683938E-2,-3.9684638E-1,9.829248E-2,2.3748304E-1,-1.4169389E-2,2.1157269E-1,2.0574348E-1,-4.5668596E-1,8.665047E-2,-1E0,-4.367227E-1,1.9011214E-1,-2.3591405E-2,1.6980861E-1,-2.723901E-1,-1E0,1.9408432E-1,-4.8154E-1,2.5449896E-1,1.561927E-1],"split_indices":[20,38,26,35,14,25,26,0,20,0,0,58,57,4,0,29,15,33,57,33,24,23,0,0,0,28,26,0,0,4,30,23,14,33,23,33,0,0,0,0,0,0,0,0,0,0,0,0,0,0,0,0,0,0,0],"split_type":[0,0,0,0,0,0,0,0,0,0,0,0,0,0,0,0,0,0,0,0,0,0,0,0,0,0,0,0,0,0,0,0,0,0,0,0,0,0,0,0,0,0,0,0,0,0,0,0,0,0,0,0,0,0,0],"sum_hessian":[4.220411E3,1.1242437E3,3.0961675E3,1.1065787E3,1.7664864E1,2.2102605E3,8.85907E2,3.2313612E0,1.1033474E3,9.485519E0,8.179344E0,1.2894927E3,9.2076794E2,8.748349E2,1.1072112E1,1.1735207E1,1.0916122E3,6.2196465E0,1.2832731E3,8.336918E2,8.707617E1,8.6868823E2,6.146633E0,8.287987E0,3.4472198E0,7.28162E2,3.634502E2,3.0386212E0,3.181025E0,6.0899524E2,6.7427783E2,1.0239456E2,7.312972E2,3.2185432E1,5.4890736E1,8.6391595E2,4.7723074E0,8.322347E0,7.1983966E2,2.428931E1,3.391609E2,6.034536E2,5.541613E0,6.6308234E2,1.1195472E1,8.613722E1,1.625734E1,3.8813882E2,3.4315836E2,4.6230693E0,2.7562363E1,2.4479536E1,3.0411201E1,6.3099927E2,2.3291669E2],"tree_param":{"num_deleted":"0","num_feature":"64","num_nodes":"55","size_leaf_vector":"0"}},{"base_weights":[4.6841055E-1,7.131437E-1,3.010424E-1,5.8278966E-1,9.396534E-1,1.5341137E-1,7.3625404E-1,6.0271925E-1,-2.7559052E0,9.670031E-1,-1.5912025E-1,5.33059E-1,-1.3891856E-1,9.9680144E-1,4.203811E-1,8.1593126E-1,3.163051E-1,9.868911E-1,-2.2331885E-1,-1.607677E0,8.9425135E-1,2.3163247E-1,7.6130086E-1,-4E0,-1.0620203E-1,1.0161757E0,4.691296E-1,5.85556E-1,-2.587924E0,3.7026757E-1,8.788861E-1,-2.7315414E0,4.2277756E-1,2.0759644E-1,9.9649936E-1,3.4050506E-1,-2.2628696E0,7.823066E-1,-1.4143933E0,4.3998152E-2,-1.0123436E0,1.0215306E0,6.0923743E-1,-2.3962865E0,6.464549E-1,-1.615042E0,-3.1982265E0,-3.812242E0,6.23688E-1,-6.512908E-2,8.9202744E-1,-1.1050278E0,-3.1472716E0,4.8737052E-1,-2.8581913E0,2.6925766E-1,1.005482E0,-2.1684625E0,4.357355E-1,-2.6332955E0,-1.0662183E0,-1.0865871E0,8.0267256E-1,-2.6728828E0,9.1840915E-2,8.63661E-1,-1.5349528E0,6.949855E-1,-1.2415805E0],"categories":[],"categories_nodes":[],"categories_segments":[],"categories_sizes":[],"default_left":[true,true,false,true,false,true,false,true,false,false,false,false,false,false,false,false,false,true,false,false,false,false,true,false,false,true,false,true,false,false,false,false,true,false,true,false,true,false,false,false,false,false,false,false,false,false,false,false,false,false,false,false,false,false,false,false,false,false,false,false,false,false,false,false,false,false,false,false,false],"id":12,"left_children":[1,3,5,7,9,11,13,15,-1,17,19,21,23,25,27,29,31,33,-1,-1,-1,35,37,-1,39,41,-1,43,45,47,49,51,53,-1,55,57,59,61,-1,63,65,-1,-1,-1,67,-1,-1,-1,-1,-1,-1,-1,-1,-1,-1,-1,-1,-1,-1,-1,-1,-1,-1,-1,-1,-1,-1,-1,-1],"loss_changes":[1.4936554E2,4.322223E1,1.3933806E2,6.4443085E1,1.6376984E1,1.8007932E2,4.480417E1,5.7069336E1,0E0,1.2693298E1,2.2753819E1,4.8380844E1,1.22086914E2,2.5942078E0,1.2579175E2,1.4755646E1,1.316878E2,3.6747742E0,0E0,0E0,0E0,8.3759094E1,1.9443039E1,0E0,1.240197E2,7.232666E-3,0E0,4.475013E1,2.673523E0,7.472885E1,5.891968E0,5.793846E0,8.3945694E1,0E0,3.0728455E0,7.1109985E1,2.9148712E0,1.6021729E1,0E0,1.0193565E2,1.2834935E2,0E0,0E0,0E0,2.2297249E1,0E0,0E0,0E0,0E0,0E0,0E0,0E0,0E0,0E0,0E0,0E0,0E0,0E0,0E0,0E0,0E0,0E0,0E0,0E0,0E0,0E0,0E0,0E0,0E0],"parents":[2147483647,0,0,1,1,2,2,3,3,4,4,5,5,6,6,7,7,9,9,10,10,11,11,12,12,13,13,14,14,15,15,16,16,17,17,21,21,22,22,24,24,25,25,27,27,28,28,29,29,30,30,31,31,32,32,34,34,35,35,36,36,37,37,39,39,40,40,44,44],"right_children":[2,4,6,8,10,12,14,16,-1,18,20,22,24,26,28,30,32,34,-1,-1,-1,36,38,-1,40,42,-1,44,46,48,50,52,54,-1,56,58,60,62,-1,64,66,-1,-1,-1,68,-1,-1,-1,-1,-1,-1,-1,-1,-1,-1,-1,-1,-1,-1,-1,-1,-1,-1,-1,-1,-1,-1,-1,-1],"split_conditions":[-1.5651459E-2,1.23549625E-2,-1.6839828E-2,3.8974933E-2,1.5694547E-2,-1.5669828E-2,-6.241808E-2,-3.1059813E-2,-6.889763E-1,-1.3229257E-2,1.0000076E-6,-1.1647515E-2,-2.369045E-1,1.2555342E-2,-1.1102805E-2,-1.2885475E-2,-2.0341419E-2,-3.7014088E-1,-5.582971E-2,-4.0191925E-1,2.2356284E-1,-1.19424425E-2,-4.3735094E-3,-1E0,1.8993996E-2,5.940707E-2,1.172824E-1,-1.4215228E-1,-1.4502965E-2,-5.7378546E-3,-4.9447462E-2,-6.069561E-2,-5.7216547E-2,5.189911E-2,-4.0779352E-2,-7.973469E-2,5.2294835E-2,-7.1617216E-2,-3.5359833E-1,1.2063818E-2,-9.525448E-3,2.5538266E-1,1.5230936E-1,-5.990716E-1,6.4618356E-4,-4.037605E-1,-7.995566E-1,-9.530605E-1,1.55922E-1,-1.628227E-2,2.2300686E-1,-2.7625695E-1,-7.868179E-1,1.2184263E-1,-7.145478E-1,6.7314416E-2,2.513705E-1,-5.421156E-1,1.0893387E-1,-6.583239E-1,-2.6655456E-1,-2.7164677E-1,2.0066814E-1,-6.682207E-1,2.2960229E-2,2.1591525E-1,-3.837382E-1,1.7374638E-1,-3.1039512E-1],"split_indices":[45,4,26,9,4,59,33,26,0,46,20,20,23,55,40,20,31,23,0,0,0,20,44,0,22,37,0,60,14,44,42,33,53,0,43,63,24,33,0,4,29,0,0,0,11,0,0,0,0,0,0,0,0,0,0,0,0,0,0,0,0,0,0,0,0,0,0,0,0],"split_type":[0,0,0,0,0,0,0,0,0,0,0,0,0,0,0,0,0,0,0,0,0,0,0,0,0,0,0,0,0,0,0,0,0,0,0,0,0,0,0,0,0,0,0,0,0,0,0,0,0,0,0,0,0,0,0,0,0,0,0,0,0,0,0,0,0,0,0,0,0],"sum_hessian":[3.6508125E3,1.4813932E3,2.1694194E3,9.4254254E2,5.388506E2,1.6209266E3,5.4849274E2,9.377643E2,4.77829E0,5.2588074E2,1.2969846E1,7.0479236E2,9.161342E2,2.9938754E2,2.4910521E2,5.3652E2,4.0124426E2,5.174068E2,8.473957E0,5.2390637E0,7.7307825E0,3.045736E2,4.0021875E2,6.2395387E0,9.0989465E2,2.8789142E2,1.14961405E1,2.3690309E2,1.2202115E1,6.726015E1,4.6925986E2,1.2711588E1,3.8853268E2,6.576975E0,5.108298E2,2.926638E2,1.190982E1,3.97026E2,3.1927452E0,7.813338E2,1.2856085E2,2.8266156E2,5.2298594E0,3.973965E0,2.3292912E2,6.109411E0,6.092705E0,3.0402355E0,6.421991E1,6.3884087E0,4.6287146E2,3.3322902E0,9.379297E0,3.8186627E2,6.666408E0,6.6105046E0,5.042193E2,9.906031E0,2.8275778E2,8.17781E0,3.73201E0,3.7155273E0,3.933105E2,1.2571285E1,7.687625E2,2.7868608E1,1.00692245E2,2.2770795E2,5.2211747E0],"tree_param":{"num_deleted":"0","num_feature":"64","num_nodes":"69","size_leaf_vector":"0"}},{"base_weights":[4.1063792E-1,7.7172154E-1,2.9154578E-1,7.9495823E-1,-5.0844544E-1,1.37439E-1,7.592964E-1,-1.8275093E-1,8.068105E-1,-1.5231981E0,8.791947E-1,-9.236494E-1,2.0439884E-1,9.8926723E-1,2.8568152E-1,8.613947E-1,-1.4706215E0,8.949085E-1,7.0226693E-1,5.149339E-1,-1.3566095E0,3.7283534E-1,-1.7786254E-1,3.4214917E-1,1.0068537E0,4.863979E-1,-2.7989583E0,3.243987E-1,9.120129E-1,7.813871E-1,3.4629163E-1,-1.3308938E0,9.306022E-1,-2.1893203E0,-1.2354624E0,2.5307515E-1,8.4171104E-1,3.1729165E-4,-2.0885396E0,-1.96682E-1,8.6463493E-1,1.0167093E0,4.7329563E-1,5.819294E-1,-1.4057919E0,-1.6764834E0,-3.698601E0,-3.03828E-1,8.924973E-1,9.2830336E-1,-1.5855089E-1,-2.8606388E-1,8.0809414E-1,-3.0451555E0,6.8514174E-1,3.62531E-1,-1.0064322E0,-2.0740206E0,9.485093E-1,-2.3339343E0,1.4410351E-1,-3.3478103E0,-1.6385732E0,6.524101E-1,-1.6014757E0],"categories":[],"categories_nodes":[],"categories_segments":[],"categories_sizes":[],"default_left":[true,true,false,false,false,true,true,false,false,false,false,false,false,false,false,false,false,false,false,true,false,false,true,true,true,true,false,false,true,false,true,false,false,false,false,false,false,false,false,false,false,false,false,false,false,false,false,false,false,false,false,false,false,false,false,false,false,false,false,false,false,false,false,false,false],"id":13,"left_children":[1,3,5,7,9,11,13,15,17,-1,-1,19,21,23,25,-1,-1,27,29,31,33,35,37,39,41,43,45,47,49,51,53,-1,-1,-1,-1,55,57,59,61,-1,-1,-1,-1,63,-1,-1,-1,-1,-1,-1,-1,-1,-1,-1,-1,-1,-1,-1,-1,-1,-1,-1,-1,-1,-1],"loss_changes":[1.3774677E2,2.4057404E1,1.7392873E2,9.202026E0,2.2159025E1,1.2930394E2,6.4859924E1,1.4947999E1,6.4834595E0,0E0,0E0,6.7997734E1,1.10179634E2,4.232666E0,1.2326643E2,0E0,0E0,3.757843E0,9.806229E0,2.0973106E1,5.701477E0,6.646431E1,1.7830975E2,3.5923028E0,1.5751343E0,3.4389076E1,6.0961914E0,5.1406193E0,7.1713867E0,8.553513E0,7.891765E1,0E0,0E0,0E0,0E0,1.309564E2,7.7062454E1,1.614664E2,1.9829407E1,0E0,0E0,0E0,0E0,2.8359798E1,0E0,0E0,0E0,0E0,0E0,0E0,0E0,0E0,0E0,0E0,0E0,0E0,0E0,0E0,0E0,0E0,0E0,0E0,0E0,0E0,0E0],"parents":[2147483647,0,0,1,1,2,2,3,3,4,4,5,5,6,6,7,7,8,8,11,11,12,12,13,13,14,14,17,17,18,18,19,19,20,20,21,21,22,22,23,23,24,24,25,25,26,26,27,27,28,28,29,29,30,30,35,35,36,36,37,37,38,38,43,43],"right_children":[2,4,6,8,10,12,14,16,18,-1,-1,20,22,24,26,-1,-1,28,30,32,34,36,38,40,42,44,46,48,50,52,54,-1,-1,-1,-1,56,58,60,62,-1,-1,-1,-1,64,-1,-1,-1,-1,-1,-1,-1,-1,-1,-1,-1,-1,-1,-1,-1,-1,-1,-1,-1,-1,-1],"split_conditions":[-1.3964308E-2,2.4534697E-2,-2.03447E-2,-1.4130184E-2,1.23126656E-1,-6.656497E-2,-6.1683938E-2,-3.0783536E-2,2.0036676E-3,-3.8079953E-1,2.1979867E-1,-9.843392E-2,-1.47609655E-2,-1.2571263E-1,-3.4862668E-3,2.1534868E-1,-3.6765537E-1,-8.894401E-3,-1.4454585E-2,-1.1579688E-1,-1.2449797E-1,1.2667917E-2,-3.969708E-2,1.4824364E1,-7.966708E-2,1.2913406E-2,-1.708163E-2,-2.1024663E-3,3.6420204E-2,-1.609182E-2,-1.2933985E-2,-3.3272344E-1,2.3265055E-1,-5.473301E-1,-3.088656E-1,-2.3008078E-2,-1.638352E-2,-4.025602E-2,-2.3094863E-2,-4.91705E-2,2.1615873E-1,2.5417733E-1,1.1832391E-1,-1.1102773E-2,-3.5144797E-1,-4.1912085E-1,-9.2465025E-1,-7.5957E-2,2.2312433E-1,2.3207584E-1,-3.9637722E-2,-7.151597E-2,2.0202354E-1,-7.612889E-1,1.7128544E-1,9.063275E-2,-2.5160804E-1,-5.1850516E-1,2.3712732E-1,-5.834836E-1,3.6025878E-2,-8.3695257E-1,-4.096433E-1,1.6310252E-1,-4.0036893E-1],"split_indices":[20,38,26,20,14,33,33,29,12,0,0,14,45,8,29,0,0,44,45,0,8,4,36,0,8,26,57,3,24,45,49,0,0,0,0,25,3,36,25,0,0,0,0,40,0,0,0,0,0,0,0,0,0,0,0,0,0,0,0,0,0,0,0,0,0],"split_type":[0,0,0,0,0,0,0,0,0,0,0,0,0,0,0,0,0,0,0,0,0,0,0,0,0,0,0,0,0,0,0,0,0,0,0,0,0,0,0,0,0,0,0,0,0,0,0,0,0,0,0,0,0,0,0,0,0,0,0,0,0,0,0,0,0],"sum_hessian":[3.2074773E3,7.941522E2,2.413325E3,7.803666E2,1.3785644E1,1.8162355E3,5.9708954E2,9.173991E0,7.711926E2,7.9062643E0,5.879379E0,1.0705053E2,1.7091849E3,4.0119467E2,1.9589485E2,5.249273E0,3.9247189E0,4.1441144E2,3.567812E2,2.4721111E1,8.2329414E1,1.1864305E3,5.2275433E2,1.1155811E1,3.9003885E2,1.8471765E2,1.1177192E1,1.2643948E1,4.017675E2,2.909244E2,6.585677E1,4.1390996E0,2.0582012E1,8.288218E0,7.40412E1,9.4627325E2,2.4015732E2,4.7907785E2,4.367648E1,5.7989807E0,5.3568306E0,3.8207578E2,7.9630766E0,1.7649916E2,8.218503E0,6.2467213E0,4.930471E0,6.2251296E0,6.4188185E0,3.9587643E2,5.8910594E0,6.8640804E0,2.8406033E2,5.2567577E0,6.0600018E1,8.712689E2,7.500433E1,7.834881E0,2.3232243E2,2.6914297E1,4.5216357E2,9.802684E0,3.3873795E1,1.7165916E2,4.839992E0],"tree_param":{"num_deleted":"0","num_feature":"64","num_nodes":"65","size_leaf_vector":"0"}},{"base_weights":[3.5983902E-1,7.2086954E-1,2.4988893E-1,7.4291086E-1,-4.637814E-1,1.1295319E-1,7.1765983E-1,-2.709026E-1,7.55089E-1,-1.364435E0,8.4580964E-1,5.4966617E-1,-1.6544318E-2,9.1660565E-1,9.056596E-2,-1.546627E0,8.2331014E-1,8.868491E-1,6.6576463E-1,-3.840808E-1,6.673373E-1,2.1149354E-1,-4.5630452E-1,-2.078183E-2,9.476259E-1,-2.4431083E0,2.9864627E-1,-2.6607957E-1,9.103281E-1,-9.1646916E-1,6.923914E-1,9.4769025E-1,-2.041399E0,8.898083E-1,1.14942335E-1,6.5494674E-1,-2.7809387E-2,-7.976248E-1,5.328236E-1,9.151875E-1,-2.1494002E0,9.7145957E-1,3.6906195E-4,-1.2467371E0,-2.8611972E0,5.3580195E-1,-1.0862434E0,2.1490304E-1,9.2237985E-1,7.093742E-1,-3.5597077E-1,-2.7134209E0,-1.1545691E0,9.3490857E-1,-4.0180933E-2,5.7948196E-1,-7.179203E-1,7.2057664E-1,-2.2355335E0,8.1683554E-2,-3.351977E0,-1.9820755E0,-4.8768643E-1,-2.5495753E0,7.194334E-1,3.5477915E-1,9.9517095E-1,8.601401E-1,-1.1514347E0,6.3487476E-1,-1.802251E0,8.2160187E-1,-2.3636627E0],"categories":[],"categories_nodes":[],"categories_segments":[],"categories_sizes":[],"default_left":[true,true,false,true,false,false,true,true,false,false,false,false,false,false,false,false,false,false,false,false,true,false,true,false,false,false,false,false,false,false,false,false,false,false,false,false,false,false,true,false,false,true,true,false,false,false,false,false,false,false,false,false,false,false,false,false,false,false,false,false,false,false,false,false,false,false,false,false,false,false,false,false,false],"id":14,"left_children":[1,3,5,7,9,11,13,15,17,-1,-1,19,21,23,25,-1,-1,27,29,31,33,35,37,39,41,43,45,-1,47,-1,49,-1,51,53,55,57,59,61,63,-1,-1,65,67,-1,-1,69,71,-1,-1,-1,-1,-1,-1,-1,-1,-1,-1,-1,-1,-1,-1,-1,-1,-1,-1,-1,-1,-1,-1,-1,-1,-1,-1],"loss_changes":[1.1193051E2,1.7546509E1,1.3869203E2,8.194489E0,1.6073584E1,9.485284E1,6.1099747E1,1.3023227E1,6.9387817E0,0E0,0E0,4.2403328E1,1.2990945E2,1.0842224E1,6.358445E1,0E0,0E0,7.1573486E0,1.6865952E1,9.808955E1,4.180699E1,9.05518E1,1.4976721E2,2.7669287E1,8.13382E0,1.0130959E0,3.705961E1,0E0,1.9019165E0,0E0,7.0085907E0,0E0,8.623917E0,1.0228226E1,3.8742054E1,5.8342743E1,2.02304E2,1.1991028E2,6.745537E1,0E0,0E0,4.785919E0,1.0737871E1,0E0,0E0,2.3264698E1,4.2322376E1,0E0,0E0,0E0,0E0,0E0,0E0,0E0,0E0,0E0,0E0,0E0,0E0,0E0,0E0,0E0,0E0,0E0,0E0,0E0,0E0,0E0,0E0,0E0,0E0,0E0,0E0],"parents":[2147483647,0,0,1,1,2,2,3,3,4,4,5,5,6,6,7,7,8,8,11,11,12,12,13,13,14,14,17,17,18,18,19,19,20,20,21,21,22,22,23,23,24,24,25,25,26,26,28,28,30,30,32,32,33,33,34,34,35,35,36,36,37,37,38,38,41,41,42,42,45,45,46,46],"right_children":[2,4,6,8,10,12,14,16,18,-1,-1,20,22,24,26,-1,-1,28,30,32,34,36,38,40,42,44,46,-1,48,-1,50,-1,52,54,56,58,60,62,64,-1,-1,66,68,-1,-1,70,72,-1,-1,-1,-1,-1,-1,-1,-1,-1,-1,-1,-1,-1,-1,-1,-1,-1,-1,-1,-1,-1,-1,-1,-1,-1,-1],"split_conditions":[-1.3964308E-2,2.4534697E-2,-2.03447E-2,-6.571263E-1,1.23126656E-1,-1.7144915E-2,-3.26566E-2,-1.0221498E-2,-1.579672E-2,-3.4110874E-1,2.1145241E-1,1.3645809E-2,5.856311E-3,-1.2536949E-1,-4.9874164E-2,-3.8665676E-1,2.0582753E-1,-4.1469894E-2,-6.1057255E-2,-2.055047E-3,-4.440457E-3,-1.65601E-2,3.733538E-2,-1.799466E-2,1.5922353E-2,-1.6976083E-2,-1.1133483E-2,-6.651989E-2,-1.7296478E-1,-2.2911729E-1,-1.0722728E-2,2.3692256E-1,-2.291459E-2,-1.04391575E-2,1.3550569E-2,1.2496099E-2,1.1871432E-2,-1.1124681E-2,1.7499693E-2,2.2879687E-1,-5.3735006E-1,-7.6329386E-1,-8.686936E-2,-3.1168428E-1,-7.152993E-1,-2.3728909E-2,-1.9002157E-1,5.372576E-2,2.3059496E-1,1.7734355E-1,-8.899269E-2,-6.783552E-1,-2.886423E-1,2.3372714E-1,-1.0045233E-2,1.4487049E-1,-1.7948008E-1,1.8014416E-1,-5.5888337E-1,2.0420888E-2,-8.379943E-1,-4.9551886E-1,-1.2192161E-1,-6.3739383E-1,1.7985836E-1,8.869479E-2,2.4879274E-1,2.1503502E-1,-2.8785866E-1,1.5871869E-1,-4.5056275E-1,2.0540047E-1,-5.909157E-1],"split_indices":[20,38,26,35,14,57,33,40,45,0,0,48,12,8,39,0,0,36,52,38,44,57,60,3,55,57,40,0,30,0,40,0,25,40,55,38,30,40,10,0,0,28,1,0,0,42,23,0,0,0,0,0,0,0,0,0,0,0,0,0,0,0,0,0,0,0,0,0,0,0,0,0,0],"split_type":[0,0,0,0,0,0,0,0,0,0,0,0,0,0,0,0,0,0,0,0,0,0,0,0,0,0,0,0,0,0,0,0,0,0,0,0,0,0,0,0,0,0,0,0,0,0,0,0,0,0,0,0,0,0,0,0,0,0,0,0,0,0,0,0,0,0,0,0,0,0,0,0,0],"sum_hessian":[2.8232778E3,6.577952E2,2.1654827E3,6.4614606E2,1.16491585E1,1.6760698E3,4.894129E2,7.4173346E0,6.387287E2,6.877424E0,4.7717347E0,3.8259042E2,1.2934794E3,3.7119077E2,1.1822213E2,3.233726E0,4.1836085E0,2.5445715E2,3.8427158E2,4.2564835E1,3.4002557E2,8.5212744E2,4.41352E2,1.1900619E1,3.5929016E2,8.157064E0,1.1006506E2,4.8722925E0,2.4958485E2,5.8066316E0,3.7846494E2,2.383773E1,1.8727102E1,2.4196571E2,9.805987E1,2.98058E2,5.540694E2,3.2826913E2,1.1308284E2,8.661951E0,3.238668E0,3.5044708E2,8.843077E0,3.1435921E0,5.013472E0,9.449616E1,1.5568905E1,4.572429E0,2.4501244E2,3.7274997E2,5.714974E0,9.482084E0,9.245019E0,2.3076917E2,1.1196553E1,6.314447E1,3.4915398E1,2.9217474E2,5.8832784E0,5.373455E2,1.6723902E1,6.696454E1,2.613046E2,5.7324405E0,1.07350395E2,1.35667925E1,3.3688028E2,5.208433E0,3.634644E0,9.13536E1,3.1425643E0,6.3868594E0,9.182045E0],"tree_param":{"num_deleted":"0","num_feature":"64","num_nodes":"73","size_leaf_vector":"0"}},{"base_weights":[3.1243563E-1,5.826657E-1,1.7195603E-1,4.1745153E-1,9.040264E-1,7.034753E-2,6.735259E-1,2.7642658E-1,8.9574814E-1,9.352235E-1,-2.1196768E-1,-7.267397E-2,6.168718E-1,7.263451E-1,-1.497427E0,4.7659075E-1,-4.542606E-1,9.636812E-1,-3.2931837E-1,9.590734E-1,-3.0713066E-1,-1.3016541E0,8.013291E-1,-4E0,-4.450854E-2,9.6328074E-1,2.467708E-1,7.581946E-1,-1.3166773E0,-3.1801798E0,5.250605E-1,-3.0547523E0,2.6734087E-1,3.679186E-2,9.9496E-1,-7.075114E-2,9.751735E-1,2.6791078E-1,-3.9053982E-1,9.947943E-1,3.4513E-1,3.942562E-1,-1.7398179E0,7.8596044E-1,-1.111642E0,-2.2140346E0,5.622367E-1,-1.1504594E0,-4E0,-2.568645E0,6.305279E-1,9.8970306E-1,4.9379304E-2,5.5426925E-1,4.5641004E-3,-1.1363295E0,-1.7038312E-2,-1.8970244E0,4.7071168E-1,-4.7498718E-1,8.128154E-1],"categories":[],"categories_nodes":[],"categories_segments":[],"categories_sizes":[],"default_left":[true,true,true,false,false,false,false,false,false,true,false,true,false,false,false,true,false,true,false,true,false,false,false,false,true,false,false,true,false,false,false,false,false,false,false,false,true,false,false,false,false,true,false,true,false,false,false,false,false,false,false,false,false,false,false,false,false,false,false,false,false],"id":15,"left_children":[1,3,5,7,9,11,13,15,17,19,21,23,25,27,-1,29,31,33,-1,35,-1,-1,-1,-1,37,39,41,43,-1,-1,45,47,49,-1,-1,-1,51,53,55,-1,-1,57,-1,59,-1,-1,-1,-1,-1,-1,-1,-1,-1,-1,-1,-1,-1,-1,-1,-1,-1],"loss_changes":[9.566939E1,4.541446E1,8.46192E1,3.8300125E1,1.0364197E1,1.0811303E2,3.3164856E1,6.497927E1,1.1110161E1,8.716537E0,1.0710972E1,1.2848221E2,3.6540833E1,1.881218E1,0E0,6.3362823E1,1.8045355E2,3.533081E0,0E0,4.6969604E0,0E0,0E0,0E0,0E0,1.1798132E2,2.5364685E0,4.1715645E1,1.4901855E1,0E0,0E0,3.6312424E1,4.283986E1,7.974955E1,0E0,0E0,0E0,3.6488647E0,4.3254234E1,1.4420534E2,0E0,0E0,2.387212E1,0E0,9.421799E0,0E0,0E0,0E0,0E0,0E0,0E0,0E0,0E0,0E0,0E0,0E0,0E0,0E0,0E0,0E0,0E0,0E0],"parents":[2147483647,0,0,1,1,2,2,3,3,4,4,5,5,6,6,7,7,8,8,9,9,10,10,11,11,12,12,13,13,15,15,16,16,17,17,19,19,24,24,25,25,26,26,27,27,30,30,31,31,32,32,36,36,37,37,38,38,41,41,43,43],"right_children":[2,4,6,8,10,12,14,16,18,20,22,24,26,28,-1,30,32,34,-1,36,-1,-1,-1,-1,38,40,42,44,-1,-1,46,48,50,-1,-1,-1,52,54,56,-1,-1,58,-1,60,-1,-1,-1,-1,-1,-1,-1,-1,-1,-1,-1,-1,-1,-1,-1,-1,-1],"split_conditions":[-1.5722414E-2,1.235961E-2,6.2683195E-2,-2.9701762E-2,1.5694547E-2,-1.689228E-2,2.1913566E-2,-2.5306474E-2,-6.102633E-2,-1.3590697E-2,1.0000076E-6,-4.3516368E-2,-6.241808E-2,2.176044E-1,-3.7435675E-1,-1.2450142E-2,-4.609549E-2,-1.263062E0,-8.232959E-2,-3.7014088E-1,-7.6782666E-2,-3.2541353E-1,2.0033227E-1,-1E0,-1.5630528E-2,1.2555342E-2,-1.1102805E-2,3.1558E-2,-3.2916933E-1,-7.9504496E-1,-1.3473651E-2,-6.6294655E-2,-1.0456412E-5,9.197965E-3,2.4874E-1,-1.7687785E-2,3.586068E-1,-2.4283322E-2,-5.548837E-2,2.4869858E-1,8.62825E-2,-1.4215228E-1,-4.3495446E-1,-2.2926826E0,-2.779105E-1,-5.5350864E-1,1.4055918E-1,-2.8761485E-1,-1E0,-6.4216125E-1,1.5763198E-1,2.4742576E-1,1.2344826E-2,1.3856731E-1,1.1410251E-3,-2.8408238E-1,-4.259578E-3,-4.742561E-1,1.1767792E-1,-1.18746795E-1,2.0320386E-1],"split_indices":[45,4,60,26,4,26,12,15,33,46,20,56,33,23,0,1,33,28,0,23,0,0,0,0,59,55,40,5,0,0,20,33,61,0,0,0,60,25,39,0,0,60,0,28,0,0,0,0,0,0,0,0,0,0,0,0,0,0,0,0,0],"split_type":[0,0,0,0,0,0,0,0,0,0,0,0,0,0,0,0,0,0,0,0,0,0,0,0,0,0,0,0,0,0,0,0,0,0,0,0,0,0,0,0,0,0,0,0,0,0,0,0,0,0,0,0,0,0,0,0,0,0,0,0,0],"sum_hessian":[2.521788E3,8.614785E2,1.6603096E3,5.7048596E2,2.9099252E2,1.3815701E3,2.7873953E2,4.4179993E2,1.2868604E2,2.8323676E2,7.755779E0,1.0957002E3,2.858699E2,2.727685E2,5.971021E0,3.4707114E2,9.472879E1,1.2212713E2,6.5589004E0,2.781255E2,5.111246E0,3.5999088E0,4.15587E0,6.3281965E0,1.089372E3,1.4683334E2,1.3903658E2,2.692007E2,3.5677938E0,3.694963E0,3.433762E2,1.9874E1,7.485479E1,4.0578027E0,1.1806933E2,4.228971E0,2.738965E2,5.7260925E2,5.1676276E2,1.3913107E2,7.702261E0,1.3017393E2,8.862641E0,2.6583295E2,3.367775E0,3.8139622E0,3.3956223E2,8.543323E0,1.1330678E1,7.808529E0,6.7046265E1,2.695964E2,4.3001347E0,2.737901E2,2.9881915E2,1.7175945E2,3.450033E2,3.4344785E0,1.2673945E2,5.1955237E0,2.6063742E2],"tree_param":{"num_deleted":"0","num_feature":"64","num_nodes":"61","size_leaf_vector":"0"}},{"base_weights":[2.6640442E-1,6.36732E-1,1.6111249E-1,7.2830373E-1,3.7206522E-1,5.6143876E-2,6.1808354E-1,-2.7386484E-1,7.4364364E-1,-1.6796498E0,5.5823004E-1,-9.383528E-1,1.10960245E-1,9.521015E-1,1.266379E-1,-1.6950667E-2,7.5729734E-1,8.1761825E-1,-3.4545364E0,6.611524E-1,-6.903062E-1,3.2971755E-1,-1.2746147E0,2.5556493E-1,-1.9660656E-1,1.8283705E-1,9.826052E-1,-3.5285492E0,2.4053366E-1,7.668861E-1,-2.5374624E-1,-7.7566326E-1,7.201279E-1,-2.1983051E0,8.2640415E-1,-1.2050354E0,8.3328104E-1,-1.9379375E0,-1.1624229E0,1.3021971E-1,8.0242586E-1,1.529635E-1,-8.1577694E-1,-3.56869E-1,7.8889114E-1,1.0018792E0,2.767688E-1,-1.9733088E0,3.820671E-1,7.987863E-1,5.1634E-1,2.3560248E-1,8.0775356E-1,1.9587879E-1,-1.8705425E0,-1.7515569E0,9.0534085E-1,-1.6606706E0,3.2069132E-1,-2.0170205E0,2.9944104E-1,4.8464826E-1,-1.2319075E0],"categories":[],"categories_nodes":[],"categories_segments":[],"categories_sizes":[],"default_left":[true,true,false,true,false,true,true,false,false,false,false,false,false,false,false,false,true,false,false,false,true,true,false,false,false,true,true,false,false,true,false,false,true,false,false,false,false,false,false,false,false,false,false,false,false,false,false,false,true,false,false,false,false,false,false,false,false,false,false,false,false,false,false],"id":16,"left_children":[1,3,5,7,9,11,13,-1,15,17,19,21,23,25,27,-1,29,-1,-1,31,33,35,37,39,41,43,45,-1,47,49,-1,-1,51,-1,-1,-1,-1,-1,-1,53,55,57,59,-1,-1,-1,-1,-1,61,-1,-1,-1,-1,-1,-1,-1,-1,-1,-1,-1,-1,-1,-1],"loss_changes":[8.9536865E1,1.2055115E1,8.588985E1,5.996414E0,5.1652893E1,7.957529E1,5.4789818E1,0E0,3.8697662E0,5.288777E1,1.6195675E1,3.2938347E1,6.1539185E1,4.4899445E0,5.767947E1,0E0,3.7318878E0,0E0,0E0,1.0190201E1,2.4270216E1,1.3971355E1,2.2483673E0,6.4386185E1,9.5944214E1,3.1660135E0,2.3235626E0,0E0,4.2527954E1,2.478363E0,0E0,0E0,4.467327E0,0E0,0E0,0E0,0E0,0E0,0E0,1.01072014E2,4.764685E1,8.686169E1,2.1482199E2,0E0,0E0,0E0,0E0,0E0,2.1482552E1,0E0,0E0,0E0,0E0,0E0,0E0,0E0,0E0,0E0,0E0,0E0,0E0,0E0,0E0],"parents":[2147483647,0,0,1,1,2,2,3,3,4,4,5,5,6,6,8,8,9,9,10,10,11,11,12,12,13,13,14,14,16,16,19,19,20,20,21,21,22,22,23,23,24,24,25,25,26,26,28,28,29,29,32,32,39,39,40,40,41,41,42,42,48,48],"right_children":[2,4,6,8,10,12,14,-1,16,18,20,22,24,26,28,-1,30,-1,-1,32,34,36,38,40,42,44,46,-1,48,50,-1,-1,52,-1,-1,-1,-1,-1,-1,54,56,58,60,-1,-1,-1,-1,-1,62,-1,-1,-1,-1,-1,-1,-1,-1,-1,-1,-1,-1,-1,-1],"split_conditions":[-1.3964308E-2,-2.8523922E-2,-2.03447E-2,-6.6296166E-1,-7.3002174E-2,-6.656497E-2,-6.1683938E-2,-6.846621E-2,-1.4130184E-2,-7.114786E-2,-1.3722046E-2,-9.843392E-2,-1.47609655E-2,-1.2571263E-1,1.00768525E-2,-4.2376667E-3,-1.2910258E-2,2.0440456E-1,-8.636341E-1,9.729359E-3,1.20267786E-1,-1.1579688E-1,-1.2987493E-1,1.2667917E-2,-1.2142849E-2,1.4824364E1,-7.966708E-2,-8.821373E-1,1.2636041E-2,-4.0488783E-2,-6.343656E-2,-1.9391581E-1,-5.5779293E-2,-5.495763E-1,2.0660104E-1,-3.0125886E-1,2.0832026E-1,-4.8448437E-1,-2.9060572E-1,-1.5345771E-2,-1.638352E-2,1.5724514E1,-1.2712276E-2,-8.921725E-2,1.9722278E-1,2.504698E-1,6.91922E-2,-4.933272E-1,1.2913406E-2,1.9969657E-1,1.29085E-1,5.890062E-2,2.0193839E-1,4.8969697E-2,-4.6763563E-1,-4.3788922E-1,2.2633521E-1,-4.1516766E-1,8.017283E-2,-5.042551E-1,7.486026E-2,1.21162064E-1,-3.0797687E-1],"split_indices":[20,34,26,35,63,33,33,0,20,33,3,14,45,8,55,0,59,0,0,38,2,0,8,4,51,0,8,0,4,36,0,0,27,0,0,0,0,0,0,3,3,36,46,0,0,0,0,0,26,0,0,0,0,0,0,0,0,0,0,0,0,0,0],"split_type":[0,0,0,0,0,0,0,0,0,0,0,0,0,0,0,0,0,0,0,0,0,0,0,0,0,0,0,0,0,0,0,0,0,0,0,0,0,0,0,0,0,0,0,0,0,0,0,0,0,0,0,0,0,0,0,0,0,0,0,0,0,0,0],"sum_hessian":[2.2978892E3,5.0758588E2,1.7903033E3,3.7580856E2,1.3177733E2,1.4567933E3,3.3351007E2,5.4116044E0,3.7039694E2,1.0294931E1,1.214824E2,7.526122E1,1.3815321E3,1.9799954E2,1.3551053E2,6.5276127E0,3.6386932E2,4.5011487E0,5.7937827E0,1.1266535E2,8.817046E0,1.5778543E1,5.948268E1,9.398324E2,4.416997E2,7.8185906E0,1.9018095E2,3.1889505E0,1.3232158E2,3.6069003E2,3.1793149E0,3.962987E0,1.0870236E2,4.1958776E0,4.6211686E0,3.5539262E0,1.2224617E1,6.250977E0,5.3231705E1,7.655906E2,1.742418E2,2.8279358E2,1.5890613E2,4.353157E0,3.4654336E0,1.8471751E2,5.4634376E0,7.173442E0,1.2514813E2,3.180118E2,4.2678223E1,1.7212845E1,9.148952E1,7.421379E2,2.3452662E1,6.1287427E0,1.6811307E2,2.3185772E1,2.5960782E2,7.611314E1,8.2792984E1,1.18327194E2,6.820935E0],"tree_param":{"num_deleted":"0","num_feature":"64","num_nodes":"63","size_leaf_vector":"0"}},{"base_weights":[2.267093E-1,5.7652617E-1,1.3461041E-1,7.2079515E-1,4.0586033E-1,4.545003E-2,5.666864E-1,-5.812714E-1,7.422777E-1,-1.3346422E0,5.0169665E-1,4.7189695E-1,-6.3457094E-2,8.5239756E-1,-6.907126E-2,7.708777E-1,-2.7892238E-1,-3.203396E0,6.511851E-1,-6.3819563E-1,6.0082865E-1,-2.9353803E-1,6.181589E-1,-3.0193979E-2,-1.9322664E0,8.8941973E-1,-2.650893E-1,2.2749746E-1,-1.3156961E0,7.913749E-1,-4.0457305E-1,-2.1878371E0,8.8404197E-1,7.1749717E-1,1.8661237E-1,8.5946906E-1,-1.7655126E0,8.9038485E-1,1.1978985E-1,-1.16126135E-1,6.921292E-1,-2.0712016E0,-1.0138332E0,-5.0076465E-3,9.29767E-1,5.550071E-1,-1.0192856E0,5.791568E-1,-5.1514703E-1,6.365716E-1,-2.0519164E0,2.1078943E-1,8.198817E-1,-2.9517596E0,-1.1439854E0,-1.5764003E-1,7.6775205E-1,5.799569E-1,-2.3010502E0,2.8298843E-1,9.451294E-1,-2.1036506E0,-1.0068339E0,-9.891971E-3,9.2398936E-1,5.7781374E-1,-7.2970605E-1,-1.7512251E0,-6.7954645E-2,8.458283E-1,-1.4930742E0,7.0199996E-1,-4.7787437E-1,2.8179708E-1,9.737862E-1,-2.5500324E-1,7.839522E-1,8.8247085E-1,-2.2245066E0],"categories":[],"categories_nodes":[],"categories_segments":[],"categories_sizes":[],"default_left":[true,false,false,false,false,false,true,false,false,false,true,false,true,false,false,true,false,false,false,true,true,false,true,true,true,false,false,true,false,false,false,false,false,true,false,false,false,true,false,false,false,false,false,false,true,false,false,false,false,false,false,false,false,false,false,false,false,false,false,false,false,false,false,false,false,false,false,false,false,false,false,false,false,false,false,false,false,false,false],"id":17,"left_children":[1,3,5,7,9,11,13,-1,15,17,19,21,23,25,27,29,-1,-1,-1,31,33,35,37,39,41,43,45,47,49,51,-1,53,-1,55,57,59,61,63,65,67,69,-1,-1,71,73,-1,-1,75,77,-1,-1,-1,-1,-1,-1,-1,-1,-1,-1,-1,-1,-1,-1,-1,-1,-1,-1,-1,-1,-1,-1,-1,-1,-1,-1,-1,-1,-1,-1],"loss_changes":[6.690812E1,1.03688965E1,6.342903E1,6.959015E0,3.4138054E1,6.349356E1,5.1221672E1,0E0,6.932892E0,4.19598E1,2.1955292E1,3.1316063E1,6.766009E1,8.278732E0,3.2929443E1,5.717392E0,0E0,0E0,0E0,3.9107445E1,8.378391E0,7.8389275E1,3.16139E1,6.657953E1,3.2904816E-1,6.803726E0,4.898124E0,1.9140862E1,2.589674E1,3.4767609E0,0E0,3.0797844E0,0E0,6.149887E0,4.0534668E1,1.0199738E0,3.0697517E0,4.5790787E0,3.300877E1,7.5361404E1,3.9567112E1,0E0,0E0,3.3866768E0,4.86763E0,0E0,0E0,8.644987E0,5.861878E1,0E0,0E0,0E0,0E0,0E0,0E0,0E0,0E0,0E0,0E0,0E0,0E0,0E0,0E0,0E0,0E0,0E0,0E0,0E0,0E0,0E0,0E0,0E0,0E0,0E0,0E0,0E0,0E0,0E0,0E0],"parents":[2147483647,0,0,1,1,2,2,3,3,4,4,5,5,6,6,8,8,9,9,10,10,11,11,12,12,13,13,14,14,15,15,19,19,20,20,21,21,22,22,23,23,24,24,25,25,26,26,27,27,28,28,29,29,31,31,33,33,34,34,35,35,36,36,37,37,38,38,39,39,40,40,43,43,44,44,47,47,48,48],"right_children":[2,4,6,8,10,12,14,-1,16,18,20,22,24,26,28,30,-1,-1,-1,32,34,36,38,40,42,44,46,48,50,52,-1,54,-1,56,58,60,62,64,66,68,70,-1,-1,72,74,-1,-1,76,78,-1,-1,-1,-1,-1,-1,-1,-1,-1,-1,-1,-1,-1,-1,-1,-1,-1,-1,-1,-1,-1,-1,-1,-1,-1,-1,-1,-1,-1,-1],"split_conditions":[-1.3964308E-2,5.3137196E-3,-2.03447E-2,-1.6246045E-2,1.3076992E-2,-1.7144915E-2,-3.26566E-2,-1.4531785E-1,-9.398115E-3,-1.6031656E-2,-3.781265E-2,6.2945085E-3,3.2276416E-1,1.5922353E-2,-1.1133483E-2,2.2274788E-2,-6.9730595E-2,-8.00849E-1,1.6279627E-1,1.03077754E-1,1.0392267E-2,-1.1173684E-2,-4.4747163E-3,1.6616197E-1,1.712041E-2,-1.2536949E-1,-1.1142932E-2,-1.5573937E-2,-2.1470594E-1,-3.1526946E-2,-1.0114326E-1,1.955929E-2,2.2101049E-1,-6.1448224E-2,-1.4760708E-2,-1.7496884E-2,-2.4045281E-2,1.1642726E-2,3.22121E-2,-4.1340817E-2,-3.0867767E-2,-5.178004E-1,-2.534583E-1,-2.0343897E-1,-6.3201207E-1,1.3875178E-1,-2.548214E-1,-1.2063713E-2,-1.5377446E-2,1.591429E-1,-5.129791E-1,5.2697357E-2,2.0497042E-1,-7.379399E-1,-2.8599635E-1,-3.9410006E-2,1.9193801E-1,1.4498922E-1,-5.7526255E-1,7.074711E-2,2.3628235E-1,-5.2591264E-1,-2.5170848E-1,-2.4729928E-3,2.3099734E-1,1.4445344E-1,-1.8242651E-1,-4.3780628E-1,-1.6988661E-2,2.1145707E-1,-3.7326854E-1,1.7549999E-1,-1.1946859E-1,7.044927E-2,2.4344654E-1,-6.375081E-2,1.9598804E-1,2.2061771E-1,-5.5612665E-1],"split_indices":[20,38,26,49,48,57,33,0,46,57,50,41,34,55,40,5,0,0,0,5,24,40,44,23,5,8,40,59,23,26,0,22,0,52,45,57,15,4,41,36,26,0,0,8,28,0,0,20,45,0,0,0,0,0,0,0,0,0,0,0,0,0,0,0,0,0,0,0,0,0,0,0,0,0,0,0,0,0,0],"split_type":[0,0,0,0,0,0,0,0,0,0,0,0,0,0,0,0,0,0,0,0,0,0,0,0,0,0,0,0,0,0,0,0,0,0,0,0,0,0,0,0,0,0,0,0,0,0,0,0,0,0,0,0,0,0,0,0,0,0,0,0,0,0,0,0,0,0,0,0,0,0,0,0,0,0,0,0,0,0,0],"sum_hessian":[2.0781558E3,4.320086E2,1.6461472E3,2.3236232E2,1.9964629E2,1.3654807E3,2.8066653E2,3.3485327E0,2.290138E2,9.744693E0,1.899016E2,2.7710184E2,1.0883789E3,1.9340779E2,8.7258736E1,2.2301315E2,6.0006423E0,4.704456E0,5.0402365E0,1.4758594E1,1.7514299E2,4.4293427E1,2.3280843E2,1.0703439E3,1.8034998E1,1.8740323E2,6.0045567E0,7.114988E1,1.6108856E1,2.195121E2,3.5010471E0,7.0967917E0,7.661802E0,1.3608186E2,3.9061127E1,2.5071148E1,1.9222279E1,1.500561E2,8.275231E1,9.5729694E2,1.130469E2,1.45750265E1,3.4599705E0,8.126603E0,1.7927663E2,3.0031288E0,3.001428E0,4.8434948E1,2.271493E1,4.4483433E0,1.1660514E1,1.0666485E1,2.0884561E2,3.042465E0,4.0543265E0,7.274101E0,1.2880777E2,3.439027E1,4.670858E0,3.800177E0,2.1270971E1,1.2069985E1,7.152293E0,5.424959E0,1.4463115E2,5.3971977E1,2.8780333E1,2.6383976E1,9.3091296E2,1.06190765E2,6.8561335E0,3.0627558E0,5.063847E0,1.1875085E1,1.6740155E2,9.499006E0,3.8935944E1,1.2763166E1,9.951762E0],"tree_param":{"num_deleted":"0","num_feature":"64","num_nodes":"79","size_leaf_vector":"0"}},{"base_weights":[1.9071044E-1,4.6531516E-1,6.279289E-2,1.5901317E-1,7.471667E-1,-3.397562E-2,5.8933336E-1,2.8095222E-1,-1.6797384E0,9.4034743E-1,3.347715E-1,-3.1947725E0,-9.643864E-3,7.3712486E-1,-1.0405156E-1,5.291452E-1,-1.6349629E-1,3.9817345E-1,-3.674985E0,1.8867E-1,9.6924245E-1,6.2167966E-1,-1.535511E0,-1.6355321E-1,3.9274812E-1,7.8250784E-1,-4.4671032E-1,-2.064504E0,3.880092E-1,-9.971641E-1,5.757866E-1,-7.9904383E-1,5.5846834E-1,8.026173E-1,2.522485E-2,-1.2176932E0,-4E0,9.776681E-1,3.2222643E-1,-1.2478304E0,7.282234E-1,-2.7851963E0,4.4565162E-1,3.0954453E-1,-4.0158835E-1,-1.2412311E0,4.462337E-1,-6.104147E-1,8.139399E-1,6.649432E-1,-1.2027974E0,1.3223282E-1,6.978381E-1,-2.2146008E0,2.7406684E-1,-1.0332371E0,8.245853E-1,9.921722E-1,6.772891E-1,8.7181264E-1,2.2874044E-1,-3.3084924E0,-1.5739975E0,-1.5929837E0,3.6004645E-1,-8.973288E-1,-8.4857136E-2,-1.1354046E-1,-1.7185717E0,2.8828397E-1,8.779091E-1,3.7717202E-1,8.909776E-1,8.82164E-1,-2.307396E-1],"categories":[],"categories_nodes":[],"categories_segments":[],"categories_sizes":[],"default_left":[true,true,true,true,true,false,true,true,false,false,false,false,true,false,false,true,true,false,false,false,true,true,false,true,false,false,false,false,true,false,false,true,false,false,false,false,false,true,false,false,false,false,false,false,true,false,false,false,false,false,false,false,false,false,false,false,false,false,false,false,false,false,false,false,false,false,false,false,false,false,false,false,false,false,false],"id":18,"left_children":[1,3,5,7,9,11,13,15,17,19,21,-1,23,25,27,29,31,33,35,-1,37,39,41,43,45,47,-1,-1,49,-1,51,53,55,-1,-1,-1,-1,57,-1,-1,59,61,-1,63,65,67,69,-1,71,73,-1,-1,-1,-1,-1,-1,-1,-1,-1,-1,-1,-1,-1,-1,-1,-1,-1,-1,-1,-1,-1,-1,-1,-1,-1],"loss_changes":[6.74808E1,5.2595642E1,6.688471E1,6.636448E1,2.4997177E1,8.529877E1,2.0960114E1,3.0582544E1,7.783272E1,4.504593E0,5.6174767E1,0E0,6.831523E1,9.381241E0,3.6185814E1,1.3219696E1,4.6251328E1,1.4768777E0,1.4144104E1,0E0,8.166504E-1,1.8821884E1,3.584092E1,8.997271E1,2.7225632E1,7.601158E0,0E0,0E0,1.408819E1,0E0,9.273285E0,8.187991E1,2.0897846E1,0E0,0E0,0E0,0E0,2.1862793E-1,0E0,0E0,5.948105E0,3.113327E-1,0E0,2.6287287E1,8.3334145E1,5.15423E0,1.9946186E1,0E0,5.0176315E0,5.3272905E0,0E0,0E0,0E0,0E0,0E0,0E0,0E0,0E0,0E0,0E0,0E0,0E0,0E0,0E0,0E0,0E0,0E0,0E0,0E0,0E0,0E0,0E0,0E0,0E0,0E0],"parents":[2147483647,0,0,1,1,2,2,3,3,4,4,5,5,6,6,7,7,8,8,9,9,10,10,12,12,13,13,14,14,15,15,16,16,17,17,18,18,20,20,21,21,22,22,23,23,24,24,25,25,28,28,30,30,31,31,32,32,37,37,40,40,41,41,43,43,44,44,45,45,46,46,48,48,49,49],"right_children":[2,4,6,8,10,12,14,16,18,20,22,-1,24,26,28,30,32,34,36,-1,38,40,42,44,46,48,-1,-1,50,-1,52,54,56,-1,-1,-1,-1,58,-1,-1,60,62,-1,64,66,68,70,-1,72,74,-1,-1,-1,-1,-1,-1,-1,-1,-1,-1,-1,-1,-1,-1,-1,-1,-1,-1,-1,-1,-1,-1,-1,-1,-1],"split_conditions":[-1.5722414E-2,1.2119422E-2,6.2683195E-2,-1.5482312E-2,-5.1230974E-2,-1.7010972E-2,3.6378354E-2,-3.1035695E-2,-1.6869146E-2,-1.7088454E-2,-1.3917373E-2,-7.986931E-1,4.705162E-1,-7.1674155E-4,-1.19598545E-2,-1.9981773E-1,-1.0946762E-2,-1.1214768E-2,-6.611805E-2,4.71675E-2,-1.2226459E-2,-7.907103E-2,2.4363391E0,-1.3052233E-2,-1.2748923E-2,-4.12554E-2,-1.1167758E-1,-5.16126E-1,1.3683659E-2,-2.4929102E-1,-1.2643418E-2,1.2008769E-2,6.3228416E-3,2.0065433E-1,6.3062124E-3,-3.044233E-1,-1E0,-6.537442E-2,8.055661E-2,-3.119576E-1,-1.600221E-2,-3.7214167E-2,1.11412905E-1,-6.131136E-3,-9.9257305E-2,-7.350074E-2,-2.8527722E-2,-1.5260367E-1,-5.0608143E-2,-1.1142139E-2,-3.0069935E-1,3.3058204E-2,1.7445953E-1,-5.536502E-1,6.851671E-2,-2.5830927E-1,2.0614633E-1,2.4804305E-1,1.6932228E-1,2.1795316E-1,5.718511E-2,-8.271231E-1,-3.9349937E-1,-3.9824593E-1,9.001161E-2,-2.243322E-1,-2.1214284E-2,-2.8385116E-2,-4.2964292E-1,7.207099E-2,2.1947728E-1,9.4293006E-2,2.227444E-1,2.20541E-1,-5.76849E-2],"split_indices":[45,4,60,59,60,3,24,26,57,3,46,0,28,39,20,52,40,22,33,0,46,63,26,20,20,36,0,0,56,0,20,55,41,0,0,0,0,60,0,0,45,23,0,44,60,33,26,0,42,40,0,0,0,0,0,0,0,0,0,0,0,0,0,0,0,0,0,0,0,0,0,0,0,0,0],"split_type":[0,0,0,0,0,0,0,0,0,0,0,0,0,0,0,0,0,0,0,0,0,0,0,0,0,0,0,0,0,0,0,0,0,0,0,0,0,0,0,0,0,0,0,0,0,0,0,0,0,0,0,0,0,0,0,0,0,0,0,0,0,0,0,0,0,0,0,0,0,0,0,0,0,0,0],"sum_hessian":[1.9208972E3,6.0960364E2,1.3112935E3,2.928803E2,3.1672336E2,1.1085059E3,2.0278763E2,2.7546005E2,1.7420263E1,2.1481573E2,1.0190761E2,7.472682E0,1.1010332E3,1.6710661E2,3.568102E1,1.7663266E2,9.882738E1,8.925455E0,8.494808E0,8.230719E0,2.0658502E2,8.8932625E1,1.2974988E1,7.968447E2,3.0418848E2,1.6126349E2,5.8431196E0,6.5177174E0,2.9163301E1,4.6332545E0,1.7199942E2,5.2502506E1,4.632487E1,3.7292194E0,5.1962357E0,3.023531E0,5.4712768E0,2.0342491E2,3.1601067E0,4.2174587E0,8.4715164E1,7.7074285E0,5.26756E0,2.6662463E2,5.302201E2,8.937639E0,2.9525085E2,3.1522095E0,1.5811128E2,2.5334908E1,3.828394E0,3.75652E1,1.3443422E2,2.2180346E1,3.032216E1,6.2227225E0,4.010215E1,1.918578E2,1.1567105E1,6.5220436E1,1.9494728E1,4.1729355E0,3.534493E0,6.1046543E0,2.6051996E2,2.059846E2,3.242355E2,3.0262203E0,5.911419E0,2.1737961E2,7.787122E1,2.4590506E1,1.3352078E2,2.0402092E1,4.9328165E0],"tree_param":{"num_deleted":"0","num_feature":"64","num_nodes":"75","size_leaf_vector":"0"}},{"base_weights":[1.6069527E-1,4.4509634E-1,5.9066765E-2,1.6794829E-1,7.875561E-1,-2.2723345E-2,5.0369465E-1,2.2860028E-1,-2.705311E0,9.453018E-1,3.4952784E-1,-3.108556E0,4.33569E-3,6.451647E-1,-2.282061E-1,3.3754805E-1,-8.262155E-1,9.70403E-1,3.6876756E-1,-1.7997441E0,5.8149654E-1,-2.3782074E0,2.4110723E-2,7.00347E-1,-2.0476617E-1,-1.9260489E0,2.8855723E-1,6.0305196E-1,-3.679941E-2,1.6624436E-2,-2.9475067E0,5.647445E-1,9.86907E-1,-1.7344598E-1,7.9667217E-1,7.30531E-1,-7.7619344E-1,-4.6464223E-1,-3.3144245E0,-1.4107083E-1,3.1330582E-1,-6.842996E-1,7.362246E-1,8.7775916E-1,-1.7784063E0,5.5688506E-1,-1.1055771E0,-2.29258E-1,7.520461E-1,-5.0837535E-1,8.032056E-1,-6.111659E-1,8.002127E-1,-2.130283E-1,8.3348274E-1,-6.439453E-1,4.9839154E-2,-1.0265337E0,3.7965968E-1,7.8273386E-1,3.1666648E-2,-4.674339E-1,8.1518143E-1],"categories":[],"categories_nodes":[],"categories_segments":[],"categories_sizes":[],"default_left":[true,true,true,false,true,true,true,true,false,false,true,false,true,false,false,false,true,true,true,false,false,false,true,false,false,false,true,false,true,false,false,false,false,false,false,true,false,false,false,true,false,false,true,false,false,true,false,false,false,false,false,false,false,false,false,false,false,false,false,false,false,false,false],"id":19,"left_children":[1,3,5,7,9,11,13,15,-1,17,19,-1,21,23,25,27,29,31,33,-1,35,37,39,41,43,-1,45,47,49,51,-1,-1,-1,-1,-1,53,-1,-1,-1,55,57,-1,59,-1,-1,61,-1,-1,-1,-1,-1,-1,-1,-1,-1,-1,-1,-1,-1,-1,-1,-1,-1],"loss_changes":[5.190683E1,4.47499E1,4.819335E1,4.6387455E1,1.4266129E1,9.353429E1,2.1466103E1,2.9942822E1,0E0,1.8812866E0,2.972364E1,0E0,5.241503E1,8.248207E0,3.04658E1,2.3346418E1,4.3772446E1,4.3119812E-1,2.0101807E0,0E0,1.1224813E1,1.4866058E1,5.2739876E1,8.576256E0,2.0826414E1,0E0,1.0717872E1,1.7205505E1,3.935497E1,9.587665E0,0E0,0E0,0E0,0E0,0E0,4.838108E0,0E0,0E0,0E0,6.750229E1,3.6069588E1,0E0,5.181282E0,0E0,0E0,6.548714E0,0E0,0E0,0E0,0E0,0E0,0E0,0E0,0E0,0E0,0E0,0E0,0E0,0E0,0E0,0E0,0E0,0E0],"parents":[2147483647,0,0,1,1,2,2,3,3,4,4,5,5,6,6,7,7,9,9,10,10,12,12,13,13,14,14,15,15,16,16,17,17,18,18,20,20,21,21,22,22,23,23,24,24,26,26,27,27,28,28,29,29,35,35,39,39,40,40,42,42,45,45],"right_children":[2,4,6,8,10,12,14,16,-1,18,20,-1,22,24,26,28,30,32,34,-1,36,38,40,42,44,-1,46,48,50,52,-1,-1,-1,-1,-1,54,-1,-1,-1,56,58,-1,60,-1,-1,62,-1,-1,-1,-1,-1,-1,-1,-1,-1,-1,-1,-1,-1,-1,-1,-1,-1],"split_conditions":[-1.5801713E-2,1.2169825E-2,3.628523E-2,1.2982026E-1,-1.6956856E-2,-3.815321E-2,3.6378354E-2,-1.5557518E-2,-6.7632776E-1,-1.1598115E-2,-8.379066E-2,-7.77139E-1,-4.4691555E-2,1.3006941E-2,-1.1958428E-2,-1.5655972E-2,-1.6038747E-1,-1.7384501E-2,1.3451815E-1,-4.4993603E-1,-6.1911874E-2,-5.6928143E-2,-7.276562E-4,-4.125198E-2,-1.4149569E-1,-4.8151222E-1,1.3683659E-2,-4.1256115E-2,-1.2405543E-2,-3.0829359E-2,-7.3687667E-1,1.4118612E-1,2.4672675E-1,-4.3361496E-2,1.9916804E-1,-4.13449E-2,-1.9404836E-1,-1.1616056E-1,-8.286061E-1,2.4215154E-2,-5.976317E-2,-1.710749E-1,-1.4704862E-2,2.1943979E-1,-4.4460157E-1,-3.8757062E-1,-2.7639428E-1,-5.73145E-2,1.8801153E-1,-1.2709384E-1,2.008014E-1,-1.5279147E-1,2.0005317E-1,-5.3257074E-2,2.0837069E-1,-1.6098632E-1,1.24597885E-2,-2.5663343E-1,9.491492E-2,1.9568346E-1,7.916662E-3,-1.16858475E-1,2.0379536E-1],"split_indices":[45,4,60,8,60,2,24,59,0,19,32,0,56,4,20,49,54,3,23,0,27,33,29,36,12,0,56,36,43,26,0,0,0,0,0,2,0,0,0,2,52,0,59,0,0,28,0,0,0,0,0,0,0,0,0,0,0,0,0,0,0,0,0],"split_type":[0,0,0,0,0,0,0,0,0,0,0,0,0,0,0,0,0,0,0,0,0,0,0,0,0,0,0,0,0,0,0,0,0,0,0,0,0,0,0,0,0,0,0,0,0,0,0,0,0,0,0,0,0,0,0,0,0,0,0,0,0,0,0],"sum_hessian":[1.7957915E3,4.718813E2,1.3239102E3,2.6163446E2,2.102468E2,1.1190144E3,2.0489583E2,2.571272E2,4.5072913E0,1.5372739E2,5.6519405E1,8.737199E0,1.1102772E3,1.7180577E2,3.309005E1,2.336721E2,2.3455076E1,1.4665897E2,7.0684257E0,4.847456E0,5.167195E1,8.157677E0,1.1021195E3,1.614965E2,1.0309268E1,7.084979E0,2.600507E1,1.3635332E2,9.7318794E1,1.7495754E1,5.9593205E0,7.110307E0,1.3954866E2,3.3800733E0,3.6883523E0,4.697717E1,4.694781E0,3.171546E0,4.9861307E0,7.017872E2,4.0033237E2,3.6223829E0,1.5787413E2,6.3696933E0,3.939575E0,2.231137E1,3.6936991E0,2.0621113E1,1.157322E2,6.2580894E1,3.4737904E1,9.835695E0,7.6600595E0,4.516249E0,4.2460922E1,1.924591E2,5.0932803E2,1.82076E1,3.8212476E2,1.479938E2,9.8803215E0,4.3300653E0,1.7981306E1],"tree_param":{"num_deleted":"0","num_feature":"64","num_nodes":"63","size_leaf_vector":"0"}},{"base_weights":[1.3264982E-1,3.266621E-2,4.381147E-1,2.1840456E-1,-2.775685E-1,9.549402E-1,2.1588808E-1,5.2786815E-1,-5.3598326E-2,-9.579525E-2,-1.3619707E0,9.858612E-1,-1.61487E-1,-1.9585755E0,2.5608808E-1,6.4284414E-1,2.6930377E-2,2.9979905E-1,-4.9643326E-1,-1.0689564E0,5.215331E-2,-2.0936356E0,-9.416762E-2,5.426427E-1,-4.7554452E-2,-1.0600694E0,6.810217E-1,3.5550964E-1,-3.3944747E0,-1.5075983E-1,5.0405264E-1,-2.1826026E0,-1.13588214E-1,1.5288357E-1,-1.5327212E0,1.3712263E-1,-2.031898E0,-8.7070745E-1,-2.2170837E0,5.769407E-1,-2.4165053E0,5.1434323E-2,8.320155E-1,-1.1463933E0,4.0874487E-1,7.100297E-1,-7.3399436E-1,-4.9253267E-1,9.544967E-1,1.4775404E-1,-3.2482126E0,5.9026146E-1,-1.1677773E0,2.168959E-1,-4E0,4.0811673E-1,-9.7279817E-1,-1.3119395E0,6.465217E-1,-1.8754479E0,-1.1242054E0,4.8633713E-1,-2.0677368E-1,-2.5818894E0,-1.359842E0,-2.5690093E0,-1.7389202E0,7.833836E-1,-4.877398E-1,-1.9975234E0,4.260708E-1,9.025976E-1,-3.8302386E-1,3.032631E-1,-1.9046276E0,4.9680412E-1,-1.3073736E0],"categories":[],"categories_nodes":[],"categories_segments":[],"categories_sizes":[],"default_left":[false,false,true,false,false,false,false,true,false,true,false,false,false,false,false,false,false,false,false,false,false,true,false,false,false,false,false,true,false,true,false,false,true,false,false,true,false,false,false,true,false,false,false,false,false,false,false,false,false,false,false,false,false,false,false,false,false,false,false,false,false,false,false,false,false,false,false,false,false,false,false,false,false,false,false,false,false],"id":20,"left_children":[1,3,5,7,9,11,13,15,17,19,21,-1,-1,-1,23,25,27,29,31,33,35,37,39,41,43,-1,45,47,-1,49,51,53,55,57,59,61,63,-1,65,67,-1,69,71,73,75,-1,-1,-1,-1,-1,-1,-1,-1,-1,-1,-1,-1,-1,-1,-1,-1,-1,-1,-1,-1,-1,-1,-1,-1,-1,-1,-1,-1,-1,-1,-1,-1],"loss_changes":[5.195492E1,7.399386E1,4.797821E1,6.763126E1,9.4669785E1,4.5039444E0,2.626012E1,2.162629E1,6.71827E1,5.9514225E1,6.3778244E1,0E0,0E0,0E0,2.5277079E1,2.0589325E1,8.124256E1,2.2057E1,1.2272122E2,3.1141815E1,6.3925785E1,4.6644135E0,4.235982E1,2.1191444E1,7.157881E1,0E0,1.2814606E1,3.392504E1,0E0,7.008042E1,2.4409195E1,1.6808965E2,7.04578E1,1.2357146E1,3.4399261E0,4.168679E1,1.7167892E0,0E0,2.1008606E0,5.0415535E0,0E0,4.417974E1,8.40213E0,4.660667E1,1.5904728E1,0E0,0E0,0E0,0E0,0E0,0E0,0E0,0E0,0E0,0E0,0E0,0E0,0E0,0E0,0E0,0E0,0E0,0E0,0E0,0E0,0E0,0E0,0E0,0E0,0E0,0E0,0E0,0E0,0E0,0E0,0E0,0E0],"parents":[2147483647,0,0,1,1,2,2,3,3,4,4,5,5,6,6,7,7,8,8,9,9,10,10,14,14,15,15,16,16,17,17,18,18,19,19,20,20,21,21,22,22,23,23,24,24,26,26,27,27,29,29,30,30,31,31,32,32,33,33,34,34,35,35,36,36,38,38,39,39,41,41,42,42,43,43,44,44],"right_children":[2,4,6,8,10,12,14,16,18,20,22,-1,-1,-1,24,26,28,30,32,34,36,38,40,42,44,-1,46,48,-1,50,52,54,56,58,60,62,64,-1,66,68,-1,70,72,74,76,-1,-1,-1,-1,-1,-1,-1,-1,-1,-1,-1,-1,-1,-1,-1,-1,-1,-1,-1,-1,-1,-1,-1,-1,-1,-1,-1,-1,-1,-1,-1,-1],"split_conditions":[-3.0403044E-2,-2.3892451E-2,-6.755401E-2,-1.6498908E-2,-1.6586794E-2,1.3123461E-2,-1.5360802E-2,-5.4062568E-2,-8.98E-3,-4.9792856E-2,-1.0858358E-2,2.464653E-1,-4.037175E-2,-4.8964387E-1,-1.4139038E-2,-7.19468E-2,-1.6570354E-2,-1.26310345E-2,-1.2453306E-2,-2.2177454E-2,-3.06197E-2,-6.1132453E-2,5.931504E-3,-5.0134704E-2,-9.324502E-3,-2.6501736E-1,1.8815871E-2,2.221322E-2,-8.486187E-1,-4.121159E-2,-5.5732667E-2,-5.8317743E-2,-1.2260105E-2,1.2422308E-2,-2.2747643E-2,5.246862E-3,1.4574374E-2,-2.1767686E-1,-1.4785035E-2,-4.3661442E-1,-6.0412633E-1,-1.166281E-2,-3.5722656E-3,-3.47979E-2,1.4489116E-2,1.7750743E-1,-1.8349859E-1,-1.2313317E-1,2.3862417E-1,3.693851E-2,-8.1205314E-1,1.4756536E-1,-2.9194432E-1,5.4223973E-2,-1E0,1.0202918E-1,-2.4319954E-1,-3.2798487E-1,1.6163042E-1,-4.6886197E-1,-2.8105134E-1,1.2158428E-1,-5.169342E-2,-6.4547235E-1,-3.399605E-1,-6.422523E-1,-4.3473005E-1,1.958459E-1,-1.2193495E-1,-4.9938086E-1,1.065177E-1,2.256494E-1,-9.5755965E-2,7.5815775E-2,-4.761569E-1,1.2420103E-1,-3.268434E-1],"split_indices":[26,25,33,57,57,55,49,6,38,33,20,0,0,0,45,33,57,20,20,11,26,33,38,39,49,0,38,6,0,36,63,33,20,4,25,24,12,0,45,28,0,20,29,33,4,0,0,0,0,0,0,0,0,0,0,0,0,0,0,0,0,0,0,0,0,0,0,0,0,0,0,0,0,0,0,0,0],"split_type":[0,0,0,0,0,0,0,0,0,0,0,0,0,0,0,0,0,0,0,0,0,0,0,0,0,0,0,0,0,0,0,0,0,0,0,0,0,0,0,0,0,0,0,0,0,0,0,0,0,0,0,0,0,0,0,0,0,0,0,0,0,0,0,0,0,0,0,0,0,0,0,0,0,0,0,0,0],"sum_hessian":[1.7005953E3,1.2820625E3,4.1853293E2,8.021244E2,4.7993805E2,1.24857834E2,2.9367508E2,3.7478394E2,4.2734045E2,4.1196982E2,6.796823E1,1.2160672E2,3.2511184E0,4.464497E0,2.892106E2,3.0459055E2,7.019339E1,2.3785059E2,1.8948988E2,5.354457E1,3.5842523E2,4.2683605E1,2.5284624E1,1.4838708E2,1.4082352E2,6.091946E0,2.9849863E2,6.486051E1,5.332875E0,7.427367E1,1.6357692E2,3.4192852E1,1.5529703E2,1.491629E1,3.862828E1,3.452819E2,1.314336E1,4.652022E0,3.803158E1,2.0199074E1,5.0855517E0,5.5445858E1,9.294122E1,4.087584E1,9.994767E1,2.929905E2,5.5081177E0,2.6922094E1,3.793842E1,6.861341E1,5.66025E0,1.5617082E2,7.4061E0,1.5889311E1,1.8303541E1,9.6953E1,5.8344025E1,3.341883E0,1.1574408E1,1.9052876E1,1.9575405E1,1.7111078E2,1.7417111E2,5.665281E0,7.4780793E0,1.9388847E1,1.8642735E1,1.7139843E1,3.0592296E0,7.901139E0,4.754472E1,8.808167E1,4.859551E0,1.4243655E1,2.6632185E1,9.57452E1,4.2024684E0],"tree_param":{"num_deleted":"0","num_feature":"64","num_nodes":"77","size_leaf_vector":"0"}},{"base_weights":[1.1211053E-1,2.7155053E-2,3.9343348E-1,3.43407E-1,-1.1194865E-1,9.406323E-1,1.8268004E-1,5.8140707E-1,-3.3206117E-1,6.4786896E-2,-1.2221185E0,9.783656E-1,-1.297642E-1,-1.7447934E0,2.1916766E-1,-3.5345644E-2,7.4543273E-1,5.444855E-1,-8.360515E-1,7.2609764E-1,-9.202462E-2,-2.5925765E-2,-2.0630617E0,4.83671E-1,-4.7304697E-2,8.788882E-1,-1.8449869E0,8.681641E-1,3.3024868E-1,8.303972E-1,-1.4243586E0,3.3667135E-1,-1.2175562E0,-1.0646605E0,8.295053E-1,4.3943007E-3,-2.0631936E0,6.27298E-1,-1.4580823E0,-5.413422E-1,-2.8245704E0,3.343558E-2,7.73248E-1,2.535485E-1,-1.3282467E0,9.5163506E-1,1.04805365E-1,-1.9721998E0,-9.7195476E-1,8.963856E-1,-2.8969613E-1,5.885047E-1,-1.5904787E0,3.8545495E-1,9.551697E-1,-3.2225293E-1,7.3750335E-1,-1.4365544E0,-4.8541328E-1,8.8432664E-1,-4.9614456E-1,7.4962825E-2,-9.121784E-1,-2.349163E0,7.352111E-2,-5.6851286E-1,9.0448385E-1,-2.2616568E0,8.0245996E-1,-1.7732682E0,4.4627094E-1,-3.5820212E0,-1.9839315E0,-1.0444157E0,5.8730567E-1,-1.17103025E-1,8.7526184E-1,6.0946196E-1,-2.1026252E-1,2.1289581E-1,-1.8012339E0],"categories":[],"categories_nodes":[],"categories_segments":[],"categories_sizes":[],"default_left":[false,false,true,true,false,false,false,false,false,false,true,false,false,false,false,true,true,false,false,true,false,false,true,false,true,false,false,true,false,false,false,false,true,false,false,false,false,true,true,true,false,false,false,true,false,false,false,false,false,false,false,false,false,false,false,false,false,false,false,false,false,false,false,false,false,false,false,false,false,false,false,false,false,false,false,false,false,false,false,false,false],"id":21,"left_children":[1,3,5,7,9,11,13,15,17,19,21,-1,-1,-1,23,25,27,29,31,33,35,37,39,41,43,45,47,49,51,53,-1,55,57,-1,59,61,63,65,67,69,71,73,75,77,79,-1,-1,-1,-1,-1,-1,-1,-1,-1,-1,-1,-1,-1,-1,-1,-1,-1,-1,-1,-1,-1,-1,-1,-1,-1,-1,-1,-1,-1,-1,-1,-1,-1,-1,-1,-1],"loss_changes":[3.7005993E1,5.2417603E1,4.1248264E1,5.8705757E1,1.6247632E2,4.150833E0,1.8705643E1,2.7290283E1,4.2630127E1,7.4209564E1,1.1434032E2,0E0,0E0,0E0,1.8107662E1,9.687086E1,1.0563499E1,2.1142563E1,2.7705708E1,2.6280632E1,1.10017265E2,4.5779194E1,7.58356E1,1.6774244E1,4.9945126E1,2.0922737E0,2.6501465E-1,5.60997E0,2.5835587E1,1.3857803E0,0E0,4.399907E0,6.71846E0,0E0,9.9028015E0,3.5825397E1,1.666716E1,1.1662618E1,2.964896E1,2.9387802E1,2.107483E1,3.1347805E1,7.221115E0,1.747496E1,1.8347404E1,0E0,0E0,0E0,0E0,0E0,0E0,0E0,0E0,0E0,0E0,0E0,0E0,0E0,0E0,0E0,0E0,0E0,0E0,0E0,0E0,0E0,0E0,0E0,0E0,0E0,0E0,0E0,0E0,0E0,0E0,0E0,0E0,0E0,0E0,0E0,0E0],"parents":[2147483647,0,0,1,1,2,2,3,3,4,4,5,5,6,6,7,7,8,8,9,9,10,10,14,14,15,15,16,16,17,17,18,18,19,19,20,20,21,21,22,22,23,23,24,24,25,25,26,26,27,27,28,28,29,29,31,31,32,32,34,34,35,35,36,36,37,37,38,38,39,39,40,40,41,41,42,42,43,43,44,44],"right_children":[2,4,6,8,10,12,14,16,18,20,22,-1,-1,-1,24,26,28,30,32,34,36,38,40,42,44,46,48,50,52,54,-1,56,58,-1,60,62,64,66,68,70,72,74,76,78,80,-1,-1,-1,-1,-1,-1,-1,-1,-1,-1,-1,-1,-1,-1,-1,-1,-1,-1,-1,-1,-1,-1,-1,-1,-1,-1,-1,-1,-1,-1,-1,-1,-1,-1,-1,-1],"split_conditions":[-3.0403044E-2,-1.6798217E-2,-6.755401E-2,1.4727039E-2,1.1888331E-2,1.3123461E-2,-1.5360802E-2,6.221638E-3,-1.2121074E-1,-1.6586794E-2,-1.46846725E-2,2.445914E-1,-3.244105E-2,-4.3619835E-1,-1.4139038E-2,-1.24193326E-1,1.9245606E-2,-1.0659047E-2,-1.5703313E-2,-6.649923E-2,1.09204E-2,-1.4965E-2,-3.269066E-2,-5.0134704E-2,-5.6132846E-2,1.2924645E-2,-1.4309403E-2,2.0663362E-2,1.7937507E-2,2.7809672E-2,-3.5608965E-1,-7.983214E-3,7.62865E-1,-2.6616514E-1,1.911652E-2,-2.3892451E-2,-1.6494464E-2,1.2544662E-2,5.34147E-1,2.2626525E-2,1.2654875E-2,-9.938312E-3,1.2701561E-2,-1.5671425E-2,-7.6431155E-2,2.3790877E-1,2.6201341E-2,-4.9304995E-1,-2.4298869E-1,2.240964E-1,-7.242403E-2,1.4712617E-1,-3.9761966E-1,9.636374E-2,2.3879242E-1,-8.056323E-2,1.8437584E-1,-3.591386E-1,-1.2135332E-1,2.2108166E-1,-1.2403614E-1,1.8740706E-2,-2.280446E-1,-5.8729076E-1,1.8380277E-2,-1.4212821E-1,2.2612096E-1,-5.654142E-1,2.0061499E-1,-4.4331706E-1,1.11567736E-1,-8.955053E-1,-4.959829E-1,-2.6110393E-1,1.4682642E-1,-2.9275756E-2,2.1881546E-1,1.5236549E-1,-5.256563E-2,5.3223953E-2,-4.5030847E-1],"split_indices":[26,57,33,12,18,55,49,41,8,57,46,0,0,0,45,34,24,19,45,33,22,45,43,39,1,4,45,5,22,38,0,20,28,0,48,25,57,4,0,48,4,20,4,59,63,0,0,0,0,0,0,0,0,0,0,0,0,0,0,0,0,0,0,0,0,0,0,0,0,0,0,0,0,0,0,0,0,0,0,0,0],"split_type":[0,0,0,0,0,0,0,0,0,0,0,0,0,0,0,0,0,0,0,0,0,0,0,0,0,0,0,0,0,0,0,0,0,0,0,0,0,0,0,0,0,0,0,0,0,0,0,0,0,0,0,0,0,0,0,0,0,0,0,0,0,0,0,0,0,0,0,0,0,0,0,0,0,0,0,0,0,0,0,0,0],"sum_hessian":[1.5478198E3,1.1896571E3,3.5816275E2,3.629721E2,8.26685E2,9.862647E1,2.595363E2,2.685043E2,9.446779E1,7.139656E2,1.1271943E2,9.535116E1,3.275312E0,3.951992E0,2.5558429E2,5.657211E1,2.119322E2,3.4457863E1,6.0009922E1,1.3615169E2,5.7781384E2,4.6956863E1,6.5762566E1,1.2785699E2,1.2772731E2,3.7926105E1,1.8646004E1,1.6273541E2,4.919678E1,3.0593384E1,3.8644795E0,1.4759039E1,4.5250885E1,6.9254103E0,1.2922629E2,5.518196E2,2.5994257E1,3.2634064E1,1.4322798E1,2.2503933E1,4.325863E1,5.048233E1,7.737466E1,1.0408343E2,2.364388E1,3.4458397E1,3.46771E0,1.51756735E1,3.4703298E0,1.5908376E2,3.6516597E0,4.397731E1,5.2194715E0,7.5958037E0,2.2997581E1,5.6564646E0,9.102574E0,3.4091373E1,1.1159512E1,1.2441413E2,4.812149E0,5.132238E2,3.859578E1,2.2838247E1,3.156009E0,5.9432406E0,2.6690825E1,1.0566235E1,3.756563E0,9.659449E0,1.2844484E1,2.1039812E1,2.2218819E1,1.6835047E1,3.3647285E1,7.9388075E0,6.9435844E1,5.8714108E1,4.536932E1,5.6815324E0,1.7962347E1],"tree_param":{"num_deleted":"0","num_feature":"64","num_nodes":"81","size_leaf_vector":"0"}},{"base_weights":[9.649343E-2,3.5370547E-1,9.364478E-3,4.8563197E-2,7.4785715E-1,-5.8343735E-2,4.7932112E-1,1.7336985E-1,-9.6825737E-1,9.778064E-1,3.785364E-1,-2.6106615E0,-3.6718875E-2,1.03440136E-1,7.4111503E-1,-7.3072473E-3,6.666191E-1,-1.4192927E-1,-2.2616107E0,4.5755592E-1,9.917311E-1,6.8903977E-1,-6.93242E-1,-1.1165522E-1,5.4524547E-1,3.4568766E-1,-1.2460968E0,8.678506E-1,2.2763939E-1,-2.3403385E0,1.4198281E-1,-2.1741171E-1,7.7919835E-1,-7.648896E-1,7.2835493E-1,8.026925E-1,-6.339112E-2,-2.4530232E0,2.7026737E-1,-1.7365932E-1,5.7953095E-1,-4.2763785E-1,6.416275E-1,-9.3186796E-1,7.093045E-1,-1.979873E0,8.6987995E-2,1.9345264E-1,9.0405196E-1,-1.0195403E0,8.5183746E-1,-4E0,-3.9448985E-1,2.5513625E-1,-1.9453843E0,9.0651566E-1,3.0515566E-1,5.003921E-1,-1.5968474E0,1.844488E-1,8.8165045E-1,-3.883294E-1,2.955044E-1,8.4704804E-1,-6.25767E-1,7.5256824E-2,-4.4533962E-1,-1.0241855E0,7.0213693E-1,-1.3230928E0,7.6593286E-1,-3.8631818E-1,7.265544E-1,-1.8061295E0,4.6945837E-1,8.299013E-1,-4.44073E-2,9.5916003E-1,4.8944858E-1],"categories":[],"categories_nodes":[],"categories_segments":[],"categories_sizes":[],"default_left":[true,true,true,true,true,false,true,false,true,false,false,false,true,true,true,true,true,false,false,false,false,false,true,true,true,true,false,true,true,false,false,false,false,true,false,false,false,false,false,false,true,false,true,true,false,false,false,false,false,false,false,false,false,false,false,false,false,false,false,false,false,false,false,false,false,false,false,false,false,false,false,false,false,false,false,false,false,false,false],"id":22,"left_children":[1,3,5,7,9,11,13,15,17,19,21,-1,23,25,27,29,31,33,-1,-1,-1,35,37,39,41,43,45,47,49,51,53,-1,55,57,-1,59,61,-1,63,65,67,69,71,73,75,-1,-1,-1,77,-1,-1,-1,-1,-1,-1,-1,-1,-1,-1,-1,-1,-1,-1,-1,-1,-1,-1,-1,-1,-1,-1,-1,-1,-1,-1,-1,-1,-1,-1],"loss_changes":[3.1551489E1,4.2810436E1,3.352738E1,2.5785845E1,1.2825684E1,5.074266E1,1.2980034E1,1.6103773E1,2.3426857E1,2.3538208E-1,2.08625E1,0E0,3.9936882E1,1.8619225E1,4.8815956E0,4.672707E1,4.9904385E0,8.486162E0,0E0,0E0,0E0,4.155304E0,2.4838455E1,3.4852634E1,1.0071072E1,2.293634E1,8.666906E0,1.3447342E0,1.3951933E1,2.537247E1,3.0288717E1,0E0,2.3298912E0,1.0285107E1,0E0,1.8764439E0,9.573413E-1,0E0,5.757265E0,5.040844E1,1.3890049E1,1.1720001E1,8.614361E0,1.4393205E1,3.4813404E0,0E0,0E0,0E0,8.7400436E-1,0E0,0E0,0E0,0E0,0E0,0E0,0E0,0E0,0E0,0E0,0E0,0E0,0E0,0E0,0E0,0E0,0E0,0E0,0E0,0E0,0E0,0E0,0E0,0E0,0E0,0E0,0E0,0E0,0E0,0E0],"parents":[2147483647,0,0,1,1,2,2,3,3,4,4,5,5,6,6,7,7,8,8,9,9,10,10,12,12,13,13,14,14,15,15,16,16,17,17,21,21,22,22,23,23,24,24,25,25,26,26,27,27,28,28,29,29,30,30,32,32,33,33,35,35,36,36,38,38,39,39,40,40,41,41,42,42,43,43,44,44,48,48],"right_children":[2,4,6,8,10,12,14,16,18,20,22,-1,24,26,28,30,32,34,-1,-1,-1,36,38,40,42,44,46,48,50,52,54,-1,56,58,-1,60,62,-1,64,66,68,70,72,74,76,-1,-1,-1,78,-1,-1,-1,-1,-1,-1,-1,-1,-1,-1,-1,-1,-1,-1,-1,-1,-1,-1,-1,-1,-1,-1,-1,-1,-1,-1,-1,-1,-1,-1],"split_conditions":[-1.5801713E-2,1.2169825E-2,6.2683195E-2,-1.5557518E-2,-6.399824E-2,