{"learner":{"attributes":{"scikit_learn":"{\"use_label_encoder\": true, \"n_estimators\": 100, \"objective\": \"binary:logistic\", \"max_depth\": 6, \"learning_rate\": 0.2, \"verbosity\": null, \"booster\": null, \"tree_method\": null, \"gamma\": 0, \"min_child_weight\": 1, \"max_delta_step\": 0, \"subsample\": 1, \"colsample_bytree\": 0.6, \"colsample_bylevel\": null, \"colsample_bynode\": null, \"reg_alpha\": 50, \"reg_lambda\": 0, \"scale_pos_weight\": 4.5, \"base_score\": null, \"missing\": NaN, \"num_parallel_tree\": null, \"kwargs\": {\"eval_metric\": \"logloss\"}, \"random_state\": 42, \"n_jobs\": null, \"monotone_constraints\": null, \"interaction_constraints\": null, \"importance_type\": \"gain\", \"gpu_id\": null, \"validate_parameters\": null, \"classes_\": [0, 1], \"n_classes_\": 2, \"_le\": {\"classes_\": [0, 1]}, \"_features_count\": 64, \"n_features_in_\": 64, \"type\": \"XGBClassifier\"}"},"gradient_booster":{"model":{"gbtree_model_param":{"num_trees":"100","size_leaf_vector":"0"},"tree_info":[0,0,0,0,0,0,0,0,0,0,0,0,0,0,0,0,0,0,0,0,0,0,0,0,0,0,0,0,0,0,0,0,0,0,0,0,0,0,0,0,0,0,0,0,0,0,0,0,0,0,0,0,0,0,0,0,0,0,0,0,0,0,0,0,0,0,0,0,0,0,0,0,0,0,0,0,0,0,0,0,0,0,0,0,0,0,0,0,0,0,0,0,0,0,0,0,0,0,0,0],"trees":[{"base_weights":[-1.2639344E0,-6.333541E-1,-1.5413235E0,-0E0,-6.9067866E-1,-0E0,-1.5647796E0,-2.8724474E-1,-9.5813954E-1,-0E0,-1.5760598E0,-5.1449275E-1,-0E0,-9.905533E-1,-0E0,-0E0,-1.5822953E0,-0E0,-6.3197833E-1,-0E0,3.6809817E-2,-0E0,-1.0266528E0,-1.5847577E0,-0E0,-0E0,-7.25552E-1,1.5584415E-1,-0E0,-0E0,-1.1043849E0,-1.5871595E0,-0E0],"categories":[],"categories_nodes":[],"categories_segments":[],"categories_sizes":[],"default_left":[false,false,true,false,true,false,true,false,true,false,false,false,true,false,false,false,true,false,false,false,true,false,true,true,false,false,false,false,false,false,false,false,false],"id":0,"left_children":[1,3,5,-1,7,-1,9,11,13,-1,15,17,19,21,-1,-1,23,-1,25,-1,27,-1,29,31,-1,-1,-1,-1,-1,-1,-1,-1,-1],"loss_changes":[3.1806128E2,3.648831E1,5.7317627E1,0E0,1.8617432E1,0E0,3.203711E1,4.225097E1,1.8123749E1,0E0,1.062085E1,1.9052872E1,1.1042945E-1,1.709848E1,0E0,0E0,8.990234E0,0E0,1.2187271E1,0E0,1.7597004E0,0E0,1.2253418E1,8.052246E0,0E0,0E0,0E0,0E0,0E0,0E0,0E0,0E0,0E0],"parents":[2147483647,0,0,1,1,2,2,4,4,6,6,7,7,8,8,10,10,11,11,12,12,13,13,16,16,18,18,20,20,22,22,23,23],"right_children":[2,4,6,-1,8,-1,10,12,14,-1,16,18,20,22,-1,-1,24,-1,26,-1,28,-1,30,32,-1,-1,-1,-1,-1,-1,-1,-1,-1],"split_conditions":[-7.762557E-2,-6.0568266E-2,-9.342787E-2,-0E0,5.406047E-3,-0E0,-7.463167E-1,-9.321136E-2,1.7909211E-1,-0E0,-3.217505E-2,-3.0906748E-2,1.0481666E-2,-1.5776485E-2,-0E0,-0E0,2.2625637E-1,-0E0,-7.397939E-2,-0E0,-4.4832066E-2,-0E0,-4.617585E-1,7.987977E0,-0E0,-0E0,-1.4511041E-1,3.1168832E-2,-0E0,-0E0,-2.2087698E-1,-3.174319E-1,-0E0],"split_indices":[23,39,24,0,37,0,34,23,36,0,15,41,48,59,0,0,46,0,33,0,6,0,34,36,0,0,0,0,0,0,0,0,0],"split_type":[0,0,0,0,0,0,0,0,0,0,0,0,0,0,0,0,0,0,0,0,0,0,0,0,0,0,0,0,0,0,0,0,0],"sum_hessian":[2.44E3,8.005E2,1.6395E3,5.0875E1,7.49625E2,2.5375E1,1.614125E3,3.73375E2,3.7625E2,1.0125E1,1.604E3,2.76E2,9.7375E1,3.705E2,5.75E0,8.375E0,1.595625E3,4.5375E1,2.30625E2,1.5875E1,8.15E1,9.375E0,3.61125E2,1.59425E3,1.375E0,3.25E1,1.98125E2,7.7E1,4.5E0,3.9E1,3.22125E2,1.592625E3,1.625E0],"tree_param":{"num_deleted":"0","num_feature":"64","num_nodes":"33","size_leaf_vector":"0"}},{"base_weights":[-1.0375277E0,-5.1516646E-1,-1.2659974E0,-5.9292525E-1,-0E0,-5.393318E-1,-1.3840382E0,-0E0,-6.729717E-1,-6.6427064E-1,-0E0,-0E0,-1.4025406E0,-0E0,-7.1466666E-1,-0E0,-7.160177E-1,-1.4081981E0,-0E0,-0E0,-8.327788E-1,-7.949633E-1,-0E0,-1.4231638E0,-0E0,-0E0,-8.8307387E-1,-0E0,-8.370902E-1,-0E0,-1.42626E0],"categories":[],"categories_nodes":[],"categories_segments":[],"categories_sizes":[],"default_left":[false,true,true,false,false,false,true,false,false,false,false,false,true,false,true,false,true,true,false,false,false,false,false,false,false,false,false,false,false,false,false],"id":1,"left_children":[1,3,5,7,-1,9,11,-1,13,15,-1,-1,17,-1,19,-1,21,23,-1,-1,25,27,-1,29,-1,-1,-1,-1,-1,-1,-1],"loss_changes":[1.9684033E2,3.0941925E1,4.107715E1,3.383278E1,0E0,1.714302E1,3.9426758E1,0E0,2.3883698E1,1.3186272E1,0E0,0E0,1.1034912E1,0E0,2.833725E1,0E0,1.0552414E1,8.953125E0,0E0,0E0,9.657074E0,9.528717E0,0E0,7.5305176E0,0E0,0E0,0E0,0E0,0E0,0E0,0E0],"parents":[2147483647,0,0,1,1,2,2,3,3,5,5,6,6,8,8,9,9,12,12,14,14,16,16,17,17,20,20,21,21,23,23],"right_children":[2,4,6,8,-1,10,12,-1,14,16,-1,-1,18,-1,20,-1,22,24,-1,-1,26,28,-1,30,-1,-1,-1,-1,-1,-1,-1],"split_conditions":[-7.762557E-2,1.7095624E-2,-6.096131E-3,-1.1314284E-2,-0E0,2.592595E-2,-3.6458507E-1,-0E0,-6.0645964E-2,-1.51197E-1,-0E0,-0E0,3.326473E0,-0E0,-4.4258243E-1,-0E0,-1.01159355E-2,1.12031996E-1,-0E0,-0E0,-8.428833E-2,-1.3351753E-1,-0E0,-1.241813E-2,-0E0,-0E0,-1.7661478E-1,-0E0,-1.6741805E-1,-0E0,-2.85252E-1],"split_indices":[23,5,37,40,0,48,6,0,39,8,0,0,53,0,34,0,58,2,0,0,14,14,0,40,0,0,0,0,0,0,0],"split_type":[0,0,0,0,0,0,0,0,0,0,0,0,0,0,0,0,0,0,0,0,0,0,0,0,0,0,0,0,0,0,0],"sum_hessian":[2.3955898E3,7.9554486E2,1.6000449E3,6.885779E2,1.0696697E2,2.8278522E2,1.3172598E3,7.935951E1,6.092184E2,2.2526462E2,5.752061E1,1.4482552E1,1.3027772E3,2.225E1,5.869684E2,5.6632924E0,2.1960132E2,1.2978949E3,4.882325E0,1.1383106E2,4.731373E2,1.9484875E2,2.4752563E1,1.275162E3,2.2732851E1,3.9976112E1,4.331612E2,5.5197124E0,1.8932904E2,1.8285495E0,1.2733335E3],"tree_param":{"num_deleted":"0","num_feature":"64","num_nodes":"31","size_leaf_vector":"0"}},{"base_weights":[-8.799904E-1,-5.30128E-1,-1.2161547E0,-5.9913105E-1,-0E0,-0E0,-1.2454735E0,-0E0,-6.6451705E-1,-0E0,-1.2584567E0,-0E0,-4.5990296E-2,-0E0,-7.019383E-1,-1.2650636E0,-0E0,-5.199503E-1,-0E0,-7.252865E-1,-0E0,-0E0,-1.268735E0,-5.749514E-1,-0E0,-0E0,-7.457028E-1,-0E0,-1.2724625E0],"categories":[],"categories_nodes":[],"categories_segments":[],"categories_sizes":[],"default_left":[true,true,true,false,false,false,true,true,false,false,true,false,true,false,true,false,false,false,false,false,false,false,false,false,false,false,false,false,false],"id":2,"left_children":[1,3,5,7,-1,-1,9,11,13,-1,15,-1,17,-1,19,21,-1,23,-1,25,-1,-1,27,-1,-1,-1,-1,-1,-1],"loss_changes":[1.8339233E2,3.417746E1,2.3066528E1,3.350348E1,0E0,0E0,2.2533447E1,1.944434E-1,1.9113007E1,0E0,1.0604858E1,0E0,1.3871242E1,0E0,1.3947815E1,7.994751E0,0E0,2.7613716E0,0E0,1.360202E1,0E0,0E0,7.8012695E0,0E0,0E0,0E0,0E0,0E0,0E0],"parents":[2147483647,0,0,1,1,2,2,3,3,6,6,7,7,8,8,10,10,12,12,14,14,15,15,17,17,19,19,22,22],"right_children":[2,4,6,8,-1,-1,10,12,14,-1,16,-1,18,-1,20,22,-1,24,-1,26,-1,-1,28,-1,-1,-1,-1,-1,-1],"split_conditions":[-2.321928E-2,3.6058724E-2,-2.7502306E-2,-1.7140754E-2,-0E0,-0E0,-1.2257188E-1,4.134045E-3,-4.938902E-2,-0E0,3.6672828E0,-0E0,-3.0627786E-3,-0E0,-2.4174767E-2,-1.10778406E-1,-0E0,6.2413985E-1,-0E0,-6.065023E-2,-0E0,-0E0,-2.11651E-2,-1.1499029E-1,-0E0,-0E0,-1.4914057E-1,-0E0,-2.544925E-1],"split_indices":[25,60,37,57,0,0,24,38,38,0,52,0,47,0,15,55,0,3,0,39,0,0,57,0,0,0,0,0,0],"split_type":[0,0,0,0,0,0,0,0,0,0,0,0,0,0,0,0,0,0,0,0,0,0,0,0,0,0,0,0,0],"sum_hessian":[2.301706E3,1.2007572E3,1.1009489E3,1.0353108E3,1.6544637E2,3.63531E1,1.0645957E3,1.17846344E2,9.174645E2,7.624923E0,1.0569708E3,2.5915592E1,9.1930756E1,5.642393E1,8.610405E2,1.0525857E3,4.385092E0,5.2028023E1,3.9902733E1,8.3301086E2,2.8029655E1,1.1162724E0,1.0514695E3,5.0903294E1,1.1247268E0,2.052813E1,8.124828E2,1.3329942E0,1.0501365E3],"tree_param":{"num_deleted":"0","num_feature":"64","num_nodes":"29","size_leaf_vector":"0"}},{"base_weights":[-7.5018746E-1,-9.226896E-1,5.180712E-1,-1.0847634E0,1.4520666E-1,1.5848125E0,-2.9791856E-1,-0E0,-1.0985992E0,5.126776E-1,-0E0,1.8863081E0,-0E0,-4.0642914E-1,-0E0,-1.1039888E0,-0E0,-0E0,6.8513596E-1,-0E0,1.9152787E0,-0E0,-5.4955435E-1,-0E0,-1.1081953E0,7.9088587E-1,-0E0,1.93039E0,-0E0,-5.88453E-1,-0E0,-0E0,-1.1102602E0,-0E0,8.5113317E-1,-0E0,-6.184088E-1],"categories":[],"categories_nodes":[],"categories_segments":[],"categories_sizes":[],"default_left":[false,false,false,false,false,false,true,false,true,false,false,true,false,false,false,true,false,false,true,false,false,false,true,false,false,false,false,false,false,false,false,false,false,false,false,false,false],"id":3,"left_children":[1,3,5,7,9,11,13,-1,15,17,-1,19,-1,21,-1,23,-1,-1,25,-1,27,-1,29,-1,31,33,-1,-1,-1,35,-1,-1,-1,-1,-1,-1,-1],"loss_changes":[4.994862E2,3.867351E2,2.6243942E2,1.244165E1,2.6322384E1,9.229639E1,6.148673E0,0E0,1.2211914E1,2.0351414E1,0E0,4.9633484E0,0E0,7.007015E0,0E0,5.991211E0,0E0,0E0,1.3167805E1,0E0,5.176697E-1,0E0,2.7299404E0,0E0,6.093506E0,7.404846E0,0E0,0E0,0E0,1.9012203E0,0E0,0E0,0E0,0E0,0E0,0E0,0E0],"parents":[2147483647,0,0,1,1,2,2,3,3,4,4,5,5,6,6,8,8,9,9,11,11,13,13,15,15,18,18,20,20,22,22,24,24,25,25,29,29],"right_children":[2,4,6,8,10,12,14,-1,16,18,-1,20,-1,22,-1,24,-1,-1,26,-1,28,-1,30,-1,32,34,-1,-1,-1,36,-1,-1,-1,-1,-1,-1,-1],"split_conditions":[1.4642717E2,1.759026E2,-6.402688E-2,-3.2487534E-2,-2.4970677E-2,1.3747026E-2,6.009009E-1,-0E0,4.274568E-1,-7.210468E-2,-0E0,-1.0970598E-1,-0E0,-1.11554675E-2,-0E0,-4.456811E-1,-0E0,-0E0,4.787354E-2,-0E0,-8.196541E-3,-0E0,6.704944E-2,-0E0,-2.9551603E-2,-8.894401E-3,-0E0,3.86078E-1,-0E0,-2.1882419E-2,-0E0,-0E0,-2.2205205E-1,-0E0,1.7022663E-1,-0E0,-1.2368176E-1],"split_indices":[26,20,33,15,15,55,28,0,58,33,0,5,0,40,0,5,0,0,37,0,40,0,44,0,40,44,0,0,0,44,0,0,0,0,0,0,0],"split_type":[0,0,0,0,0,0,0,0,0,0,0,0,0,0,0,0,0,0,0,0,0,0,0,0,0,0,0,0,0,0,0,0,0,0,0,0,0],"sum_hessian":[2.1906077E3,1.9630303E3,2.2757736E2,1.7450122E3,2.1801807E2,1.25190895E2,1.0238647E2,3.336836E1,1.7116438E3,1.17636154E2,1.0038191E2,1.1430905E2,1.0881845E1,9.223637E1,1.0150097E1,1.7049923E3,6.651555E0,8.412743E0,1.0922341E2,2.078901E0,1.1223015E2,1.8586325E1,7.365004E1,8.040556E0,1.6969518E3,1.0301913E2,6.204287E0,1.1061885E2,1.6113001E0,7.211854E1,1.5315044E0,1.3634329E0,1.6955883E3,3.8465543E0,9.917257E1,1.8462111E0,7.027233E1],"tree_param":{"num_deleted":"0","num_feature":"64","num_nodes":"37","size_leaf_vector":"0"}},{"base_weights":[-6.465409E-1,-2.249771E-2,-8.36036E-1,2.5539032E-1,-1.7564648E-1,-0E0,-8.447197E-1,-0E0,7.296101E-1,-0E0,-3.5410666E-1,-0E0,-8.638338E-1,-0E0,9.523933E-1,-5.061516E-1,-0E0,-0E0,-8.669246E-1,1.0928214E0,-0E0,-0E0,-5.862061E-1,-8.726503E-1,-0E0,-6.154715E-1,-0E0,-0E0,-8.7593645E-1],"categories":[],"categories_nodes":[],"categories_segments":[],"categories_sizes":[],"default_left":[false,false,true,false,false,false,false,false,false,false,true,false,false,false,false,false,false,false,true,false,false,false,true,true,false,false,false,false,false],"id":4,"left_children":[1,3,5,7,9,-1,11,-1,13,-1,15,-1,17,-1,19,21,-1,-1,23,-1,-1,-1,25,27,-1,-1,-1,-1,-1],"loss_changes":[2.0084644E2,1.9063515E1,1.5082642E1,1.8673893E1,1.5710057E1,0E0,1.0027832E1,0E0,1.0266006E1,0E0,1.84345E1,0E0,5.1154785E0,0E0,8.354008E0,8.832161E0,0E0,0E0,3.8413086E0,0E0,0E0,0E0,4.436653E0,4.5614014E0,0E0,0E0,0E0,0E0,0E0],"parents":[2147483647,0,0,1,1,2,2,3,3,4,4,6,6,8,8,10,10,12,12,14,14,15,15,18,18,22,22,23,23],"right_children":[2,4,6,8,10,-1,12,-1,14,-1,16,-1,18,-1,20,22,-1,-1,24,-1,-1,-1,26,28,-1,-1,-1,-1,-1],"split_conditions":[-1.5648788E-2,-1.2911803E-1,-2.6738483E-2,-1.709499E-2,1.8601025E-3,-0E0,-1.5748061E-2,-0E0,-1.5729249E-2,-0E0,2.6544198E-2,-0E0,-3.4231895E-1,-0E0,-1.575277E-2,-6.0494326E-2,-0E0,-0E0,1.2774953E-1,2.1856427E-1,-0E0,-0E0,4.0775105E-2,-3.7000895E-1,-0E0,-1.230943E-1,-0E0,-0E0,-1.7518729E-1],"split_indices":[45,60,16,3,12,0,59,0,59,0,56,0,38,0,45,39,0,0,56,0,0,0,58,5,0,0,0,0,0],"split_type":[0,0,0,0,0,0,0,0,0,0,0,0,0,0,0,0,0,0,0,0,0,0,0,0,0,0,0,0,0],"sum_hessian":[2.0614512E3,5.4162775E2,1.5198234E3,7.644272E1,4.6518503E2,9.9493885E0,1.509874E3,3.1997032E1,4.4445686E1,2.2544156E2,2.3974347E2,5.264043E1,1.4572335E3,7.043445E0,3.740224E1,1.8929857E2,5.04449E1,3.5659318E0,1.4536676E3,3.5402573E1,1.9996678E0,2.2470308E1,1.6682826E2,1.4396986E3,1.3968973E1,1.6305247E2,3.775782E0,4.8370047E0,1.4348617E3],"tree_param":{"num_deleted":"0","num_feature":"64","num_nodes":"29","size_leaf_vector":"0"}},{"base_weights":[-5.524661E-1,-7.151858E-1,4.98896E-1,-8.711632E-1,1.6047184E-1,1.3144656E0,-9.404071E-2,-0E0,-8.8859797E-1,4.5431632E-1,-0E0,1.5729845E0,-0E0,-1.8639351E-1,-0E0,-0E0,-8.9457923E-1,-0E0,5.689178E-1,-0E0,1.5957085E0,-0E0,-3.1098995E-1,-0E0,-9.022323E-1,6.2080616E-1,-0E0,-0E0,1.6106412E0,-3.6476567E-1,-0E0,-0E0,-9.062427E-1,-0E0,6.680929E-1,-0E0,-3.9997265E-1],"categories":[],"categories_nodes":[],"categories_segments":[],"categories_sizes":[],"default_left":[false,false,true,false,false,false,true,false,true,true,false,true,false,false,false,false,false,false,false,false,false,false,true,false,true,false,false,false,false,false,false,false,false,false,false,false,false],"id":5,"left_children":[1,3,5,7,9,11,13,-1,15,17,-1,19,-1,21,-1,-1,23,-1,25,-1,27,-1,29,-1,31,33,-1,-1,-1,35,-1,-1,-1,-1,-1,-1,-1],"loss_changes":[3.4481476E2,2.7207593E2,1.6764227E2,2.8764893E1,2.3389109E1,6.614514E1,2.240512E0,0E0,1.213147E1,1.3463778E1,0E0,3.0847778E0,0E0,3.7008903E0,0E0,0E0,8.466797E0,0E0,6.8306007E0,0E0,1.4065247E0,0E0,1.9054775E0,0E0,8.250244E0,5.9722977E0,0E0,0E0,0E0,1.3917952E0,0E0,0E0,0E0,0E0,0E0,0E0,0E0],"parents":[2147483647,0,0,1,1,2,2,3,3,4,4,5,5,6,6,8,8,9,9,11,11,13,13,16,16,18,18,20,20,22,22,24,24,25,25,29,29],"right_children":[2,4,6,8,10,12,14,-1,16,18,-1,20,-1,22,-1,-1,24,-1,26,-1,28,-1,30,-1,32,34,-1,-1,-1,36,-1,-1,-1,-1,-1,-1,-1],"split_conditions":[1.4642717E2,1.759026E2,-6.402688E-2,-1.6415685E-2,1.3407709E-2,1.3747026E-2,2.4807748E-1,-0E0,-1.587826E0,-7.177612E-2,-0E0,-2.683894E-2,-0E0,-1.11554675E-2,-0E0,-0E0,-1.21336E-2,-0E0,1.9501762E-2,-0E0,-6.774869E-2,-0E0,1.973295E-1,-0E0,-3.913833E0,-3.031626E-2,-0E0,-0E0,3.2212827E-1,-6.241808E-2,-0E0,-0E0,-1.8124855E-1,-0E0,1.3361858E-1,-0E0,-7.999453E-2],"split_indices":[26,20,33,45,22,55,54,0,56,33,0,16,0,40,0,0,40,0,12,0,30,0,27,0,0,15,0,0,0,33,0,0,0,0,0,0,0],"split_type":[0,0,0,0,0,0,0,0,0,0,0,0,0,0,0,0,0,0,0,0,0,0,0,0,0,0,0,0,0,0,0,0,0,0,0,0,0],"sum_hessian":[1.9523351E3,1.7318528E3,2.2048218E2,1.5184731E3,2.1337965E2,1.2831464E2,9.216754E1,2.2572481E1,1.4959008E3,1.399391E2,7.344055E1,1.1633676E2,1.197788E1,8.795009E1,4.2174554E0,4.7774396E0,1.4911233E3,9.10215E0,1.3083696E2,2.0783546E0,1.1425841E2,1.8090004E1,6.9860085E1,1.4788016E1,1.4763352E3,1.27603096E2,3.2338614E0,1.566643E0,1.12691765E2,6.510122E1,4.7588696E0,2.9920237E0,1.4733433E3,4.043564E0,1.2355953E2,2.2565446E0,6.2844673E1],"tree_param":{"num_deleted":"0","num_feature":"64","num_nodes":"37","size_leaf_vector":"0"}},{"base_weights":[-4.7680894E-1,9.923798E-2,-6.884115E-1,7.4641013E-1,-1.1644594E-1,-8.156312E-1,-0E0,-0E0,1.1460193E0,-0E0,-2.7677265E-1,-0E0,-8.5453904E-1,1.3148546E-1,-0E0,1.2586973E0,-0E0,-3.5752934E-1,-0E0,-1.8427506E-2,-0E0,-8.7673247E-1,-0E0,-0E0,2.2405398E-1,-0E0,1.3042924E0,-0E0,-4.0631944E-1,-1.4734958E-1,-0E0,-0E0,-8.824186E-1,3.068843E-1,-0E0,-0E0,1.3216697E0,-0E0,-4.688764E-1,-0E0,-1.8345726E-1,-8.891002E-1,-0E0,3.9004657E-1,-0E0],"categories":[],"categories_nodes":[],"categories_segments":[],"categories_sizes":[],"default_left":[true,true,false,true,true,false,false,false,false,false,true,true,true,true,false,false,false,false,false,true,false,true,false,false,true,false,false,false,false,false,false,false,false,true,false,false,false,false,false,false,false,false,false,false,false],"id":6,"left_children":[1,3,5,7,9,11,13,-1,15,-1,17,19,21,23,-1,25,-1,27,-1,29,-1,31,-1,-1,33,-1,35,-1,37,39,-1,-1,41,43,-1,-1,-1,-1,-1,-1,-1,-1,-1,-1,-1],"loss_changes":[2.5199051E2,9.1097694E1,1.5311218E2,7.2687294E1,1.1086082E1,2.5240662E1,2.0743876E0,0E0,2.1432816E1,0E0,8.957713E0,1.6820943E-2,9.333008E0,3.149138E0,0E0,8.480576E0,0E0,5.8687553E0,0E0,9.5940304E-1,0E0,8.607544E0,0E0,0E0,3.947967E0,0E0,1.5725708E0,0E0,5.1527214E0,4.651993E-1,0E0,0E0,3.3000488E0,4.754197E0,0E0,0E0,0E0,0E0,0E0,0E0,0E0,0E0,0E0,0E0,0E0],"parents":[2147483647,0,0,1,1,2,2,3,3,4,4,5,5,6,6,8,8,10,10,11,11,12,12,13,13,15,15,17,17,19,19,21,21,24,24,26,26,28,28,29,29,32,32,33,33],"right_children":[2,4,6,8,10,12,14,-1,16,-1,18,20,22,24,-1,26,-1,28,-1,30,-1,32,-1,-1,34,-1,36,-1,38,40,-1,-1,42,44,-1,-1,-1,-1,-1,-1,-1,-1,-1,-1,-1],"split_conditions":[-3.1087857E-2,-6.2930286E-2,1.759026E2,-3.6405563E-2,-1.3430929E-2,-1.6164463E-2,1.2858812E-2,-0E0,1.3180824E-2,-0E0,1.2718323E-1,1.2169616E-2,9.200291E-2,-3.781265E-2,-0E0,-1.6892064E-1,-0E0,-1.6429462E-2,-0E0,-1.1288047E-2,-0E0,-4.7584385E-1,-0E0,-0E0,2.0012245E-2,-0E0,-1.1608836E-1,-0E0,-3.220591E-2,-1.5642941E-1,-0E0,-0E0,-7.3121507E-3,4.4760875E-2,-0E0,-0E0,2.6433393E-1,-0E0,-9.377528E-2,-0E0,-3.6691453E-2,-1.7782004E-1,-0E0,7.8009315E-2,-0E0],"split_indices":[26,33,20,48,20,45,12,0,55,0,54,4,52,50,0,8,0,45,0,43,0,24,0,0,5,0,52,0,15,52,0,0,20,56,0,0,0,0,0,0,0,0,0,0,0],"split_type":[0,0,0,0,0,0,0,0,0,0,0,0,0,0,0,0,0,0,0,0,0,0,0,0,0,0,0,0,0,0,0,0,0,0,0,0,0,0,0,0,0,0,0,0,0],"sum_hessian":[1.8256327E3,4.2697742E2,1.3986553E3,1.6467654E2,2.6230087E2,1.2265226E3,1.721327E2,3.9476162E1,1.25200386E2,7.114942E1,1.9115144E2,7.4581375E1,1.1519412E3,1.1998707E2,5.2145634E1,1.1731605E2,7.8843355E0,1.8462816E2,6.5232816E0,4.953558E1,2.5045795E1,1.1065013E3,4.543989E1,1.5933167E1,1.040539E2,3.0737154E0,1.1424233E2,6.1298738E0,1.7849828E2,4.4962624E1,4.572956E0,3.1599267E0,1.1033414E3,9.738469E1,6.669212E0,2.0841146E0,1.1215822E2,2.1014736E1,1.5748355E2,2.1352146E0,4.2827408E1,1.090995E3,1.2346401E1,9.153429E1,5.850401E0],"tree_param":{"num_deleted":"0","num_feature":"64","num_nodes":"45","size_leaf_vector":"0"}},{"base_weights":[-4.1314098E-1,-0E0,-6.185754E-1,-1.5528727E-1,1.562726E-1,-6.774157E-1,-0E0,-0E0,-2.699143E-1,5.068528E-1,-0E0,-7.148086E-1,-0E0,-0E0,-1.4803979E-1,-0E0,-3.4970272E-1,7.151991E-1,-0E0,-7.387785E-1,-0E0,-0E0,1.2538311E-1,-2.3440965E-1,-0E0,-0E0,-3.92723E-1,-0E0,9.2193705E-1,-0E0,-7.541019E-1,2.0512012E-1,-0E0,-0E0,-2.987318E-1,-4.4420815E-1,-0E0,-0E0,1.0838894E0,-7.6449096E-1,-0E0,2.7883044E-1,-0E0,-3.3501497E-1,-0E0],"categories":[],"categories_nodes":[],"categories_segments":[],"categories_sizes":[],"default_left":[false,false,false,false,false,true,true,false,true,false,false,true,false,false,true,false,false,false,false,false,false,false,true,false,false,false,true,false,false,false,true,true,false,false,true,false,false,false,false,false,false,false,false,false,false],"id":7,"left_children":[1,3,5,7,9,11,13,-1,15,17,-1,19,-1,21,23,-1,25,27,-1,29,-1,-1,31,33,-1,-1,35,-1,37,-1,39,41,-1,-1,43,-1,-1,-1,-1,-1,-1,-1,-1,-1,-1],"loss_changes":[1.3113324E2,1.4633951E1,3.1280884E1,1.3337251E1,1.9891596E1,2.4670502E1,1.6936584E0,0E0,1.044846E1,1.804979E1,0E0,1.1440643E1,0E0,4.833469E-1,2.2349453E0,0E0,6.7309265E0,1.6882366E1,0E0,9.181274E0,0E0,0E0,7.4060047E-1,1.8907957E0,0E0,0E0,6.620056E0,0E0,9.937828E0,0E0,9.407471E0,9.334229E-1,0E0,0E0,1.241754E0,0E0,0E0,0E0,0E0,0E0,0E0,0E0,0E0,0E0,0E0],"parents":[2147483647,0,0,1,1,2,2,3,3,4,4,5,5,6,6,8,8,9,9,11,11,13,13,14,14,16,16,17,17,19,19,22,22,23,23,26,26,28,28,30,30,31,31,34,34],"right_children":[2,4,6,8,10,12,14,-1,16,18,-1,20,-1,22,24,-1,26,28,-1,30,-1,-1,32,34,-1,-1,36,-1,38,-1,40,42,-1,-1,44,-1,-1,-1,-1,-1,-1,-1,-1,-1,-1],"split_conditions":[-1.5457943E-2,-4.831937E-2,3.628523E-2,-1.3061227E-1,-5.910301E-2,7.449663E-2,2.278611E-2,-0E0,-3.852176E-1,6.0150204E-3,-0E0,5.4453194E-2,-0E0,-1.4984521E-2,-8.3460886E-4,-0E0,-6.064591E-2,-6.836222E-2,-0E0,-4.818759E-2,-0E0,-0E0,6.3559043E-1,-3.220591E-2,-0E0,-0E0,4.2380017E-1,-0E0,-7.751536E-2,-0E0,4.3401915E-1,2.3420727E0,-0E0,-0E0,2.1657951E-2,-8.884163E-2,-0E0,-0E0,2.1677788E-1,-1.5289819E-1,-0E0,5.5766087E-2,-0E0,-6.7003E-2,-0E0],"split_indices":[45,33,60,60,60,19,37,0,21,19,0,14,0,45,61,0,39,27,0,42,0,0,28,15,0,0,35,0,63,0,36,35,0,0,44,0,0,0,0,0,0,0,0,0,0],"split_type":[0,0,0,0,0,0,0,0,0,0,0,0,0,0,0,0,0,0,0,0,0,0,0,0,0,0,0,0,0,0,0,0,0,0,0,0,0,0,0,0,0,0,0,0,0],"sum_hessian":[1.709014E3,6.0394904E2,1.105065E3,3.751395E2,2.2880952E2,9.8959656E2,1.1546843E2,6.790172E1,3.072378E2,9.9180244E1,1.2962927E2,9.3705304E2,5.25435E1,3.8188114E1,7.728031E1,3.8766594E1,2.684712E2,8.5099396E1,1.4080848E1,8.98195E2,3.8858047E1,7.442661E0,3.0745453E1,7.149691E1,5.783404E0,1.1955223E1,2.5651596E2,1.4024314E1,7.107508E1,1.9986717E1,8.7820825E2,2.9090166E1,1.6552866E0,6.286758E0,6.521015E1,2.3404953E2,2.2466448E1,1.1193908E1,5.9881176E1,8.70598E2,7.610229E0,2.7748806E1,1.3413614E0,6.291399E1,2.2961607E0],"tree_param":{"num_deleted":"0","num_feature":"64","num_nodes":"45","size_leaf_vector":"0"}},{"base_weights":[-3.4855655E-1,1.3406467E-1,-5.5035925E-1,6.6024804E-1,-0E0,-9.9765044E-1,-2.7193594E-1,-0E0,1.0312809E0,-1.4424857E-1,-0E0,-1.0456641E0,-0E0,-0E0,-6.138931E-1,1.1079147E0,-0E0,-0E0,-2.4719797E-1,-1.0685313E0,-0E0,-6.469078E-2,2.8729305E-1,-0E0,-7.101979E-1,-0E0,1.1329463E0,-3.2652307E-1,-0E0,-1.0791715E0,-0E0,-0E0,-2.24277E-1,-0E0,5.2786547E-1,-0E0,-7.6578313E-1,-0E0,1.1543814E0,-0E0,-4.3352577E-1,-1.0883538E0,-0E0,9.4832055E-2,-0E0,-3.6500642E-1,-0E0,7.365239E-1,-0E0,-0E0,-8.154977E-1],"categories":[],"categories_nodes":[],"categories_segments":[],"categories_sizes":[],"default_left":[true,true,true,true,true,true,false,false,false,false,false,true,false,false,false,true,false,false,true,true,false,false,false,false,false,false,false,false,false,false,false,false,true,false,false,false,false,false,false,false,false,false,false,false,false,false,false,false,false,false,false],"id":8,"left_children":[1,3,5,7,9,11,13,-1,15,17,-1,19,-1,21,23,25,-1,-1,27,29,-1,31,33,-1,35,-1,37,39,-1,41,-1,43,45,-1,47,-1,49,-1,-1,-1,-1,-1,-1,-1,-1,-1,-1,-1,-1,-1,-1],"loss_changes":[1.7976018E2,6.1411358E1,8.8933655E1,5.781463E1,3.3397164E0,1.8528717E1,8.753764E1,0E0,1.5276451E1,4.3853397E0,0E0,8.724945E0,0E0,1.1964473E1,3.499701E1,3.3176575E0,0E0,0E0,4.8910813E0,4.656189E0,0E0,9.318642E0,1.3973169E1,0E0,1.6647812E1,0E0,2.5567627E0,4.4319677E0,0E0,4.0962524E0,0E0,3.3141434E-1,1.0645434E1,0E0,1.43111E1,0E0,1.4026535E1,0E0,0E0,0E0,0E0,0E0,0E0,0E0,0E0,0E0,0E0,0E0,0E0,0E0,0E0],"parents":[2147483647,0,0,1,1,2,2,3,3,4,4,5,5,6,6,8,8,9,9,11,11,13,13,14,14,15,15,18,18,19,19,21,21,22,22,24,24,26,26,27,27,29,29,31,31,32,32,34,34,36,36],"right_children":[2,4,6,8,10,12,14,-1,16,18,-1,20,-1,22,24,26,-1,-1,28,30,-1,32,34,-1,36,-1,38,40,-1,42,-1,44,46,-1,48,-1,50,-1,-1,-1,-1,-1,-1,-1,-1,-1,-1,-1,-1,-1,-1],"split_conditions":[-3.1087857E-2,-6.354368E-2,-6.197935E-2,-3.6405563E-2,-3.138133E-2,-9.542104E-3,-1.47609655E-2,-0E0,1.9870014E-3,-3.0318419E-2,-0E0,-1.0182983E-2,-0E0,-2.0722784E-2,1.2677083E-2,-6.359531E-2,-0E0,-0E0,3.323085E-2,3.1921196E-1,-0E0,-2.5265858E-2,1.3813203E-2,-0E0,-1.2253316E-2,-0E0,-1.860337E-1,-5.966325E-2,-0E0,2.9283089E1,-0E0,-1.6501684E-2,2.6738562E-2,-0E0,-1.6547564E-2,-0E0,-3.841883E-2,-0E0,2.3087628E-1,-0E0,-8.6705156E-2,-2.1767075E-1,-0E0,1.8966412E-2,-0E0,-7.300129E-2,-0E0,1.4730479E-1,-0E0,-0E0,-1.6309954E-1],"split_indices":[26,33,33,48,26,51,45,0,40,22,0,40,0,43,4,50,0,0,5,23,0,15,48,0,51,0,14,19,0,27,0,57,56,0,57,0,43,0,0,0,0,0,0,0,0,0,0,0,0,0,0],"split_type":[0,0,0,0,0,0,0,0,0,0,0,0,0,0,0,0,0,0,0,0,0,0,0,0,0,0,0,0,0,0,0,0,0,0,0,0,0,0,0,0,0,0,0,0,0,0,0,0,0,0,0],"sum_hessian":[1.6319794E3,4.0813574E2,1.2238436E3,1.5770267E2,2.5043307E2,4.0063498E2,8.232086E2,3.870243E1,1.1900024E2,1.6050426E2,8.992882E1,3.8163364E2,1.9001352E1,4.2939825E2,3.938104E2,1.1555265E2,3.4475858E0,3.4085415E1,1.26418846E2,3.7311572E2,8.517917E0,2.9963217E2,1.2976608E2,3.017615E1,3.6363425E2,2.4649634E0,1.1308769E2,1.18331055E2,8.087794E0,3.6979248E2,3.323245E0,8.9442604E1,2.1018956E2,4.1180325E1,8.858576E1,2.2484993E1,3.4114923E2,2.242107E0,1.1084558E2,2.7622904E1,9.0708145E1,3.6703723E2,2.7552462E0,3.6851994E1,5.259061E1,1.5925887E2,5.09307E1,7.188415E1,1.6701618E1,1.9235193E1,3.2191406E2],"tree_param":{"num_deleted":"0","num_feature":"64","num_nodes":"51","size_leaf_vector":"0"}},{"base_weights":[-2.996251E-1,-4.2582414E-1,1.7297038E-1,-1.7881025E-1,-7.0505184E-1,3.4927174E-1,-0E0,-0E0,-3.2858142E-1,-7.5439477E-1,-0E0,-0E0,4.070057E-1,-6.3449524E-2,2.0973502E-1,-0E0,-3.7136346E-1,-0E0,-7.791961E-1,-0E0,4.5023707E-1,-0E0,-1.332645E-1,-0E0,4.525237E-1,-0E0,-4.2659807E-1,-7.960501E-1,-0E0,4.9240193E-1,-0E0,-1.6267113E-1,-0E0,6.106281E-1,-0E0,-4.4334254E-1,-0E0,-8.036443E-1,-0E0,5.3197294E-1,-0E0],"categories":[],"categories_nodes":[],"categories_segments":[],"categories_sizes":[],"default_left":[false,true,false,false,true,true,false,false,false,true,false,false,false,true,true,false,false,false,false,false,true,false,false,false,true,false,true,true,false,true,false,false,false,false,false,false,false,false,false,false,false],"id":9,"left_children":[1,3,5,7,9,11,-1,13,15,17,-1,-1,19,21,23,-1,25,-1,27,-1,29,-1,31,-1,33,-1,35,37,-1,39,-1,-1,-1,-1,-1,-1,-1,-1,-1,-1,-1],"loss_changes":[1.045405E2,4.5444794E1,1.5995977E1,2.8554892E1,2.010785E1,6.631344E0,0E0,7.1875796E0,6.9872856E0,1.2278107E1,0E0,0E0,5.6265945E0,1.7457445E0,1.5035238E1,0E0,6.3024254E0,0E0,4.1257324E0,0E0,3.82975E0,0E0,1.0552616E0,0E0,1.00201645E1,0E0,4.781288E0,4.196594E0,0E0,4.5349274E0,0E0,0E0,0E0,0E0,0E0,0E0,0E0,0E0,0E0,0E0,0E0],"parents":[2147483647,0,0,1,1,2,2,3,3,4,4,5,5,7,7,8,8,9,9,12,12,13,13,14,14,16,16,18,18,20,20,22,22,24,24,26,26,27,27,29,29],"right_children":[2,4,6,8,10,12,-1,14,16,18,-1,-1,20,22,24,-1,26,-1,28,-1,30,-1,32,-1,34,-1,36,38,-1,40,-1,-1,-1,-1,-1,-1,-1,-1,-1,-1,-1],"split_conditions":[-2.390433E-3,-2.3010258E-2,2.3167167E-2,-1.6572047E-2,1.04295775E-1,-7.306287E-2,-0E0,-5.6979515E-2,-1.5069604E-2,-2.2340093E0,-0E0,-0E0,-8.894401E-3,-1.4578931E-1,6.41952E-3,-0E0,-7.393414E-2,-0E0,3.2160157E-1,-0E0,-4.11014E-3,-0E0,-2.30219E-2,-0E0,2.6330665E-2,-0E0,4.2312494E-1,9.5999575E-1,-0E0,7.343888E-2,-0E0,-3.2534227E-2,-0E0,1.22125626E-1,-0E0,-8.866851E-2,-0E0,-1.6072886E-1,-0E0,1.0639459E-1,-0E0],"split_indices":[20,25,30,57,52,33,0,33,46,28,0,0,44,27,41,0,33,0,33,0,44,0,25,0,24,0,36,36,0,0,0,0,0,0,0,0,0,0,0,0,0],"split_type":[0,0,0,0,0,0,0,0,0,0,0,0,0,0,0,0,0,0,0,0,0,0,0,0,0,0,0,0,0,0,0,0,0,0,0,0,0,0,0,0,0],"sum_hessian":[1.5408468E3,1.2996064E3,2.4124036E2,7.8459424E2,5.150122E2,1.9028973E2,5.0950626E1,2.8776248E2,4.9683173E2,4.851764E2,2.9835846E1,1.0125061E1,1.8016467E2,1.3689536E2,1.5086714E2,5.7213593E1,4.3961813E2,1.0171566E1,4.7500482E2,5.181049E0,1.7498363E2,7.5632772E0,1.2933208E2,4.5036785E1,1.0583036E2,7.1839554E1,3.6777856E2,4.6161472E2,1.3390084E1,1.6209409E2,1.2889544E1,1.2667744E2,2.6546364E0,8.499515E1,2.0835207E1,3.6484793E2,2.9306576E0,4.594295E2,2.1852376E0,1.5490088E2,7.193201E0],"tree_param":{"num_deleted":"0","num_feature":"64","num_nodes":"41","size_leaf_vector":"0"}},{"base_weights":[-2.5860587E-1,1.3504142E-1,-4.460451E-1,4.679286E-1,-1.8395482E-3,-6.1385787E-1,-0E0,-0E0,8.9148504E-1,-1.0032867E-1,-0E0,-7.7699476E-1,-3.9405834E-2,-3.2261378E-1,1.2328307E-1,9.627257E-1,-0E0,-0E0,-1.5352301E-1,-8.098227E-1,-0E0,-0E0,-1.8678756E-1,-3.894608E-1,-0E0,3.9177367E-1,-0E0,-0E0,1.027555E0,-2.2008708E-1,-0E0,-8.261035E-1,-0E0,-0E0,-2.759755E-1,-0E0,-4.3134442E-1,-0E0,6.128274E-1,-0E0,1.1030263E0,-2.6446387E-1,-0E0,-8.394269E-1,-0E0,-0E0,-3.3559102E-1,-0E0,-4.720759E-1,8.4608895E-1,-0E0],"categories":[],"categories_nodes":[],"categories_segments":[],"categories_sizes":[],"default_left":[true,true,true,false,true,false,false,false,false,false,false,false,true,false,false,true,false,false,false,false,false,false,true,false,false,false,false,false,false,false,false,true,false,false,false,false,false,false,true,false,false,false,false,false,false,false,false,false,false,false,false],"id":10,"left_children":[1,3,5,7,9,11,13,-1,15,17,-1,19,21,23,25,27,-1,-1,29,31,-1,-1,33,35,-1,37,-1,-1,39,41,-1,43,-1,-1,45,-1,47,-1,49,-1,-1,-1,-1,-1,-1,-1,-1,-1,-1,-1,-1],"loss_changes":[1.2490328E2,4.1166973E1,6.985339E1,5.6415897E1,1.0000281E0,3.048706E1,1.6902317E1,0E0,1.2109062E1,1.2395287E0,0E0,1.7469543E1,6.3755884E0,3.9629412E0,1.8870817E1,1.1235855E1,0E0,0E0,1.5719876E0,7.8821106E0,0E0,0E0,5.405993E0,3.359684E0,0E0,2.2365679E1,0E0,0E0,7.831482E0,1.6206341E0,0E0,7.639282E0,0E0,0E0,3.5169916E0,0E0,3.5474453E0,0E0,2.0929619E1,0E0,0E0,0E0,0E0,0E0,0E0,0E0,0E0,0E0,0E0,0E0,0E0],"parents":[2147483647,0,0,1,1,2,2,3,3,4,4,5,5,6,6,8,8,9,9,11,11,12,12,13,13,14,14,15,15,18,18,19,19,22,22,23,23,25,25,28,28,29,29,31,31,34,34,36,36,38,38],"right_children":[2,4,6,8,10,12,14,-1,16,18,-1,20,22,24,26,28,-1,-1,30,32,-1,-1,34,36,-1,38,-1,-1,40,42,-1,44,-1,-1,46,-1,48,-1,50,-1,-1,-1,-1,-1,-1,-1,-1,-1,-1,-1,-1],"split_conditions":[-3.1087857E-2,-8.402757E-2,-1.1074602E-2,-1.2506714E-1,-3.424664E-2,1.15661435E-2,-3.1016625E-2,-0E0,1.3267428E-2,-1.19355675E-2,-0E0,4.6352497E-1,-1.5678952E-2,8.4753886E-2,-1.6498813E-2,-1.5044713E-1,-0E0,-0E0,4.7236998E-2,8.318721E-2,-0E0,-0E0,1.1097834E-2,-3.1064004E-2,-0E0,1.1407366E-2,-0E0,-0E0,-2.8510673E-2,4.7273234E-2,-0E0,4.3401915E-1,-0E0,-0E0,-1.6745135E-2,-0E0,-1.9834803E-1,-0E0,1.7211977E-2,-0E0,2.2060525E-1,-5.2892774E-2,-0E0,-1.6788538E-1,-0E0,-0E0,-6.7118205E-2,-0E0,-9.441518E-2,1.692178E-1,-0E0],"split_indices":[26,8,40,8,60,8,26,0,55,40,0,27,59,8,57,60,0,0,44,22,0,0,5,26,0,4,0,0,11,41,0,36,0,0,3,0,32,0,37,0,0,0,0,0,0,0,0,0,0,0,0],"split_type":[0,0,0,0,0,0,0,0,0,0,0,0,0,0,0,0,0,0,0,0,0,0,0,0,0,0,0,0,0,0,0,0,0,0,0,0,0,0,0,0,0,0,0,0,0,0,0,0,0,0,0],"sum_hessian":[1.4820515E3,3.9201498E2,1.0900366E3,2.2066074E2,1.7135425E2,7.608986E2,3.2913794E2,8.888128E1,1.3177946E2,9.940629E1,7.194796E1,5.2481775E2,2.3608087E2,1.3388522E2,1.9525273E2,1.26062874E2,5.716583E0,4.3616805E0,9.504461E1,5.0976898E2,1.504877E1,4.2837578E1,1.9324329E2,1.1799644E2,1.588878E1,1.4228218E2,5.2970554E1,4.7637076E0,1.2129917E2,7.870058E1,1.634403E1,5.014237E2,8.345277E0,3.3739914E1,1.5950337E2,3.7452395E0,1.142512E2,2.457957E1,1.1770261E2,9.594374E0,1.11704796E2,7.767615E1,1.0244303E0,4.964743E2,4.949394E0,2.040748E1,1.390959E2,2.9468868E0,1.1130431E2,9.098582E1,2.6716787E1],"tree_param":{"num_deleted":"0","num_feature":"64","num_nodes":"51","size_leaf_vector":"0"}},{"base_weights":[-2.2685862E-1,-3.4268767E-1,1.18208736E-1,-0E0,-4.8589882E-1,2.9587674E-1,-0E0,1.5457142E-2,-2.0598911E-1,-5.675433E-1,-0E0,-0E0,3.6016288E-1,-0E0,2.2504313E-1,-2.7170718E-1,-0E0,-5.888712E-1,-0E0,-0E0,4.1022462E-1,3.584513E-1,-0E0,-0E0,-3.2988957E-1,-6.034186E-1,-0E0,-0E0,4.584941E-1,4.7866184E-1,-0E0,-3.5324684E-1,-0E0,-0E0,-6.204729E-1,-0E0,4.9554157E-1],"categories":[],"categories_nodes":[],"categories_segments":[],"categories_sizes":[],"default_left":[false,true,false,false,true,true,false,false,true,false,false,false,true,false,true,false,false,true,false,false,true,true,false,false,true,false,false,false,true,false,false,false,false,false,false,false,false],"id":11,"left_children":[1,3,5,7,9,11,-1,13,15,17,-1,-1,19,-1,21,23,-1,25,-1,-1,27,29,-1,-1,31,33,-1,-1,35,-1,-1,-1,-1,-1,-1,-1,-1],"loss_changes":[6.778513E1,3.5101532E1,1.47125E1,1.0108249E1,1.9656006E1,6.537575E0,0E0,7.1884694E0,5.8199997E0,9.420349E0,0E0,0E0,6.2731915E0,0E0,7.321048E0,4.2061205E0,0E0,7.9415283E0,0E0,0E0,3.3189964E0,5.620164E0,0E0,0E0,2.611847E0,6.802414E0,0E0,0E0,5.0745163E0,0E0,0E0,0E0,0E0,0E0,0E0,0E0,0E0],"parents":[2147483647,0,0,1,1,2,2,3,3,4,4,5,5,7,7,8,8,9,9,12,12,14,14,15,15,17,17,20,20,21,21,24,24,25,25,28,28],"right_children":[2,4,6,8,10,12,-1,14,16,18,-1,-1,20,-1,22,24,-1,26,-1,-1,28,30,-1,-1,32,34,-1,-1,36,-1,-1,-1,-1,-1,-1,-1,-1],"split_conditions":[-7.3121507E-3,-2.4227507E-2,1.9846197E-2,-1.6384423E-2,2.6043653E-2,-7.19468E-2,-0E0,-6.656647E-2,1.1804676E-2,3.0241245E-1,-0E0,-0E0,-5.807577E-1,-0E0,-5.0220143E-2,-1.5072415E-2,-0E0,4.2981482E-1,-0E0,-0E0,-4.875371E-2,-2.441755E-2,-0E0,-0E0,9.88042E-3,-7.346277E-2,-0E0,-0E0,-8.312087E-2,9.573237E-2,-0E0,-7.064937E-2,-0E0,-0E0,-1.2409458E-1,-0E0,9.9108316E-2],"split_indices":[20,25,12,57,56,33,0,33,23,33,0,0,23,0,27,46,0,36,0,0,1,25,0,0,12,33,0,0,63,0,0,0,0,0,0,0,0],"split_type":[0,0,0,0,0,0,0,0,0,0,0,0,0,0,0,0,0,0,0,0,0,0,0,0,0,0,0,0,0,0,0,0,0,0,0,0,0],"sum_hessian":[1.4151327E3,1.1679763E3,2.4715633E2,4.383519E2,7.2962445E2,2.0751035E2,3.9645977E1,2.0126013E2,2.3709178E2,5.9582556E2,1.3379889E2,1.7068035E1,1.9044232E2,5.8370625E1,1.4288951E2,2.151061E2,2.1985676E1,5.8061365E2,1.5211901E1,6.367699E0,1.8407462E2,1.132999E2,2.9589607E1,3.053553E1,1.8457057E2,5.747664E2,5.847232E0,2.0929499E1,1.6314511E2,8.806747E1,2.5232435E1,1.8190034E2,2.6702156E0,1.3492544E1,5.6127386E2,2.8171382E0,1.6032797E2],"tree_param":{"num_deleted":"0","num_feature":"64","num_nodes":"37","size_leaf_vector":"0"}},{"base_weights":[-1.9413668E-1,1.1586411E-1,-3.6409393E-1,-0E0,4.3012792E-1,-6.0514855E-1,-4.7329344E-2,-0E0,-5.9692696E-2,-0E0,6.170116E-1,-7.372789E-1,-0E0,-0E0,-2.6844102E-1,-1.061985E-1,-0E0,8.3678585E-1,-0E0,-0E0,-7.931399E-1,-0E0,1.9247554E-1,-3.890073E-1,-0E0,-1.5471336E-1,-0E0,9.110951E-1,-0E0,-8.253779E-1,-0E0,-6.567063E-2,-0E0,3.018969E-1,-0E0,-4.7037923E-1,-0E0,-0E0,-2.1368785E-1,-0E0,9.720399E-1,-0E0,-8.477419E-1,-0E0,-1.7093945E-1,-0E0,4.1838154E-1,-0E0,-5.2871394E-1],"categories":[],"categories_nodes":[],"categories_segments":[],"categories_sizes":[],"default_left":[true,true,false,false,false,true,false,false,true,false,true,true,false,true,false,true,false,true,false,false,false,true,false,false,false,false,false,true,false,false,false,false,false,false,false,true,false,false,false,false,false,false,false,false,false,false,false,false,false],"id":12,"left_children":[1,3,5,7,9,11,13,-1,15,-1,17,19,-1,21,23,25,-1,27,-1,-1,29,31,33,35,-1,37,-1,39,-1,41,-1,43,-1,45,-1,47,-1,-1,-1,-1,-1,-1,-1,-1,-1,-1,-1,-1,-1],"loss_changes":[8.460447E1,3.093512E1,4.2908493E1,5.1375455E-1,2.3802067E1,3.4978012E1,1.4120791E1,0E0,1.0321472E0,0E0,2.4967812E1,1.6463852E1,0E0,5.569538E0,1.271375E1,1.4558371E0,0E0,1.12812805E1,0E0,0E0,8.073608E0,6.273789E-1,6.9288645E0,9.362904E0,0E0,1.5034287E0,0E0,8.848892E0,0E0,7.1475525E0,0E0,3.0465655E0,0E0,9.439691E0,0E0,8.386761E0,0E0,0E0,0E0,0E0,0E0,0E0,0E0,0E0,0E0,0E0,0E0,0E0,0E0],"parents":[2147483647,0,0,1,1,2,2,3,3,4,4,5,5,6,6,8,8,10,10,11,11,13,13,14,14,15,15,17,17,20,20,21,21,22,22,23,23,25,25,27,27,29,29,31,31,33,33,35,35],"right_children":[2,4,6,8,10,12,14,-1,16,-1,18,20,-1,22,24,26,-1,28,-1,-1,30,32,34,36,-1,38,-1,40,-1,42,-1,44,-1,46,-1,48,-1,-1,-1,-1,-1,-1,-1,-1,-1,-1,-1,-1,-1],"split_conditions":[-3.1087857E-2,-4.433729E-1,-7.161465E-2,-4.8331067E-2,-1.2677288E-1,-1.1006523E-2,-2.3576148E-2,-0E0,1.5025044E-2,-0E0,-6.264516E-2,-9.460119E-1,-0E0,-3.539577E-1,1.1247082E-2,-1.647293E-2,-0E0,-3.1143641E-2,-0E0,-0E0,-2.9989816E-2,-3.1955276E-2,1.3100034E-2,-1.6839828E-2,-0E0,-6.1441846E-2,-0E0,-1.7610097E-2,-0E0,-1.21336E-2,-0E0,-1.7189622E-2,-0E0,1.1440671E-2,-0E0,-1.4470059E-1,-0E0,-0E0,-4.273757E-2,-0E0,1.9440798E-1,-0E0,-1.6954838E-1,-0E0,-3.418789E-2,-0E0,8.367631E-2,-0E0,-1.0574279E-1],"split_indices":[26,28,8,38,8,40,15,0,61,0,8,28,0,28,44,58,0,26,0,0,26,36,4,26,0,19,0,57,0,40,0,57,0,4,0,34,0,0,0,0,0,0,0,0,0,0,0,0,0],"split_type":[0,0,0,0,0,0,0,0,0,0,0,0,0,0,0,0,0,0,0,0,0,0,0,0,0,0,0,0,0,0,0,0,0,0,0,0,0,0,0,0,0,0,0,0,0,0,0,0,0],"sum_hessian":[1.3702267E3,3.8103326E2,9.891934E2,1.8617734E2,1.9485593E2,4.7209106E2,5.1710236E2,4.199459E1,1.4418275E2,3.7640675E1,1.5721524E2,3.8239075E2,8.970032E1,3.0507056E2,2.1203183E2,1.3707086E2,7.111898E0,1.2113524E2,3.608001E1,2.5795218E1,3.5659552E2,1.5473277E2,1.5033777E2,1.8498314E2,2.7048687E1,1.25405685E2,1.1665169E1,1.15771736E2,5.363498E0,3.4113455E2,1.5460963E1,1.4547472E2,9.258054E0,1.371315E2,1.3206273E1,1.6883467E2,1.6148458E1,2.6743376E1,9.866231E1,4.696902E0,1.1107484E2,7.8157425E0,3.3331882E2,1.9742094E1,1.2573263E2,1.1801841E1,1.2532965E2,5.198684E0,1.63636E2],"tree_param":{"num_deleted":"0","num_feature":"64","num_nodes":"49","size_leaf_vector":"0"}},{"base_weights":[-1.668247E-1,-2.966244E-1,1.458913E-1,-1.117872E-2,-5.2321E-1,-0E0,4.6347392E-1,2.6234892E-1,-2.3246917E-1,-5.782935E-1,-0E0,-0E0,-3.756756E-2,7.716352E-1,-0E0,4.1389072E-1,-0E0,-0E0,-2.9800645E-1,-0E0,-5.956372E-1,-0E0,-8.376938E-2,8.6134267E-1,-0E0,-0E0,5.3824145E-1,-3.3451557E-1,-0E0,-0E0,-6.0887027E-1,-0E0,-1.3254929E-1,9.137211E-1,-0E0,7.164652E-1,-0E0,-3.7416506E-1,-0E0,-6.1728793E-1,-0E0,-1.7884144E-1,-0E0,9.391599E-1,-0E0],"categories":[],"categories_nodes":[],"categories_segments":[],"categories_sizes":[],"default_left":[false,false,true,false,true,true,false,false,false,false,false,false,false,true,false,false,false,false,true,false,true,false,false,true,false,false,true,true,false,false,true,false,true,false,false,false,false,false,false,false,false,false,false,false,false],"id":13,"left_children":[1,3,5,7,9,11,13,15,17,19,-1,-1,21,23,-1,25,-1,-1,27,-1,29,-1,31,33,-1,-1,35,37,-1,-1,39,-1,41,43,-1,-1,-1,-1,-1,-1,-1,-1,-1,-1,-1],"loss_changes":[6.094065E1,4.0723534E1,3.4447445E1,3.2347313E1,1.2244751E1,1.04914844E-1,2.785439E1,1.2060273E1,7.98361E0,5.6000214E0,0E0,0E0,4.095319E-1,1.1916557E1,0E0,1.2336597E1,0E0,0E0,6.7401104E0,0E0,5.7697906E0,0E0,7.238611E-1,7.7732697E0,0E0,0E0,1.6697754E1,6.5815735E0,0E0,0E0,3.9111176E0,0E0,9.8022664E-1,4.0716705E0,0E0,0E0,0E0,0E0,0E0,0E0,0E0,0E0,0E0,0E0,0E0],"parents":[2147483647,0,0,1,1,2,2,3,3,4,4,5,5,6,6,7,7,8,8,9,9,12,12,13,13,15,15,18,18,20,20,22,22,23,23,26,26,27,27,30,30,32,32,33,33],"right_children":[2,4,6,8,10,12,14,16,18,20,-1,-1,22,24,-1,26,-1,-1,28,-1,30,-1,32,34,-1,-1,36,38,-1,-1,40,-1,42,44,-1,-1,-1,-1,-1,-1,-1,-1,-1,-1,-1],"split_conditions":[-2.9985204E-2,5.278741E-3,-1.703831E-2,-1.6559983E-2,-3.3772733E-2,-2.7490463E-2,-8.426423E-2,-1.04391575E-2,-3.5268053E-2,-6.064591E-2,-0E0,-0E0,-2.9941346E-2,6.664975E-2,-0E0,1.0406104E-2,-0E0,-0E0,1.7613748E-1,-0E0,-8.3207035E-1,-0E0,-5.595868E-2,-2.8724417E-2,-0E0,-0E0,1.9072995E-2,-1.2871121E-2,-0E0,-0E0,2.7966242E0,-0E0,3.3108158E0,-7.352859E-3,-0E0,1.4329304E-1,-0E0,-7.483301E-2,-0E0,-1.2345759E-1,-0E0,-3.576829E-2,-0E0,1.8783198E-1,-0E0],"split_indices":[26,12,57,57,63,37,8,40,12,39,0,0,26,37,0,4,0,0,23,0,5,0,42,26,0,0,5,59,0,0,36,0,52,40,0,0,0,0,0,0,0,0,0,0,0],"split_type":[0,0,0,0,0,0,0,0,0,0,0,0,0,0,0,0,0,0,0,0,0,0,0,0,0,0,0,0,0,0,0,0,0,0,0,0,0,0,0,0,0,0,0,0,0],"sum_hessian":[1.3156792E3,1.0427516E3,2.729276E2,5.590918E2,4.8365976E2,8.552072E1,1.8740689E2,1.4898743E2,4.1010437E2,4.3252353E2,5.1136215E1,1.1182705E1,7.433801E1,1.1439119E2,7.301569E1,1.3026213E2,1.8725304E1,7.0647415E1,3.3945694E2,9.037331E0,4.234862E2,1.0268966E0,7.331112E1,1.0786662E2,6.524572E0,1.065301E1,1.1960912E2,3.2963657E2,9.820395E0,2.6442578E0,4.2084195E2,2.8298235E0,7.048129E1,1.0516491E2,2.7017152E0,1.0003261E2,1.9576513E1,3.104877E2,1.9148859E1,4.1970676E2,1.1351768E0,6.936332E1,1.1179721E0,1.0416119E2,1.0037183E0],"tree_param":{"num_deleted":"0","num_feature":"64","num_nodes":"45","size_leaf_vector":"0"}},{"base_weights":[-1.4087708E-1,-0E0,-4.6882388E-1,-1.7086013E-1,4.3951858E-2,-5.279095E-1,-0E0,-0E0,-2.0286238E-1,2.3963957E-1,-0E0,-0E0,-5.7941777E-1,-0E0,-2.1884349E-1,-0E0,7.68755E-1,-1.7177677E-1,-0E0,-6.083526E-1,-0E0,-0E0,-2.332355E-1,8.922011E-1,-0E0,-0E0,-3.798928E-1,1.7771521E-1,-0E0,-6.318118E-1,-0E0,-2.4766585E-1,-0E0,-0E0,9.426339E-1,-4.5437512E-1,-0E0,4.3241918E-1,-0E0,-6.574322E-1,-0E0],"categories":[],"categories_nodes":[],"categories_segments":[],"categories_sizes":[],"default_left":[false,false,false,false,true,true,false,false,false,true,true,false,true,false,false,false,false,false,false,true,false,false,false,false,false,false,true,false,false,true,false,false,false,false,false,false,false,false,false,false,false],"id":14,"left_children":[1,3,5,7,9,11,-1,-1,13,15,17,-1,19,-1,21,-1,23,25,27,29,-1,-1,31,33,-1,-1,35,37,-1,39,-1,-1,-1,-1,-1,-1,-1,-1,-1,-1,-1],"loss_changes":[5.0254227E1,9.143084E0,1.1938751E1,2.3262062E0,1.2353044E1,1.1635956E1,0E0,0E0,1.3253918E0,1.9763035E1,4.5456095E0,0E0,8.135231E0,0E0,1.4221897E0,0E0,7.7551537E0,9.598135E0,6.527251E0,7.070183E0,0E0,0E0,1.5087919E0,3.7796783E0,0E0,0E0,3.6489592E0,1.5411634E1,0E0,4.874161E0,0E0,0E0,0E0,0E0,0E0,0E0,0E0,0E0,0E0,0E0,0E0],"parents":[2147483647,0,0,1,1,2,2,3,3,4,4,5,5,8,8,9,9,10,10,12,12,14,14,16,16,17,17,18,18,19,19,22,22,23,23,26,26,27,27,29,29],"right_children":[2,4,6,8,10,12,-1,-1,14,16,18,-1,20,-1,22,-1,24,26,28,30,-1,-1,32,34,-1,-1,36,38,-1,40,-1,-1,-1,-1,-1,-1,-1,-1,-1,-1,-1],"split_conditions":[-1.4127132E-2,-6.627431E-2,3.0241245E-1,5.987174E-3,-1.1679049E-1,-4.2699453E-1,-0E0,-0E0,-1.20424945E-2,1.065911E-2,-1.6207178E-3,-0E0,2.580142E-1,-0E0,-1.6483426E-2,-0E0,1.3163701E-2,1.1063283E-2,-1.6571932E-2,3.646395E0,-0E0,-0E0,-1.4148374E-2,2.8415294E-3,-0E0,-0E0,1.2151444E0,-2.2964973E-2,-0E0,7.730212E-1,-0E0,-4.953317E-2,-0E0,-0E0,1.885268E-1,-9.087502E-2,-0E0,8.6483836E-2,-0E0,-1.3148645E-1,-0E0],"split_indices":[45,33,33,4,34,10,0,0,40,55,47,0,19,0,45,0,4,55,57,27,0,0,45,4,0,0,28,25,0,47,0,0,0,0,0,0,0,0,0,0,0],"split_type":[0,0,0,0,0,0,0,0,0,0,0,0,0,0,0,0,0,0,0,0,0,0,0,0,0,0,0,0,0,0,0,0,0,0,0,0,0,0,0,0,0],"sum_hessian":[1.2650756E3,9.222057E2,3.428698E2,2.7003726E2,6.5216846E2,3.1325342E2,2.9616404E1,2.1952864E1,2.480844E2,2.3704619E2,4.1512225E2,1.8559576E1,2.9469385E2,7.235598E0,2.408488E2,1.8057104E2,5.6475136E1,1.5405055E2,2.610717E2,2.8930927E2,5.384576E0,2.6627612E0,2.3818604E2,5.167071E1,4.804423E0,5.6046894E1,9.800366E1,2.0667172E2,5.4399963E1,2.8593546E2,3.3738096E0,2.3583647E2,2.3495655E0,1.1273527E0,5.054336E1,8.618127E1,1.1822396E1,1.17328804E2,8.9342926E1,2.7536078E2,1.0574669E1],"tree_param":{"num_deleted":"0","num_feature":"64","num_nodes":"41","size_leaf_vector":"0"}},{"base_weights":[-1.16763115E-1,-2.369957E-1,1.4308548E-1,-7.641595E-1,-1.3019253E-2,-0E0,4.2282832E-1,-0E0,-8.346021E-1,3.2345127E-2,-2.9602835E-1,7.5596267E-1,-0E0,-0E0,-8.5968405E-1,1.7637843E-1,-0E0,-0E0,-4.238001E-1,-0E0,8.159547E-1,-0E0,-8.956637E-1,4.0560493E-1,-0E0,-0E0,-7.8699514E-2,-0E0,-4.9187633E-1,-0E0,8.341773E-1,-0E0,-9.0894324E-1,-0E0,5.4995596E-1,-0E0,-1.4523163E-1,-0E0,-5.692568E-1,8.4935695E-1,-0E0],"categories":[],"categories_nodes":[],"categories_segments":[],"categories_sizes":[],"default_left":[false,true,true,false,false,false,false,false,false,false,false,true,false,false,false,false,true,false,true,false,true,false,false,false,false,false,true,false,false,false,false,false,false,false,false,false,false,false,false,false,false],"id":15,"left_children":[1,3,5,7,9,-1,11,-1,13,15,17,19,-1,-1,21,23,25,-1,27,-1,29,-1,31,33,-1,-1,35,-1,37,-1,39,-1,-1,-1,-1,-1,-1,-1,-1,-1,-1],"loss_changes":[4.3342537E1,7.652759E1,2.6839298E1,9.702209E0,2.2844124E1,0E0,2.3052464E1,0E0,5.2537994E0,6.615713E0,1.8973362E1,6.835083E0,0E0,0E0,4.062042E0,2.118349E1,6.014312E-1,0E0,1.1167667E1,0E0,1.6559296E0,0E0,3.2986298E0,1.7965645E1,0E0,0E0,1.3005497E0,0E0,1.0729065E1,0E0,1.1594238E0,0E0,0E0,0E0,0E0,0E0,0E0,0E0,0E0,0E0,0E0],"parents":[2147483647,0,0,1,1,2,2,3,3,4,4,6,6,8,8,9,9,10,10,11,11,14,14,15,15,16,16,18,18,20,20,22,22,23,23,26,26,28,28,30,30],"right_children":[2,4,6,8,10,-1,12,-1,14,16,18,20,-1,-1,22,24,26,-1,28,-1,30,-1,32,34,-1,-1,36,-1,38,-1,40,-1,-1,-1,-1,-1,-1,-1,-1,-1,-1],"split_conditions":[-2.9985204E-2,-6.627431E-2,-1.703831E-2,-1.7428376E-2,-1.47609655E-2,-0E0,-4.883763E-2,-0E0,-4.4522874E-2,-1.6571388E-2,1.2655995E-2,-3.750868E-2,-0E0,-0E0,6.0475226E-3,1.3083298E-2,-9.661265E-2,-0E0,-2.487987E-2,-0E0,-6.4666504E-1,-0E0,-2.9551603E-2,1.1405405E-2,-0E0,-0E0,-3.229689E-1,-0E0,-1.2617335E-2,-0E0,-8.196541E-3,-0E0,-1.8178865E-1,-0E0,1.0999119E-1,-0E0,-2.9046327E-2,-0E0,-1.1385136E-1,1.6987139E-1,-0E0],"split_indices":[26,33,57,57,45,0,33,0,11,57,4,5,0,0,4,12,10,0,31,0,35,0,40,4,0,0,34,0,12,0,40,0,0,0,0,0,0,0,0,0,0],"split_type":[0,0,0,0,0,0,0,0,0,0,0,0,0,0,0,0,0,0,0,0,0,0,0,0,0,0,0,0,0,0,0,0,0,0,0,0,0,0,0,0,0],"sum_hessian":[1.2370111E3,9.7725336E2,2.5975775E2,2.248338E2,7.5241956E2,7.988999E1,1.7986775E2,2.2422709E1,2.0241109E2,4.9620807E2,2.5621146E2,9.6608696E1,8.3259056E1,4.529918E0,1.9788118E2,2.2934744E2,2.6686063E2,2.5563484E1,2.3064798E2,3.4175668E0,9.319113E1,1.0515257E1,1.8736592E2,1.721319E2,5.721555E1,1.6975558E2,9.710505E1,1.3267445E1,2.1738054E2,1.6473409E0,9.154379E1,1.4421475E0,1.8592377E2,1.9102484E1,1.530294E2,6.9305525E0,9.01745E1,2.1972504E1,1.9540804E2,8.990808E1,1.6357085E0],"tree_param":{"num_deleted":"0","num_feature":"64","num_nodes":"41","size_leaf_vector":"0"}},{"base_weights":[-1.0099223E-1,-0E0,-3.560711E-1,6.0140084E-2,-5.8291133E-2,-0E0,-4.2854846E-1,-0E0,5.8971065E-1,-2.2792256E-1,5.8034353E-2,-4.6839413E-1,-0E0,-0E0,-3.6331434E-2,9.034811E-1,-0E0,-3.2584694E-1,-0E0,-0E0,1.8094061E-1,-0E0,-5.3215253E-1,-1.1096563E-1,-0E0,1.0640612E0,-0E0,-4.294189E-1,-0E0,3.3345893E-1,-0E0,-5.486316E-1,-0E0,-0E0,-1.724565E-1,1.1762121E0,-0E0,-4.8716402E-1,-0E0,-0E0,4.4842237E-1,-0E0,-5.648377E-1],"categories":[],"categories_nodes":[],"categories_segments":[],"categories_sizes":[],"default_left":[true,true,true,true,true,false,true,false,false,true,false,false,false,false,true,false,false,true,false,false,true,false,true,true,false,true,false,true,false,false,false,false,false,false,false,false,false,false,false,false,false,false,false],"id":16,"left_children":[1,3,5,7,9,-1,11,13,15,17,19,21,-1,-1,23,25,-1,27,-1,-1,29,-1,31,33,-1,35,-1,37,-1,39,-1,41,-1,-1,-1,-1,-1,-1,-1,-1,-1,-1,-1],"loss_changes":[2.8601276E1,3.0523357E0,8.456703E0,3.0177103E1,1.8282051E1,0E0,6.228817E0,2.042004E-1,2.9386625E1,1.5787674E1,3.1377845E0,4.55138E0,0E0,0E0,1.205175E0,1.1312649E1,0E0,1.3429134E1,0E0,0E0,5.583758E0,0E0,3.3571281E0,1.4850562E0,0E0,8.965652E0,0E0,9.538174E0,0E0,3.820469E0,0E0,3.4643097E0,0E0,0E0,0E0,0E0,0E0,0E0,0E0,0E0,0E0,0E0,0E0],"parents":[2147483647,0,0,1,1,2,2,3,3,4,4,6,6,7,7,8,8,9,9,10,10,11,11,14,14,15,15,17,17,20,20,22,22,23,23,25,25,27,27,29,29,31,31],"right_children":[2,4,6,8,10,-1,12,14,16,18,20,22,-1,-1,24,26,-1,28,-1,-1,30,-1,32,34,-1,36,-1,38,-1,40,-1,42,-1,-1,-1,-1,-1,-1,-1,-1,-1,-1,-1],"split_conditions":[3.7637137E-2,-1.5651459E-2,-5.20571E-3,1.23549625E-2,1.1618168E-3,-0E0,5.3054917E-1,3.784831E-3,1.3725365E-2,4.0931985E-2,-1.8045887E-1,-5.9079032E-2,-0E0,-0E0,1.7240468E-2,-2.7725868E-2,-0E0,6.4593744E-1,-0E0,-0E0,3.586139E-2,-0E0,3.5936809E0,-8.221577E-2,-0E0,3.0910546E-1,-0E0,6.267888E-2,-0E0,-1.5500898E-2,-0E0,-1.10077746E-1,-0E0,-0E0,-3.44913E-2,2.3524241E-1,-0E0,-9.743281E-2,-0E0,-0E0,8.968448E-2,-0E0,-1.1296754E-1],"split_indices":[24,45,44,4,19,0,32,38,4,60,32,39,0,0,5,19,0,28,0,0,37,0,27,63,0,60,0,56,0,45,0,55,0,0,0,0,0,0,0,0,0,0,0],"split_type":[0,0,0,0,0,0,0,0,0,0,0,0,0,0,0,0,0,0,0,0,0,0,0,0,0,0,0,0,0,0,0,0,0,0,0,0,0,0,0,0,0,0,0],"sum_hessian":[1.1957335E3,8.7395605E2,3.2177744E2,3.7793875E2,4.960173E2,5.3589233E1,2.681882E2,2.8723203E2,9.070672E1,3.7662827E2,1.1938903E2,2.528913E2,1.5296917E1,1.325316E2,1.5470044E2,7.464449E1,1.606222E1,3.3296548E2,4.3662766E1,1.1266289E1,1.0812274E2,4.0896683E1,2.1199461E2,1.1445893E2,4.02415E1,6.3806435E1,1.0838063E1,2.6454446E2,6.842103E1,8.205094E1,2.6071795E1,2.1060403E2,1.3905805E0,1.7138477E1,9.732046E1,5.869927E1,5.1071634E0,2.4573642E2,1.8808044E1,1.767884E1,6.43721E1,1.05327E0,2.0955077E2],"tree_param":{"num_deleted":"0","num_feature":"64","num_nodes":"43","size_leaf_vector":"0"}},{"base_weights":[-7.819209E-2,-2.6560348E-1,2.9313858E-3,-6.7829233E-1,-0E0,1.7419331E-1,-2.469116E-1,-0E0,-7.417138E-1,1.4685799E-2,-2.1868338E-1,3.9215556E-1,-0E0,-3.4035435E-1,-0E0,-7.724163E-1,-0E0,1.7666572E-1,-0E0,-0E0,-3.0637178E-1,-0E0,5.1438385E-1,-4.0962112E-1,-0E0,-0E0,-7.9177696E-1,3.0323687E-1,-0E0,-0E0,-3.4086195E-1,-0E0,6.151792E-1,-4.4290236E-1,-0E0,-0E0,-8.0001664E-1,3.8533366E-1,-0E0,-3.8708502E-1,-0E0,6.6840035E-1,-0E0,-4.6655178E-1,-0E0],"categories":[],"categories_nodes":[],"categories_segments":[],"categories_sizes":[],"default_left":[false,true,false,false,false,true,true,false,true,false,false,false,false,true,false,false,false,false,false,false,false,false,true,true,false,false,false,false,false,false,false,false,false,true,false,false,false,false,false,false,false,false,false,false,false],"id":17,"left_children":[1,3,5,7,9,11,13,-1,15,17,19,21,-1,23,-1,25,-1,27,-1,-1,29,-1,31,33,-1,-1,35,37,-1,-1,39,-1,41,43,-1,-1,-1,-1,-1,-1,-1,-1,-1,-1,-1],"loss_changes":[3.0865852E1,4.0975094E1,2.3226315E1,7.914177E0,6.6084266E0,2.0693045E1,5.800439E0,0E0,4.9831085E0,5.0707397E0,3.3639574E0,1.7743145E1,0E0,5.0959816E0,0E0,3.9609451E0,0E0,7.3339124E0,0E0,0E0,1.811574E0,0E0,1.4394241E1,2.8188705E0,0E0,0E0,8.811188E-2,6.406331E0,0E0,0E0,2.2581778E0,0E0,9.316406E0,9.0416145E-1,0E0,0E0,0E0,0E0,0E0,0E0,0E0,0E0,0E0,0E0,0E0],"parents":[2147483647,0,0,1,1,2,2,3,3,4,4,5,5,6,6,8,8,9,9,10,10,11,11,13,13,15,15,17,17,20,20,22,22,23,23,26,26,27,27,30,30,32,32,33,33],"right_children":[2,4,6,8,10,12,14,-1,16,18,20,22,-1,24,-1,26,-1,28,-1,-1,30,-1,32,34,-1,-1,36,38,-1,-1,40,-1,42,44,-1,-1,-1,-1,-1,-1,-1,-1,-1,-1,-1],"split_conditions":[-3.0994732E-2,-6.624712E-2,2.0055266E-2,5.8598E-3,4.524462E-3,-3.9239816E-2,5.5362206E-2,-0E0,4.0121162E-1,-6.169861E-2,1.0958759E-2,-4.116428E-2,-0E0,5.413612E-1,-0E0,-1.6524374E-2,-0E0,-2.3252998E-2,-0E0,-0E0,-4.138224E-2,-0E0,1.1407252E-2,5.751183E-1,-0E0,-0E0,-1.2213911E-1,1.4234821E-2,-0E0,-0E0,-3.0996531E-2,-0E0,2.4481166E-2,1.3113113E-2,-0E0,-0E0,-1.6000333E-1,7.7066734E-2,-0E0,-7.741701E-2,-0E0,1.3368008E-1,-0E0,-9.3310356E-2,-0E0],"split_indices":[26,33,12,4,38,33,27,0,29,63,55,36,0,54,0,45,0,7,0,0,36,0,4,29,0,0,27,4,0,0,26,0,38,44,0,0,0,0,0,0,0,0,0,0,0],"split_type":[0,0,0,0,0,0,0,0,0,0,0,0,0,0,0,0,0,0,0,0,0,0,0,0,0,0,0,0,0,0,0,0,0,0,0,0,0,0,0,0,0,0,0,0,0],"sum_hessian":[1.1663292E3,5.385397E2,6.2778955E2,1.7163626E2,3.669034E2,4.9120496E2,1.3658461E2,1.3711429E1,1.5792482E2,2.2975278E2,1.3715062E2,2.3147641E2,2.5972855E2,1.21954704E2,1.4629901E1,1.539719E2,3.9529395E0,1.6405524E2,6.569754E1,3.1435253E1,1.0571537E2,2.9878384E1,2.0159802E2,1.1456826E2,7.3864446E0,1.1196269E0,1.5285226E2,1.3544154E2,2.8613684E1,4.7193913E0,1.0099598E2,2.2615227E1,1.7898279E2,1.1236713E2,2.2011392E0,2.9946942E0,1.4985756E2,1.2702234E2,8.419212E0,9.3386734E1,7.6092424E0,1.7246797E2,6.5148253E0,1.0541792E2,6.9491987E0],"tree_param":{"num_deleted":"0","num_feature":"64","num_nodes":"45","size_leaf_vector":"0"}},{"base_weights":[-7.454336E-2,-2.2228998E-1,1.9129915E-2,-0E0,-3.41462E-1,2.029224E-1,-0E0,-4.028765E-1,-0E0,3.0064932E-1,-0E0,-6.2009346E-2,-0E0,-4.3454787E-1,-0E0,-0E0,3.2551932E-1,-1.3655548E-1,-0E0,-4.9432278E-1,-0E0,-0E0,3.495988E-1,-0E0,-1.744158E-1,-5.108976E-1,-0E0,3.7481233E-1,-0E0,-1.9122069E-1,-0E0],"categories":[],"categories_nodes":[],"categories_segments":[],"categories_sizes":[],"default_left":[false,false,true,false,true,false,true,true,false,false,false,true,false,true,false,false,true,false,false,true,false,false,true,false,true,false,false,false,false,false,false],"id":18,"left_children":[1,3,5,-1,7,9,11,13,-1,15,-1,17,-1,19,-1,-1,21,23,-1,25,-1,-1,27,-1,29,-1,-1,-1,-1,-1,-1],"loss_changes":[2.5950167E1,1.4385078E1,1.12372875E1,0E0,1.2095661E1,1.0067457E1,5.930549E-1,7.11343E0,0E0,3.0309582E0,0E0,2.0953145E0,0E0,4.464905E0,0E0,0E0,3.238615E0,1.5390351E0,0E0,3.2188416E0,0E0,0E0,3.3119488E0,0E0,7.740154E-1,0E0,0E0,0E0,0E0,0E0,0E0],"parents":[2147483647,0,0,1,1,2,2,4,4,5,5,6,6,7,7,9,9,11,11,13,13,16,16,17,17,19,19,22,22,24,24],"right_children":[2,4,6,-1,8,10,12,14,-1,16,-1,18,-1,20,-1,-1,22,24,-1,26,-1,-1,28,-1,30,-1,-1,-1,-1,-1,-1],"split_conditions":[-1.1739138E-2,4.6468573E-3,-1.1582953E-2,-0E0,4.8990704E-2,1.9809349E-2,-9.5007574E-4,1.0706389E-1,-0E0,-5.7011587E-3,-0E0,9.945202E-2,-0E0,-1.2483517E-2,-0E0,-0E0,-5.1372E-2,-3.220591E-2,-0E0,8.6431354E-2,-0E0,-0E0,4.4046134E-2,-0E0,1.001665E-1,-1.0217952E-1,-0E0,7.496247E-2,-0E0,-3.824414E-2,-0E0],"split_indices":[20,38,20,0,14,12,14,2,0,29,0,52,0,58,0,0,58,15,0,36,0,0,58,0,24,0,0,0,0,0,0],"split_type":[0,0,0,0,0,0,0,0,0,0,0,0,0,0,0,0,0,0,0,0,0,0,0,0,0,0,0,0,0,0,0],"sum_hessian":[1.1410597E3,6.498503E2,4.912094E2,2.5107239E2,3.987779E2,2.772642E2,2.1394519E2,3.609875E2,3.779041E1,2.3768672E2,3.9577473E1,1.5423416E2,5.971104E1,3.4795566E2,1.303182E1,6.3276505E0,2.3135909E2,1.4416862E2,1.006553E1,2.871642E2,6.079145E1,4.27486E0,2.2708421E2,5.2046695E0,1.3896396E2,2.811658E2,5.99841E0,2.2113525E2,5.948958E0,1.367803E2,2.1836474E0],"tree_param":{"num_deleted":"0","num_feature":"64","num_nodes":"31","size_leaf_vector":"0"}},{"base_weights":[-6.13799E-2,-0E0,-2.651438E-1,-1.7948324E-2,8.692528E-2,-3.7171912E-1,-0E0,-0E0,-2.4881878E-1,2.9229674E-1,-0E0,-0E0,-4.240792E-1,-0E0,7.7654354E-2,-3.7175393E-1,-0E0,5.7351255E-1,-0E0,-4.6600187E-1,-0E0,-0E0,-1.0689692E-2,1.5912072E-1,-0E0,-0E0,-5.296328E-1,6.817835E-1,-0E0,-5.1063466E-1,-0E0,-9.984457E-2,-0E0,2.1285938E-1,-0E0,-5.6081194E-1,-0E0,-0E0,7.7165973E-1,-0E0,-5.47138E-1],"categories":[],"categories_nodes":[],"categories_segments":[],"categories_sizes":[],"default_left":[false,true,true,false,false,false,false,true,true,true,false,false,true,false,true,false,false,true,false,true,false,false,true,true,false,false,false,false,false,false,false,false,false,false,false,false,false,false,false,false,false],"id":19,"left_children":[1,3,5,7,9,11,-1,13,15,17,-1,-1,19,21,23,25,-1,27,-1,29,-1,-1,31,33,-1,-1,35,37,-1,39,-1,-1,-1,-1,-1,-1,-1,-1,-1,-1,-1],"loss_changes":[1.486282E1,1.5449152E0,7.9430885E0,1.0013438E1,8.767113E0,5.4012012E0,0E0,1.0498271E0,8.322765E0,1.2965767E1,0E0,0E0,4.869091E0,1.86643E-2,2.9144545E0,7.4136524E0,0E0,5.3697395E0,0E0,5.089836E0,0E0,0E0,1.471283E0,2.7990966E0,0E0,0E0,2.3174477E0,6.3126965E0,0E0,3.429985E0,0E0,0E0,0E0,0E0,0E0,0E0,0E0,0E0,0E0,0E0,0E0],"parents":[2147483647,0,0,1,1,2,2,3,3,4,4,5,5,7,7,8,8,9,9,12,12,13,13,14,14,15,15,17,17,19,19,22,22,23,23,26,26,27,27,29,29],"right_children":[2,4,6,8,10,12,-1,14,16,18,-1,-1,20,22,24,26,-1,28,-1,30,-1,-1,32,34,-1,-1,36,38,-1,40,-1,-1,-1,-1,-1,-1,-1,-1,-1,-1,-1],"split_conditions":[-1.4127132E-2,-5.505082E-2,-5.9774294E-3,-3.5065368E-2,-1.1911547E-2,-3.9069526E-2,-0E0,1.4521261E-2,1.4931503E-1,1.4344359E-2,-0E0,-0E0,5.0295427E-2,-1.5798014E-2,4.627923E-2,-1.5732069E-2,-0E0,-3.7638213E-2,-0E0,2.989926E-2,-0E0,-0E0,5.888755E-2,-5.5390052E-2,-0E0,-0E0,-1.396065E-2,-4.0792413E-2,-0E0,-5.920335E-2,-0E0,-1.9968914E-2,-0E0,4.2571876E-2,-0E0,-1.1216239E-1,-0E0,-0E0,1.5433195E-1,-0E0,-1.0942759E-1],"split_indices":[45,27,3,23,46,43,0,48,23,50,0,0,41,45,1,45,0,36,0,1,0,0,60,53,0,0,3,36,0,39,0,0,0,0,0,0,0,0,0,0,0],"split_type":[0,0,0,0,0,0,0,0,0,0,0,0,0,0,0,0,0,0,0,0,0,0,0,0,0,0,0,0,0,0,0,0,0,0,0,0,0,0,0,0,0],"sum_hessian":[1.1207878E3,8.4930786E2,2.7147995E2,6.7356256E2,1.7574529E2,1.9561026E2,7.5869705E1,5.08318E2,1.6524457E2,1.1815724E2,5.7588047E1,1.528833E1,1.8032193E2,3.3422305E2,1.7409494E2,1.3424786E2,3.0996716E1,7.011142E1,4.804582E1,1.7175882E2,8.563109E0,1.7088727E2,1.633358E2,1.5657088E2,1.7524063E1,4.167806E1,9.25698E1,6.1163498E1,8.947922E0,1.625655E2,9.193321E0,1.49459E2,1.3876798E1,1.492719E2,7.2989745E0,8.993127E1,2.6385307E0,2.8164675E0,5.834703E1,9.510346E0,1.5305516E2],"tree_param":{"num_deleted":"0","num_feature":"64","num_nodes":"41","size_leaf_vector":"0"}},{"base_weights":[-5.0413255E-2,-0E0,-1.4928614E-1,-0E0,9.257977E-2,-0E0,-2.6686648E-1,-6.512804E-2,-0E0,5.9843916E-1,-0E0,-0E0,7.396021E-2,-0E0,-3.2076684E-1,-0E0,-1.5761334E-1,-0E0,7.4633676E-1,-6.2698126E-2,-0E0,1.6006991E-1,-0E0,-0E0,-3.350602E-1,-2.0152226E-1,-0E0,-0E0,8.227449E-1,-0E0,-1.5423109E-1,-0E0,2.1994741E-1,-0E0,-3.5124457E-1,-0E0,-2.4059673E-1,8.444095E-1,-0E0,-2.0296542E-1,-0E0,2.7721134E-1,-0E0,-0E0,-3.597398E-1],"categories":[],"categories_nodes":[],"categories_segments":[],"categories_sizes":[],"default_left":[false,false,false,true,false,true,false,false,false,false,false,false,false,false,false,false,true,false,false,false,false,true,false,false,false,false,false,false,false,false,true,false,true,false,false,false,false,false,false,false,false,false,false,false,false],"id":20,"left_children":[1,3,5,7,9,11,13,15,-1,17,19,-1,21,-1,23,-1,25,-1,27,29,-1,31,-1,-1,33,35,-1,-1,37,-1,39,-1,41,-1,43,-1,-1,-1,-1,-1,-1,-1,-1,-1,-1],"loss_changes":[1.0614933E1,2.7448132E0,1.972044E1,4.614066E-1,3.333201E1,5.120151E-1,8.857677E0,1.743322E0,0E0,5.5107307E0,6.344675E-1,0E0,1.7332861E0,0E0,3.3266335E0,0E0,9.6377015E-1,0E0,4.8051186E0,2.0995789E0,0E0,1.8240862E0,0E0,0E0,2.8223839E0,1.074589E0,0E0,0E0,6.1242294E-1,0E0,1.6563094E0,0E0,2.1335635E0,0E0,2.1878586E0,0E0,0E0,0E0,0E0,0E0,0E0,0E0,0E0,0E0,0E0],"parents":[2147483647,0,0,1,1,2,2,3,3,4,4,5,5,6,6,7,7,9,9,10,10,12,12,14,14,16,16,18,18,19,19,21,21,24,24,25,25,28,28,30,30,32,32,34,34],"right_children":[2,4,6,8,10,12,14,16,-1,18,20,-1,22,-1,24,-1,26,-1,28,30,-1,32,-1,-1,34,36,-1,-1,38,-1,40,-1,42,-1,44,-1,-1,-1,-1,-1,-1,-1,-1,-1,-1],"split_conditions":[-1.5384547E-2,-1.7058626E-2,-1.567127E-2,-1.3848407E-2,-1.3971696E-2,-5.677793E-2,-4.788048E-2,-1.6372232E-2,-0E0,-1.6848713E-2,-1.9235613E-2,-0E0,-7.862708E-3,-0E0,-3.5511908E-1,-0E0,-3.753355E-2,-0E0,-3.9061222E-2,-9.8049805E-2,-0E0,-3.4568834E-1,-0E0,-0E0,-6.3986465E-2,-1.7697465E-2,-0E0,-0E0,-1.540733E-2,-0E0,2.949211E-1,-0E0,3.1923488E-1,-0E0,-2.11651E-2,-0E0,-4.8119348E-2,1.6888191E-1,-0E0,-4.0593084E-2,-0E0,5.544227E-2,-0E0,-0E0,-7.194796E-2],"split_indices":[45,3,59,46,46,33,42,45,0,3,43,0,46,0,41,0,36,0,43,8,0,23,0,0,53,57,0,0,45,0,47,0,34,0,57,0,0,0,0,0,0,0,0,0,0],"split_type":[0,0,0,0,0,0,0,0,0,0,0,0,0,0,0,0,0,0,0,0,0,0,0,0,0,0,0,0,0,0,0,0,0,0,0,0,0,0,0,0,0,0,0,0,0],"sum_hessian":[1.1059729E3,5.0355225E2,6.0242065E2,1.8330853E2,3.202437E2,1.3699997E2,4.654207E2,1.0877968E2,7.4528854E1,1.0073682E2,2.195069E2,4.3397675E1,9.3602295E1,5.7185497E1,4.082352E2,2.0029509E1,8.875017E1,2.6075842E1,7.466098E1,1.6139879E2,5.8108112E1,8.763048E1,5.971823E0,4.4550943E0,4.037801E2,7.802027E1,1.0729896E1,6.1249475E0,6.853603E1,4.6461216E1,1.1493757E2,3.5120082E0,8.411847E1,1.3475953E1,3.9030414E2,4.720506E0,7.329977E1,6.5923256E1,2.6127715E0,1.0657506E2,8.362505E0,8.071912E1,3.3993511E0,1.3103268E0,3.889938E2],"tree_param":{"num_deleted":"0","num_feature":"64","num_nodes":"45","size_leaf_vector":"0"}},{"base_weights":[-3.3417784E-2,-1.4806034E-1,1.644821E-1,-0E0,-3.3377764E-1,3.7897143E-1,-0E0,1.1983252E-1,-1.0699464E-1,-3.8827598E-1,-0E0,-0E0,5.513686E-1,-0E0,2.6048946E-1,-0E0,-1.8578023E-1,-0E0,-4.4954148E-1,6.542937E-1,-0E0,3.6197424E-1,-0E0,-0E0,-2.2828604E-1,-0E0,-5.076959E-1,7.22616E-1,-0E0,4.9231955E-1,-0E0,-2.6916873E-1,-0E0,-5.3703034E-1,-0E0,7.4547255E-1,-0E0],"categories":[],"categories_nodes":[],"categories_segments":[],"categories_sizes":[],"default_left":[false,false,false,false,true,true,false,true,true,true,false,false,false,false,false,false,false,false,false,false,false,true,false,false,true,false,true,false,false,false,false,false,false,false,false,false,false],"id":21,"left_children":[1,3,5,7,9,11,-1,13,15,17,-1,-1,19,-1,21,-1,23,-1,25,27,-1,29,-1,-1,31,-1,33,35,-1,-1,-1,-1,-1,-1,-1,-1,-1],"loss_changes":[2.386137E1,2.0304672E1,1.8233278E1,6.288274E0,8.809738E0,1.2808929E1,0E0,8.244194E0,3.4108493E0,1.0839363E1,0E0,0E0,1.2234547E1,0E0,8.660733E0,0E0,2.9375029E0,0E0,8.70742E0,8.72245E0,0E0,7.5151024E0,0E0,0E0,3.4507751E0,0E0,5.487877E0,2.4615746E0,0E0,0E0,0E0,0E0,0E0,0E0,0E0,0E0,0E0],"parents":[2147483647,0,0,1,1,2,2,3,3,4,4,5,5,7,7,8,8,9,9,12,12,14,14,16,16,18,18,19,19,21,21,24,24,26,26,27,27],"right_children":[2,4,6,8,10,12,-1,14,16,18,-1,-1,20,-1,22,-1,24,-1,26,28,-1,30,-1,-1,32,-1,34,36,-1,-1,-1,-1,-1,-1,-1,-1,-1],"split_conditions":[-3.023528E-2,-2.3892451E-2,1.2761306E-2,-1.6498908E-2,1.8488921E-2,-9.606652E-1,-0E0,1.14095155E-2,-3.798225E-1,-1.4060485E-1,-0E0,-0E0,1.657305E-1,-0E0,1.2981655E-2,-0E0,-6.062352E-2,-0E0,-1.6014554E-2,1.4294454E-2,-0E0,-5.4062568E-2,-0E0,-0E0,1.7501262E-1,-0E0,3.4024274E-1,3.5976678E-1,-0E0,9.8463915E-2,-0E0,-5.383375E-2,-0E0,-1.0740607E-1,-0E0,1.490945E-1,-0E0],"split_indices":[26,25,55,57,53,28,0,4,21,34,0,0,23,0,4,0,39,0,45,4,0,6,0,0,23,0,23,60,0,0,0,0,0,0,0,0,0],"split_type":[0,0,0,0,0,0,0,0,0,0,0,0,0,0,0,0,0,0,0,0,0,0,0,0,0,0,0,0,0,0,0,0,0,0,0,0,0],"sum_hessian":[1.0879203E3,8.4884247E2,2.3907777E2,4.995583E2,3.4928418E2,1.7199197E2,6.7085785E1,1.9553835E2,3.0401996E2,3.1655063E2,3.2733532E1,4.860579E1,1.2338619E2,3.2659676E1,1.6287868E2,1.04357025E2,1.9966292E2,2.6765436E1,2.897852E2,1.16199066E2,7.1871266E0,1.5045049E2,1.242819E1,1.1064265E1,1.8859866E2,2.8803394E1,2.609818E2,1.1196903E2,4.2300315E0,1.1233637E2,3.8114113E1,1.8328738E2,5.311278E0,2.5227765E2,8.704161E0,1.0963768E2,2.3313549E0],"tree_param":{"num_deleted":"0","num_feature":"64","num_nodes":"37","size_leaf_vector":"0"}},{"base_weights":[-2.627122E-2,-2.0023486E-1,3.4682684E-2,-5.598835E-1,-0E0,2.0170394E-1,-9.867329E-3,-0E0,-6.3661975E-1,-0E0,-9.011608E-2,-0E0,3.0981633E-1,-0E0,-1.21121556E-1,-0E0,-6.60051E-1,7.816294E-2,-0E0,-0E0,-1.7578694E-1,3.6879975E-1,-0E0,-2.1081385E-1,-0E0,-0E0,-6.744222E-1,-0E0,1.6799116E-1,-2.4688727E-1,-0E0,4.2169908E-1,-0E0,-0E0,-2.6670173E-1,-6.954156E-1,-0E0,2.4337438E-1,-0E0,-0E0,-2.9473457E-1,4.8043987E-1,-0E0,-3.0765814E-1,-0E0],"categories":[],"categories_nodes":[],"categories_segments":[],"categories_sizes":[],"default_left":[false,true,false,false,false,true,true,false,false,false,false,false,false,false,true,false,false,false,false,false,true,true,false,false,false,false,true,false,false,false,false,true,false,false,true,false,false,false,false,false,false,false,false,false,false],"id":22,"left_children":[1,3,5,7,9,11,13,-1,15,17,19,-1,21,-1,23,-1,25,27,-1,-1,29,31,-1,33,-1,-1,35,-1,37,39,-1,41,-1,-1,43,-1,-1,-1,-1,-1,-1,-1,-1,-1,-1],"loss_changes":[1.9546602E1,2.4577375E1,1.3863945E1,6.0415573E0,1.6383237E0,1.5279321E1,2.8022578E0,0E0,3.2745628E0,8.2011074E-1,3.8034182E0,0E0,1.0315279E1,0E0,4.232998E0,0E0,1.3351707E0,2.3489807E0,0E0,0E0,2.5326838E0,9.961441E0,0E0,3.818565E0,0E0,0E0,9.9858475E-1,0E0,3.052213E0,2.5977998E0,0E0,7.9091606E0,0E0,0E0,3.1655083E0,0E0,0E0,0E0,0E0,0E0,0E0,0E0,0E0,0E0,0E0],"parents":[2147483647,0,0,1,1,2,2,3,3,4,4,5,5,6,6,8,8,9,9,10,10,12,12,14,14,16,16,17,17,20,20,21,21,23,23,26,26,28,28,29,29,31,31,34,34],"right_children":[2,4,6,8,10,12,14,-1,16,18,20,-1,22,-1,24,-1,26,28,-1,-1,30,32,-1,34,-1,-1,36,-1,38,40,-1,42,-1,-1,44,-1,-1,-1,-1,-1,-1,-1,-1,-1,-1],"split_conditions":[-3.0994732E-2,-6.624712E-2,-4.2780563E-3,-1.6232138E-2,-5.920525E-2,1.1407252E-2,9.538017E-3,-0E0,-1.6522393E-2,-1.1249382E-2,-4.1811585E-2,-0E0,1.6482323E-2,-0E0,3.0639216E-2,-0E0,-1.7893251E-2,-6.023827E-3,-0E0,-0E0,-1.5574935E-2,4.788978E-2,-0E0,-2.4546348E-2,-0E0,-0E0,-6.683424E-2,-0E0,9.229554E-3,-8.113247E-3,-0E0,-2.0462947E-2,-0E0,-0E0,1.3296758E-1,-1.3908313E-1,-0E0,4.8674878E-2,-0E0,-0E0,-5.8946915E-2,9.608798E-2,-0E0,-6.153163E-2,-0E0],"split_indices":[26,33,23,49,39,4,5,0,45,46,12,0,4,0,52,0,3,44,0,0,58,1,0,25,0,0,33,0,18,44,0,52,0,0,56,0,0,0,0,0,0,0,0,0,0],"split_type":[0,0,0,0,0,0,0,0,0,0,0,0,0,0,0,0,0,0,0,0,0,0,0,0,0,0,0,0,0,0,0,0,0,0,0,0,0,0,0,0,0,0,0,0,0],"sum_hessian":[1.0627352E3,4.8858786E2,5.7414734E2,1.408967E2,3.4769116E2,3.5722372E2,2.1692366E2,1.7012497E1,1.238842E2,1.4594974E2,2.0174141E2,4.662916E1,3.1059454E2,2.4469978E1,1.9245367E2,1.123254E0,1.2276095E2,1.3423654E2,1.1713195E1,2.5639233E1,1.7610217E2,2.950305E2,1.55640545E1,1.5877548E2,3.3678192E1,2.2406178E0,1.2052033E2,2.1941156E1,1.1229539E2,1.308284E2,4.5273773E1,2.8167053E2,1.3359971E1,5.886835E0,1.5288864E2,1.1541845E2,5.1018806E0,1.0503445E2,7.260944E0,9.124573E0,1.2170383E2,2.5126955E2,3.0400976E1,1.4833517E2,4.553471E0],"tree_param":{"num_deleted":"0","num_feature":"64","num_nodes":"45","size_leaf_vector":"0"}},{"base_weights":[-2.5122983E-2,-1.5503934E-1,2.6579764E-2,-5.209285E-1,-0E0,-0E0,2.2238727E-1,-6.11173E-1,-0E0,-0E0,-1.6222692E-1,-0E0,-3.5424184E-2,3.849755E-1,-0E0,-6.501287E-1,-0E0,1.3706347E-1,-0E0,-0E0,-2.0317811E-1,-0E0,-1.00088604E-1,5.353322E-1,-0E0,-0E0,-6.586905E-1,2.5680473E-1,-0E0,-2.331924E-1,-0E0,-1.431072E-1,-0E0,5.8021796E-1,-0E0,3.3278695E-1,-0E0,-0E0,-2.531925E-1,-0E0,-1.8799856E-1,-0E0,6.273201E-1],"categories":[],"categories_nodes":[],"categories_segments":[],"categories_sizes":[],"default_left":[false,true,true,true,false,false,false,true,false,false,true,false,false,true,false,false,false,true,false,false,false,false,true,false,false,false,false,false,false,false,false,false,false,true,false,false,false,false,false,false,false,false,false],"id":23,"left_children":[1,3,5,7,9,11,13,15,-1,17,19,-1,21,23,-1,25,-1,27,-1,-1,29,-1,31,33,-1,-1,-1,35,-1,37,-1,39,-1,41,-1,-1,-1,-1,-1,-1,-1,-1,-1],"loss_changes":[1.3443619E1,2.405228E1,9.818043E0,7.2116966E0,2.3756638E0,2.4811855E-1,1.435201E1,4.5583344E0,0E0,2.0571783E0,1.2013547E0,0E0,1.2240798E0,1.7046438E1,0E0,2.1658325E-1,0E0,4.437086E0,0E0,0E0,1.0447514E0,0E0,1.3839513E0,5.6666145E0,0E0,0E0,0E0,3.9227114E0,0E0,7.277403E-1,0E0,1.8978939E0,0E0,4.2117424E0,0E0,0E0,0E0,0E0,0E0,0E0,0E0,0E0,0E0],"parents":[2147483647,0,0,1,1,2,2,3,3,4,4,5,5,6,6,7,7,9,9,10,10,12,12,13,13,15,15,17,17,20,20,22,22,23,23,27,27,29,29,31,31,33,33],"right_children":[2,4,6,8,10,12,14,16,-1,18,20,-1,22,24,-1,26,-1,28,-1,-1,30,-1,32,34,-1,-1,-1,36,-1,38,-1,40,-1,42,-1,-1,-1,-1,-1,-1,-1,-1,-1],"split_conditions":[-3.0974682E-2,-6.627431E-2,-1.2763858E-1,1.4746899E-2,-2.4970677E-2,-1.5000766E-2,2.2586644E-2,4.0121162E-1,-0E0,-1.6501494E-2,-1.9830252E-1,-0E0,-1.5678998E-2,-2.0107914E-2,-0E0,-1.2213911E-1,-0E0,-5.4598175E-2,-0E0,-0E0,3.1482322E0,-0E0,2.849848E-3,2.812193E-2,-0E0,-0E0,-1.3173811E-1,1.8815871E-2,-0E0,-2.4388704E-2,-0E0,-9.564646E-3,-0E0,-2.5326315E-2,-0E0,6.655739E-2,-0E0,-0E0,-5.0638504E-2,-0E0,-3.7599713E-2,-0E0,1.2546402E-1],"split_indices":[26,33,28,31,15,46,12,29,0,57,6,0,59,33,0,27,0,6,0,0,27,0,58,38,0,0,0,38,0,25,0,29,0,24,0,0,0,0,0,0,0,0,0],"split_type":[0,0,0,0,0,0,0,0,0,0,0,0,0,0,0,0,0,0,0,0,0,0,0,0,0,0,0,0,0,0,0,0,0,0,0,0,0,0,0,0,0,0,0],"sum_hessian":[1.0451997E3,5.728456E2,4.7235416E2,1.3937563E2,4.3346997E2,2.6708618E2,2.0526799E2,1.2056137E2,1.8814249E1,3.4320087E2,9.026911E1,6.936209E1,1.9772408E2,1.653357E2,3.99323E1,1.1733082E2,3.230551E0,1.09503624E2,2.3369724E2,3.619346E0,8.6649765E1,5.0764782E1,1.4695929E2,1.4498611E2,2.034958E1,2.53115E0,1.1479967E2,9.847453E1,1.1029094E1,8.49923E1,1.6574625E0,1.3946265E2,7.49664E0,1.4025371E2,4.7324114E0,9.406089E1,4.4136395E0,1.5449903E0,8.344731E1,4.952799E0,1.3450986E2,9.568656E0,1.3068504E2],"tree_param":{"num_deleted":"0","num_feature":"64","num_nodes":"43","size_leaf_vector":"0"}},{"base_weights":[-2.4754733E-2,-1.4677355E-1,1.9424455E-2,-0E0,-2.4330911E-1,1.5038142E-1,-0E0,-3.222704E-1,-0E0,2.1813674E-1,-0E0,-3.8722655E-1,-0E0,2.6492482E-1,-0E0,-4.2871487E-1,-0E0,-0E0,3.1031483E-1,-5.1716566E-1,-0E0,-0E0,3.4652892E-1],"categories":[],"categories_nodes":[],"categories_segments":[],"categories_sizes":[],"default_left":[false,true,true,false,true,false,false,true,false,false,false,true,false,true,false,true,false,false,true,false,false,false,false],"id":24,"left_children":[1,3,5,-1,7,9,-1,11,-1,13,-1,15,-1,17,-1,19,-1,-1,21,-1,-1,-1,-1],"loss_changes":[1.1913868E1,1.2381478E1,5.775885E0,0E0,1.3284441E1,4.555509E0,0E0,9.505627E0,0E0,3.2462282E0,0E0,6.386471E0,0E0,3.828638E0,0E0,6.987793E0,0E0,0E0,3.7255936E0,0E0,0E0,0E0,0E0],"parents":[2147483647,0,0,1,1,2,2,4,4,5,5,7,7,9,9,11,11,13,13,15,15,18,18],"right_children":[2,4,6,-1,8,10,-1,12,-1,14,-1,16,-1,18,-1,20,-1,-1,22,-1,-1,-1,-1],"split_conditions":[-1.1739138E-2,-3.12894E-2,-1.1582953E-2,-0E0,4.928643E-2,1.8469118E-2,-0E0,1.4935797E-1,-0E0,-1.0834273E-2,-0E0,3.6576413E-2,-0E0,1.0414779E-2,-0E0,-1.1694807E-2,-0E0,-0E0,-5.8822805E-1,-1.0343313E-1,-0E0,-0E0,6.9305785E-2],"split_indices":[20,26,20,0,14,38,0,23,0,40,0,33,0,4,0,58,0,0,23,0,0,0,0],"split_type":[0,0,0,0,0,0,0,0,0,0,0,0,0,0,0,0,0,0,0,0,0,0,0],"sum_hessian":[1.028887E3,5.743474E2,4.545396E2,1.5619493E2,4.1815247E2,2.629892E2,1.915504E2,3.662569E2,5.1895557E1,2.2072495E2,4.226426E1,3.1708026E2,4.917665E1,1.9589786E2,2.4827084E1,2.9342725E2,2.3653028E1,1.3357674E1,1.8254019E2,2.2776714E2,6.5660095E1,5.1338677E0,1.7740633E2],"tree_param":{"num_deleted":"0","num_feature":"64","num_nodes":"23","size_leaf_vector":"0"}},{"base_weights":[-1.485894E-2,-1.2117495E-1,1.0684698E-2,-2.3269424E-1,-0E0,1.2285317E-1,-0E0,-0E0,-3.194074E-1,5.445394E-3,-0E0,2.1862623E-1,-0E0,-4.1652974E-1,-0E0,-0E0,3.953248E-2,-0E0,3.0532005E-1,-4.5291618E-1,-0E0,-0E0,7.654765E-2,-0E0,3.5397297E-1,-0E0,-5.01349E-1,-0E0,1.07959054E-1,-0E0,4.017173E-1],"categories":[],"categories_nodes":[],"categories_segments":[],"categories_sizes":[],"default_left":[false,false,false,false,false,false,false,false,false,false,false,true,false,false,false,false,true,false,true,false,false,false,false,false,false,false,false,false,false,false,false],"id":25,"left_children":[1,3,5,7,9,11,-1,-1,13,15,-1,17,-1,19,-1,-1,21,-1,23,25,-1,-1,27,-1,29,-1,-1,-1,-1,-1,-1],"loss_changes":[8.27901E0,1.6207642E1,5.1239624E0,8.850412E0,3.155724E-3,7.139033E0,0E0,0E0,1.2981174E1,1.5337412E-1,0E0,9.33379E0,0E0,3.874958E0,0E0,0E0,4.0840662E-1,0E0,5.808752E0,4.292404E0,0E0,0E0,5.417898E-1,0E0,3.5904312E0,0E0,0E0,0E0,0E0,0E0,0E0],"parents":[2147483647,0,0,1,1,2,2,3,3,4,4,5,5,8,8,9,9,11,11,13,13,16,16,18,18,19,19,22,22,24,24],"right_children":[2,4,6,8,10,12,-1,-1,14,16,-1,18,-1,20,-1,-1,22,-1,24,26,-1,-1,28,-1,30,-1,-1,-1,-1,-1,-1],"split_conditions":[-3.0966848E-2,-2.4182284E-3,2.0055266E-2,-6.4678984E-3,1.3189392E-2,-1.4002335E-2,-0E0,-0E0,4.928643E-2,-3.1505562E-2,-0E0,1.1405405E-2,-0E0,-3.0974682E-2,-0E0,-0E0,-4.8812337E-2,-0E0,-4.0435776E-2,-8.2216576E-2,-0E0,-0E0,-8.341412E-2,-0E0,-6.016992E-2,-0E0,-1.00269794E-1,-0E0,2.159181E-2,-0E0,8.034346E-2],"split_indices":[26,20,12,38,22,45,0,0,14,26,0,4,0,26,0,0,58,0,2,14,0,0,27,0,39,0,0,0,0,0,0],"split_type":[0,0,0,0,0,0,0,0,0,0,0,0,0,0,0,0,0,0,0,0,0,0,0,0,0,0,0,0,0,0,0],"sum_hessian":[1.0142875E3,5.756772E2,4.386103E2,4.554398E2,1.20237404E2,3.4281253E2,9.579776E1,1.26969124E2,3.2847067E2,1.0642418E2,1.3813228E1,2.5760944E2,8.520309E1,2.6797064E2,6.0500015E1,6.265396E0,1.0015878E2,2.5397686E1,2.3221176E2,2.4553365E2,2.2436998E1,3.7457173E0,9.641306E1,1.3087284E1,2.1912447E2,2.8070763E1,2.1746289E2,1.4571385E0,9.4955925E1,2.6742142E1,1.9238232E2],"tree_param":{"num_deleted":"0","num_feature":"64","num_nodes":"31","size_leaf_vector":"0"}},{"base_weights":[-1.16633875E-2,-0E0,-9.3230225E-2,-0E0,2.6153675E-1,-3.9171776E-1,-0E0,3.5059264E-1,-0E0,-0E0,-6.1558986E-1,-1.8260952E-2,-0E0,4.293327E-1,-0E0,-8.174907E-2,-0E0,2.158689E-2,-0E0,-0E0,5.085273E-1,-1.290029E-1,-0E0,-0E0,8.226379E-2,5.2801484E-1,-0E0,-0E0,-1.9016604E-1,-0E0,1.284343E-1],"categories":[],"categories_nodes":[],"categories_segments":[],"categories_sizes":[],"default_left":[true,true,true,false,false,false,false,false,false,false,false,false,false,false,false,true,false,false,false,false,false,false,false,false,true,false,false,false,false,false,false],"id":26,"left_children":[1,3,5,-1,7,9,11,13,-1,-1,-1,15,17,19,-1,21,-1,23,-1,-1,25,27,-1,-1,29,-1,-1,-1,-1,-1,-1],"loss_changes":[5.572569E0,4.151158E0,1.1408657E1,0E0,2.7029781E0,1.4942913E1,8.369792E-2,3.0034413E0,0E0,0E0,0E0,1.3105872E0,1.0216221E-1,2.632165E0,0E0,1.754635E0,0E0,1.2208755E0,0E0,0E0,5.7265663E-1,2.5808082E0,0E0,0E0,1.7279714E0,0E0,0E0,0E0,0E0,0E0,0E0],"parents":[2147483647,0,0,1,1,2,2,4,4,5,5,6,6,7,7,11,11,12,12,13,13,15,15,17,17,20,20,21,21,24,24],"right_children":[2,4,6,-1,8,10,12,14,-1,-1,-1,16,18,20,-1,22,-1,24,-1,-1,26,28,-1,-1,30,-1,-1,-1,-1,-1,-1],"split_conditions":[-1.22786306E-1,1.0659134E-2,6.416578E-3,-0E0,-1.4316254E-2,5.8350144E-3,-1.1777669E-2,1.7092716E-2,-0E0,-0E0,-1.23117976E-1,1.3253847E-2,2.6468467E-2,-7.226825E-2,-0E0,1.8437937E-2,-0E0,-4.116361E-2,-0E0,-0E0,2.9782146E-1,8.278491E-3,-0E0,-0E0,1.0414779E-2,1.0560297E-1,-0E0,-0E0,-3.803321E-2,-0E0,2.568686E-2],"split_indices":[34,55,41,0,45,41,20,4,0,0,0,55,23,33,0,53,0,36,0,0,60,41,0,0,4,0,0,0,0,0,0],"split_type":[0,0,0,0,0,0,0,0,0,0,0,0,0,0,0,0,0,0,0,0,0,0,0,0,0,0,0,0,0,0,0],"sum_hessian":[1.001794E3,3.4499127E2,6.5680273E2,2.8430313E2,6.0688137E1,1.1155625E2,5.4524646E2,5.5763126E1,4.925012E0,2.6953163E1,8.460309E1,2.5099657E2,2.942499E2,5.3478874E1,2.284252E0,2.0863445E2,4.2362125E1,2.1923512E2,7.501477E1,5.1813326E0,4.829754E1,1.8921812E2,1.9416327E1,2.3731493E1,1.9550363E2,4.685228E1,1.445259E0,3.0776937E1,1.5844118E2,1.054208E1,1.8496155E2],"tree_param":{"num_deleted":"0","num_feature":"64","num_nodes":"31","size_leaf_vector":"0"}},{"base_weights":[-5.469579E-3,-8.08112E-2,2.9862668E-2,-4.1584137E-1,-0E0,1.9048281E-1,-0E0,-5.2525276E-1,-0E0,3.354683E-2,-8.432082E-2,4.1687742E-1,-0E0,-0E0,-5.5382514E-1,1.13907635E-1,-0E0,-0E0,-1.420888E-1,-0E0,4.586088E-1,-0E0,-5.7423365E-1,-0E0,1.9692472E-1,-2.3008965E-1,-0E0,-0E0,4.6756363E-1,-5.8845156E-1,-0E0,2.9089242E-1,-0E0,-0E0,-2.805846E-1,4.7189736E-1,-0E0],"categories":[],"categories_nodes":[],"categories_segments":[],"categories_sizes":[],"default_left":[false,true,false,false,false,false,false,false,false,false,false,true,false,false,false,false,false,false,true,false,true,false,true,false,true,false,false,false,true,false,false,false,false,false,false,false,false],"id":27,"left_children":[1,3,5,7,9,11,-1,13,-1,15,17,19,-1,-1,21,23,-1,-1,25,-1,27,-1,29,-1,31,33,-1,-1,35,-1,-1,-1,-1,-1,-1,-1,-1],"loss_changes":[5.1898446E0,1.7252102E1,6.0338693E0,5.7361984E0,2.2446077E0,6.5545807E0,0E0,2.7849998E0,0E0,4.0272326E0,2.7910795E0,1.8441372E0,0E0,0E0,1.7670727E0,6.8412547E0,0E0,0E0,4.2705474E0,0E0,2.6280975E-1,0E0,7.973366E-1,0E0,6.654559E0,3.6284065E0,0E0,0E0,5.177307E-2,0E0,0E0,0E0,0E0,0E0,0E0,0E0,0E0],"parents":[2147483647,0,0,1,1,2,2,3,3,4,4,5,5,7,7,9,9,10,10,11,11,14,14,15,15,18,18,20,20,22,22,24,24,25,25,28,28],"right_children":[2,4,6,8,10,12,-1,14,-1,16,18,20,-1,-1,22,24,-1,-1,26,-1,28,-1,30,-1,32,34,-1,-1,36,-1,-1,-1,-1,-1,-1,-1,-1],"split_conditions":[-3.023528E-2,-6.627431E-2,1.3335897E-2,-1.1343404E-3,-2.3892451E-2,-5.516529E-2,-0E0,-1.6544309E-2,-0E0,1.303512E-2,-1.6014528E-2,-3.750868E-2,-0E0,-0E0,-4.1556478E-2,1.1407252E-2,-0E0,-0E0,-1.7485406E-2,-0E0,-6.4666504E-1,-0E0,-6.656497E-2,-0E0,2.744198E-2,-1.1848183E-3,-0E0,-0E0,3.668429E-2,-1.1769032E-1,-0E0,5.8178484E-2,-0E0,-0E0,-5.611692E-2,9.437948E-2,-0E0],"split_indices":[26,33,55,20,25,33,0,45,0,4,45,5,0,0,36,4,0,0,42,0,35,0,33,0,50,38,0,0,58,0,0,0,0,0,0,0,0],"split_type":[0,0,0,0,0,0,0,0,0,0,0,0,0,0,0,0,0,0,0,0,0,0,0,0,0,0,0,0,0,0,0,0,0,0,0,0,0],"sum_hessian":[9.9264795E2,7.686772E2,2.2397076E2,1.2879591E2,6.398813E2,1.7180171E2,5.2169056E1,1.01518936E2,2.727697E1,3.8514597E2,2.5473532E2,7.358547E1,9.821624E1,1.1248298E0,1.00394104E2,3.4379108E2,4.135489E1,2.6779705E1,2.2795563E2,4.0144396E0,6.957103E1,1.6503773E0,9.874373E1,5.2349155E1,2.9144193E2,1.6759702E2,6.0358612E1,1.4371984E0,6.8133835E1,9.633238E1,2.4113438E0,2.1220543E2,7.923649E1,8.80668E0,1.5879033E2,6.7120636E1,1.0131938E0],"tree_param":{"num_deleted":"0","num_feature":"64","num_nodes":"37","size_leaf_vector":"0"}},{"base_weights":[-4.6188305E-3,-7.643202E-2,-0E0,-1.4428979E-1,-0E0,4.9875833E-2,-0E0,-0E0,-2.3805423E-1,-0E0,1.0178824E-1,-0E0,-2.927415E-1,1.3383336E-1,-0E0,-3.2030207E-1,-0E0,1.6781014E-1,-0E0,-3.4001482E-1,-0E0,1.993383E-1,-0E0],"categories":[],"categories_nodes":[],"categories_segments":[],"categories_sizes":[],"default_left":[false,true,false,true,false,true,false,false,true,false,false,false,true,true,false,true,false,true,false,false,false,false,false],"id":28,"left_children":[1,3,5,7,-1,9,-1,-1,11,-1,13,-1,15,17,-1,19,-1,21,-1,-1,-1,-1,-1],"loss_changes":[3.749475E0,6.537234E0,7.3807776E-1,9.056621E0,0E0,2.0926762E0,0E0,0E0,7.5596905E0,0E0,1.8300118E0,0E0,3.5810127E0,1.9395003E0,0E0,2.581356E0,0E0,2.4200244E0,0E0,0E0,0E0,0E0,0E0],"parents":[2147483647,0,0,1,1,2,2,3,3,5,5,8,8,10,10,12,12,13,13,15,15,17,17],"right_children":[2,4,6,8,-1,10,-1,-1,12,-1,14,-1,16,18,-1,20,-1,22,-1,-1,-1,-1,-1],"split_conditions":[-1.1318528E-2,4.8080343E-1,2.4534697E-2,3.2554215E-3,-0E0,-7.1932346E-2,-0E0,-0E0,-1.9152248E0,-0E0,1.4075689E-2,-0E0,1.7326462E-1,2.0787437E-2,-0E0,3.0145276E-1,-0E0,4.526364E-2,-0E0,-6.800296E-2,-0E0,3.9867662E-2,-0E0],"split_indices":[20,28,38,56,0,33,0,0,28,0,4,0,33,5,0,14,0,58,0,0,0,0,0],"split_type":[0,0,0,0,0,0,0,0,0,0,0,0,0,0,0,0,0,0,0,0,0,0,0],"sum_hessian":[9.773349E2,6.4539874E2,3.3193613E2,4.950905E2,1.5030823E2,2.9670288E2,3.523324E1,1.5338872E2,3.417018E2,2.34864E1,2.732165E2,2.75288E1,3.14173E2,2.6021268E2,1.3003814E1,2.9733765E2,1.683536E1,2.3438243E2,2.5830254E1,2.861882E2,1.114944E1,2.2700687E2,7.375552E0],"tree_param":{"num_deleted":"0","num_feature":"64","num_nodes":"23","size_leaf_vector":"0"}},{"base_weights":[-0E0,-9.682604E-2,-0E0,-0E0,-2.92106E-1,9.640634E-2,-0E0,-3.6737883E-1,-0E0,-0E0,2.5264677E-1,-4.4714518E-2,-0E0,-4.2398056E-1,-0E0,3.4418133E-1,-0E0,-8.864127E-2,-0E0,-0E0,-4.8086867E-1,3.8565934E-1,-0E0,-1.2253971E-1,-0E0,-0E0,-5.011733E-1,-0E0,4.063539E-1,-0E0,-1.2964895E-1],"categories":[],"categories_nodes":[],"categories_segments":[],"categories_sizes":[],"default_left":[false,false,false,false,true,true,true,true,false,false,true,true,false,false,false,false,false,true,false,false,false,true,false,false,false,false,false,false,false,false,false],"id":29,"left_children":[1,3,5,-1,7,9,11,13,-1,-1,15,17,-1,19,-1,21,-1,23,-1,-1,25,27,-1,29,-1,-1,-1,-1,-1,-1,-1],"loss_changes":[3.9965951E0,9.928979E0,4.0641828E0,0E0,5.099183E0,8.311979E0,1.2520687E-1,5.2576046E0,0E0,0E0,8.149963E0,3.5020947E-1,0E0,5.475111E0,0E0,3.9314537E0,0E0,3.9581326E-1,0E0,0E0,9.3385696E-1,2.3489647E0,0E0,6.592739E-2,0E0,0E0,0E0,0E0,0E0,0E0,0E0],"parents":[2147483647,0,0,1,1,2,2,4,4,5,5,6,6,7,7,10,10,11,11,13,13,15,15,17,17,20,20,21,21,23,23],"right_children":[2,4,6,-1,8,10,12,14,-1,-1,16,18,-1,20,-1,22,-1,24,-1,-1,26,28,-1,30,-1,-1,-1,-1,-1,-1,-1],"split_conditions":[-3.0994732E-2,4.515949E-3,2.0055266E-2,-0E0,-1.9658584E-2,-1.2763858E-1,-4.7510743E-2,1.7754997E-1,-0E0,-0E0,-2.0107914E-2,5.751183E-1,-0E0,-1.6392112E-2,-0E0,2.4481166E-2,-0E0,1.0031569E0,-0E0,-0E0,2.4451734E-3,-3.181253E-1,-0E0,-5.615382E-2,-0E0,-0E0,-1.00234665E-1,-0E0,8.127078E-2,-0E0,-2.5929792E-2],"split_indices":[26,38,12,0,33,28,53,23,0,0,33,29,0,45,0,38,0,54,0,0,41,23,0,42,0,0,0,0,0,0,0],"split_type":[0,0,0,0,0,0,0,0,0,0,0,0,0,0,0,0,0,0,0,0,0,0,0,0,0,0,0,0,0,0,0],"sum_hessian":[9.669873E2,4.262907E2,5.406966E2,2.630862E2,1.632045E2,4.3728244E2,1.0341419E2,1.4095837E2,2.2246128E1,2.4339105E2,1.9389137E2,6.2622597E1,4.079159E1,1.3508247E2,5.875889E0,1.7327357E2,2.0617805E1,6.0506516E1,2.1160822E0,6.39299E0,1.2868948E2,1.6443935E2,8.83422E0,5.8020164E1,2.4863524E0,6.4983063E0,1.22191185E2,2.0969443E0,1.623424E2,2.2663884E0,5.5753777E1],"tree_param":{"num_deleted":"0","num_feature":"64","num_nodes":"31","size_leaf_vector":"0"}},{"base_weights":[-0E0,-5.820568E-2,-0E0,-3.2522637E-1,-0E0,1.4800768E-1,-0E0,-0E0,-4.1421768E-1,2.3147017E-2,-4.065267E-2,2.5182477E-1,-0E0,-0E0,-4.476243E-1,1.7927821E-1,-0E0,-1.3292317E-1,-0E0,-0E0,3.8446268E-1,-4.7053105E-1,-0E0,2.8617525E-1,-0E0,-2.502691E-1,-0E0,4.258247E-1,-0E0,-0E0,-4.915995E-1,3.88905E-1,-0E0,-3.0022806E-1,-0E0,4.621776E-1,-0E0],"categories":[],"categories_nodes":[],"categories_segments":[],"categories_sizes":[],"default_left":[false,true,false,false,false,false,false,false,false,false,false,true,false,false,false,false,false,true,false,false,false,false,false,false,false,true,false,true,false,false,false,false,false,false,false,false,false],"id":30,"left_children":[1,3,5,7,9,11,-1,-1,13,15,17,19,-1,-1,21,23,-1,25,-1,-1,27,29,-1,31,-1,33,-1,35,-1,-1,-1,-1,-1,-1,-1,-1,-1],"loss_changes":[2.4895887E0,9.628511E0,3.7437675E0,4.6944075E0,6.8016195E-1,6.0956926E0,0E0,0E0,2.0268536E0,2.979125E0,3.9804177E0,6.0794897E0,0E0,0E0,1.7193928E0,4.269437E0,0E0,5.7408357E0,0E0,0E0,3.216588E0,1.5782166E0,0E0,5.1299543E0,0E0,3.9935465E0,0E0,2.3247166E0,0E0,0E0,0E0,0E0,0E0,0E0,0E0,0E0,0E0],"parents":[2147483647,0,0,1,1,2,2,3,3,4,4,5,5,8,8,9,9,10,10,11,11,14,14,15,15,17,17,20,20,21,21,23,23,25,25,27,27],"right_children":[2,4,6,8,10,12,-1,-1,14,16,18,20,-1,-1,22,24,-1,26,-1,-1,28,30,-1,32,-1,34,-1,36,-1,-1,-1,-1,-1,-1,-1,-1,-1],"split_conditions":[-3.0403044E-2,-6.627431E-2,1.3335897E-2,-1.7428376E-2,5.933132E-3,1.657305E-1,-0E0,-0E0,-4.548948E-1,-1.6493522E-2,2.0248365E-2,-9.586317E-1,-0E0,-0E0,-1.291873E-4,1.7626438E-2,-0E0,2.3475556E-2,-0E0,-0E0,-7.352859E-3,-2.9551603E-2,-0E0,-1.00724865E-2,-0E0,1.7674927E-1,-0E0,1.2913406E-2,-0E0,-0E0,-9.83199E-2,7.7781E-2,-0E0,-6.004561E-2,-0E0,9.2435524E-2,-0E0],"split_indices":[26,33,55,57,38,23,0,0,38,57,14,28,0,0,40,22,0,48,0,0,40,40,0,40,0,23,0,26,0,0,0,0,0,0,0,0,0],"split_type":[0,0,0,0,0,0,0,0,0,0,0,0,0,0,0,0,0,0,0,0,0,0,0,0,0,0,0,0,0,0,0,0,0,0,0,0,0],"sum_hessian":[9.587354E2,7.348469E2,2.2388849E2,1.1456792E2,6.20279E2,1.7089935E2,5.2989132E1,1.6579391E1,9.7988525E1,3.0884543E2,3.1143356E2,1.5515808E2,1.5741272E1,3.9644916E0,9.402403E1,9.783862E1,2.110068E2,2.5441254E2,5.7021023E1,4.7460476E1,1.0769761E2,9.2858185E1,1.1658517E0,9.0529594E1,7.3090343E0,1.6342308E2,9.098946E1,1.0553074E2,2.1668723E0,1.2582154E0,9.159997E1,8.293707E1,7.5925174E0,1.578653E2,5.557778E0,1.0046553E2,5.065209E0],"tree_param":{"num_deleted":"0","num_feature":"64","num_nodes":"37","size_leaf_vector":"0"}},{"base_weights":[-0E0,-0E0,-5.2898146E-2,-0E0,1.981575E-1,-0E0,-1.5480097E-1,-0E0,4.6663806E-1,3.5386954E-2,-0E0,-2.2801287E-1,-0E0,5.311403E-1,-0E0,1.21990494E-1,-0E0,-3.149625E-1,-0E0,-0E0,5.5997175E-1,-0E0,2.0265637E-1,-3.4972215E-1,-0E0,-0E0,5.8631706E-1,2.948007E-1,-0E0,-0E0,-4.2246106E-1],"categories":[],"categories_nodes":[],"categories_segments":[],"categories_sizes":[],"default_left":[false,true,true,false,false,false,true,false,false,false,false,true,false,true,false,false,false,true,false,false,true,false,true,false,false,false,false,false,false,false,false],"id":31,"left_children":[1,3,5,-1,7,9,11,-1,13,15,-1,17,-1,19,-1,21,-1,23,-1,-1,25,-1,27,29,-1,-1,-1,-1,-1,-1,-1],"loss_changes":[1.8946178E0,4.830137E0,8.657949E0,0E0,1.454492E1,1.4886545E-1,8.452119E0,0E0,4.3112087E0,1.5025281E0,0E0,1.2378695E1,0E0,2.2989197E0,0E0,2.0340605E0,0E0,5.134918E0,0E0,0E0,2.1002922E0,0E0,3.4284685E0,5.1357574E0,0E0,0E0,0E0,0E0,0E0,0E0,0E0],"parents":[2147483647,0,0,1,1,2,2,4,4,5,5,6,6,8,8,9,9,11,11,13,13,15,15,17,17,20,20,22,22,23,23],"right_children":[2,4,6,-1,8,10,12,-1,14,16,-1,18,-1,20,-1,22,-1,24,-1,-1,26,-1,28,30,-1,-1,-1,-1,-1,-1,-1],"split_conditions":[-1.5801713E-2,1.1983987E-2,-1.5668042E-2,-0E0,-3.704183E-2,-1.1347651E-2,6.798572E-3,-0E0,1.5853941E-2,1.3908448E-2,-0E0,1.1031811E0,-0E0,-1.3025552E-1,-0E0,-4.044965E-2,-0E0,5.959457E-2,-0E0,-0E0,-1.1353691E-1,-0E0,3.618999E-2,-9.637542E-2,-0E0,-0E0,1.17263414E-1,5.896014E-2,-0E0,-0E0,-8.4492214E-2],"split_indices":[45,4,59,0,43,42,60,0,4,4,0,28,0,5,0,36,0,56,0,0,56,0,50,8,0,0,0,0,0,0,0],"split_type":[0,0,0,0,0,0,0,0,0,0,0,0,0,0,0,0,0,0,0,0,0,0,0,0,0,0,0,0,0,0,0],"sum_hessian":[9.463844E2,2.6930328E2,6.770811E2,1.4629384E2,1.2300942E2,2.3671814E2,4.4036298E2,3.4031414E1,8.897801E1,1.1887966E2,1.1783848E2,3.6554596E2,7.481701E1,8.396108E1,5.016931E0,1.10968216E2,7.911448E0,3.1636032E2,4.9185646E1,1.0918039E0,8.286928E1,2.1231438E1,8.973678E1,2.9858243E2,1.7777893E1,1.1702749E0,8.1699005E1,8.185631E1,7.8804708E0,6.519151E1,2.333909E2],"tree_param":{"num_deleted":"0","num_feature":"64","num_nodes":"31","size_leaf_vector":"0"}},{"base_weights":[-0E0,-0E0,-5.699648E-2,-0E0,4.1812252E-2,-0E0,-1.1576725E-1,-6.8057645E-3,-0E0,-0E0,1.0519302E-1,-1.696389E-1,-0E0,-0E0,-1.0399692E-1,1.4714606E-1,-0E0,-0E0,-2.3428977E-1,-0E0,-1.69054E-1,1.8087925E-1,-0E0,-2.7119443E-1,-0E0,-2.2407916E-1,-0E0,-0E0,2.1080478E-1,-0E0,-3.1212318E-1],"categories":[],"categories_nodes":[],"categories_segments":[],"categories_sizes":[],"default_left":[true,true,false,true,false,false,true,false,false,false,false,false,false,false,true,true,false,false,true,false,true,true,false,false,false,false,false,false,false,false,false],"id":32,"left_children":[1,3,5,7,9,-1,11,13,-1,-1,15,17,-1,-1,19,21,-1,-1,23,-1,25,27,-1,29,-1,-1,-1,-1,-1,-1,-1],"loss_changes":[1.0125856E0,6.0749197E-1,2.5715766E0,1.1513766E-2,2.1802492E0,0E0,3.1915631E0,1.3770516E0,0E0,0E0,2.180571E0,4.0373497E0,0E0,0E0,2.0218973E0,2.3069015E0,0E0,0E0,2.9189568E0,0E0,1.9056365E0,2.2014327E0,0E0,2.8960352E0,0E0,0E0,0E0,0E0,0E0,0E0,0E0],"parents":[2147483647,0,0,1,1,2,2,3,3,4,4,6,6,7,7,10,10,11,11,14,14,15,15,18,18,20,20,21,21,23,23],"right_children":[2,4,6,8,10,-1,12,14,-1,-1,16,18,-1,-1,20,22,-1,-1,24,-1,26,28,-1,30,-1,-1,-1,-1,-1,-1,-1],"split_conditions":[2.7042823E-2,-3.8027388E-1,-6.146369E-2,-1.3441024E-2,-6.5411024E-2,-0E0,1.2229005E-1,8.130832E-3,-0E0,-0E0,-1.0835278E-2,-5.9263732E-2,-0E0,-0E0,-2.224141E0,3.714493E-1,-0E0,-0E0,4.1376846E-3,-0E0,8.747892E-2,-1.9381471E-2,-0E0,-1.1183217E-2,-0E0,-4.4815835E-2,-0E0,-0E0,4.2160954E-2,-0E0,-6.2424637E-2],"split_indices":[37,28,19,59,33,0,54,22,0,0,40,39,0,0,28,34,0,0,61,0,52,58,0,40,0,0,0,0,0,0,0],"split_type":[0,0,0,0,0,0,0,0,0,0,0,0,0,0,0,0,0,0,0,0,0,0,0,0,0,0,0,0,0,0,0],"sum_hessian":[9.3608386E2,6.243847E2,3.1169922E2,2.7690176E2,3.474829E2,4.426545E1,2.6743378E2,2.485785E2,2.8323265E1,9.5553635E1,2.5192928E2,2.3545338E2,3.1980383E1,1.20190216E2,1.2838829E2,2.2946245E2,2.2466835E1,3.8464092E1,1.9698929E2,9.054775E0,1.1933351E2,2.2236595E2,7.096503E0,1.8671243E2,1.0276852E1,1.0587419E2,1.3459319E1,9.11362E0,2.1325232E2,1.6029633E1,1.706828E2],"tree_param":{"num_deleted":"0","num_feature":"64","num_nodes":"31","size_leaf_vector":"0"}},{"base_weights":[-0E0,-5.824066E-2,-0E0,-0E0,-3.0365425E-1,-0E0,7.976403E-2,7.378502E-3,-0E0,-0E0,-3.349952E-1,-0E0,-5.246328E-2,2.029386E-1,-0E0,-0E0,1.601774E-1,-0E0,-3.3890814E-2,-0E0,-3.4799537E-1,-1.8748531E-1,-0E0,2.583718E-1,-0E0,2.820136E-1,-0E0,-0E0,-1.4264934E-1,-0E0,-3.5922003E-1,-2.404961E-1,-0E0,3.000419E-1,-0E0,3.626508E-1,-0E0,-0E0,-2.1794012E-1,-3.7780085E-1,-0E0,-2.9107696E-1,-0E0,3.3684525E-1,-0E0],"categories":[],"categories_nodes":[],"categories_segments":[],"categories_sizes":[],"default_left":[false,false,true,false,false,false,true,false,false,false,false,false,true,false,false,false,true,false,false,false,false,true,false,false,false,false,false,false,false,false,false,true,false,true,false,false,false,false,false,false,false,false,false,false,false],"id":33,"left_children":[1,3,5,7,9,11,13,15,17,-1,19,-1,21,23,-1,-1,25,-1,27,-1,29,31,-1,33,-1,35,-1,-1,37,-1,39,41,-1,43,-1,-1,-1,-1,-1,-1,-1,-1,-1,-1,-1],"loss_changes":[1.3232814E0,8.122245E0,1.5750247E0,3.5393322E-3,1.6925201E0,4.403751E-1,5.5344443E0,1.4696022E0,1.738195E-1,0E0,5.638275E-1,0E0,3.9788969E0,3.084745E0,0E0,0E0,2.7237134E0,0E0,2.2474346E0,0E0,5.898676E-1,2.489194E0,0E0,3.2365713E0,0E0,2.39283E0,0E0,0E0,2.1289415E0,0E0,4.70953E-1,2.270516E0,0E0,3.090684E0,0E0,0E0,0E0,0E0,0E0,0E0,0E0,0E0,0E0,0E0,0E0],"parents":[2147483647,0,0,1,1,2,2,3,3,4,4,5,5,6,6,7,7,8,8,10,10,12,12,13,13,16,16,18,18,20,20,21,21,23,23,25,25,28,28,30,30,31,31,33,33],"right_children":[2,4,6,8,10,12,14,16,18,-1,20,-1,22,24,-1,-1,26,-1,28,-1,30,32,-1,34,-1,36,-1,-1,38,-1,40,42,-1,44,-1,-1,-1,-1,-1,-1,-1,-1,-1,-1,-1],"split_conditions":[-3.0998554E-2,6.8778726E-3,-1.2763858E-1,-1.6438749E-2,-1.1513953E-1,-3.4593178E-3,-2.2522252E-2,-7.19468E-2,-3.2958638E-2,-0E0,-6.064965E-2,-0E0,2.2539265E-1,2.1043483E-2,-0E0,-0E0,-5.148504E-2,-0E0,-1.6118057E-2,-0E0,-1.5040709E-2,-1.5187604E-2,-0E0,-1.00724865E-2,-0E0,-6.9969445E-3,-0E0,-0E0,-4.751246E-2,-0E0,-3.1000594E-2,2.630697E-3,-0E0,-6.872553E-3,-0E0,7.2530165E-2,-0E0,-0E0,-4.3588024E-2,-7.5560175E-2,-0E0,-5.821539E-2,-0E0,6.736905E-2,-0E0],"split_indices":[26,18,28,57,52,29,25,33,43,0,39,0,47,41,0,0,34,0,45,0,40,57,0,40,0,40,0,0,18,0,26,58,0,33,0,0,0,0,0,0,0,0,0,0,0],"split_type":[0,0,0,0,0,0,0,0,0,0,0,0,0,0,0,0,0,0,0,0,0,0,0,0,0,0,0,0,0,0,0,0,0,0,0,0,0,0,0,0,0,0,0,0,0],"sum_hessian":[9.2947125E2,3.9012125E2,5.3935004E2,2.8768176E2,1.0243948E2,2.917942E2,2.4755586E2,6.501071E1,2.2267104E2,3.1891866E0,9.92503E1,1.3179716E2,1.5999701E2,1.7262666E2,7.49292E1,7.593508E0,5.7417206E1,7.133773E1,1.5133331E2,2.6210706E0,9.662923E1,1.25723434E2,3.427357E1,1.527086E2,1.9918058E1,5.2769608E1,4.6475973E0,3.234593E1,1.1898738E2,1.373223E0,9.5256004E1,1.1944433E2,6.2791085E0,1.4918927E2,3.5193362E0,5.0105724E1,2.6638858E0,2.3189547E1,9.579784E1,8.941626E1,5.839746E0,1.0833751E2,1.1106824E1,1.4560887E2,3.5803952E0],"tree_param":{"num_deleted":"0","num_feature":"64","num_nodes":"45","size_leaf_vector":"0"}},{"base_weights":[-0E0,-3.8759045E-2,-0E0,-0E0,-1.7074554E-1,7.3162526E-2,-0E0,-0E0,6.696536E-2,-0E0,-2.876462E-1,-0E0,1.5654501E-1,-0E0,-2.3640823E-2,-0E0,1.5434274E-1,-3.282943E-1,-0E0,2.0239097E-1,-0E0,-0E0,-7.438909E-2,-0E0,2.28063E-1,-0E0,-3.618269E-1,-0E0,2.8422773E-1,-0E0,-1.1308786E-1,2.857986E-1,-0E0,-3.7551805E-1,-0E0,-0E0,3.2571664E-1],"categories":[],"categories_nodes":[],"categories_segments":[],"categories_sizes":[],"default_left":[false,false,false,true,false,true,false,true,false,false,true,false,false,false,true,false,true,true,false,false,false,false,false,false,false,false,true,false,false,false,false,false,false,false,false,false,false],"id":34,"left_children":[1,3,5,7,9,11,-1,13,15,-1,17,-1,19,-1,21,-1,23,25,-1,27,-1,-1,29,-1,31,-1,33,-1,35,-1,-1,-1,-1,-1,-1,-1,-1],"loss_changes":[7.684929E-1,5.212521E0,1.5817077E0,5.7021344E-1,5.0285525E0,4.8647776E0,0E0,7.313267E-2,2.2563767E0,0E0,2.2483187E0,0E0,3.8108444E0,0E0,5.3425086E-1,0E0,2.7830079E0,2.233058E0,0E0,4.812804E0,0E0,0E0,7.148425E-1,0E0,2.6913815E0,0E0,8.789377E-1,0E0,4.0511026E0,0E0,0E0,0E0,0E0,0E0,0E0,0E0,0E0],"parents":[2147483647,0,0,1,1,2,2,3,3,4,4,5,5,7,7,8,8,10,10,12,12,14,14,16,16,17,17,19,19,22,22,24,24,26,26,28,28],"right_children":[2,4,6,8,10,12,-1,14,16,-1,18,-1,20,-1,22,-1,24,26,-1,28,-1,-1,30,-1,32,-1,34,-1,36,-1,-1,-1,-1,-1,-1,-1,-1],"split_conditions":[-3.0966848E-2,-2.551087E-2,4.6584763E-2,1.0582152E-2,1.0957945E-2,1.1405405E-2,-0E0,-6.9574344E-1,-7.19468E-2,-0E0,1.4872256E-1,-0E0,1.6451735E-2,-0E0,-1.3879442E0,-0E0,-2.3237506E-1,-1.7161788E0,-0E0,-1.384531E-1,-0E0,-0E0,-6.065597E-2,-0E0,1.3450136E-2,-0E0,-1.6350321E-2,-0E0,-1.7193617E-2,-0E0,-2.2617573E-2,5.715972E-2,-0E0,-7.510361E-2,-0E0,-0E0,6.514333E-2],"split_indices":[26,15,23,55,55,4,0,34,33,0,23,0,4,0,28,0,23,28,0,32,0,0,39,0,4,0,57,0,3,0,0,0,0,0,0,0,0],"split_type":[0,0,0,0,0,0,0,0,0,0,0,0,0,0,0,0,0,0,0,0,0,0,0,0,0,0,0,0,0,0,0,0,0,0,0,0,0],"sum_hessian":[9.198397E2,5.1155667E2,4.0828305E2,3.0640448E2,2.0515218E2,2.9549414E2,1.12788895E2,1.7924843E2,1.2715607E2,7.2090515E1,1.3306166E2,3.2440342E1,2.630538E2,4.839464E1,1.3085378E2,8.49987E0,1.186562E2,1.2301202E2,1.0049639E1,2.504102E2,1.2643595E1,2.109368E1,1.097601E2,1.0805711E1,1.0785049E2,4.687105E0,1.1832491E2,6.3864933E1,1.8654527E2,6.3712506E0,1.03388855E2,1.01627E2,6.2234845E0,1.1608708E2,2.237829E0,6.3115463E0,1.8023373E2],"tree_param":{"num_deleted":"0","num_feature":"64","num_nodes":"37","size_leaf_vector":"0"}},{"base_weights":[-0E0,-4.5085333E-2,-0E0,-8.878434E-2,-0E0,5.3823937E-2,-0E0,-1.356303E-1,-0E0,1.0097527E-1,-0E0,-0E0,-2.1854804E-1,-0E0,1.3201366E-1,-0E0,-3.0747414E-1,-0E0,1.5211482E-1,-3.8368198E-1,-0E0,1.7164418E-1,-0E0],"categories":[],"categories_nodes":[],"categories_segments":[],"categories_sizes":[],"default_left":[false,false,true,true,false,false,false,false,false,false,false,false,false,false,true,false,true,false,true,false,false,false,false],"id":35,"left_children":[1,3,5,7,-1,9,-1,11,-1,13,-1,-1,15,-1,17,-1,19,-1,21,-1,-1,-1,-1],"loss_changes":[1.0058705E0,2.2156444E0,7.1557945E-1,3.3530445E0,0E0,1.4018483E0,0E0,5.42785E0,0E0,1.4148827E0,0E0,0E0,3.6108627E0,0E0,1.1099539E0,0E0,4.3127995E0,0E0,1.1739926E0,0E0,0E0,0E0,0E0],"parents":[2147483647,0,0,1,1,2,2,3,3,5,5,7,7,9,9,12,12,14,14,16,16,18,18],"right_children":[2,4,6,8,-1,10,-1,12,-1,14,-1,-1,16,-1,18,-1,20,-1,22,-1,-1,-1,-1],"split_conditions":[-1.1739138E-2,-1.5622805E-2,-1.1582953E-2,4.928643E-2,-0E0,1.8469118E-2,-0E0,-7.125793E-3,-0E0,-8.894401E-3,-0E0,-0E0,-1.681621E-2,-0E0,-2.4268951E0,-0E0,2.7531523E-2,-0E0,1.7814207E0,-7.67364E-2,-0E0,3.4328837E-2,-0E0],"split_indices":[20,26,20,14,0,38,0,38,0,44,0,0,57,0,28,0,0,0,28,0,0,0,0],"split_type":[0,0,0,0,0,0,0,0,0,0,0,0,0,0,0,0,0,0,0,0,0,0,0],"sum_hessian":[9.165793E2,4.948477E2,4.2173163E2,4.086838E2,8.6163864E1,2.4700569E2,1.7472592E2,3.5739893E2,5.1284893E1,2.0767232E2,3.9333378E1,1.0610929E2,2.5128964E2,4.987552E0,2.0268477E2,8.614034E1,1.6514929E2,2.0589664E0,2.006258E2,1.3535643E2,2.9792868E1,1.9741737E2,3.2084205E0],"tree_param":{"num_deleted":"0","num_feature":"64","num_nodes":"23","size_leaf_vector":"0"}},{"base_weights":[-0E0,-0E0,-3.045075E-2,6.430259E-2,-0E0,-2.5551936E-1,-0E0,1.5478636E-1,-0E0,-0E0,-4.4900286E-1,-0E0,5.278445E-2,2.2759748E-1,-0E0,-4.7362384E-1,-0E0,-8.8184595E-2,-0E0,1.7569278E-1,-0E0,-0E0,2.6118666E-1,-0E0,-4.9243096E-1,-0E0,-1.8890719E-1,2.644992E-1,-0E0,-0E0,2.9218856E-1,-5.0978714E-1,-0E0,-2.899901E-1,-0E0,3.484004E-1,-0E0],"categories":[],"categories_nodes":[],"categories_segments":[],"categories_sizes":[],"default_left":[true,false,true,true,false,true,false,false,false,false,true,false,true,true,false,false,false,false,false,true,false,false,false,false,true,false,true,false,false,false,false,false,false,false,false,false,false],"id":36,"left_children":[1,3,5,7,-1,9,11,13,-1,-1,15,17,19,21,-1,23,-1,25,-1,27,-1,-1,29,-1,31,-1,33,35,-1,-1,-1,-1,-1,-1,-1,-1,-1],"loss_changes":[5.428232E-1,3.55619E-1,6.3944945E0,1.5711541E0,0E0,1.1048221E1,3.563903E-1,1.7327664E0,0E0,0E0,1.4542027E0,2.3246043E0,3.2254708E0,8.9468265E-1,0E0,1.3146343E0,0E0,5.6699266E0,0E0,3.8216224E0,0E0,0E0,1.0325575E0,0E0,9.5103073E-1,0E0,5.8619137E0,4.5345583E0,0E0,0E0,0E0,0E0,0E0,0E0,0E0,0E0,0E0],"parents":[2147483647,0,0,1,1,2,2,3,3,5,5,6,6,7,7,10,10,11,11,12,12,13,13,15,15,17,17,19,19,22,22,24,24,26,26,27,27],"right_children":[2,4,6,8,-1,10,12,14,-1,-1,16,18,20,22,-1,24,-1,26,-1,28,-1,-1,30,-1,32,-1,34,36,-1,-1,-1,-1,-1,-1,-1,-1,-1],"split_conditions":[-1.22786306E-1,-1.6441572E-2,-1.0547091E-1,1.7275611E-2,-0E0,-1.3615774E-1,-3.023528E-2,1.29695255E-2,-0E0,-0E0,-1.5282853E-2,1.3518931E-2,8.168817E-3,-7.26749E-2,-0E0,-1.4315836E-1,-0E0,8.95066E-3,-0E0,1.2743946E-2,-0E0,-0E0,6.6159344E-3,-0E0,-1.9184132E-3,-0E0,1.8118338E-1,1.4280988E-2,-0E0,-0E0,5.8437712E-2,-1.0195743E-1,-0E0,-5.799802E-2,-0E0,6.968009E-2,-0E0],"split_indices":[34,57,21,18,0,21,26,4,0,0,57,55,15,33,0,52,0,18,0,26,0,0,55,0,47,0,47,4,0,0,0,0,0,0,0,0,0],"split_type":[0,0,0,0,0,0,0,0,0,0,0,0,0,0,0,0,0,0,0,0,0,0,0,0,0,0,0,0,0,0,0,0,0,0,0,0,0],"sum_hessian":[9.097421E2,3.243291E2,5.85413E2,8.600585E1,2.3832326E2,1.0625368E2,4.7915933E2,8.04202E1,5.585653E0,1.7041273E1,8.921241E1,3.5124655E2,1.2791276E2,7.064665E1,9.77355E0,8.6660934E1,2.5514736E0,2.989259E2,5.232066E1,1.1603817E2,1.1874587E1,3.8872736E0,6.675938E1,1.0717365E0,8.5589195E1,7.490115E1,2.2402475E2,1.0582479E2,1.021338E1,1.3206096E0,6.543877E1,8.351993E1,2.0692685E0,1.6477278E2,5.9251965E1,9.835033E1,7.4744678E0],"tree_param":{"num_deleted":"0","num_feature":"64","num_nodes":"37","size_leaf_vector":"0"}},{"base_weights":[-0E0,-0E0,-3.185409E-2,-0E0,9.640135E-2,-1.1487344E-1,-0E0,-2.4287231E-2,-0E0,3.1585366E-1,-0E0,-0E0,-1.6937624E-1,-1.00714035E-1,-0E0,-0E0,4.1555223E-1,-2.2799148E-1,-0E0,-1.7747751E-1,-0E0,4.7925633E-1,-0E0,-0E0,-2.6022574E-1,-2.4518874E-1,-0E0,-0E0,5.266314E-1,-0E0,-2.9607475E-1],"categories":[],"categories_nodes":[],"categories_segments":[],"categories_sizes":[],"default_left":[false,false,true,false,false,false,false,true,false,true,false,false,true,true,false,false,false,false,false,true,false,false,false,false,false,false,false,false,false,false,false],"id":37,"left_children":[1,3,5,7,9,11,-1,13,-1,15,-1,-1,17,19,-1,-1,21,23,-1,25,-1,27,-1,-1,29,-1,-1,-1,-1,-1,-1],"loss_changes":[2.0938987E-1,8.263846E-1,1.6463184E0,2.719838E-1,5.5367403E0,1.7745908E0,0E0,2.934035E0,0E0,3.7499456E0,0E0,0E0,2.2208004E0,2.6673617E0,0E0,0E0,2.8118181E0,1.703435E0,0E0,3.12212E0,0E0,2.2434149E0,0E0,0E0,1.610189E0,0E0,0E0,0E0,0E0,0E0,0E0],"parents":[2147483647,0,0,1,1,2,2,3,3,4,4,5,5,7,7,9,9,12,12,13,13,16,16,17,17,19,19,21,21,24,24],"right_children":[2,4,6,8,10,12,-1,14,-1,16,-1,-1,18,20,-1,-1,22,24,-1,26,-1,28,-1,-1,30,-1,-1,-1,-1,-1,-1],"split_conditions":[-1.4127132E-2,-5.1011197E-2,-5.9774294E-3,-7.3156804E-3,-1.3554669E-2,-1.2980154E-2,-0E0,-4.0540174E-2,-0E0,-3.4387732E-1,-0E0,-0E0,4.024387E-2,-3.6668323E-2,-0E0,-0E0,2.833E-2,-6.1366193E-2,-0E0,-1.2099092E-2,-0E0,-4.2585433E-2,-0E0,-0E0,-5.920335E-2,-4.903775E-2,-0E0,-0E0,1.0532629E-1,-0E0,-5.921495E-2],"split_indices":[45,39,3,20,46,41,0,36,0,6,0,0,12,28,0,0,12,53,0,43,0,43,0,0,39,0,0,0,0,0,0],"split_type":[0,0,0,0,0,0,0,0,0,0,0,0,0,0,0,0,0,0,0,0,0,0,0,0,0,0,0,0,0,0,0],"sum_hessian":[8.998301E2,6.934702E2,2.063599E2,6.045468E2,8.892339E1,1.4062758E2,6.573232E1,4.610914E2,1.4345541E2,6.378207E1,2.5141325E1,1.4084768E1,1.265428E2,3.1607205E2,1.4501933E2,5.2179227E0,5.8564148E1,1.1256419E2,1.3978613E1,1.864668E2,1.2960526E2,5.6271835E1,2.2923093E0,1.0045348E0,1.11559654E2,1.4963194E2,3.6834846E1,1.5798757E0,5.4691963E1,7.011439E0,1.0454822E2],"tree_param":{"num_deleted":"0","num_feature":"64","num_nodes":"31","size_leaf_vector":"0"}},{"base_weights":[-0E0,-2.61595E-2,-0E0,-1.12642944E-1,-0E0,4.8459575E-2,-0E0,-0E0,-1.49069E-1,9.773637E-2,-0E0,-0E0,-5.5655546E-2,-0E0,-1.6618738E-1,-0E0,1.7660007E-1,-1.431288E-1,-0E0,-0E0,-1.8013182E-1,2.1355574E-1,-0E0,-2.4026445E-1,-0E0,2.4438493E-1,-0E0,-2.861539E-1,-0E0],"categories":[],"categories_nodes":[],"categories_segments":[],"categories_sizes":[],"default_left":[true,false,false,false,false,true,false,false,false,true,false,false,true,false,false,false,true,true,false,false,false,false,false,true,false,false,false,false,false],"id":38,"left_children":[1,3,5,7,-1,9,11,-1,13,15,-1,-1,17,-1,19,-1,21,23,-1,-1,-1,25,-1,27,-1,-1,-1,-1,-1],"loss_changes":[8.13602E-2,9.6450853E-1,1.4613876E0,6.134702E-1,0E0,3.3514457E0,4.0312684E-1,0E0,1.6457224E-1,6.8488793E0,0E0,0E0,1.5741916E0,0E0,1.2212682E-1,0E0,3.2562838E0,2.965846E0,0E0,0E0,0E0,3.925994E0,0E0,1.5659842E0,0E0,0E0,0E0,0E0,0E0],"parents":[2147483647,0,0,1,1,2,2,3,3,5,5,6,6,8,8,9,9,12,12,14,14,16,16,17,17,21,21,23,23],"right_children":[2,4,6,8,-1,10,12,-1,14,16,-1,-1,18,-1,20,-1,22,24,-1,-1,-1,26,-1,28,-1,-1,-1,-1,-1],"split_conditions":[1.1442067E-2,-7.1172877E-3,1.3098441E-2,-1.3644888E-1,-0E0,-2.2494284E-2,-9.460304E-3,-0E0,-9.8054186E-2,-1.372418E-1,-0E0,-0E0,-4.4654347E-3,-0E0,-8.68963E-2,-0E0,2.050286E-2,1.0706389E-1,-0E0,-0E0,-3.6026366E-2,-1.00724865E-2,-0E0,4.6605982E-2,-0E0,4.8876986E-2,-0E0,-5.723078E-2,-0E0],"split_indices":[4,20,4,27,0,25,29,0,14,23,0,0,43,0,53,0,5,2,0,0,0,40,0,18,0,0,0,0,0],"split_type":[0,0,0,0,0,0,0,0,0,0,0,0,0,0,0,0,0,0,0,0,0,0,0,0,0,0,0,0,0],"sum_hessian":[8.93578E2,1.1889213E2,7.7468585E2,8.242695E1,3.646518E1,6.2230927E2,1.5237659E2,7.7544913E0,7.4672455E1,5.0383508E2,1.1847418E2,2.2232388E1,1.3014421E2,8.632366E0,6.604009E1,1.2991344E2,3.7392163E2,9.6521164E1,3.3623035E1,6.0650654E0,5.9975025E1,3.2710562E2,4.6816032E1,8.563002E1,1.0891144E1,3.155179E2,1.1587689E1,7.949226E1,6.1377606E0],"tree_param":{"num_deleted":"0","num_feature":"64","num_nodes":"29","size_leaf_vector":"0"}},{"base_weights":[-0E0,-0E0,-1.77416E-2,3.0640626E-2,-0E0,-1.418384E-1,-0E0,-0E0,1.5704702E-1,-0E0,-3.5539633E-1,1.9481635E-2,-0E0,-0E0,2.4367566E-1,-4.1093394E-1,-0E0,3.3593023E-1,-0E0,-9.922992E-2,-0E0,2.8834662E-1,-0E0,-0E0,-4.3320614E-1,4.1204536E-1,-0E0,-0E0,-1.8990289E-1,3.2627746E-1,-0E0,-4.433815E-1,-0E0,-0E0,4.708141E-1,-2.3494816E-1,-0E0],"categories":[],"categories_nodes":[],"categories_segments":[],"categories_sizes":[],"default_left":[false,false,true,true,false,true,false,false,false,false,true,false,false,false,false,false,false,false,false,false,false,true,false,false,true,false,false,false,true,false,false,false,false,false,false,false,false],"id":39,"left_children":[1,3,5,7,-1,9,11,-1,13,-1,15,17,19,-1,21,23,-1,25,-1,27,-1,29,-1,-1,31,33,-1,-1,35,-1,-1,-1,-1,-1,-1,-1,-1],"loss_changes":[1.9428459E-1,2.1006656E-1,2.6854682E0,3.8018286E0,0E0,7.849922E0,7.264226E-2,0E0,3.815803E0,0E0,2.4967499E0,8.417772E0,2.1828454E0,0E0,2.8235765E0,1.2085695E0,0E0,3.3788824E0,0E0,4.017688E0,0E0,2.6645422E0,0E0,0E0,4.8416233E-1,2.644969E0,0E0,0E0,2.7568674E0,0E0,0E0,0E0,0E0,0E0,0E0,0E0,0E0],"parents":[2147483647,0,0,1,1,2,2,3,3,5,5,6,6,8,8,10,10,11,11,12,12,14,14,15,15,17,17,19,19,21,21,24,24,25,25,28,28],"right_children":[2,4,6,8,-1,10,12,-1,14,-1,16,18,20,-1,22,24,-1,26,-1,28,-1,30,-1,-1,32,34,-1,-1,36,-1,-1,-1,-1,-1,-1,-1,-1],"split_conditions":[1.8934346E-3,-5.613859E-2,-1.01891354E-1,-4.4365677E-1,-0E0,-1.221108E-1,-1.6796455E-2,-0E0,-1.2934742E-2,-0E0,1.48666445E-2,2.0094724E-2,-3.040427E-2,-0E0,