{"learner":{"attributes":{"scikit_learn":"{\"use_label_encoder\": true, \"n_estimators\": 125, \"objective\": \"binary:logistic\", \"max_depth\": 5, \"learning_rate\": 0.2, \"verbosity\": null, \"booster\": null, \"tree_method\": null, \"gamma\": 0, \"min_child_weight\": 3, \"max_delta_step\": 0, \"subsample\": 1, \"colsample_bytree\": 0.7, \"colsample_bylevel\": null, \"colsample_bynode\": null, \"reg_alpha\": 5, \"reg_lambda\": 0, \"scale_pos_weight\": 20, \"base_score\": null, \"missing\": NaN, \"num_parallel_tree\": null, \"kwargs\": {\"eval_metric\": \"logloss\"}, \"random_state\": 42, \"n_jobs\": null, \"monotone_constraints\": null, \"interaction_constraints\": null, \"importance_type\": \"gain\", \"gpu_id\": null, \"validate_parameters\": null, \"classes_\": [0, 1], \"n_classes_\": 2, \"_le\": {\"classes_\": [0, 1]}, \"_features_count\": 64, \"n_features_in_\": 64, \"evals_result_\": {\"validation_0\": {\"logloss\": [0.778131, 0.873737, 0.903741, 0.966656, 0.975974, 0.996888, 1.022146, 1.019185, 0.991878, 1.011991, 0.987311, 1.000418, 0.97782, 0.960482, 0.945977, 0.918667, 0.893586, 0.873984, 0.834695, 0.818764, 0.787905, 0.758314, 0.735272, 0.71171, 0.68115, 0.642059, 0.626027, 0.592718, 0.570281, 0.548063, 0.521807, 0.499387, 0.486706, 0.471201, 0.462505, 0.44021, 0.413863, 0.403185, 0.388821, 0.373392, 0.3634, 0.347131, 0.331377, 0.321048, 0.310944, 0.301789, 0.295084, 0.287219, 0.279333, 0.269105, 0.257114, 0.250022, 0.244097, 0.239108, 0.236114, 0.227401, 0.220553, 0.215886, 0.208636, 0.20539, 0.197313, 0.189722, 0.184188, 0.178925, 0.171056, 0.168255, 0.163572, 0.157969, 0.153526, 0.150036, 0.143744, 0.140055, 0.136954, 0.134158, 0.132193, 0.129001, 0.127418, 0.124938, 0.121995, 0.12018, 0.117109, 0.115474, 0.113741, 0.109688, 0.106706, 0.1045, 0.102047, 0.10049, 0.098343, 0.096104, 0.094414, 0.092236, 0.091234, 0.088579, 0.087427, 0.085585, 0.084041, 0.082429, 0.081347, 0.080057, 0.078715, 0.077441, 0.07586, 0.074471, 0.072859, 0.071701, 0.070424, 0.069224, 0.068076, 0.067299, 0.065791, 0.065253, 0.06455, 0.06361, 0.062373, 0.061474, 0.060496, 0.059526, 0.058561, 0.057841, 0.056845, 0.056067, 0.055555, 0.054819, 0.054275]}, \"validation_1\": {\"logloss\": [0.77615, 0.872728, 0.89774, 0.956963, 0.966587, 0.97919, 1.0045, 1.006626, 0.987195, 1.003676, 0.981257, 0.9979, 0.978168, 0.961471, 0.945217, 0.916404, 0.891945, 0.876816, 0.834448, 0.818398, 0.792164, 0.76535, 0.748782, 0.726186, 0.697429, 0.66381, 0.649063, 0.617563, 0.597923, 0.580286, 0.557362, 0.534844, 0.522081, 0.507701, 0.49977, 0.480615, 0.455547, 0.445482, 0.435056, 0.423169, 0.413749, 0.400533, 0.386664, 0.377, 0.367189, 0.357554, 0.351336, 0.343402, 0.335352, 0.327604, 0.316925, 0.310703, 0.304563, 0.299526, 0.295633, 0.285797, 0.278929, 0.274593, 0.268682, 0.265303, 0.259378, 0.253752, 0.249431, 0.244431, 0.238458, 0.235357, 0.232054, 0.226988, 0.22398, 0.221356, 0.216496, 0.212633, 0.209767, 0.208319, 0.207318, 0.204566, 0.20297, 0.201639, 0.198827, 0.196824, 0.194324, 0.192973, 0.192089, 0.18787, 0.18616, 0.184469, 0.182512, 0.180662, 0.178853, 0.176916, 0.175873, 0.174596, 0.173933, 0.171943, 0.171081, 0.169183, 0.168039, 0.16634, 0.165314, 0.164277, 0.162986, 0.162141, 0.160887, 0.159769, 0.158521, 0.157893, 0.157104, 0.15623, 0.15548, 0.154655, 0.153427, 0.153018, 0.152556, 0.151817, 0.150489, 0.1494, 0.148946, 0.148113, 0.147481, 0.146921, 0.146183, 0.145847, 0.145553, 0.145417, 0.14516]}}, \"type\": \"XGBClassifier\"}"},"gradient_booster":{"model":{"gbtree_model_param":{"num_trees":"125","size_leaf_vector":"0"},"tree_info":[0,0,0,0,0,0,0,0,0,0,0,0,0,0,0,0,0,0,0,0,0,0,0,0,0,0,0,0,0,0,0,0,0,0,0,0,0,0,0,0,0,0,0,0,0,0,0,0,0,0,0,0,0,0,0,0,0,0,0,0,0,0,0,0,0,0,0,0,0,0,0,0,0,0,0,0,0,0,0,0,0,0,0,0,0,0,0,0,0,0,0,0,0,0,0,0,0,0,0,0,0,0,0,0,0,0,0,0,0,0,0,0,0,0,0,0,0,0,0,0,0,0,0,0,0],"trees":[{"base_weights":[1.8092971E0,1.8796184E0,1.4823066E0,1.8825637E0,-1.6366398E0,-1.0406158E0,1.6417538E0,1.8853168E0,-1.6106855E0,1.7707207E0,-1.9713997E0,-1.8538206E0,1.675871E0,1.8877078E0,-1.5511433E0,1.6980382E0,-1.77154E0,1.8894255E0,-1.3745439E0,-1.6653261E0,1.7133244E0],"categories":[],"categories_nodes":[],"categories_segments":[],"categories_sizes":[],"default_left":[true,true,false,false,false,true,false,false,false,false,false,false,false,true,false,true,false,false,false,false,false],"id":0,"left_children":[1,3,5,7,-1,9,11,13,-1,-1,-1,-1,15,17,-1,19,-1,-1,-1,-1,-1],"loss_changes":[4.9033594E2,1.8908984E2,1.5783887E3,1.756836E2,0E0,6.052773E2,4.3861426E2,1.505039E2,0E0,0E0,0E0,0E0,2.7864453E2,1.0400781E2,0E0,1.8682812E2,0E0,0E0,0E0,0E0,0E0],"parents":[2147483647,0,0,1,1,2,2,3,3,5,5,6,6,7,7,12,12,13,13,15,15],"right_children":[2,4,6,8,-1,10,12,14,-1,-1,-1,-1,16,18,-1,20,-1,-1,-1,-1,-1],"split_conditions":[-2.3623817E-2,-1.9593086E-2,-3.0984012E-2,5.2556336E-1,-3.2732797E-1,-2.5121033E-1,-4.073693E-2,3.2668673E-2,-3.221371E-1,3.5414416E-1,-3.9427993E-1,-3.707641E-1,4.7895934E-2,8.0978535E-2,-3.1022868E-1,-1.1497609E-1,-3.54308E-1,3.778851E-1,-2.7490878E-1,-3.3306524E-1,3.426649E-1],"split_indices":[15,11,26,23,0,34,36,4,0,0,0,0,38,9,0,47,0,0,0,0,0],"split_type":[0,0,0,0,0,0,0,0,0,0,0,0,0,0,0,0,0,0,0,0,0],"sum_hessian":[2.205525E4,1.8139045E4,3.9162039E3,1.8125285E4,1.3760451E1,2.3092563E2,3.6852783E3,1.8112441E4,1.2843087E1,5.6102375E1,1.7482326E2,3.4204548E1,3.6510737E3,1.8101303E4,1.1139413E1,3.629188E3,2.188567E1,1.8093309E4,7.994167E0,1.49399185E1,3.614248E3],"tree_param":{"num_deleted":"0","num_feature":"64","num_nodes":"21","size_leaf_vector":"0"}},{"base_weights":[1.502146E0,1.507583E0,-1.8166755E0,1.5766009E0,1.274722E0,1.579389E0,-1.8740892E0,-2.0641882E0,1.3283011E0,1.5815023E0,-1.316632E0,1.3550988E0,-1.9637372E0,-1.6704224E0,1.5831668E0,1.3697217E0,-1.8340979E0],"categories":[],"categories_nodes":[],"categories_segments":[],"categories_sizes":[],"default_left":[false,false,false,false,true,false,false,false,true,false,false,false,false,false,false,false,false],"id":1,"left_children":[1,3,-1,5,7,9,-1,-1,11,13,-1,15,-1,-1,-1,-1,-1],"loss_changes":[3.8295703E2,3.2767188E2,0E0,1.5625781E2,8.694546E2,1.0159375E2,0E0,0E0,4.208584E2,8.818359E1,0E0,2.2002246E2,0E0,0E0,0E0,0E0,0E0],"parents":[2147483647,0,0,1,1,3,3,4,4,5,5,8,8,9,9,11,11],"right_children":[2,4,-1,6,8,10,-1,-1,12,14,-1,16,-1,-1,-1,-1,-1],"split_conditions":[6.454325E-1,-3.244645E-2,-3.633351E-1,1.5518554E-3,-6.976593E-2,3.3022843E-2,-3.7481785E-1,-4.1283765E-1,8.1329435E-2,-1.8537305E-2,-2.633264E-1,8.168817E-3,-3.9274746E-1,-3.3408448E-1,3.1663337E-1,2.7394435E-1,-3.668196E-1],"split_indices":[23,23,0,40,33,4,0,0,5,4,0,15,0,0,0,0,0],"split_type":[0,0,0,0,0,0,0,0,0,0,0,0,0,0,0,0,0],"sum_hessian":[2.1308668E4,2.127532E4,3.334744E1,1.6394633E4,4.880689E3,1.6382844E4,1.1788252E1,7.5609E1,4.80508E3,1.6372622E4,1.0221364E1,4.767788E3,3.7291862E1,6.8392224E0,1.6365783E4,4.747588E3,2.0200243E1],"tree_param":{"num_deleted":"0","num_feature":"64","num_nodes":"17","size_leaf_vector":"0"}},{"base_weights":[1.3093504E0,1.3782512E0,1.0085115E0,1.3802269E0,-1.3758273E0,-1.0960549E0,1.1405509E0,1.453918E0,1.3008972E0,1.2779896E0,-1.8439322E0,-2.0753014E0,1.1606488E0,1.4557076E0,-1.3244151E0,-1.236673E0,1.3479844E0,1.1792479E0,-2.0592623E0,1.4574633E0,-9.821321E-1,-2.6813602E0,1.3860203E0,1.3603679E0,-2.4852219E0,1.1939858E0,-1.4234222E0],"categories":[],"categories_nodes":[],"categories_segments":[],"categories_sizes":[],"default_left":[true,true,false,true,false,true,true,true,true,false,false,false,false,false,false,true,true,false,false,false,false,false,false,false,false,false,false],"id":2,"left_children":[1,3,5,7,-1,9,11,13,15,-1,-1,-1,17,19,-1,21,23,25,-1,-1,-1,-1,-1,-1,-1,-1,-1],"loss_changes":[3.9688672E2,8.726758E1,1.0253186E3,7.990234E1,0E0,3.8552295E2,2.1991846E2,4.1796875E1,9.2654395E2,0E0,0E0,0E0,2.0241113E2,3.778125E1,0E0,5.340875E2,3.5563086E2,1.3061475E2,0E0,0E0,0E0,0E0,0E0,0E0,0E0,0E0,0E0],"parents":[2147483647,0,0,1,1,2,2,3,3,5,5,6,6,7,7,8,8,12,12,13,13,15,15,16,16,17,17],"right_children":[2,4,6,8,-1,10,12,14,16,-1,-1,-1,18,20,-1,22,24,26,-1,-1,-1,-1,-1,-1,-1,-1,-1],"split_conditions":[-2.2955062E-2,8.0978535E-2,-3.0990385E-2,-3.1087857E-2,-2.7516547E-1,-2.5121033E-1,1.1940532E-2,1.0103774E-1,-7.209501E-2,2.5559792E-1,-3.6878642E-1,-4.1506028E-1,1.6426314E-2,2.014814E-2,-2.64883E-1,4.1236803E-2,5.024956E-2,4.7895934E-2,-4.1185245E-1,2.9149267E-1,-1.9642642E-1,-5.3627205E-1,2.7720407E-1,2.720736E-1,-4.9704438E-1,2.3879717E-1,-2.8468445E-1],"split_indices":[25,9,26,26,0,34,4,27,33,0,0,0,4,4,0,51,24,38,0,0,0,0,0,0,0,0,0],"split_type":[0,0,0,0,0,0,0,0,0,0,0,0,0,0,0,0,0,0,0,0,0,0,0,0,0,0,0],"sum_hessian":[1.97231E4,1.6034185E4,3.6889155E3,1.6024504E4,9.6802E0,2.1554184E2,3.4733735E3,8.274815E3,7.749689E3,5.0032913E1,1.6550893E2,2.0027441E1,3.4533462E3,8.271287E3,3.5277956E0,1.392491E2,7.61044E3,3.4350574E3,1.8288904E1,8.267384E3,3.9033582E0,9.10187E1,4.82304E1,7.5872334E3,2.3206688E1,3.4176257E3,1.7431568E1],"tree_param":{"num_deleted":"0","num_feature":"64","num_nodes":"27","size_leaf_vector":"0"}},{"base_weights":[1.176155E0,1.2449385E0,8.836363E-1,1.2485478E0,-1.9782469E0,-9.4390374E-1,9.9966407E-1,1.251056E0,-1.9967636E0,1.1383234E0,-1.5869151E0,-1.9417056E0,1.0373229E0,1.2533746E0,-1.221595E0,1.1091092E0,2.1495786E-1,-1.4899827E0,1.2549946E0,1.1253781E0,-1.6289246E0,6.420205E-1,-2.328519E0],"categories":[],"categories_nodes":[],"categories_segments":[],"categories_sizes":[],"default_left":[true,false,false,true,false,true,false,false,false,false,false,false,false,true,false,false,false,false,false,false,false,false,false],"id":3,"left_children":[1,3,5,7,-1,9,11,13,-1,-1,-1,-1,15,17,-1,19,21,-1,-1,-1,-1,-1,-1],"loss_changes":[3.4713867E2,1.6367188E2,7.210405E2,1.1322461E2,0E0,2.7048746E2,3.4979858E2,8.2478516E1,0E0,0E0,0E0,0E0,1.7992798E2,6.258789E1,0E0,1.2669336E2,2.7321347E2,0E0,0E0,0E0,0E0,0E0,0E0],"parents":[2147483647,0,0,1,1,2,2,3,3,5,5,6,6,7,7,12,12,13,13,15,15,16,16],"right_children":[2,4,6,8,-1,10,12,14,-1,-1,-1,-1,16,18,-1,20,22,-1,-1,-1,-1,-1,-1],"split_conditions":[-2.2955062E-2,1.5518554E-3,-3.0990385E-2,2.1304092E0,-3.956494E-1,-2.5121033E-1,-4.073693E-2,5.2556336E-1,-3.9935273E-1,2.276647E-1,-3.1738302E-1,-3.8834113E-1,1.9582659E-1,-1.8537305E-2,-2.44319E-1,1.6426314E-2,3.908966E-3,-2.9799655E-1,2.5099894E-1,2.2507563E-1,-3.2578492E-1,1.2840411E-1,-4.6570382E-1],"split_indices":[25,40,26,28,0,34,36,23,0,0,0,0,23,4,0,4,32,0,0,0,0,0,0],"split_type":[0,0,0,0,0,0,0,0,0,0,0,0,0,0,0,0,0,0,0,0,0,0,0],"sum_hessian":[1.7781854E4,1.4382761E4,3.3990923E3,1.4368222E4,1.4538236E1,2.0034755E2,3.1987449E3,1.4358666E4,9.556414E0,4.543667E1,1.5491089E2,3.8757973E1,3.1599868E3,1.4347234E4,1.1431489E1,2.9006978E3,2.59289E2,6.6456237E0,1.4340589E4,2.8853796E3,1.531828E1,2.2369527E2,3.5593754E1],"tree_param":{"num_deleted":"0","num_feature":"64","num_nodes":"23","size_leaf_vector":"0"}},{"base_weights":[1.0735629E0,1.111115E0,5.2130264E-1,1.2287803E0,1.0016613E0,-1.1606934E0,7.817879E-1,1.2310932E0,-1.454325E0,-1.3011451E0,1.0460808E0,8.6819357E-1,-2.145313E0,-2.398956E0,8.529578E-1,1.2330966E0,-9.061253E-1,-2.2399428E0,1.1630279E0,1.1185904E0,3.291355E-1,1.1649083E0,-7.992148E-1,-1.5286171E0,-2.5848134E0,9.1129637E-1,-2.1449828E0,1.2348517E0,-4.7193828E-1,-2.4238822E0,1.123246E0,6.566902E-1,-2.3245609E0,9.6009386E-1,-1.8521872E0],"categories":[],"categories_nodes":[],"categories_segments":[],"categories_sizes":[],"default_left":[true,true,false,false,true,false,false,true,false,true,true,false,false,false,true,false,false,false,false,true,true,false,false,false,false,true,false,false,false,false,false,false,false,false,false],"id":4,"left_children":[1,3,5,7,9,11,13,15,-1,17,19,21,23,-1,25,27,-1,-1,-1,29,31,-1,-1,-1,-1,33,-1,-1,-1,-1,-1,-1,-1,-1,-1],"loss_changes":[3.195254E2,1.7928125E2,4.4258923E2,4.2969727E1,7.845698E2,2.7301285E2,1.9170996E2,3.203418E1,0E0,3.3678833E2,3.8469434E2,2.258283E1,4.2378845E0,0E0,1.4481494E2,2.5046875E1,0E0,0E0,0E0,1.0631348E2,5.9907904E2,0E0,0E0,0E0,0E0,1.0995203E2,0E0,0E0,0E0,0E0,0E0,0E0,0E0,0E0,0E0],"parents":[2147483647,0,0,1,1,2,2,3,3,4,4,5,5,6,6,7,7,9,9,10,10,11,11,12,12,14,14,15,15,19,19,20,20,25,25],"right_children":[2,4,6,8,10,12,14,16,-1,18,20,22,24,-1,26,28,-1,-1,-1,30,32,-1,-1,-1,-1,34,-1,-1,-1,-1,-1,-1,-1,-1,-1],"split_conditions":[2.0055266E-2,-3.1083131E-2,-3.0939767E-2,-7.2623603E-3,-7.192774E-2,2.0582449E-2,2.3453522E-2,1.0398346E-2,-2.90865E-1,4.1236803E-2,3.6610182E-2,-1.5627576E-1,-3.0990278E-2,-4.7979122E-1,4.331903E-2,4.7558928E-1,-1.8122506E-1,-4.4798857E-1,2.3260558E-1,-6.089598E-2,-1.924463E-2,2.3298167E-1,-1.5984295E-1,-3.0572343E-1,-5.169627E-1,8.972423E-2,-4.2899656E-1,2.4697034E-1,-9.438766E-2,-4.8477647E-1,2.2464919E-1,1.3133805E-1,-4.6491218E-1,1.9201878E-1,-3.7043744E-1],"split_indices":[12,26,26,57,33,12,18,7,0,51,24,8,26,0,56,23,0,0,0,50,58,0,0,0,0,24,0,0,0,0,0,0,0,0,0],"split_type":[0,0,0,0,0,0,0,0,0,0,0,0,0,0,0,0,0,0,0,0,0,0,0,0,0,0,0,0,0,0,0,0,0,0,0],"sum_hessian":[1.5800955E4,1.4786465E4,1.0144903E3,7.10391E3,7.682555E3,1.334683E2,8.81022E2,7.0996533E3,4.256712E0,1.4325648E2,7.539299E3,4.1949642E1,9.151867E1,1.7744099E1,8.6327783E2,7.095342E3,4.311796E0,1.0520477E2,3.805171E1,6.8404985E3,6.988E2,3.815809E1,3.7915535E0,4.281636E1,4.8702312E1,8.484355E2,1.4842357E1,7.090975E3,4.366753E0,7.568633E0,6.83293E3,6.2369885E2,7.510109E1,8.354917E2,1.294378E1],"tree_param":{"num_deleted":"0","num_feature":"64","num_nodes":"35","size_leaf_vector":"0"}},{"base_weights":[9.912448E-1,1.064963E0,6.9580305E-1,1.0690496E0,-1.7710787E0,-8.61174E-1,7.96426E-1,1.0035058E0,1.1990387E0,9.310895E-1,-1.3961235E0,-1.961468E0,8.2933676E-1,-1.0377942E0,1.0387363E0,1.2066393E0,7.4687624E-1,9.6128315E-1,3.6748573E-1,-1.8765795E0,1.0634025E0,1.044654E0,-2.707521E0,1.2122319E0,5.3893507E-1,1.1266377E0,-3.0641103E0,9.8466736E-1,-2.0892494E0,-2.5658932E0,7.219193E-1],"categories":[],"categories_nodes":[],"categories_segments":[],"categories_sizes":[],"default_left":[true,false,false,false,false,true,false,true,false,false,false,false,false,true,true,true,true,false,true,false,false,false,false,false,false,false,false,false,false,false,false],"id":5,"left_children":[1,3,5,7,-1,9,11,13,15,-1,-1,-1,17,19,21,23,25,27,29,-1,-1,-1,-1,-1,-1,-1,-1,-1,-1,-1,-1],"loss_changes":[2.9404395E2,1.2531152E2,4.3682605E2,8.356543E1,0E0,1.61832E2,2.3249902E2,5.3256006E2,2.9326172E0,0E0,0E0,0E0,1.514812E2,2.2125249E2,1.5312402E2,4.7749023E0,9.446779E1,1.3784326E2,5.9899884E2,0E0,0E0,0E0,0E0,0E0,0E0,0E0,0E0,0E0,0E0,0E0,0E0],"parents":[2147483647,0,0,1,1,2,2,3,3,5,5,6,6,7,7,8,8,12,12,13,13,14,14,15,15,16,16,17,17,18,18],"right_children":[2,4,6,8,-1,10,12,14,16,-1,-1,-1,18,20,22,24,26,28,30,-1,-1,-1,-1,-1,-1,-1,-1,-1,-1,-1,-1],"split_conditions":[-2.2955062E-2,1.5518554E-3,-3.0990385E-2,-2.9980872E-2,-3.5421574E-1,-2.5121033E-1,-1.5193874E-2,-7.2332054E-2,1.3263593E-2,1.862179E-1,-2.7922472E-1,-3.922936E-1,2.0055266E-2,4.8686914E-2,2.0614821E-2,-2.843086E-2,-1.1816287E-1,1.4256585E-2,3.0879617E-2,-3.753159E-1,2.126805E-1,2.089308E-1,-5.415042E-1,2.4244638E-1,1.0778701E-1,2.2532754E-1,-6.1282206E-1,1.9693348E-1,-4.1784987E-1,-5.1317865E-1,1.4438386E-1],"split_indices":[25,40,26,26,0,34,49,33,55,0,0,0,12,51,22,26,27,4,18,0,0,0,0,0,0,0,0,0,0,0,0],"split_type":[0,0,0,0,0,0,0,0,0,0,0,0,0,0,0,0,0,0,0,0,0,0,0,0,0,0,0,0,0,0,0],"sum_hessian":[1.3905223E4,1.1114923E4,2.7903E3,1.1100689E4,1.42328825E1,1.6636601E2,2.623934E3,7.4052437E3,3.695446E3,3.6093567E1,1.3027245E2,2.9151312E1,2.5947827E3,1.2322971E2,7.2820137E3,3.623479E3,7.196684E1,2.0097815E3,5.850013E2,8.977261E1,3.3457104E1,7.2718613E3,1.0152299E1,3.5859558E3,3.752331E1,6.663838E1,5.32846E0,1.9961191E3,1.3662411E1,6.1543682E1,5.234576E2],"tree_param":{"num_deleted":"0","num_feature":"64","num_nodes":"31","size_leaf_vector":"0"}},{"base_weights":[9.217733E-1,1.0157139E0,6.376135E-1,9.3911695E-1,1.1436704E0,-2.2605536E0,6.7548746E-1,-8.69389E-1,9.745017E-1,-6.367804E-1,1.1469126E0,-1.7509804E0,7.161053E-1,-1.6285324E0,9.7864985E-1,9.885803E-1,-1.8916111E0,1.1571991E0,5.604658E-1,8.911819E-1,2.624313E-1,9.9431473E-1,-2.379066E0,1.0815849E0,-2.0255725E0,9.104926E-1,-2.0811293E0,-2.3624132E0,4.1219434E-1],"categories":[],"categories_nodes":[],"categories_segments":[],"categories_sizes":[],"default_left":[false,false,true,true,true,false,true,true,true,false,false,false,true,false,false,false,false,false,true,false,false,false,false,false,false,false,false,false,false],"id":6,"left_children":[1,3,5,7,9,-1,11,13,15,-1,17,-1,19,-1,-1,21,-1,-1,23,25,27,-1,-1,-1,-1,-1,-1,-1,-1],"loss_changes":[3.164043E2,7.90459E1,3.252202E2,3.674702E2,2.2138672E1,0E0,2.9026514E2,1.5382141E2,2.2252979E2,0E0,1.1862793E1,0E0,2.285675E2,0E0,0E0,1.01239746E2,0E0,0E0,8.5326675E1,1.1587756E2,3.163167E2,0E0,0E0,0E0,0E0,0E0,0E0,0E0,0E0],"parents":[2147483647,0,0,1,1,2,2,3,3,4,4,6,6,7,7,8,8,10,10,12,12,15,15,18,18,19,19,20,20],"right_children":[2,4,6,8,10,-1,12,14,16,-1,18,-1,20,-1,-1,22,-1,-1,24,26,28,-1,-1,-1,-1,-1,-1,-1,-1],"split_conditions":[-3.244645E-2,-3.0018276E-2,-2.656891E-2,-7.23336E-2,-9.711012E-3,-4.5211074E-1,-6.976593E-2,4.0207665E-2,2.0590723E-2,-1.2735608E-1,1.325888E-2,-3.501961E-1,3.873982E-2,-3.2570648E-1,1.9572997E-1,2.4047464E-2,-3.783222E-1,2.3143983E-1,-1.1871864E-1,-8.40562E-3,-1.4950097E-2,1.9886295E-1,-4.758132E-1,2.1631698E-1,-4.051145E-1,1.8209852E-1,-4.1622588E-1,-4.7248265E-1,8.243887E-2],"split_indices":[23,26,23,33,29,0,33,51,12,0,55,0,24,0,0,4,0,0,27,11,3,0,0,0,0,0,0,0,0],"split_type":[0,0,0,0,0,0,0,0,0,0,0,0,0,0,0,0,0,0,0,0,0,0,0,0,0,0,0,0,0],"sum_hessian":[1.2162611E4,9.127536E3,3.0350752E3,5.7340864E3,3.3934502E3,3.7448532E1,2.9976267E3,1.0732708E2,5.6267593E3,3.3649237E0,3.3900852E3,4.7325897E1,2.9503008E3,7.799401E1,2.9333065E1,5.600991E3,2.5768023E1,3.3232668E3,6.68183E1,2.1208325E3,8.294681E2,5.5929526E3,8.038965E0,5.7221004E1,9.597291E0,2.1088142E3,1.2018527E1,4.2969563E1,7.8649854E2],"tree_param":{"num_deleted":"0","num_feature":"64","num_nodes":"29","size_leaf_vector":"0"}},{"base_weights":[8.573312E-1,9.298228E-1,4.602165E-1,9.332889E-1,-1.726602E0,7.2532904E-1,-3.795328E-2,1.0001509E0,7.964152E-1,8.5965705E-1,5.3145673E-2,1.251939E-1,-3.0681736E0,1.0038496E0,-1.2731373E0,3.1878808E-1,8.4443164E-1,-1.7282623E-1,9.163217E-1,-2.4717996E0,6.8370605E-1,5.06784E-1,-8.999506E-1,-1.1576413E0,-3.4847085E0,1.0064888E0,-1.240164E0,-7.378028E-1,8.8782305E-1,-2.6853733E0,8.5062754E-1,-2.1960936E0,9.6057034E-1,9.3457025E-1,-1.5060006E0,-1.9630582E0,8.4123206E-1,-2.3207493E0,6.8468124E-1,-3.6119297E0,7.401328E-1],"categories":[],"categories_nodes":[],"categories_segments":[],"categories_sizes":[],"default_left":[true,true,false,true,false,true,false,false,false,false,true,false,false,true,false,false,false,true,false,false,false,false,false,false,false,false,false,false,false,false,false,false,false,false,false,false,false,false,false,false,false],"id":7,"left_children":[1,3,5,7,-1,9,11,13,15,17,19,21,23,25,-1,27,29,31,33,-1,35,37,39,-1,-1,-1,-1,-1,-1,-1,-1,-1,-1,-1,-1,-1,-1,-1,-1,-1,-1],"loss_changes":[2.9923828E2,7.874902E1,2.2168668E2,7.314258E1,0E0,9.34126E1,2.9523245E2,4.913916E1,6.2288086E1,5.6265137E1,2.8867188E2,2.0804855E2,1.1040344E0,3.4345703E1,0E0,1.6956346E2,4.963098E1,1.02806786E2,3.4982788E1,0E0,5.741391E1,1.9040375E2,6.4629474E2,0E0,0E0,0E0,0E0,0E0,0E0,0E0,0E0,0E0,0E0,0E0,0E0,0E0,0E0,0E0,0E0,0E0,0E0],"parents":[2147483647,0,0,1,1,2,2,3,3,5,5,6,6,7,7,8,8,9,9,10,10,11,11,12,12,13,13,15,15,16,16,17,17,18,18,20,20,21,21,22,22],"right_children":[2,4,6,8,-1,10,12,14,16,18,20,22,24,26,-1,28,30,32,34,-1,36,38,40,-1,-1,-1,-1,-1,-1,-1,-1,-1,-1,-1,-1,-1,-1,-1,-1,-1,-1],"split_conditions":[-1.4127132E-2,4.1843362E-2,-2.5181912E-2,-2.3892451E-2,-3.453204E-1,2.0307097E-1,-2.773702E-3,1.5518554E-3,-4.0860415E-2,-7.9774484E-2,2.7086765E-2,-2.3681082E-2,-6.296618E-2,1.9960172E0,-2.5462747E-1,5.8455132E-2,-2.3862757E-2,1.7033899E-1,-1.0916358E-2,-4.9435994E-1,-3.8785107E-2,-4.0166114E-2,1.1077278E-2,-2.3152827E-1,-6.9694173E-1,2.0129776E-1,-2.4803281E-1,-1.4756057E-1,1.775646E-1,-5.370747E-1,1.7012551E-1,-4.3921873E-1,1.9211407E-1,1.8691406E-1,-3.0120012E-1,-3.9261165E-1,1.6824642E-1,-4.6414986E-1,1.3693625E-1,-7.2238594E-1,1.4802657E-1],"split_indices":[45,38,14,25,0,34,44,40,36,63,56,33,33,28,0,60,25,1,40,0,39,36,19,0,0,0,0,0,0,0,0,0,0,0,0,0,0,0,0,0,0],"split_type":[0,0,0,0,0,0,0,0,0,0,0,0,0,0,0,0,0,0,0,0,0,0,0,0,0,0,0,0,0,0,0,0,0,0,0,0,0,0,0,0,0],"sum_hessian":[1.0636173E4,8.983654E3,1.6525183E3,8.973828E3,9.826693E0,1.0850962E3,5.674222E2,6.0042515E3,2.969576E3,8.9816907E2,1.869271E2,5.368672E2,3.0554993E1,5.9966943E3,7.557447E0,2.8077667E2,2.6887993E3,4.213792E1,8.560311E2,3.576885E1,1.5115825E2,3.947912E2,1.4207599E2,7.6178374E0,2.2937155E1,5.9918755E3,4.818819E0,9.520747E1,1.855692E2,3.2973726E0,2.685502E3,1.6713522E1,2.5424397E1,8.5167914E2,4.3519917E0,6.7080626E0,1.4445018E2,2.1704798E1,3.730864E2,5.46905E1,8.738549E1],"tree_param":{"num_deleted":"0","num_feature":"64","num_nodes":"41","size_leaf_vector":"0"}},{"base_weights":[7.940761E-1,9.919532E-1,6.1259127E-1,9.985214E-1,-1.4448303E0,-1.0456138E0,6.920005E-1,1.0036694E0,-1.6730813E0,-1.9761077E0,8.972599E-1,8.142716E-1,4.689916E-2,-0E0,1.010512E0,-1.3977101E0,-2.3774629E0,-4.1788077E0,8.279471E-1,-9.498816E-1,6.1825466E-1,8.759995E-1,-4.7033644E0,1.0817041E0,8.9817715E-1,-3.091243E0,-1.2550764E0,-4.662416E0,8.389172E-1,6.3135326E-1,-2.2038193E0,7.4482656E-1,-2.3366046E0],"categories":[],"categories_nodes":[],"categories_segments":[],"categories_sizes":[],"default_left":[true,true,true,false,false,true,true,false,false,true,false,false,false,true,true,false,false,false,true,true,true,false,false,false,false,false,false,false,false,false,false,false,false],"id":8,"left_children":[1,3,5,7,-1,9,11,13,-1,15,-1,17,19,21,23,-1,25,-1,27,29,31,-1,-1,-1,-1,-1,-1,-1,-1,-1,-1,-1,-1],"loss_changes":[3.2753613E2,6.910303E1,6.417435E2,5.781494E1,0E0,4.0395197E2,3.637827E2,3.4563965E1,0E0,1.61333E1,0E0,2.5067627E2,4.2552408E2,1.22874344E2,2.5402832E1,0E0,4.550525E1,0E0,2.1618994E2,5.43419E2,1.715523E2,0E0,0E0,0E0,0E0,0E0,0E0,0E0,0E0,0E0,0E0,0E0,0E0],"parents":[2147483647,0,0,1,1,2,2,3,3,5,5,6,6,7,7,9,9,11,11,12,12,13,13,14,14,16,16,18,18,19,19,20,20],"right_children":[2,4,6,8,-1,10,12,14,-1,16,-1,18,20,22,24,-1,26,-1,28,30,32,-1,-1,-1,-1,-1,-1,-1,-1,-1,-1,-1,-1],"split_conditions":[-3.1048963E-2,-8.359677E-3,-6.912075E-2,-7.5214505E-3,-2.8896606E-1,-9.146249E-3,3.7550785E-2,-4.5787185E-2,-3.3461627E-1,-7.233107E-2,1.7945199E-1,5.5335397E-3,1.6298754E-2,-6.486589E-2,-6.1569624E-2,-2.7954203E-1,-2.3766171E-2,-8.3576155E-1,-3.7488372E-3,-4.6951063E-3,4.0092558E-1,1.7519991E-1,-9.406729E-1,2.1634082E-1,1.7963544E-1,-6.1824864E-1,-2.5101528E-1,-9.324832E-1,1.6778344E-1,1.2627065E-1,-4.4076386E-1,1.4896531E-1,-4.6732092E-1],"split_indices":[26,15,33,40,0,51,24,26,0,33,0,4,33,56,33,0,15,0,30,44,35,0,0,0,0,0,0,0,0,0,0,0,0],"split_type":[0,0,0,0,0,0,0,0,0,0,0,0,0,0,0,0,0,0,0,0,0,0,0,0,0,0,0,0,0,0,0,0,0],"sum_hessian":[9.344E3,4.4569424E3,4.887058E3,4.4470073E3,9.9347925E0,2.2046169E2,4.666596E3,4.4403228E3,6.6846776E0,1.5080884E2,6.9652855E1,3.9165173E3,7.500791E2,2.6081945E1,4.4142407E3,6.688209E1,8.392674E1,9.69895E0,3.9068184E3,2.7010526E2,4.7997385E2,2.1265121E1,4.8168235E0,2.6746638E3,1.739577E3,4.857851E1,3.5348232E1,6.881649E0,3.8999365E3,1.1769836E2,1.5240689E2,4.6188123E2,1.8092627E1],"tree_param":{"num_deleted":"0","num_feature":"64","num_nodes":"33","size_leaf_vector":"0"}},{"base_weights":[7.4059576E-1,8.453106E-1,4.4149798E-1,7.63841E-1,1.0291994E0,4.843319E-1,-2.3712294E0,7.7301735E-1,-3.8006542E0,1.0357577E0,-1.1512719E0,-9.412695E-2,6.2813145E-1,7.812387E-1,-1.6536427E0,2.1936418E-1,-2.44953E0,9.095754E-1,4.4322646E-1,8.7034327E-1,6.280396E-1,4.193347E-1,-2.0681105E0,-1.0449427E0,-2.77148E0,9.415852E-1,-1.3933268E0,5.113353E-1,-1.5425909E0],"categories":[],"categories_nodes":[],"categories_segments":[],"categories_sizes":[],"default_left":[true,false,false,true,false,false,false,false,false,false,false,false,true,true,false,true,false,false,true,false,false,false,false,false,false,false,false,false,false],"id":9,"left_children":[1,3,5,7,9,11,-1,13,-1,-1,-1,15,17,19,-1,21,23,25,27,-1,-1,-1,-1,-1,-1,-1,-1,-1,-1],"loss_changes":[2.4917773E2,8.141113E1,2.4703598E2,1.6075244E2,2.5638306E1,1.7723227E2,0E0,7.926929E1,0E0,0E0,0E0,3.145538E2,8.106262E1,4.9566406E1,0E0,1.5677591E2,3.590393E0,4.6277588E1,1.3404942E2,0E0,0E0,0E0,0E0,0E0,0E0,0E0,0E0,0E0,0E0],"parents":[2147483647,0,0,1,1,2,2,3,3,4,4,5,5,7,7,11,11,12,12,13,13,15,15,16,16,17,17,18,18],"right_children":[2,4,6,8,10,12,-1,14,-1,-1,-1,16,18,20,-1,22,24,26,28,-1,-1,-1,-1,-1,-1,-1,-1,-1,-1],"split_conditions":[-2.321928E-2,-7.0366953E-3,-1.1099419E-2,1.01417795E-1,-1.0702116E-2,-1.2103392E-2,-4.7424588E-1,-7.1647502E-3,-7.601308E-1,2.0715153E-1,-2.302544E-1,-1.2336594E-2,-1.2047417E-2,-1.5461789E-2,-3.3072853E-1,-4.072371E-2,-6.0106605E-2,1.4452082E-2,6.245079E-2,1.7406866E-1,1.2560792E-1,8.386695E-2,-4.136221E-1,-2.0898855E-1,-5.54296E-1,1.8831705E-1,-2.7866536E-1,1.02267064E-1,-3.0851817E-1],"split_indices":[25,20,40,27,45,20,0,40,0,0,0,20,20,45,0,36,33,55,5,0,0,0,0,0,0,0,0,0,0],"split_type":[0,0,0,0,0,0,0,0,0,0,0,0,0,0,0,0,0,0,0,0,0,0,0,0,0,0,0,0,0],"sum_hessian":[8.161312E3,6.032576E3,2.128736E3,4.1993125E3,1.8332637E3,2.0985557E3,3.018045E1,4.1919805E3,7.3320804E0,1.8300525E3,3.2112205E0,4.1089355E2,1.687662E3,4.17988E3,1.21006E1,3.6075613E2,5.0137424E1,6.5842786E2,1.0292341E3,2.622138E3,1.557742E3,3.3376434E2,2.699179E1,1.22451725E1,3.7892254E1,6.515427E2,6.88512E0,9.975388E2,3.1695374E1],"tree_param":{"num_deleted":"0","num_feature":"64","num_nodes":"29","size_leaf_vector":"0"}},{"base_weights":[6.80355E-1,9.2966247E-1,4.9288926E-1,9.376873E-1,-1.2279131E0,2.8046283E-1,9.3712765E-1,1.0109863E0,7.1018964E-1,4.488297E-1,-4.5226473E-1,9.6396196E-1,-0E0,-2.1463838E0,1.0192109E0,7.828479E-1,-9.754054E-1,4.999036E-1,-3.657099E0,-9.8235184E-1,6.3695675E-1,9.7383463E-1,1.9825289E-2,-2.0013766E0,8.754377E-1,1.0259265E0,1.471394E-1,8.089034E-1,-3.1374397E0,-3.5358202E0,6.477423E-1,-3.069356E0,5.328126E-1,-2.5321646E0,-5.943532E0,-2.8879913E-2,-1.6041429E0,-1.7806208E0,8.225217E-1,7.617575E-1,-2.0537443E0],"categories":[],"categories_nodes":[],"categories_segments":[],"categories_sizes":[],"default_left":[true,true,false,true,false,true,true,true,false,true,true,true,false,false,true,false,true,false,false,false,true,false,false,false,false,false,false,false,false,false,false,false,false,false,false,false,false,false,false,false,false],"id":10,"left_children":[1,3,5,7,-1,9,11,13,15,17,19,21,23,-1,25,27,29,31,33,35,37,-1,39,-1,-1,-1,-1,-1,-1,-1,-1,-1,-1,-1,-1,-1,-1,-1,-1,-1,-1],"loss_changes":[3.3033252E2,5.200586E1,3.8390295E2,4.2726562E1,0E0,3.458286E2,3.6197998E1,5.4391846E1,9.294461E1,4.634192E2,3.0095895E2,7.1049805E0,6.2845406E1,0E0,7.64624E0,6.373239E1,1.3430617E2,2.5257422E2,2.6740875E1,2.0033838E2,6.993373E1,0E0,2.2224632E1,0E0,0E0,0E0,0E0,0E0,0E0,0E0,0E0,0E0,0E0,0E0,0E0,0E0,0E0,0E0,0E0,0E0,0E0],"parents":[2147483647,0,0,1,1,2,2,3,3,5,5,6,6,7,7,8,8,9,9,10,10,11,11,12,12,14,14,15,15,16,16,17,17,18,18,19,19,20,20,22,22],"right_children":[2,4,6,8,-1,10,12,14,16,18,20,22,24,-1,26,28,30,32,34,36,38,-1,40,-1,-1,-1,-1,-1,-1,-1,-1,-1,-1,-1,-1,-1,-1,-1,-1,-1,-1],"split_conditions":[-3.1087857E-2,-8.359677E-3,-7.3121507E-3,-8.04244E-2,-2.4558263E-1,3.873982E-2,2.2073751E-2,-2.2923885E-1,-1.1102997E-2,-1.6299523E-2,1.8488921E-2,-7.002429E-3,3.2953256E-1,-4.2927676E-1,-7.6776426E-3,1.3687948E-2,-1.0159185E-2,1.014302E-2,-1.04531385E-1,-1.7234001E-2,-2.5696617E-2,1.9476692E-1,6.3853255E-3,-4.0027532E-1,1.7508754E-1,2.051853E-1,2.942788E-2,1.6178069E-1,-6.2748796E-1,-7.0716405E-1,1.2954846E-1,-6.138712E-1,1.0656252E-1,-5.0643295E-1,-1.1887064E0,-5.7759825E-3,-3.208286E-1,-3.5612416E-1,1.6450433E-1,1.523515E-1,-4.1074887E-1],"split_indices":[26,15,20,8,0,24,12,12,40,57,53,20,39,0,7,4,58,4,8,57,32,0,4,0,0,0,0,0,0,0,0,0,0,0,0,0,0,0,0,0,0],"split_type":[0,0,0,0,0,0,0,0,0,0,0,0,0,0,0,0,0,0,0,0,0,0,0,0,0,0,0,0,0,0,0,0,0,0,0,0,0,0,0,0,0],"sum_hessian":[7.2201426E3,3.0874817E3,4.132661E3,3.0783496E3,9.132069E0,2.8033884E3,1.3292725E3,2.3115857E3,7.667639E2,2.2851323E3,5.182562E2,1.2952505E3,3.4021946E1,4.4263067E0,2.3071594E3,7.379218E2,2.8842096E1,2.2582595E3,2.6872858E1,3.5169073E2,1.6656552E2,1.2766053E3,1.8645132E1,1.1352256E1,2.2669691E1,2.2838389E3,2.3320587E1,7.343167E2,3.6050894E0,1.2385372E1,1.6456724E1,1.9243153E1,2.2390164E3,1.9476936E1,7.3959203E0,1.4199417E2,2.0969656E2,9.952863E0,1.5661266E2,1.5507708E1,3.1374242E0],"tree_param":{"num_deleted":"0","num_feature":"64","num_nodes":"41","size_leaf_vector":"0"}},{"base_weights":[6.2819034E-1,7.576579E-1,3.0683872E-1,6.629163E-1,9.5134515E-1,-2.0263684E0,3.5105765E-1,6.8492466E-1,-2.7750661E0,9.639525E-1,-0E0,-1.4328464E0,3.9112917E-1,-2.0061672E0,6.955472E-1,-4.7738925E-1,9.7044235E-1,-2.9355974E0,7.040929E-1,8.7283444E-1,2.6405942E-1,2.3535627E-1,7.3590964E-1,9.3429214E-1,2.0686433E-1,3.286633E-1,-3.60012E0],"categories":[],"categories_nodes":[],"categories_segments":[],"categories_sizes":[],"default_left":[false,false,true,false,true,false,true,false,false,true,false,false,false,false,false,false,false,false,false,true,true,false,false,false,false,false,false],"id":11,"left_children":[1,3,5,7,9,-1,11,13,-1,15,17,-1,19,-1,21,-1,-1,-1,-1,23,25,-1,-1,-1,-1,-1,-1],"loss_changes":[2.5986792E2,7.51001E1,1.8162624E2,2.2115723E2,1.921875E1,0E0,1.24138504E2,8.043396E1,0E0,1.6065186E1,3.9920017E1,0E0,1.02807556E2,0E0,5.1477173E1,0E0,0E0,0E0,0E0,9.100311E0,3.3581122E2,0E0,0E0,0E0,0E0,0E0,0E0],"parents":[2147483647,0,0,1,1,2,2,3,3,4,4,6,6,7,7,9,9,10,10,12,12,14,14,19,19,20,20],"right_children":[2,4,6,8,10,-1,12,14,-1,16,18,-1,20,-1,22,-1,-1,-1,-1,24,26,-1,-1,-1,-1,-1,-1],"split_conditions":[-3.244645E-2,-7.3156804E-3,-2.656891E-2,1.5289869E-2,-4.11014E-3,-4.0527368E-1,-6.976593E-2,1.5897816E-3,-5.5501324E-1,-6.766043E-1,1.9680435E-2,-2.865693E-1,-2.4459727E-2,-4.0123343E-1,-4.116361E-2,-9.547785E-2,1.9408847E-1,-5.871195E-1,1.4081858E-1,-5.9611246E-2,-1.6524613E-2,4.7071256E-2,1.4718193E-1,1.8685843E-1,4.1372865E-2,6.573266E-2,-7.2002405E-1],"split_indices":[23,20,23,4,44,0,33,4,0,35,29,0,25,0,36,0,0,0,0,63,57,0,0,0,0,0,0],"split_type":[0,0,0,0,0,0,0,0,0,0,0,0,0,0,0,0,0,0,0,0,0,0,0,0,0,0,0],"sum_hessian":[6.374063E3,4.53245E3,1.8416125E3,3.0609902E3,1.47146E3,3.2149967E1,1.8094625E3,3.042965E3,1.8025309E1,1.4539049E3,1.755502E1,3.701139E1,1.7724512E3,1.0113603E1,3.0328513E3,3.0636535E0,1.4508413E3,3.84354E0,1.3711478E1,3.6175085E2,1.4107003E3,2.5454482E2,2.7783066E3,3.2431436E2,3.7436504E1,1.3887758E3,2.1924519E1],"tree_param":{"num_deleted":"0","num_feature":"64","num_nodes":"27","size_leaf_vector":"0"}},{"base_weights":[5.693685E-1,8.597196E-1,3.7007454E-1,9.572802E-1,5.72251E-1,6.2941027E-1,1.0784612E-1,-5.4338825E-1,9.7347033E-1,6.100654E-1,-2.803236E0,6.5542006E-1,-3.1798615E0,1.5674585E-1,-1.7635003E0,2.9762012E-1,-5.463415E0,9.8086405E-1,-8.866758E-1,6.803246E-1,-7.494167E-1,4.048244E-2,7.189147E-1,4.7343567E-1,-6.555091E-2,7.6093304E-1,-4.055949E0,9.88276E-1,-0E0,7.129258E-1,-1.8188062E0,-2.4458754E0,5.0454485E-1,3.7662965E-1,-3.3405583E0,9.791288E-1,5.75237E-1,7.205209E-1,-6.472643E-2,-2.436301E0,2.0198671E-2,-2.0235717E0,-5.024385E0],"categories":[],"categories_nodes":[],"categories_segments":[],"categories_sizes":[],"default_left":[true,true,true,true,false,true,true,true,true,false,false,false,false,true,false,false,false,false,false,false,true,false,false,false,false,false,false,false,false,false,false,false,false,false,false,false,false,false,false,false,false,false,false],"id":12,"left_children":[1,3,5,7,9,11,13,15,17,19,-1,21,-1,23,25,-1,-1,27,-1,29,31,33,35,37,39,-1,41,-1,-1,-1,-1,-1,-1,-1,-1,-1,-1,-1,-1,-1,-1,-1,-1],"loss_changes":[3.245962E2,5.731189E1,2.2750235E2,4.385034E1,6.560397E1,1.5577417E2,1.4752542E2,8.799042E1,2.3869873E1,5.645781E1,0E0,6.21662E1,0E0,1.1884985E2,2.5192966E2,0E0,0E0,9.834595E0,0E0,4.08273E1,6.443565E1,1.7325491E2,4.9203064E1,9.5510025E1,2.0838766E2,0E0,8.771088E0,0E0,0E0,0E0,0E0,0E0,0E0,0E0,0E0,0E0,0E0,0E0,0E0,0E0,0E0,0E0,0E0],"parents":[2147483647,0,0,1,1,2,2,3,3,4,4,5,5,6,6,7,7,8,8,9,9,11,11,13,13,14,14,17,17,19,19,20,20,21,21,22,22,23,23,24,24,26,26],"right_children":[2,4,6,8,10,12,14,16,18,20,-1,22,-1,24,26,-1,-1,28,-1,30,32,34,36,38,40,-1,42,-1,-1,-1,-1,-1,-1,-1,-1,-1,-1,-1,-1,-1,-1,-1,-1],"split_conditions":[-3.1087857E-2,-8.04244E-2,2.6228128E-3,-3.1085458E-1,-1.1679664E-2,2.4481166E-2,-6.054421E-3,-1.0396097E1,1.3152959E-2,-1.1102997E-2,-5.606472E-1,1.1625804E-2,-6.359723E-1,-4.6609244E-3,-2.636789E-3,5.9524026E-2,-1.0926831E0,3.717341E-2,-1.7733516E-1,1.3687948E-2,-1.0489419E-2,-4.752267E-3,-1.6967498E-2,-1.652252E-2,1.3207719E-2,1.5218662E-1,-7.732412E-2,1.976552E-1,-0E0,1.4258516E-1,-3.6376125E-1,-4.8917508E-1,1.0090897E-1,7.532593E-2,-6.681117E-1,1.9582576E-1,1.15047395E-1,1.4410418E-1,-1.2945286E-2,-4.872602E-1,4.039734E-3,-4.0471435E-1,-1.004877E0],"split_indices":[26,8,37,23,46,38,50,23,3,40,0,48,0,44,61,0,0,30,0,4,58,44,57,57,30,0,8,0,0,0,0,0,0,0,0,0,0,0,0,0,0,0,0],"split_type":[0,0,0,0,0,0,0,0,0,0,0,0,0,0,0,0,0,0,0,0,0,0,0,0,0,0,0,0,0,0,0,0,0,0,0,0,0,0,0,0,0,0,0],"sum_hessian":[5.7157837E3,2.316211E3,3.399573E3,1.7163318E3,5.998791E2,1.6996273E3,1.6999457E3,1.5022883E1,1.701309E3,5.946981E2,5.1809306E0,1.6894047E3,1.0222709E1,1.6592598E3,4.0685863E1,1.1961911E1,3.0609725E0,1.6972506E3,4.0583067E0,5.6897107E2,2.5727047E1,1.6548177E2,1.5239229E3,6.93613E2,9.6564685E2,1.8325186E1,2.236068E1,1.6819572E3,1.5293425E1,5.636194E2,5.3517213E0,1.2628956E1,1.3098091E1,1.5186227E2,1.3619497E1,5.297304E2,9.9419244E2,4.8172873E2,2.1188422E2,3.574347E1,9.299034E2,8.882553E0,1.3478126E1],"tree_param":{"num_deleted":"0","num_feature":"64","num_nodes":"43","size_leaf_vector":"0"}},{"base_weights":[5.155751E-1,8.2076985E-1,3.2339415E-1,9.900101E-1,5.6760997E-1,-8.4160745E-1,4.3307474E-1,-1.0237256E0,1.0007665E0,6.428345E-1,-7.3397976E-1,6.6192436E-1,-1.651819E0,5.796726E-1,-1.3838792E-2,-0E0,1.0065867E0,6.715761E-1,-7.2198206E-1,3.001268E-1,-2.7850332E0,8.05769E-1,-1.1320575E0,-1.8100706E0,4.823734E-1,6.0294324E-1,-2.442408E0,-2.6295078E-1,7.254313E-1,7.0119715E-1,-3.3306816E-1,7.18287E-1,-8.746002E-1,-0E0,9.1924745E-1,-2.0539544E0,-1.3310875E0,-2.291008E0,6.258375E-1,8.7800704E-2,-1.0555485E0,8.429394E-1,-1.1181915E0],"categories":[],"categories_nodes":[],"categories_segments":[],"categories_sizes":[],"default_left":[true,true,true,true,false,false,true,false,true,true,false,true,true,false,true,false,false,false,false,false,false,false,false,true,false,false,false,false,false,false,false,false,false,false,false,false,false,false,false,false,false,false,false],"id":13,"left_children":[1,3,5,7,9,11,13,-1,15,17,19,21,23,25,27,-1,-1,29,-1,31,-1,33,-1,35,-1,37,-1,39,41,-1,-1,-1,-1,-1,-1,-1,-1,-1,-1,-1,-1,-1,-1],"loss_changes":[2.9627954E2,7.702136E1,4.0295135E2,2.532605E1,7.835635E1,3.323952E2,1.9287378E2,0E0,2.1468506E0,2.9740356E1,9.800134E1,2.2100674E1,6.6362305E1,1.4500311E2,1.2808351E2,0E0,0E0,2.423117E1,0E0,1.1598604E1,0E0,5.8016815E0,0E0,2.560608E0,0E0,1.3594702E2,0E0,1.5347528E2,3.618904E1,0E0,0E0,0E0,0E0,0E0,0E0,0E0,0E0,0E0,0E0,0E0,0E0,0E0,0E0],"parents":[2147483647,0,0,1,1,2,2,3,3,4,4,5,5,6,6,8,8,9,9,10,10,11,11,12,12,13,13,14,14,17,17,19,19,21,21,23,23,25,25,27,27,28,28],"right_children":[2,4,6,8,10,12,14,-1,16,18,20,22,24,26,28,-1,-1,30,-1,32,-1,34,-1,36,-1,38,-1,40,42,-1,-1,-1,-1,-1,-1,-1,-1,-1,-1,-1,-1,-1,-1],"split_conditions":[-3.1087857E-2,-6.156598E-2,-6.627431E-2,-2.2923885E-1,-1.1102997E-2,-1.6511923E-1,3.1225687E-2,-2.0474513E-1,-4.6069747E-1,1.2654078E-1,-5.456904E-2,1.0681798E-2,4.1236803E-2,1.3801856E-2,8.673255E-4,-0E0,2.0131734E-1,1.4501563E-2,-1.4439641E-1,-1.2699367E-1,-5.5700666E-1,-1.1007418E-1,-2.264115E-1,3.9115794E-2,9.647468E-2,1.0146943E-2,-4.884816E-1,1.8241059E-2,1.6626072E-1,1.4023943E-1,-6.661364E-2,1.436574E-1,-1.7492004E-1,-0E0,1.838495E-1,-4.107909E-1,-2.662175E-1,-4.5820162E-1,1.251675E-1,1.7560141E-2,-2.1110971E-1,1.6858788E-1,-2.236383E-1],"split_indices":[26,33,33,12,40,8,37,0,23,50,19,12,51,4,3,0,0,4,0,23,0,23,0,24,0,4,0,22,23,0,0,0,0,0,0,0,0,0,0,0,0,0,0],"split_type":[0,0,0,0,0,0,0,0,0,0,0,0,0,0,0,0,0,0,0,0,0,0,0,0,0,0,0,0,0,0,0,0,0,0,0,0,0,0,0,0,0,0,0],"sum_hessian":[5.148967E3,1.9794564E3,3.1695105E3,1.1745236E3,8.0493286E2,2.687994E2,2.9007112E3,3.7706547E0,1.1707529E3,7.6458563E2,4.034724E1,9.196542E1,1.76834E2,2.1926575E3,7.080538E2,1.1380784E1,1.1593721E3,7.524043E2,1.2181344E1,2.5202696E1,1.5144546E1,8.7719055E1,4.246374E0,1.6680789E2,1.0026096E1,2.1775444E3,1.5113063E1,5.3465454E2,1.7339922E2,7.3569E2,1.6714296E1,2.172551E1,3.4771855E0,1.3454793E1,7.426426E1,1.0361267E2,6.319523E1,1.5377311E1,2.162167E3,3.6626254E2,1.6839201E2,1.6555894E2,7.8402767E0],"tree_param":{"num_deleted":"0","num_feature":"64","num_nodes":"43","size_leaf_vector":"0"}},{"base_weights":[4.6895042E-1,7.325023E-1,2.8682008E-1,6.0697556E-1,9.4233775E-1,5.068976E-1,6.41032E-2,-2.5662775E0,6.2997556E-1,9.6537375E-1,-1.5197277E0,5.260568E-1,-3.3465364E0,1.7551577E-1,-6.940839E-1,-2.1796458E0,6.497263E-1,9.9233925E-1,-0E0,5.485777E-1,-2.506112E0,-1.9292018E-1,3.6810762E-1,-3.078391E0,-0E0,7.5094724E-1,3.71652E-1,-0E0,1.0003623E0,-1.3469582E0,4.6325818E-1,-8.179357E-1,5.665362E-1,-3.5216815E0,-5.4778997E-2,7.177198E-1,-6.812811E-2,-1.0103995E0,-3.5147457E0,3.991515E-1,-2.1750495E0],"categories":[],"categories_nodes":[],"categories_segments":[],"categories_sizes":[],"default_left":[true,true,false,true,false,true,true,false,false,false,false,true,false,true,false,false,false,true,true,false,false,true,false,false,false,false,false,false,false,false,false,false,false,false,false,false,false,false,false,false,false],"id":14,"left_children":[1,3,5,7,9,11,13,-1,15,17,-1,19,-1,21,23,-1,25,27,29,31,-1,33,35,37,39,-1,-1,-1,-1,-1,-1,-1,-1,-1,-1,-1,-1,-1,-1,-1,-1],"loss_changes":[2.1606018E2,4.155139E1,1.3123808E2,7.687613E1,3.6114807E1,8.665433E1,1.132191E2,0E0,5.777527E1,2.135736E1,0E0,8.303375E1,0E0,8.610422E1,2.8730414E2,0E0,2.7390259E1,1.0507202E0,1.2482432E1,3.1894684E1,0E0,1.6762164E2,1.2490818E2,1.2526337E1,1.1015128E2,0E0,0E0,0E0,0E0,0E0,0E0,0E0,0E0,0E0,0E0,0E0,0E0,0E0,0E0,0E0,0E0],"parents":[2147483647,0,0,1,1,2,2,3,3,4,4,5,5,6,6,8,8,9,9,11,11,13,13,14,14,16,16,17,17,18,18,19,19,21,21,22,22,23,23,24,24],"right_children":[2,4,6,8,10,12,14,-1,16,18,-1,20,-1,22,24,-1,26,28,30,32,-1,34,36,38,40,-1,-1,-1,-1,-1,-1,-1,-1,-1,-1,-1,-1,-1,-1,-1,-1],"split_conditions":[-1.5651459E-2,1.23549625E-2,-5.2527323E-2,-3.772924E-2,-2.2036135E-3,3.462033E-2,-1.5165628E-2,-5.1325554E-1,-1.1593916E-3,1.5694547E-2,-3.0394554E-1,3.7875857E-2,-6.693073E-1,5.99275E-2,7.2582886E-2,-4.3592915E-1,-2.5307357E-2,-3.7014088E-1,1.8851068E-2,-6.760858E-2,-5.0122243E-1,-8.524265E-3,4.6584763E-2,-6.5721005E-2,-1.4855592E-2,1.5018944E-1,7.4330404E-2,-0E0,2.0007245E-1,-2.6939163E-1,9.2651635E-2,-1.6358714E-1,1.1330724E-1,-7.0433635E-1,-1.0955799E-2,1.4354396E-1,-1.3625622E-2,-2.0207989E-1,-7.0294917E-1,7.9830304E-2,-4.3500993E-1],"split_indices":[45,4,23,1,19,58,59,0,61,4,0,6,0,6,23,0,15,23,5,27,0,9,23,33,46,0,0,0,0,0,0,0,0,0,0,0,0,0,0,0,0],"split_type":[0,0,0,0,0,0,0,0,0,0,0,0,0,0,0,0,0,0,0,0,0,0,0,0,0,0,0,0,0,0,0,0,0,0,0,0,0,0,0,0,0],"sum_hessian":[4.607359E3,1.8716022E3,2.7357566E3,1.1859673E3,6.856349E2,1.3647397E3,1.3710168E3,6.969802E0,1.1789976E3,6.812913E2,4.343595E0,1.359279E3,5.4607463E0,1.2011128E3,1.6990404E2,6.4629183E0,1.1725345E3,6.664564E2,1.4834897E1,1.3508944E3,8.384556E0,4.0341058E2,7.977023E2,3.8954906E1,1.3094914E2,8.4644275E2,3.2609183E2,9.597229E0,6.568592E2,5.812847E0,9.02205E0,1.3911459E1,1.336983E3,1.4631971E1,3.8877863E2,4.491788E2,3.4852344E2,8.783991E0,3.0170916E1,1.11417725E2,1.953141E1],"tree_param":{"num_deleted":"0","num_feature":"64","num_nodes":"41","size_leaf_vector":"0"}},{"base_weights":[4.1659072E-1,2.607336E-1,8.4024286E-1,3.636503E-2,8.14548E-1,1.0060623E0,4.5378682E-1,-1.5293187E0,1.675395E-1,8.421843E-1,-4.221165E-1,-0E0,1.0170773E0,6.0063E-1,-6.768266E-1,-1.77399E0,1.1738888E-1,3.398972E-1,-4.2703313E-1,-5.857096E-1,8.549867E-1,-1.7787902E0,3.6055538E-1,2.4315712E-1,-7.737278E-2,6.826778E-1,-1.266917E0,2.685065E-1,-2.33532E0,-3.3155067E0,-1.6347173E0,6.698966E-1,-1.0331856E0,4.1553977E-1,-8.997689E-1,-2.474732E0,-1.4608406E-1,8.7337506E-1,3.6824784E-1,7.30509E-1,-1.797448E0,5.5046153E-1,-0E0],"categories":[],"categories_nodes":[],"categories_segments":[],"categories_sizes":[],"default_left":[false,false,true,true,true,true,false,true,false,true,false,false,false,false,true,false,false,false,true,false,true,false,false,false,false,false,false,false,false,false,false,false,false,false,false,false,false,false,false,false,false,false,false],"id":15,"left_children":[1,3,5,7,9,11,13,15,17,19,21,23,-1,25,27,29,31,33,35,-1,37,-1,-1,-1,-1,39,-1,41,-1,-1,-1,-1,-1,-1,-1,-1,-1,-1,-1,-1,-1,-1,-1],"loss_changes":[2.7233484E2,3.7905536E2,6.4668274E1,4.4538937E2,3.2278137E1,7.3012695E0,5.710411E1,7.567285E1,2.0806091E2,1.7207336E1,2.338651E1,3.9510402E-1,0E0,4.4634834E1,6.659884E1,7.0806274E0,1.025778E1,1.4609544E2,2.4619135E2,0E0,1.5195923E0,0E0,0E0,0E0,0E0,3.0237411E1,0E0,1.5336797E0,0E0,0E0,0E0,0E0,0E0,0E0,0E0,0E0,0E0,0E0,0E0,0E0,0E0,0E0,0E0],"parents":[2147483647,0,0,1,1,2,2,3,3,4,4,5,5,6,6,7,7,8,8,9,9,10,10,11,11,13,13,14,14,15,15,16,16,17,17,18,18,20,20,25,25,27,27],"right_children":[2,4,6,8,10,12,14,16,18,20,22,24,-1,26,28,30,32,34,36,-1,38,-1,-1,-1,-1,40,-1,42,-1,-1,-1,-1,-1,-1,-1,-1,-1,-1,-1,-1,-1,-1,-1],"split_conditions":[-2.03447E-2,-2.390433E-3,-6.1683938E-2,-6.656497E-2,2.460607E-2,-1.8080616E-2,-1.1118837E-2,6.613365E-2,1.1324042E-2,-7.3007695E-2,-1.0985271E-2,-5.6156397E-2,2.0341547E-1,6.4618356E-4,-1.3205446E-2,-1.2628596E-1,-1.6318586E-2,1.3099611E-2,2.1106424E-2,-1.1714192E-1,2.0012245E-2,-3.5575804E-1,7.211108E-2,4.8631426E-2,-1.5474557E-2,-1.166191E-2,-2.533834E-1,-3.6649108E-2,-4.67064E-1,-6.631014E-1,-3.269435E-1,1.3397932E-1,-2.0663713E-1,8.3107956E-2,-1.7995378E-1,-4.949464E-1,-2.9216811E-2,1.7467502E-1,7.364957E-2,1.461018E-1,-3.5948962E-1,1.10092305E-1,-0E0],"split_indices":[26,20,33,33,38,57,40,43,12,33,40,42,0,11,20,8,45,4,30,0,5,0,0,0,0,42,0,43,0,0,0,0,0,0,0,0,0,0,0,0,0,0,0],"split_type":[0,0,0,0,0,0,0,0,0,0,0,0,0,0,0,0,0,0,0,0,0,0,0,0,0,0,0,0,0,0,0,0,0,0,0,0,0,0,0,0,0,0,0],"sum_hessian":[4.2078315E3,3.084777E3,1.1230546E3,2.201788E3,8.82989E2,7.768066E2,3.4624808E2,1.6726112E2,2.0345269E3,8.676426E2,1.5346459E1,9.676401E0,7.671301E2,3.10361E2,3.5887066E1,1.4826758E2,1.8993551E1,1.5838127E3,4.5071414E2,4.239554E0,8.63403E2,7.9516096E0,7.3948493E0,6.345186E0,3.3312147E0,2.9986423E2,1.049676E1,2.0937824E1,1.4949242E1,9.310877E0,1.389567E2,1.5767586E1,3.225965E0,1.49653E3,8.72827E1,5.223104E1,3.984831E2,8.220737E2,4.1329292E1,2.9616843E2,3.6958163E0,1.0043328E1,1.0894496E1],"tree_param":{"num_deleted":"0","num_feature":"64","num_nodes":"43","size_leaf_vector":"0"}},{"base_weights":[3.7480202E-1,2.4268182E-1,8.559934E-1,3.2875088E-1,-5.306099E-1,9.1496676E-1,-2.8051826E-1,6.0217553E-1,1.3879263E-1,1.806727E-1,-1.1515995E0,5.905557E-1,9.991189E-1,-1.6276618E0,5.888015E-1,6.346448E-1,-2.255874E0,-8.5245356E-2,5.371007E-1,-2.6136076E0,3.9797926E-1,-1.7620242E0,6.075276E-1,-0E0,7.227447E-1,4.0322313E-1,9.3415475E-1,-7.219037E-1,1.4352484E-1,-3.163208E0,5.665806E-1,-4.8883204E0,-2.1516138E-1,-1.0607004E0,7.3210293E-1,8.195395E-1,-1.2074408E-1,-2.9988394E0,5.9239274E-1,-0E0,7.678524E-1],"categories":[],"categories_nodes":[],"categories_segments":[],"categories_sizes":[],"default_left":[false,true,false,false,false,true,true,true,true,true,true,false,false,false,false,true,false,true,false,true,true,false,true,true,true,false,false,false,false,false,false,false,false,false,false,false,false,false,false,false,false],"id":16,"left_children":[1,3,5,7,9,11,13,15,17,19,21,23,-1,-1,-1,25,-1,27,29,31,33,-1,35,37,39,-1,-1,-1,-1,-1,-1,-1,-1,-1,-1,-1,-1,-1,-1,-1,-1],"loss_changes":[2.3682764E2,1.9856903E2,5.765869E1,1.3674527E2,1.349389E2,1.326416E1,4.726017E1,9.3762085E1,1.4560727E2,6.9998146E1,1.7864307E2,1.1270416E1,0E0,0E0,0E0,6.866553E1,0E0,1.5146384E2,5.097516E1,1.7988205E1,5.9546143E1,0E0,9.571582E0,5.613268E1,5.1123886E0,0E0,0E0,0E0,0E0,0E0,0E0,0E0,0E0,0E0,0E0,0E0,0E0,0E0,0E0,0E0,0E0],"parents":[2147483647,0,0,1,1,2,2,3,3,4,4,5,5,6,6,7,7,8,8,9,9,10,10,11,11,15,15,17,17,18,18,19,19,20,20,22,22,23,23,24,24],"right_children":[2,4,6,8,10,12,14,16,18,20,22,24,-1,-1,-1,26,-1,28,30,32,34,-1,36,38,40,-1,-1,-1,-1,-1,-1,-1,-1,-1,-1,-1,-1,-1,-1,-1,-1],"split_conditions":[2.0043316E0,2.0787437E-2,1.3117549E-2,-1.5651459E-2,-2.379008E-2,-4.699881E-1,2.2348482E-2,3.4947526E-2,1.2383582E-3,1.0734879E-2,-5.766208E-4,-2.4026423E-3,1.9982378E-1,-3.2553238E-1,1.177603E-1,1.235961E-2,-4.511748E-1,-5.584828E-2,-5.8896482E-2,1.1225732E-1,3.1061957E-2,-3.5240483E-1,-7.8113616E-2,6.758663E-2,-5.205188E-1,8.064463E-2,1.8683095E-1,-1.4438073E-1,2.870497E-2,-6.326416E-1,1.1331612E-1,-9.776641E-1,-4.3032277E-2,-2.1214008E-1,1.4642058E-1,1.639079E-1,-2.4148816E-2,-5.9976786E-1,1.1847855E-1,-0E0,1.5357049E-1],"split_indices":[26,5,55,45,25,28,5,24,19,55,45,61,0,0,0,4,0,39,52,28,5,0,63,39,0,0,0,0,0,0,0,0,0,0,0,0,0,0,0,0,0],"split_type":[0,0,0,0,0,0,0,0,0,0,0,0,0,0,0,0,0,0,0,0,0,0,0,0,0,0,0,0,0,0,0,0,0,0,0,0,0,0,0,0,0],"sum_hessian":[3.8115706E3,2.9986304E3,8.129401E2,2.7041216E3,2.9450882E2,7.770201E2,3.592001E1,1.0977319E3,1.6063896E3,1.3352144E2,1.6098737E2,1.722816E2,6.047385E2,1.6344044E1,1.9575966E1,1.0871309E3,1.0601065E1,1.0200723E3,5.863174E2,7.9742303E0,1.2554722E2,1.2162521E2,3.9362156E1,3.5681015E1,1.3660059E2,6.2269135E2,4.6443958E2,2.7542673E2,7.4464557E2,3.2936404E0,5.8302374E2,3.022744E0,4.951486E0,2.0609232E1,1.0493798E2,3.580446E1,3.557697E0,5.046357E0,3.0634659E1,6.906914E0,1.2969368E2],"tree_param":{"num_deleted":"0","num_feature":"64","num_nodes":"41","size_leaf_vector":"0"}},{"base_weights":[3.329086E-1,2.1006446E-1,8.296205E-1,7.4057907E-1,2.2640968E-2,9.879898E-1,2.65629E-1,7.7322805E-1,-4.7649366E-1,-1.2796797E0,1.20201066E-1,1.0054747E0,-0E0,4.105154E-1,-2.1573524E0,-1.401966E0,7.915886E-1,-1.5983284E0,2.516463E-1,1.14714526E-1,-1.6017104E0,2.5983125E-1,-3.997657E-1,-2.1772878E-1,1.0432614E-1,6.2595093E-1,-6.522239E-2,-1.9374956E-1,8.0342996E-1,-1.0193642E0,6.6724735E-1,4.4438937E-1,-7.5418234E-2,-1.1612153E0,2.1496192E-1,7.4311715E-1,-7.9581404E-1,6.059291E-1,-2.239714E0],"categories":[],"categories_nodes":[],"categories_segments":[],"categories_sizes":[],"default_left":[false,true,true,true,true,false,false,false,false,false,false,false,false,false,false,false,true,false,false,true,false,false,true,false,false,false,true,false,false,false,false,false,false,false,false,false,false,false,false],"id":17,"left_children":[1,3,5,7,9,11,13,15,17,19,21,-1,23,25,-1,-1,27,-1,-1,29,-1,31,33,-1,-1,35,37,-1,-1,-1,-1,-1,-1,-1,-1,-1,-1,-1,-1],"loss_changes":[2.0858981E2,2.762858E2,5.5061096E1,3.0429474E1,2.5956888E2,9.354004E0,4.6542503E1,2.5440521E1,1.9010578E1,7.119232E1,1.4063051E2,0E0,2.2822277E-1,1.8230639E1,0E0,0E0,1.1329315E1,0E0,0E0,1.3106548E1,0E0,9.726022E1,1.9407074E2,0E0,0E0,1.8200253E1,6.608215E1,0E0,0E0,0E0,0E0,0E0,0E0,0E0,0E0,0E0,0E0,0E0,0E0],"parents":[2147483647,0,0,1,1,2,2,3,3,4,4,5,5,6,6,7,7,8,8,9,9,10,10,12,12,13,13,16,16,19,19,21,21,22,22,25,25,26,26],"right_children":[2,4,6,8,10,12,14,16,18,20,22,-1,24,26,-1,-1,28,-1,-1,30,-1,32,34,-1,-1,36,38,-1,-1,-1,-1,-1,-1,-1,-1,-1,-1,-1,-1],"split_conditions":[2.0043316E0,-1.40083395E-2,-6.241808E-2,2.4534697E-2,-6.656497E-2,1.3180824E-2,-2.206529E-3,-1.4144862E-2,1.23126656E-1,-9.843392E-2,-1.4003877E-2,2.0109494E-1,6.1848893E0,-1.1138563E-2,-4.3147048E-1,-2.803932E-1,-7.3007695E-2,-3.1966567E-1,5.0329264E-2,-1.1579688E-1,-3.203421E-1,-1.6572047E-2,6.897263E-2,-4.3545756E-2,2.0865228E-2,-8.167217E-3,1.5932875E-2,-3.8749915E-2,1.60686E-1,-2.0387284E-1,1.3344948E-1,8.887788E-2,-1.5083647E-2,-2.3224306E-1,4.2992383E-2,1.4862344E-1,-1.591628E-1,1.2118582E-1,-4.479428E-1],"split_indices":[26,20,33,38,33,55,29,20,14,14,45,0,60,40,0,0,33,0,0,0,0,57,9,0,0,15,37,0,0,0,0,0,0,0,0,0,0,0,0],"split_type":[0,0,0,0,0,0,0,0,0,0,0,0,0,0,0,0,0,0,0,0,0,0,0,0,0,0,0,0,0,0,0,0,0,0,0,0,0,0,0],"sum_hessian":[3.5036824E3,2.8170508E3,6.866317E2,7.284492E2,2.0886016E3,5.291739E2,1.5745782E2,7.134194E2,1.5029842E1,1.4198651E2,1.946615E3,5.2018195E2,8.991914E0,1.5052075E2,6.9370785E0,3.6920884E0,7.097273E2,8.618404E0,6.4114385E0,2.3726076E1,1.1826043E2,1.5421161E3,4.0449884E2,3.5692387E0,5.422675E0,1.108382E2,3.9682545E1,3.4137447E0,7.0631354E2,4.8081236E0,1.8917953E1,1.00420544E3,5.379107E2,1.8431972E2,2.2017911E2,1.0564857E2,5.189635E0,2.8566254E1,1.1116291E1],"tree_param":{"num_deleted":"0","num_feature":"64","num_nodes":"39","size_leaf_vector":"0"}},{"base_weights":[2.9486775E-1,7.0600474E-1,1.7227326E-1,7.364682E-1,-4.3412215E-1,4.352087E-1,-2.8676115E-2,-1.4100318E-1,7.552284E-1,-1.4708067E0,2.1230151E-1,5.1908815E-1,-1.5885766E-1,1.19860545E-1,-5.470466E-1,1.2097146E-2,-1.4284285E0,7.6363045E-1,-0E0,5.407263E-1,-2.0840178E0,3.341445E-1,-1.9298974E0,4.984552E-1,-9.749178E-2,-1.3892758E0,-1.8242279E-2,-0E0,7.693691E-1,1.8015282E-1,6.4961314E-1,-7.0073617E-1,4.859262E-1,-0E0,-6.364769E0,-3.038619E0,5.587915E-1,-3.1900454E-1,7.734883E-1,-4.853059E0,-4.6413028E-1,-5.5423373E-1,3.1515732E-1],"categories":[],"categories_nodes":[],"categories_segments":[],"categories_sizes":[],"default_left":[true,true,true,false,false,false,false,false,true,false,false,true,false,false,true,false,false,true,false,false,false,true,false,false,true,false,false,false,false,false,false,false,false,false,false,false,false,false,false,false,false,false,false],"id":18,"left_children":[1,3,5,7,9,11,13,15,17,-1,-1,19,21,23,25,-1,-1,27,-1,29,-1,31,33,35,37,39,41,-1,-1,-1,-1,-1,-1,-1,-1,-1,-1,-1,-1,-1,-1,-1,-1],"loss_changes":[1.5806348E2,2.6899567E1,1.3370978E2,1.4860962E1,1.6177826E1,5.613318E1,1.1007057E2,8.936993E0,3.8230896E0,0E0,0E0,4.6515778E1,1.1932782E2,9.104826E1,1.3535455E2,0E0,0E0,3.0902405E0,0E0,3.341629E1,0E0,1.4248838E1,2.5067302E2,7.361675E1,1.2873741E2,3.5688348E2,3.694375E1,0E0,0E0,0E0,0E0,0E0,0E0,0E0,0E0,0E0,0E0,0E0,0E0,0E0,0E0,0E0,0E0],"parents":[2147483647,0,0,1,1,2,2,3,3,4,4,5,5,6,6,7,7,8,8,11,11,12,12,13,13,14,14,17,17,19,19,21,21,22,22,23,23,24,24,25,25,26,26],"right_children":[2,4,6,8,10,12,14,16,18,-1,-1,20,22,24,26,-1,-1,28,-1,30,-1,32,34,36,38,40,42,-1,-1,-1,-1,-1,-1,-1,-1,-1,-1,-1,-1,-1,-1,-1,-1],"split_conditions":[-1.3964308E-2,2.4534697E-2,-1.5457943E-2,-1.4130184E-2,1.23126656E-1,2.4683949E-2,-1.8579658E-2,-3.0783536E-2,8.6515166E-2,-2.9416135E-1,4.2460304E-2,-2.3780417E-2,-5.9371166E-2,-2.4015764E-2,1.141851E-2,2.4194294E-3,-2.8568572E-1,-2.3947773E0,-0E0,-1.7104445E-2,-4.1680357E-1,-5.124228E-1,-1.6710637E-2,-5.8453627E-2,9.200291E-2,-1.5040707E-2,-6.3282116E-3,-0E0,1.5387383E-1,3.6030564E-2,1.2992263E-1,-1.4014724E-1,9.718525E-2,-0E0,-1.2729539E0,-6.0772383E-1,1.1175831E-1,-6.380091E-2,1.5469766E-1,-9.7061175E-1,-9.282606E-2,-1.1084675E-1,6.3031465E-2],"split_indices":[20,38,45,20,14,19,43,29,24,0,0,16,33,25,28,0,0,28,0,3,0,35,57,52,52,3,43,0,0,0,0,0,0,0,0,0,0,0,0,0,0,0,0],"split_type":[0,0,0,0,0,0,0,0,0,0,0,0,0,0,0,0,0,0,0,0,0,0,0,0,0,0,0,0,0,0,0,0,0,0,0,0,0,0,0,0,0,0,0],"sum_hessian":[3.2231104E3,7.3095856E2,2.4921519E3,7.1620746E2,1.4751152E1,1.090349E3,1.4018029E3,9.412922E0,7.067945E2,8.636102E0,6.115051E0,9.628198E2,1.2752913E2,1.0820895E3,3.1971332E2,4.941553E0,4.471369E0,6.9788275E2,8.911731E0,9.5678735E2,6.032465E0,9.755083E1,2.9978302E1,4.0304706E2,6.790425E2,1.1966579E2,2.0004755E2,5.151509E0,6.9273126E2,2.325682E2,7.242191E2,8.263876E0,8.928695E1,2.103422E1,8.944082E0,5.370078E0,3.9767697E2,5.459372E2,1.3310529E2,2.4085209E1,9.558058E1,8.246665E1,1.1758089E2],"tree_param":{"num_deleted":"0","num_feature":"64","num_nodes":"43","size_leaf_vector":"0"}},{"base_weights":[2.5829437E-1,1.4917834E-1,6.587776E-1,3.7700918E-1,-1.1668695E-2,6.9171166E-1,-3.7991124E-1,4.407742E-1,-8.272493E-2,-9.3443274E-2,6.0923564E-1,-0E0,7.0497227E-1,-1.2958864E0,1.7765106E-1,1.6772436E-1,5.671802E-1,-3.7814143E0,8.3749704E-2,6.082062E-2,-6.108164E-1,-5.3220484E-3,8.4740424E-1,7.6291776E-1,3.7293303E-1,3.745773E-1,-2.3803196E0,7.2655394E-3,6.250988E-1,5.694272E-1,-5.4408675E-1,-9.9497855E-2,4.960025E-1,8.953171E-2,-1.3055239E0,3.8769764E-1,-2.1890767E0,-0E0,9.295343E-1,-0E0,7.70846E-1,5.601806E-1,-2.2851846E0],"categories":[],"categories_nodes":[],"categories_segments":[],"categories_sizes":[],"default_left":[false,true,true,true,true,false,false,true,false,false,false,false,false,false,false,false,false,false,false,false,true,false,false,false,false,false,false,false,false,false,false,false,false,false,false,false,false,false,false,false,false,false,false],"id":19,"left_children":[1,3,5,7,9,11,13,15,17,19,21,-1,23,-1,-1,25,27,-1,29,31,33,35,37,39,41,-1,-1,-1,-1,-1,-1,-1,-1,-1,-1,-1,-1,-1,-1,-1,-1,-1,-1],"loss_changes":[1.2795778E2,8.9177216E1,2.3348389E1,3.1084305E1,6.771022E1,8.981079E0,1.3205846E1,2.6944534E1,8.7554054E1,1.0094748E2,2.6749466E1,0E0,6.1908264E0,0E0,0E0,1.445305E2,1.609732E1,0E0,3.2461884E1,6.758664E1,1.471941E2,4.0887638E1,8.654823E0,2.8882446E0,4.338179E1,0E0,0E0,0E0,0E0,0E0,0E0,0E0,0E0,0E0,0E0,0E0,0E0,0E0,0E0,0E0,0E0,0E0,0E0],"parents":[2147483647,0,0,1,1,2,2,3,3,4,4,5,5,6,6,7,7,8,8,9,9,10,10,12,12,15,15,16,16,18,18,19,19,20,20,21,21,22,22,23,23,24,24],"right_children":[2,4,6,8,10,12,14,16,18,20,22,-1,24,-1,-1,26,28,-1,30,32,34,36,38,40,42,-1,-1,-1,-1,-1,-1,-1,-1,-1,-1,-1,-1,-1,-1,-1,-1,-1,-1],"split_conditions":[-7.3121507E-3,-2.4227507E-2,2.4534697E-2,-4.7465757E-2,7.6955676E-2,-8.894401E-3,1.2075456E-1,-1.3736415E-1,-3.9929353E-2,-1.4002506E-2,-1.0662843E-2,-0E0,-1.4454585E-2,-2.591773E-1,3.5530213E-2,1.0762151E-3,-1.2970464E-2,-7.5628287E-1,-5.733242E-2,-5.093434E-2,-7.237698E-2,1.3902336E-1,1.848473E-2,-4.1507542E-2,1.497363E-2,7.491546E-2,-4.7606394E-1,1.4531079E-3,1.2501977E-1,1.1388544E-1,-1.08817354E-1,-1.9899571E-2,9.92005E-2,1.7906344E-2,-2.611048E-1,7.7539526E-2,-4.3781534E-1,-0E0,1.8590687E-1,-0E0,1.541692E-1,1.12036124E-1,-4.5703694E-1],"split_indices":[20,25,38,53,53,44,14,23,53,45,3,0,45,0,0,38,20,0,39,39,1,27,38,36,38,0,0,0,0,0,0,0,0,0,0,0,0,0,0,0,0,0,0],"split_type":[0,0,0,0,0,0,0,0,0,0,0,0,0,0,0,0,0,0,0,0,0,0,0,0,0,0,0,0,0,0,0,0,0,0,0,0,0,0,0,0,0,0,0],"sum_hessian":[3.0205984E3,2.3836357E3,6.3696265E2,9.992869E2,1.3843488E3,6.220528E2,1.4909874E1,8.871195E2,1.1216742E2,1.2303601E3,1.5398859E2,5.110473E0,6.169423E2,9.034846E0,5.875028E0,2.9324203E2,5.938775E2,6.124716E0,1.0604271E2,9.403223E2,2.900378E2,3.714585E1,1.16842735E2,5.124535E2,1.0448883E2,2.7303873E2,2.0203293E1,6.3765667E1,5.301118E2,6.4280716E1,4.176199E1,6.787758E2,2.615465E2,1.4084846E2,1.4918936E2,2.9539812E1,7.6060414E0,9.718615E0,1.07124115E2,5.6263714E0,5.0682712E2,9.936989E1,5.1189485E0],"tree_param":{"num_deleted":"0","num_feature":"64","num_nodes":"43","size_leaf_vector":"0"}},{"base_weights":[2.2453693E-1,7.471981E-2,7.312458E-1,-8.652438E-1,1.4108855E-1,9.1212994E-1,1.8581703E-1,5.408278E-1,-1.3240182E0,3.7586096E-1,-1.3171743E-1,-0E0,9.3990886E-1,3.374122E-1,-1.9090035E0,-0E0,7.0018584E-1,1.3255544E-1,-1.5270841E0,6.675749E-1,1.6520628E-1,6.207745E-4,-1.3485763E0,-5.884659E-1,-0E0,9.509386E-1,-0E0,4.8957744E-1,-6.841347E-1,7.303052E-1,-4.5370603E-1,2.5914252E-1,-2.0361261E0,-1.8051188E0,9.2300266E-2,-2.5631962E0,3.6822125E-1,9.586065E-1,-0E0,6.543384E-1,-1.8100028E-1,-1.8674576E0,2.7521753E-1],"categories":[],"categories_nodes":[],"categories_segments":[],"categories_sizes":[],"default_left":[false,true,true,false,false,true,false,true,false,false,false,false,true,true,false,false,false,false,false,false,false,false,true,false,false,false,false,false,true,false,false,false,false,false,false,false,false,false,false,false,false,false,false],"id":20,"left_children":[1,3,5,7,9,11,13,15,17,19,21,23,25,27,-1,-1,-1,-1,-1,29,31,33,35,-1,-1,37,-1,39,41,-1,-1,-1,-1,-1,-1,-1,-1,-1,-1,-1,-1,-1,-1],"loss_changes":[2.1196974E2,1.338523E2,5.7817993E1,9.446103E1,1.3336871E2,1.5831665E1,4.507715E1,3.1749563E0,3.9069122E1,6.458717E1,1.588376E2,1.9228456E0,4.4797363E0,2.3535698E1,0E0,0E0,0E0,0E0,0E0,3.368126E1,1.27512985E2,1.3184532E2,2.1188477E2,0E0,0E0,2.7805786E0,0E0,1.7998886E1,2.6329967E1,0E0,0E0,0E0,0E0,0E0,0E0,0E0,0E0,0E0,0E0,0E0,0E0,0E0,0E0],"parents":[2147483647,0,0,1,1,2,2,3,3,4,4,5,5,6,6,7,7,8,8,9,9,10,10,11,11,12,12,13,13,19,19,20,20,21,21,22,22,25,25,27,27,28,28],"right_children":[2,4,6,8,10,12,14,16,18,20,22,24,26,28,-1,-1,-1,-1,-1,30,32,34,36,-1,-1,38,-1,40,42,-1,-1,-1,-1,-1,-1,-1,-1,-1,-1,-1,-1,-1,-1],"split_conditions":[-2.03447E-2,-6.818861E-2,-3.26566E-2,-2.0374545E-1,-2.3892451E-2,-1.8008817E-2,-2.3740824E-2,-6.766043E-1,-1.8681753E-2,-1.6548177E-2,-1.6586794E-2,1.3700716E0,-1.0630526E-3,1.2913406E-2,-3.818007E-1,-0E0,1.4003716E-1,2.6511088E-2,-3.0541682E-1,-1.04391575E-2,1.1870764E-2,-5.5859767E-2,-1.6379248E-2,-1.17693186E-1,-0E0,-8.205946E-3,-0E0,-1.1133466E-2,1.864289E-1,1.4606105E-1,-9.074121E-2,5.1828504E-2,-4.0722522E-1,-3.6102375E-1,1.8460054E-2,-5.126392E-1,7.364425E-2,1.917213E-1,-0E0,1.3086769E-1,-3.6200058E-2,-3.7349153E-1,5.5043507E-2],"split_indices":[26,33,33,8,25,57,42,35,57,57,57,8,26,26,0,0,0,0,0,40,30,33,57,0,0,40,0,40,56,0,0,0,0,0,0,0,0,0,0,0,0,0,0],"split_type":[0,0,0,0,0,0,0,0,0,0,0,0,0,0,0,0,0,0,0,0,0,0,0,0,0,0,0,0,0,0,0,0,0,0,0,0,0,0,0,0,0,0,0],"sum_hessian":[2.8453315E3,2.203652E3,6.416796E2,1.4036478E2,2.0632874E3,4.7498886E2,1.6669077E2,3.185023E1,1.0851454E2,1.1187969E3,9.444904E2,9.740884E0,4.6524796E2,1.5766771E2,9.023048E0,6.371961E0,2.5478268E1,1.0264642E1,9.82499E1,4.5918436E2,6.596125E2,8.4814264E2,9.634779E1,5.552669E0,4.188215E0,4.5947183E2,5.776128E0,1.4148697E2,1.6180748E1,4.3907913E2,2.0105198E1,6.347956E2,2.4816927E1,3.8345394E1,8.0979724E2,5.813217E1,3.8215626E1,4.5517654E2,4.2953057E0,1.1956588E2,2.1921087E1,9.578231E0,6.6025176E0],"tree_param":{"num_deleted":"0","num_feature":"64","num_nodes":"43","size_leaf_vector":"0"}},{"base_weights":[1.9748417E-1,6.719549E-2,7.00529E-1,5.977584E-1,-7.998879E-2,2.6921916E-1,9.2153525E-1,7.136206E-1,1.7373182E-1,4.0339717E-1,-1.9704977E-1,3.6779192E-1,-1.0753831E0,9.48433E-1,-0E0,-2.7161738E-1,7.4305093E-1,-3.4499197E0,4.398318E-1,5.754868E-1,-2.0847335E0,7.705039E-2,-4.8469406E-1,-1.0052373E-1,5.5122113E-1,9.640595E-1,-0E0,-0E0,-5.2027047E-1,-0E0,7.774713E-1,-4.988286E0,-3.1752536E-1,6.77905E-1,-1.1692859E-1,-1.15644254E-1,8.3848625E-1,-0E0,-3.1210215E0,3.6707503E-1,-1.8850327E-1,-3.021037E0,-3.778422E-1,3.6748904E-1,-1.9384097E0,6.099239E-1,-0E0],"categories":[],"categories_nodes":[],"categories_segments":[],"categories_sizes":[],"default_left":[false,true,true,true,false,false,true,false,false,false,true,false,false,false,true,false,true,false,false,false,false,false,false,false,true,false,false,false,false,false,false,false,false,false,false,false,false,false,false,false,false,false,false,false,false,false,false],"id":21,"left_children":[1,3,5,7,9,11,13,15,17,19,21,23,-1,25,27,-1,29,31,33,35,37,39,41,43,45,-1,-1,-1,-1,-1,-1,-1,-1,-1,-1,-1,-1,-1,-1,-1,-1,-1,-1,-1,-1,-1,-1],"loss_changes":[1.7023097E2,1.6793892E2,4.537451E1,1.8516617E1,9.234617E1,2.1658178E1,1.0643463E1,1.2728546E1,9.0560555E1,1.26641975E2,1.0743713E2,1.7765862E1,0E0,4.2789917E0,8.65341E-1,0E0,6.4300537E0,3.382553E0,1.6499773E1,5.7235E1,5.441474E1,5.2927326E1,1.6219731E2,4.4971535E1,5.9343033E0,0E0,0E0,0E0,0E0,0E0,0E0,0E0,0E0,0E0,0E0,0E0,0E0,0E0,0E0,0E0,0E0,0E0,0E0,0E0,0E0,0E0,0E0],"parents":[2147483647,0,0,1,1,2,2,3,3,4,4,5,5,6,6,7,7,8,8,9,9,10,10,11,11,13,13,14,14,16,16,17,17,18,18,19,19,20,20,21,21,22,22,23,23,24,24],"right_children":[2,4,6,8,10,12,14,16,18,20,22,24,-1,26,28,-1,30,32,34,36,38,40,42,44,46,-1,-1,-1,-1,-1,-1,-1,-1,-1,-1,-1,-1,-1,-1,-1,-1,-1,-1,-1,-1,-1,-1],"split_conditions":[-1.6839828E-2,-1.4008075E-2,-1.0317648E-1,-2.8523922E-2,-1.6007451E-2,1.3663778E-2,-1.0630526E-3,-8.795656E-3,-7.303534E-2,2.1990169E-2,-1.5630528E-2,-2.4009838E-3,-2.1507661E-1,1.5482782E-2,-3.87839E-2,-5.4323476E-2,-1.586342E-1,1.9531272E-2,-1.4871065E-2,1.19761005E-2,-1.752873E-1,1.23570785E-2,1.2062214E-2,-5.9010973E-3,1.2743946E-2,1.9281189E-1,-0E0,-0E0,-1.0405409E-1,-0E0,1.5549426E-1,-9.9765724E-1,-6.3505076E-2,1.35581E-1,-2.3385718E-2,-2.312885E-2,1.6769725E-1,-0E0,-6.2420434E-1,7.3415E-2,-3.7700653E-2,-6.0420746E-1,-7.556844E-2,7.349781E-2,-3.8768193E-1,1.2198478E-1,-0E0],"split_indices":[26,20,28,34,45,55,26,44,63,19,59,61,0,55,6,0,60,22,45,4,60,4,4,29,26,0,0,0,0,0,0,0,0,0,0,0,0,0,0,0,0,0,0,0,0,0,0],"split_type":[0,0,0,0,0,0,0,0,0,0,0,0,0,0,0,0,0,0,0,0,0,0,0,0,0,0,0,0,0,0,0,0,0,0,0,0,0,0,0,0,0,0,0,0,0,0,0],"sum_hessian":[2.6558867E3,2.1174153E3,5.3847144E2,4.6720996E2,1.6502054E3,1.9010043E2,3.48371E2,3.5768378E2,1.0952617E2,3.13391E2,1.3368145E3,1.8058064E2,9.5197935E0,3.407238E2,7.6472E0,5.446873E0,3.522369E2,6.207314E0,1.03318855E2,2.9499725E2,1.8393717E1,6.7562225E2,6.611922E2,4.3151493E1,1.3742915E2,3.3437164E2,6.352134E0,4.450301E0,3.196899E0,1.9860548E1,3.3237637E2,3.0923777E0,3.114936E0,7.86628E1,2.4656048E1,7.607357E1,2.1892369E2,4.6005735E0,1.3793144E1,3.3193155E2,3.436907E2,2.4837225E1,6.363549E2,3.222497E1,1.092652E1,1.282003E2,9.228855E0],"tree_param":{"num_deleted":"0","num_feature":"64","num_nodes":"47","size_leaf_vector":"0"}},{"base_weights":[1.7123367E-1,6.861934E-2,7.1944547E-1,-7.855685E-1,1.2118111E-1,9.5035475E-1,8.492832E-2,-1.2035217E0,5.0897515E-1,4.584958E-1,-2.894637E-3,9.774113E-1,-0E0,3.4315905E-1,-7.1859217E-1,2.6245496E-1,-1.4496938E0,7.008261E-1,-0E0,6.201429E-2,7.611288E-1,6.3052887E-1,-1.4840794E-1,-0E0,9.84607E-1,-3.9232805E-1,4.7511914E-1,-2.092183E0,-0E0,2.5652477E-1,-1.5689403E0,2.4542697E-2,9.18432E-1,7.084915E-1,-1.337507E0,-5.175827E0,-1.2059165E-1,-0E0,-2.0006704E0,6.661462E-1,-0E0,2.5670502E-1,-5.9040165E-1],"categories":[],"categories_nodes":[],"categories_segments":[],"categories_sizes":[],"default_left":[false,true,true,false,false,false,false,false,false,false,false,true,false,true,false,false,false,false,false,true,false,false,true,false,false,false,false,false,false,false,false,false,false,false,false,false,false,false,false,false,false,false,false],"id":22,"left_children":[1,3,5,7,9,11,13,15,17,19,21,23,-1,25,27,-1,-1,-1,-1,29,31,33,35,-1,-1,37,39,-1,41,-1,-1,-1,-1,-1,-1,-1,-1,-1,-1,-1,-1,-1,-1],"loss_changes":[1.3754013E2,9.213751E1,5.1796875E1,6.717338E1,8.6335754E1,7.73909E0,2.0849573E1,3.9108124E1,2.8934402E0,6.1990257E1,1.3192836E2,5.710449E-1,0E0,8.915972E0,2.2888292E1,0E0,0E0,0E0,0E0,7.1364685E1,3.0658844E1,3.7645844E1,1.4016093E2,0E0,0E0,1.0915837E1,7.0970592E0,0E0,1.9409034E0,0E0,0E0,0E0,0E0,0E0,0E0,0E0,0E0,0E0,0E0,0E0,0E0,0E0,0E0],"parents":[2147483647,0,0,1,1,2,2,3,3,4,4,5,5,6,6,7,7,8,8,9,9,10,10,11,11,13,13,14,14,19,19,20,20,21,21,22,22,25,25,26,26,28,28],"right_children":[2,4,6,8,10,12,14,16,18,20,22,24,-1,26,28,-1,-1,-1,-1,30,32,34,36,-1,-1,38,40,-1,42,-1,-1,-1,-1,-1,-1,-1,-1,-1,-1,-1,-1,-1,-1],"split_conditions":[2.0043316E0,-6.818861E-2,-6.241808E-2,1.4074588E-2,-1.577773E-2,1.3180824E-2,-2.9899878E-2,-3.484168E-2,9.309018E-3,1.216176E-2,-3.7034374E-2,-4.6629258E-2,-0E0,-5.1964775E-2,1.3242857E-2,5.249099E-2,-2.8993878E-1,1.4016522E-1,-0E0,-1.5557518E-2,-3.4241565E-2,2.0066548E-2,-3.777743E-2,-0E0,1.969214E-1,-3.197264E-2,4.812825E-2,-4.1843662E-1,-3.2259293E-2,5.1304955E-2,-3.1378806E-1,4.9085394E-3,1.836864E-1,1.416983E-1,-2.675014E-1,-1.0351654E0,-2.411833E-2,-0E0,-4.001341E-1,1.3322924E-1,-0E0,5.1341005E-2,-1.1808033E-1],"split_indices":[26,33,33,55,45,55,42,55,12,4,43,5,0,52,4,0,0,0,0,59,43,12,2,0,0,15,33,0,33,0,0,0,0,0,0,0,0,0,0,0,0,0,0],"split_type":[0,0,0,0,0,0,0,0,0,0,0,0,0,0,0,0,0,0,0,0,0,0,0,0,0,0,0,0,0,0,0,0,0,0,0,0,0,0,0,0,0,0,0],"sum_hessian":[2.515012E3,2.126158E3,3.8885388E2,1.1773331E2,2.0084248E3,2.793241E2,1.09529785E2,9.1918945E1,2.5814365E1,5.509364E2,1.4574884E3,2.7217462E2,7.14947E0,8.760002E1,2.1929768E1,1.029576E1,8.1623184E1,1.9506582E1,6.307783E0,2.456415E2,3.0529495E2,2.658546E2,1.1916338E3,3.374583E0,2.6880002E2,7.5620832E0,8.003794E1,7.815963E0,1.4113805E1,2.2220645E2,2.343504E1,5.931817E1,2.4597676E2,2.5816803E2,7.6865726E0,5.567858E0,1.1860659E3,4.5441566E0,3.017927E0,5.670904E1,2.3328896E1,1.05378475E1,3.5759573E0],"tree_param":{"num_deleted":"0","num_feature":"64","num_nodes":"43","size_leaf_vector":"0"}},{"base_weights":[1.4903592E-1,5.9744455E-2,6.8354404E-1,3.0705282E-1,-8.218223E-2,9.0007806E-1,-0E0,6.3543457E-1,-7.851003E-3,-9.8368275E-1,3.0356133E-3,9.3740284E-1,-0E0,2.0559677E-1,-1.316263E0,8.607606E-1,3.972977E-1,5.5389464E-2,-2.5974915E0,-4.6743866E-2,-1.413857E0,4.4334346E-1,-1.1743829E-1,-0E0,9.5867735E-1,-2.577661E-1,-0E0,5.174285E-1,-5.4130476E-2,-0E0,8.887232E-1,-2.4455903E0,5.4745245E-1,3.439746E-1,-4.9484295E-1,-3.962508E0,-0E0,-1.5154296E0,1.3750467E-1,-1.6308845E0,-0E0,7.8322667E-1,-0E0,-1.6968187E0,-6.846526E-2,-0E0,6.669286E-1,-2.5009143E0,3.7755862E-1],"categories":[],"categories_nodes":[],"categories_segments":[],"categories_sizes":[],"default_left":[false,false,true,false,true,false,false,true,true,false,false,true,false,false,false,false,true,false,true,true,true,false,false,false,false,false,false,true,false,false,false,false,false,false,false,false,false,false,false,false,false,false,false,false,false,false,false,false,false],"id":23,"left_children":[1,3,5,7,9,11,13,15,17,19,21,23,25,27,-1,29,31,33,35,37,39,41,43,-1,-1,-1,-1,45,47,-1,-1,-1,-1,-1,-1,-1,-1,-1,-1,-1,-1,-1,-1,-1,-1,-1,-1,-1,-1],"loss_changes":[1.10522736E2,7.339416E1,4.8067413E1,8.2102264E1,1.0441901E2,1.0141663E1,2.047206E1,1.4184708E1,7.527627E1,3.9830208E1,6.414019E1,3.2207642E0,2.64718E-1,8.167561E0,0E0,5.7273865E0,7.4306564E1,5.8163055E1,4.9402657E1,1.7836674E1,2.0114044E1,3.684147E1,6.205064E1,0E0,0E0,0E0,0E0,5.031419E0,4.300834E1,0E0,0E0,0E0,0E0,0E0,0E0,0E0,0E0,0E0,0E0,0E0,0E0,0E0,0E0,0E0,0E0,0E0,0E0,0E0,0E0],"parents":[2147483647,0,0,1,1,2,2,3,3,4,4,5,5,6,6,7,7,8,8,9,9,10,10,11,11,12,12,13,13,15,15,16,16,17,17,18,18,19,19,20,20,21,21,22,22,27,27,28,28],"right_children":[2,4,6,8,10,12,14,16,18,20,22,24,26,28,-1,30,32,34,36,38,40,42,44,-1,-1,-1,-1,46,48,-1,-1,-1,-1,-1,-1,-1,-1,-1,-1,-1,-1,-1,-1,-1,-1,-1,-1,-1,-1],"split_conditions":[2.0043316E0,-2.441086E-2,-4.9688816E-2,-1.6438749E-2,-5.8257923E-2,1.4683612E-2,1.2261998E-2,4.425068E-3,-2.9195864E-2,-6.249828E-2,-1.4901953E-2,-1.1510987E0,2.9097836E0,-1.4455955E-2,-2.632526E-1,-3.1461097E-2,-1.6165021E-1,-1.0032952E-2,3.5144694E-2,-1.7095983E-2,1.5779825E-2,-1.496667E-2,-5.160679E-2,-0E0,1.9173548E-1,-5.155322E-2,-0E0,-5.1964775E-2,-4.7142664E-3,-0E0,1.7774464E-1,-4.8911807E-1,1.0949049E-1,6.879492E-2,-9.896859E-2,-7.925016E-1,-0E0,-3.0308592E-1,2.7500933E-2,-3.261769E-1,-0E0,1.5664534E-1,-0E0,-3.3936375E-1,-1.3693052E-2,-0E0,1.3338572E-1,-5.0018287E-1,7.5511724E-2],"split_indices":[26,25,33,57,33,55,55,38,52,53,46,28,60,45,0,26,10,41,1,3,55,45,19,0,0,0,0,52,3,0,0,0,0,0,0,0,0,0,0,0,0,0,0,0,0,0,0,0,0],"split_type":[0,0,0,0,0,0,0,0,0,0,0,0,0,0,0,0,0,0,0,0,0,0,0,0,0,0,0,0,0,0,0,0,0,0,0,0,0,0,0,0,0,0,0,0,0,0,0,0,0],"sum_hessian":[2.3935962E3,2.058989E3,3.3460696E2,7.6361444E2,1.2953746E3,2.5231009E2,8.229688E1,3.815803E2,3.8203415E2,1.16942215E2,1.1784325E3,2.4415892E2,8.151182E0,7.224329E1,1.0053593E1,1.8527551E2,1.963048E2,3.710423E2,1.0991831E1,4.0454247E1,7.648797E1,2.620812E2,9.1635126E2,7.2118945E0,2.3694702E2,3.9841144E0,4.167068E0,4.1576725E1,3.0666565E1,4.224089E0,1.8105142E2,8.177665E0,1.8812714E2,2.4935042E2,1.2169189E2,7.869589E0,3.1222415E0,7.5342593E0,3.2919987E1,6.504771E1,1.1440266E1,1.4403014E2,1.1805108E2,2.4488844E1,8.918624E2,5.238873E0,3.6337852E1,6.336145E0,2.433042E1],"tree_param":{"num_deleted":"0","num_feature":"64","num_nodes":"49","size_leaf_vector":"0"}},{"base_weights":[1.2841526E-1,6.478669E-3,4.798487E-1,-1.2054489E-1,5.0857085E-1,9.4817847E-1,2.5629288E-1,-8.5150665E-3,-8.163494E-1,5.5798197E-1,-1.0669534E0,-0E0,9.6465987E-1,-2.0230682E0,2.9713893E-1,5.052613E-1,-2.4773419E-1,5.429757E-1,-1.4097773E0,6.436474E-1,9.068785E-2,-0E0,4.9904978E-1,-5.756444E-1,7.313483E-1,-1.3907494E-1,-2.449873E0,-2.5146177E-1,7.058312E-1,6.7774445E-2,-1.9329544E0,-0E0,6.7666537E-1,-2.28613E0,4.6440026E-1,-4.5764717E-1,5.062222E-1,5.604588E-1,-6.3168615E-1],"categories":[],"categories_nodes":[],"categories_segments":[],"categories_sizes":[],"default_left":[false,false,true,false,true,false,false,false,true,false,false,false,false,false,false,false,false,true,true,true,false,false,false,false,false,false,false,false,false,false,false,false,false,false,false,false,false,false,false],"id":24,"left_children":[1,3,5,7,9,11,13,15,17,19,-1,-1,-1,-1,21,23,25,27,29,31,33,35,37,-1,-1,-1,-1,-1,-1,-1,-1,-1,-1,-1,-1,-1,-1,-1,-1],"loss_changes":[9.507747E1,1.10354065E2,5.423935E1,1.0100877E2,2.4792877E1,1.6069641E0,2.8316248E1,1.4224852E2,1.5021764E2,1.0081566E1,0E0,0E0,0E0,0E0,2.4138489E1,8.982467E1,1.7931502E2,9.0510435E0,1.0862088E2,9.16819E0,4.620064E1,3.6105247E1,1.6023445E1,0E0,0E0,0E0,0E0,0E0,0E0,0E0,0E0,0E0,0E0,0E0,0E0,0E0,0E0,0E0,0E0],"parents":[2147483647,0,0,1,1,2,2,3,3,4,4,5,5,6,6,7,7,8,8,9,9,14,14,15,15,16,16,17,17,18,18,19,19,20,20,21,21,22,22],"right_children":[2,4,6,8,10,12,14,16,18,20,-1,-1,-1,-1,22,24,26,28,30,32,34,36,38,-1,-1,-1,-1,-1,-1,-1,-1,-1,-1,-1,-1,-1,-1,-1,-1],"split_conditions":[-3.023528E-2,-7.3121507E-3,-6.755401E-2,1.4726287E-2,1.9846197E-2,-2.0451944E-1,-1.5360802E-2,-1.6798194E-2,-4.711779E-3,1.3407709E-2,-2.133907E-1,-0E0,1.9293198E-1,-4.0461364E-1,-1.1809729E-2,6.221638E-3,1.4855487E-2,-7.880644E-2,-4.8601258E-1,-7.19468E-2,1.7041247E-2,-7.6077227E-3,1.4026353E-2,-1.15128875E-1,1.4626966E-1,-2.7814988E-2,-4.899746E-1,-5.0292354E-2,1.4116625E-1,1.3554889E-2,-3.865909E-1,-0E0,1.3533308E-1,-4.57226E-1,9.2880055E-2,-9.152944E-2,1.0124444E-1,1.1209176E-1,-1.2633723E-1],"split_indices":[26,20,33,12,12,32,49,57,44,22,0,0,0,0,20,41,22,63,35,33,41,45,4,0,0,0,0,0,0,0,0,0,0,0,0,0,0,0,0],"split_type":[0,0,0,0,0,0,0,0,0,0,0,0,0,0,0,0,0,0,0,0,0,0,0,0,0,0,0,0,0,0,0,0,0,0,0,0,0,0,0],"sum_hessian":[2.2754539E3,1.6998765E3,5.7557733E2,1.34871E3,3.5116647E2,1.7874873E2,3.968286E2,1.1678613E3,1.8084865E2,3.4356525E2,7.6012344E0,4.328876E0,1.7441985E2,4.8309836E0,3.9199762E2,3.6437772E2,8.0348364E2,5.2398148E1,1.284505E2,2.8129727E2,6.2267963E1,1.5610762E2,2.3589001E2,5.9205425E1,3.0517227E2,7.6786566E2,3.561797E1,3.6909583E0,4.870719E1,3.1089853E1,9.736065E1,6.7588315E0,2.7453845E2,6.6424685E0,5.5625496E1,8.327709E1,7.283053E1,2.2793312E2,7.9568915E0],"tree_param":{"num_deleted":"0","num_feature":"64","num_nodes":"39","size_leaf_vector":"0"}},{"base_weights":[1.1095604E-1,1.4750083E-3,4.151718E-1,-1.3328694E-1,3.7026545E-1,6.1950326E-1,1.3482276E-2,-2.2888884E-3,-8.6709696E-1,5.2244043E-1,-1.2941311E-1,-0E0,7.5729305E-1,6.621956E-1,-2.799237E-1,2.983775E-1,-3.4115168E-1,2.2189227E-1,-1.399073E0,5.684528E-1,-9.787313E-1,-2.2505994E0,4.865903E-1,1.5408242E-1,-1.4665234E0,8.2329017E-1,-0E0,8.4111995E-1,-4.444888E-1,7.5966346E-1,-7.231034E-1,3.6406305E-1,-1.9630587E0,-1.5980453E-3,-2.0999625E0,5.0642043E-1,-1.0873244E0,-1.5347154E-1,-2.0899394E0,6.1273575E-1,-1.376861E-1,-0E0,-2.8182225E0,6.449599E-1,-8.894598E-1,-3.2839277E-1,3.8560447E-1,-0E0,8.4567493E-1,3.100218E-1,-1.0133988E0,9.2985266E-1,-0E0,-0E0,8.084992E-1,5.5615646E-1,-1.3861979E0],"categories":[],"categories_nodes":[],"categories_segments":[],"categories_sizes":[],"default_left":[false,false,false,false,true,true,false,false,false,true,false,false,false,false,true,false,false,false,false,true,false,false,true,false,false,false,false,false,false,true,false,false,false,false,false,false,false,false,false,false,false,false,false,false,false,false,false,false,false,false,false,false,false,false,false,false,false],"id":25,"left_children":[1,3,5,7,9,11,13,15,17,19,21,23,25,27,29,31,33,35,37,39,-1,41,43,45,-1,47,49,51,-1,53,55,-1,-1,-1,-1,-1,-1,-1,-1,-1,-1,-1,-1,-1,-1,-1,-1,-1,-1,-1,-1,-1,-1,-1,-1,-1,-1],"loss_changes":[6.988684E1,8.0758415E1,4.2779915E1,1.0741966E2,3.5302185E1,2.7429611E1,3.940537E1,1.0131916E2,1.0456564E2,2.1691818E1,1.3253342E2,1.017806E1,1.4051712E1,1.5181808E1,5.9864532E1,6.8949356E1,2.7278442E2,1.6770609E1,8.991452E1,1.2905487E1,0E0,3.888407E1,1.4368916E1,7.9040527E0,0E0,6.893448E0,7.134275E0,1.2843704E0,0E0,2.4368668E-1,8.452376E1,0E0,0E0,0E0,0E0,0E0,0E0,0E0,0E0,0E0,0E0,0E0,0E0,0E0,0E0,0E0,0E0,0E0,0E0,0E0,0E0,0E0,0E0,0E0,0E0,0E0,0E0],"parents":[2147483647,0,0,1,1,2,2,3,3,4,4,5,5,6,6,7,7,8,8,9,9,10,10,11,11,12,12,13,13,14,14,15,15,16,16,17,17,18,18,19,19,21,21,22,22,23,23,25,25,26,26,27,27,29,29,30,30],"right_children":[2,4,6,8,10,12,14,16,18,20,22,24,26,28,30,32,34,36,38,40,-1,42,44,46,-1,48,50,52,-1,54,56,-1,-1,-1,-1,-1,-1,-1,-1,-1,-1,-1,-1,-1,-1,-1,-1,-1,-1,-1,-1,-1,-1,-1,-1,-1,-1],"split_conditions":[-3.0403044E-2,-1.0879535E-2,3.408265E-2,-2.2417001E-2,-1.0778501E-2,-9.609045E-1,-1.769281E-2,-1.6572047E-2,-1.4917625E-2,1.9879289E-2,1.2226215E-2,-1.1344841E-2,1.2600401E-2,1.5481184E-2,7.797996E-3,1.3020327E-2,7.533552E-3,-1.19572515E-2,-1.7275251E-2,1.9887716E-2,-1.9574626E-1,-1.6482513E-2,3.1748217E-1,-1.1975605E-2,-2.9330468E-1,-6.0447752E-2,-3.3320088E-2,4.4743963E-2,-8.889776E-2,-1.0658702E0,5.0128186E-3,7.281261E-2,-3.9261174E-1,-3.1960907E-4,-4.199925E-1,1.0128409E-1,-2.1746488E-1,-3.069431E-2,-4.1798788E-1,1.2254715E-1,-2.7537221E-2,-0E0,-5.636445E-1,1.2899199E-1,-1.7789195E-1,-6.567856E-2,7.712089E-2,-0E0,1.6913499E-1,6.2004358E-2,-2.0267975E-1,1.8597053E-1,-0E0,-0E0,1.6169985E-1,1.1123129E-1,-2.772396E-1],"split_indices":[26,20,23,25,20,28,57,57,46,12,55,23,55,55,5,4,41,20,57,5,0,45,34,20,0,19,19,22,0,28,12,0,0,0,0,0,0,0,0,0,0,0,0,0,0,0,0,0,0,0,0,0,0,0,0,0,0],"split_type":[0,0,0,0,0,0,0,0,0,0,0,0,0,0,0,0,0,0,0,0,0,0,0,0,0,0,0,0,0,0,0,0,0,0,0,0,0,0,0,0,0,0,0,0,0,0,0,0,0,0,0,0,0,0,0,0,0],"sum_hessian":[2.1608835E3,1.6011117E3,5.5977167E2,1.1626888E3,4.3842297E2,3.6278354E2,1.9698816E2,9.9235046E2,1.7033833E2,3.4374374E2,9.467924E1,7.217788E1,2.9060565E2,6.665557E1,1.3033258E2,5.1799146E2,4.74359E2,5.2817852E1,1.1752048E2,3.367527E2,6.991057E0,2.3134214E1,7.154502E1,6.819826E1,3.9796226E0,2.666128E2,2.3992863E1,6.1268005E1,5.3875685E0,3.5582634E1,9.474995E1,5.0551913E2,1.2472293E1,3.9998187E2,7.437713E1,4.652565E1,6.2922044E0,4.4509365E1,7.3011116E1,3.2354355E2,1.3209127E1,3.4847555E0,1.9649458E1,6.741932E1,4.1257014E0,1.5111264E1,5.3086994E1,4.2885766E0,2.6232422E2,1.8806026E1,5.186836E0,5.161819E1,9.649814E0,3.7959719E0,3.1786663E1,2.9772202E1,6.4977745E1],"tree_param":{"num_deleted":"0","num_feature":"64","num_nodes":"57","size_leaf_vector":"0"}},{"base_weights":[9.606694E-2,-4.661701E-2,2.7676904E-1,-5.3584417E-3,-1.4150735E0,4.591093E-1,1.9656597E-2,-1.193708E-1,5.2996075E-1,-0E0,-1.827901E0,4.80468E-1,-7.649712E-1,-3.2377727E0,6.516562E-2,-6.363567E-2,-1.7832365E0,7.9632366E-1,-9.3639374E-2,6.6612977E-1,3.4177184E-1,3.116715E-1,-2.6799318E-1,1.799224E-1,-3.0612096E-1,8.824408E-1,-0E0,-1.4896042E0,5.0669396E-1,-0E0,7.7231324E-1,4.3206856E-1,-7.090318E-1,-2.086644E-1,4.7395957E-1,-1.5597714E0,1.254082E-1],"categories":[],"categories_nodes":[],"categories_segments":[],"categories_sizes":[],"default_left":[false,true,true,true,false,false,true,false,false,false,false,false,false,false,false,true,false,false,false,false,false,false,true,false,false,false,false,false,false,false,false,false,false,false,false,false,false],"id":26,"left_children":[1,3,5,7,9,11,13,15,17,-1,-1,19,-1,-1,21,23,-1,25,27,29,31,33,35,-1,-1,-1,-1,-1,-1,-1,-1,-1,-1,-1,-1,-1,-1],"loss_changes":[5.3625496E1,5.623434E1,4.0430008E1,6.46255E1,2.5006691E1,1.2252556E1,4.200895E1,7.500433E1,3.4097355E1,0E0,0E0,8.301781E0,0E0,0E0,3.1961775E1,5.271174E1,0E0,9.804886E0,4.6389233E1,1.2786865E1,2.8216423E1,2.0814283E1,8.6319595E1,0E0,0E0,0E0,0E0,0E0,0E0,0E0,0E0,0E0,0E0,0E0,0E0,0E0,0E0],"parents":[2147483647,0,0,1,1,2,2,3,3,4,4,5,5,6,6,7,7,8,8,11,11,14,14,15,15,17,17,18,18,19,19,20,20,21,21,22,22],"right_children":[2,4,6,8,10,12,14,16,18,-1,-1,20,-1,-1,22,24,-1,26,28,30,32,34,36,-1,-1,-1,-1,-1,-1,-1,-1,-1,-1,-1,-1,-1,-1],"split_conditions":[-1.1739138E-2,3.1849396E-1,-1.1582953E-2,1.4935797E-1,-1.635044E-2,2.008841E-1,-3.3226615E-1,9.5732406E-2,-2.172125E-2,-0E0,-3.655802E-1,-2.5497632E-2,-1.5299425E-1,-6.475546E-1,-3.642205E-2,-1.1679049E-1,-3.566473E-1,1.2857307E-2,1.3789145E-2,-1.1595062E-1,-1.38083305E-2,-1.0423592E-1,1.5058395E-1,3.5984483E-2,-6.1224192E-2,1.7648816E-1,-0E0,-2.9792085E-1,1.013388E-1,-0E0,1.5446265E-1,8.641371E-2,-1.4180636E-1,-4.173288E-2,9.479191E-2,-3.119543E-1,2.508164E-2],"split_indices":[20,34,20,23,45,23,34,23,25,0,0,14,0,0,23,34,0,4,4,60,45,23,13,0,0,0,0,0,0,0,0,0,0,0,0,0,0],"split_type":[0,0,0,0,0,0,0,0,0,0,0,0,0,0,0,0,0,0,0,0,0,0,0,0,0,0,0,0,0,0,0,0,0,0,0,0,0],"sum_hessian":[2.0352228E3,1.1217832E3,9.134396E2,1.0924984E3,2.928476E1,5.230521E2,3.9038745E2,9.0837317E2,1.8412524E2,4.249769E0,2.503499E1,5.180967E2,4.955452E0,3.8650894E0,3.8652237E2,8.818389E2,2.6534243E1,1.3463539E2,4.9489853E1,2.0612422E2,3.1197244E2,2.307771E2,1.5574529E2,4.2965912E2,4.521798E2,1.22230896E2,1.2404491E1,1.7387386E1,3.2102467E1,3.1345064E1,1.7477916E2,2.916674E2,2.0305044E1,4.754062E1,1.8323648E2,3.9325428E1,1.1641985E2],"tree_param":{"num_deleted":"0","num_feature":"64","num_nodes":"37","size_leaf_vector":"0"}},{"base_weights":[8.149719E-2,-1.9380927E-2,3.9089584E-1,1.4564948E-1,-2.7338222E-1,9.192039E-1,1.9836539E-1,4.152895E-1,-8.1345685E-2,-1.2565268E0,-8.9074254E-2,9.4965667E-1,-0E0,-1.1180048E0,2.576306E-1,7.9237187E-1,2.1107371E-1,-1.7464477E0,-0E0,-1.7413574E0,-1.8966696E-1,5.6865677E-2,-1.0942817E0,-2.5766106E0,-0E0,3.2892257E-1,-5.780118E-1,8.254024E-1,-0E0,-1.9583768E0,4.2427516E-1,2.76343E-1,-4.274545E0,-4.780741E-1,1.8870059E-1,-0E0,-1.8651731E0,-1.3084671E0,2.3465317E-1,1.4656632E-1,-1.9242276E0,-2.304181E0,1.8038408E-1,3.8278973E-1,-7.123446E-1,-1.0347562E0,-0E0],"categories":[],"categories_nodes":[],"categories_segments":[],"categories_sizes":[],"default_left":[false,false,true,false,true,false,false,true,true,true,false,false,false,false,false,false,false,true,false,false,true,false,false,false,false,true,true,false,false,false,false,false,false,false,false,false,false,false,false,false,false,false,false,false,false,false,false],"id":27,"left_children":[1,3,5,7,9,11,13,15,17,19,21,-1,-1,23,25,27,29,31,33,35,37,39,41,-1,-1,43,45,-1,-1,-1,-1,-1,-1,-1,-1,-1,-1,-1,-1,-1,-1,-1,-1,-1,-1,-1,-1],"loss_changes":[6.2957058E1,6.2009693E1,4.4610336E1,5.5258606E1,9.9916306E1,3.0059967E0,2.445741E1,2.6574203E1,7.1182076E1,3.618901E1,7.852369E1,0E0,0E0,2.8163778E1,1.9986406E1,4.686653E0,1.19397385E2,1.4449811E2,3.8426823E1,1.5225922E1,2.004551E1,6.791385E1,1.1505931E2,0E0,0E0,1.7080105E1,1.0292205E1,0E0,0E0,0E0,0E0,0E0,0E0,0E0,0E0,0E0,0E0,0E0,0E0,0E0,0E0,0E0,0E0,0E0,0E0,0E0,0E0],"parents":[2147483647,0,0,1,1,2,2,3,3,4,4,5,5,6,6,7,7,8,8,9,9,10,10,13,13,14,14,15,15,16,16,17,17,18,18,19,19,20,20,21,21,22,22,25,25,26,26],"right_children":[2,4,6,8,10,12,14,16,18,20,22,-1,-1,24,26,28,30,32,34,36,38,40,42,-1,-1,44,46,-1,-1,-1,-1,-1,-1,-1,-1,-1,-1,-1,-1,-1,-1,-1,-1,-1,-1,-1,-1],"split_conditions":[-3.0403044E-2,-2.3892451E-2,-6.755401E-2,-1.6498908E-2,-4.7972135E-2,1.3123461E-2,-1.6415637E-2,-1.1883628E-1,-1.6467229E-2,1.3718504E-2,-1.6586794E-2,1.8993133E-1,-0E0,3.376411E-3,1.4026353E-2,1.2976466E-2,-3.1018957E-2,9.353157E-3,-1.2629814E-2,-2.4969053E-2,-7.3981243E-3,-3.06197E-2,-1.0858358E-2,-5.1532215E-1,-0E0,1.2743946E-2,-1.568477E-2,1.6508047E-1,-0E0,-3.9167535E-1,8.4855035E-2,5.5268597E-2,-8.5490906E-1,-9.561482E-2,3.774012E-2,-0E0,-3.7303463E-1,-2.6169345E-1,4.6930637E-2,2.9313264E-2,-3.8484553E-1,-4.6083623E-1,3.6076818E-2,7.655795E-2,-1.4246891E-1,-2.0695125E-1,-0E0],"split_indices":[26,25,33,57,33,55,3,34,57,55,57,0,0,42,4,4,26,30,20,15,50,26,20,0,0,26,57,0,0,0,0,0,0,0,0,0,0,0,0,0,0,0,0,0,0,0,0],"split_type":[0,0,0,0,0,0,0,0,0,0,0,0,0,0,0,0,0,0,0,0,0,0,0,0,0,0,0,0,0,0,0,0,0,0,0,0,0,0,0,0,0,0,0,0,0,0,0],"sum_hessian":[1.9575919E3,1.4640758E3,4.9351608E2,8.755356E2,5.885402E2,1.2487801E2,3.6863806E2,4.1024545E2,4.652901E2,8.863114E1,4.9990912E2,1.2033061E2,4.5473986E0,1.22470045E1,3.5639105E2,1.3552185E2,2.747236E2,2.4347221E1,4.4094287E2,5.7715767E1,3.0915373E1,4.3218823E2,6.772087E1,6.5480113E0,5.698993E0,3.3388907E2,2.250198E1,1.3177148E2,3.7503672E0,2.2483967E1,2.5223964E2,1.2426618E1,1.1920603E1,1.1778248E2,3.231604E2,3.0316613E0,5.4684105E1,1.1741156E1,1.917422E1,4.1588165E2,1.6306576E1,3.6755516E1,3.0965359E1,3.220315E2,1.1857598E1,1.6633722E1,5.8682575E0],"tree_param":{"num_deleted":"0","num_feature":"64","num_nodes":"47","size_leaf_vector":"0"}},{"base_weights":[7.066706E-2,-1.4011291E-2,3.4353524E-1,1.6670117E-1,-1.9942774E-1,9.006718E-1,1.6384919E-1,5.187804E-1,-6.370633E-3,-4.2492932E-1,1.522641E-1,9.3655884E-1,-0E0,-6.649481E-1,2.5471133E-1,-3.9940092E-1,5.8807683E-1,5.0844237E-2,-1.5873848E0,-1.9015208E0,-2.2038978E-1,-8.928686E-1,2.947572E-1,2.6253077E-1,-1.6479456E0,-6.9908315E-1,3.0949378E-1,-1.7224895E0,-0E0,-6.830345E-1,6.474328E-1,-1.2121153E-1,3.966897E-1,-3.0274162E0,-0E0,-2.1535792E0,-0E0,-4.2447276E-2,-1.2877204E0,-0E0,-1.5622289E0,3.5865232E-1,-1.7337449E0,-0E0,3.5416916E-1,-0E0,-2.025111E0,7.468417E-2,-2.392517E0,3.792648E-1,-6.1887383E-1],"categories":[],"categories_nodes":[],"categories_segments":[],"categories_sizes":[],"default_left":[false,false,true,false,false,false,false,true,true,true,true,false,false,true,false,false,false,true,false,false,false,false,false,false,false,false,false,false,false,false,false,false,false,false,false,false,false,false,false,false,false,false,false,false,false,false,false,false,false,false,false],"id":28,"left_children":[1,3,5,7,9,11,13,15,17,19,21,-1,-1,23,25,27,29,31,33,35,37,39,41,43,45,47,49,-1,-1,-1,-1,-1,-1,-1,-1,-1,-1,-1,-1,-1,-1,-1,-1,-1,-1,-1,-1,-1,-1,-1,-1],"loss_changes":[4.4728527E1,4.7372868E1,4.0282753E1,4.52081E1,5.759778E1,2.888626E0,2.4399828E1,1.6224678E1,4.9265125E1,1.22494316E2,3.697508E1,0E0,0E0,3.360934E1,1.4875875E1,1.4482188E1,1.7052887E1,2.7594177E1,4.7407135E1,3.23804E1,6.743148E1,1.3430508E1,2.4279734E1,1.4253682E-1,1.0837425E1,2.8009295E1,1.8845888E1,0E0,0E0,0E0,0E0,0E0,0E0,0E0,0E0,0E0,0E0,0E0,0E0,0E0,0E0,0E0,0E0,0E0,0E0,0E0,0E0,0E0,0E0,0E0,0E0],"parents":[2147483647,0,0,1,1,2,2,3,3,4,4,5,5,6,6,7,7,8,8,9,9,10,10,13,13,14,14,15,15,16,16,17,17,18,18,19,19,20,20,21,21,22,22,23,23,24,24,25,25,26,26],"right_children":[2,4,6,8,10,12,14,16,18,20,22,-1,-1,24,26,28,30,32,34,36,38,40,42,44,46,48,50,-1,-1,-1,-1,-1,-1,-1,-1,-1,-1,-1,-1,-1,-1,-1,-1,-1,-1,-1,-1,-1,-1,-1,-1],"split_conditions":[-3.0403044E-2,-2.4230257E-2,-6.755401E-2,-1.652386E-2,-1.1297645E-2,1.3123461E-2,-6.0416736E-2,1.0394147E-2,-1.1537657E-2,-3.893908E-2,-4.9792856E-2,1.8731177E-1,-0E0,-2.8057564E-3,-4.684292E-3,5.9197027E-2,-6.922498E-2,-2.9311601E-2,-4.699341E-3,1.4670292E-1,-3.0830255E-2,-4.597867E-3,-3.061818E-2,-7.7673206E-3,-5.104974E-3,-5.711758E-2,1.4026353E-2,-3.444979E-1,-0E0,-1.366069E-1,1.2948656E-1,-2.4242306E-2,7.933795E-2,-6.0548323E-1,-0E0,-4.3071586E-1,-0E0,-8.489455E-3,-2.575441E-1,-0E0,-3.124458E-1,7.1730465E-2,-3.4674898E-1,-0E0,7.083383E-2,-0E0,-4.050222E-1,1.4936835E-2,-4.7850344E-1,7.585296E-2,-1.2377477E-1],"split_indices":[26,25,33,57,20,55,27,4,20,47,33,0,0,56,44,29,33,60,43,42,26,44,26,20,29,19,4,0,0,0,0,0,0,0,0,0,0,0,0,0,0,0,0,0,0,0,0,0,0,0,0],"split_type":[0,0,0,0,0,0,0,0,0,0,0,0,0,0,0,0,0,0,0,0,0,0,0,0,0,0,0,0,0,0,0,0,0,0,0,0,0,0,0,0,0,0,0,0,0,0,0,0,0,0,0],"sum_hessian":[1.8644878E3,1.4089338E3,4.55554E2,6.9986145E2,7.090724E2,1.0430828E2,3.5124573E2,2.4017143E2,4.5969003E2,4.4071008E2,2.6836227E2,9.976088E1,4.5473986E0,2.9266193E1,3.2197952E2,1.1790657E1,2.2838077E2,4.4058337E2,1.9106672E1,5.0646046E1,3.9006406E2,2.7988424E1,2.4037386E2,1.2441188E1,1.6825006E1,1.2531354E1,3.0944818E2,5.5150695E0,6.2755876E0,6.43065E0,2.2195012E2,2.845596E2,1.5602377E2,1.0425462E1,8.68121E0,4.6466137E1,4.179911E0,3.3834128E2,5.1722767E1,1.33428955E1,1.4645528E1,2.3542322E2,4.9506474E0,4.4688745E0,7.9723134E0,3.0409312E0,1.3784075E1,6.574664E0,5.95669E0,2.9282672E2,1.6621452E1],"tree_param":{"num_deleted":"0","num_feature":"64","num_nodes":"51","size_leaf_vector":"0"}},{"base_weights":[5.856884E-2,3.8181645E-1,-1.18897585E-2,5.3365123E-1,-3.7742195E-1,-1.0304295E-1,4.3248725E-1,1.20268084E-1,8.195838E-1,-1.9605329E0,-0E0,-1.9316232E-1,4.944333E-1,-1.3201716E0,5.0280404E-1,-1.097001E0,3.12683E-1,9.2478573E-1,-0E0,-0E0,-2.8388536E0,-1.7668875E-1,5.841465E-1,1.079257E-1,-4.015127E-1,6.104415E-1,-3.1839314E-1,-2.7392359E0,-0E0,-0E0,6.9239724E-1,-3.8499546E0,-0E0,6.2862116E-1,-4.9756594E-2,9.5035934E-1,-0E0,-5.6130975E-1,3.1958565E-1,-1.3869042E0,2.4986744E-1,-8.4279785E-3,6.974925E-1,-2.0332363E-1,-1.1444923E0,-0E0,7.267371E-1,-1.1029587E0,-0E0,2.633106E-1,-1.1687437E0,-0E0,7.482782E-1],"categories":[],"categories_nodes":[],"categories_segments":[],"categories_sizes":[],"default_left":[true,true,true,false,true,true,false,false,true,false,false,true,false,true,true,true,true,true,false,false,false,false,false,false,false,false,false,false,false,false,true,false,false,false,false,false,false,false,false,false,false,false,false,false,false,false,false,false,false,false,false,false,false],"id":29,"left_children":[1,3,5,7,9,11,13,15,17,19,21,23,25,27,29,31,33,35,37,-1,-1,39,-1,41,43,45,47,-1,-1,49,51,-1,-1,-1,-1,-1,-1,-1,-1,-1,-1,-1,-1,-1,-1,-1,-1,-1,-1,-1,-1,-1,-1],"loss_changes":[4.2455837E1,3.902707E1,5.7132195E1,2.8629044E1,3.937701E1,6.3831173E1,2.5202625E1,2.4756073E1,1.6007095E1,2.5330353E1,5.8916698E0,6.8069435E1,1.5771244E1,1.3704078E1,2.0103226E1,4.4801025E1,1.5407042E1,3.9015656E0,3.3717175E0,0E0,0E0,1.7303085E1,0E0,3.2558037E1,8.710245E1,1.03424835E1,8.872904E0,0E0,0E0,1.8193785E1,8.569313E0,0E0,0E0,0E0,0E0,0E0,0E0,0E0,0E0,0E0,0E0,0E0,0E0,0E0,0E0,0E0,0E0,0E0,0E0,0E0,0E0,0E0,0E0],"parents":[2147483647,0,0,1,1,2,2,3,3,4,4,5,5,6,6,7,7,8,8,9,9,10,10,11,11,12,12,13,13,14,14,15,15,16,16,17,17,18,18,21,21,23,23,24,24,25,25,26,26,29,29,30,30],"right_children":[2,4,6,8,10,12,14,16,18,20,22,24,26,28,30,32,34,36,38,-1,-1,40,-1,42,44,46,48,-1,-1,50,52,-1,-1,-1,-1,-1,-1,-1,-1,-1,-1,-1,-1,-1,-1,-1,-1,-1,-1,-1,-1,-1,-1],"split_conditions":[-1.5983228E-2,-1.2606088E-2,3.628523E-2,-1.7129377E-2,-1.830681E-2,1.0363637E-1,-1.5817266E-2,-1.2825707E-2,-1.37131605E-2,-1.7821968E-2,-3.0861925E-2,-1.5668035E-2,-8.581808E-2,1.5964031E-2,-3.4591727E-2,-7.05803E-2,-1.5588967E-2,2.949661E-1,-1.483456E-2,-0E0,-5.677707E-1,-4.03181E-3,1.168293E-1,-1.0892366E-2,-1.421998E-2,-3.0974578E-2,6.5028E0,-5.478472E-1,-0E0,1.736698E-2,-3.8363233E-2,-7.699909E-1,-0E0,1.2572424E-1,-9.951319E-3,1.9007187E-1,-0E0,-1.1226195E-1,6.391713E-2,-2.7738085E-1,4.9973488E-2,-1.6855957E-3,1.394985E-1,-4.066473E-2,-2.2889845E-1,-0E0,1.4534742E-1,-2.2059174E-1,-0E0,5.2662123E-2,-2.3374875E-1,-0E0,1.4965564E-1],"split_indices":[45,46,60,3,28,54,45,20,46,57,26,59,60,28,1,28,59,60,31,0,0,31,0,11,45,26,26,0,0,22,50,0,0,0,0,0,0,0,0,0,0,0,0,0,0,0,0,0,0,0,0,0,0],"split_type":[0,0,0,0,0,0,0,0,0,0,0,0,0,0,0,0,0,0,0,0,0,0,0,0,0,0,0,0,0,0,0,0,0,0,0,0,0,0,0,0,0,0,0,0,0,0,0,0,0,0,0,0,0],"sum_hessian":[1.7828838E3,3.3176895E2,1.4511149E3,2.8196606E2,4.980288E1,1.2134556E3,2.3765933E2,1.22438644E2,1.5952742E2,1.2090284E1,3.7712593E1,1.0616864E3,1.5176921E2,6.4243555E0,2.3123499E2,1.3165376E1,1.0927327E2,1.4401349E2,1.5513924E1,3.1808858E0,8.909399E0,2.25055E1,1.5207092E1,4.2439432E2,6.3729205E2,1.3819685E2,1.3572354E1,3.3185945E0,3.105761E0,6.736369E1,1.6387129E2,4.09147E0,9.073906E0,6.575239E1,4.3520885E1,1.4068692E2,3.3265724E0,8.393238E0,7.120685E0,8.919913E0,1.3585588E1,3.4736038E2,7.703395E1,5.0840512E2,1.2888692E2,2.1108198E1,1.1708866E2,8.424694E0,5.14766E0,5.6934116E1,1.0429576E1,8.257171E0,1.5561412E2],"tree_param":{"num_deleted":"0","num_feature":"64","num_nodes":"53","size_leaf_vector":"0"}},{"base_weights":[5.091137E-2,-0E0,4.962465E-1,3.2117108E-1,-8.825293E-2,8.424611E-1,-0E0,-5.89839E-1,4.9731565E-1,4.2364076E-2,-4.8172644E-1,9.0274614E-1,-0E0,2.0086895E-1,-5.6197E-1,6.9178975E-1,-2.4655411E0,7.5227386E-1,-1.6205595E-1,3.4673706E-1,-1.0090951E-1,-1.1891804E0,-1.835063E-1,-0E0,9.264989E-1,3.9707014E-1,-5.6796875E-2,-0E0,-1.0350057E0,-3.1148632E0,-5.010444E-1,8.353731E-1,-0E0,-1.26798E0,5.694994E-1,4.3376914E-1,-7.1420777E-1,-0E0,-2.0843132E0,-1.4946263E0,5.304443E-2,-4.182686E-1,4.068747E-1,-0E0,5.265963E-1,-1.1519243E0,2.4419446E-1,-0E0,-1.8139114E0],"categories":[],"categories_nodes":[],"categories_segments":[],"categories_sizes":[],"default_left":[false,false,true,false,false,false,false,true,true,false,true,true,false,false,false,false,false,true,true,true,true,false,true,false,false,false,false,false,false,false,false,false,false,false,false,false,false,false,false,false,false,false,false,false,false,false,false,false,false],"id":30,"left_children":[1,3,5,7,9,11,13,15,17,19,21,23,-1,25,27,-1,29,31,33,35,37,39,41,-1,-1,43,45,-1,47,-1,-1,-1,-1,-1,-1,-1,-1,-1,-1,-1,-1,-1,-1,-1,-1,-1,-1,-1,-1],"loss_changes":[3.8524696E1,4.4160065E1,2.804919E1,5.354737E1,6.450205E1,6.4524307E0,7.574377E0,1.2890744E2,5.113894E1,4.0503983E1,5.8893158E1,1.1977005E0,0E0,4.6283298E0,8.436717E0,0E0,9.795761E0,1.5508873E1,6.373429E1,2.6245312E1,1.2880424E2,4.0390045E1,3.1134312E1,0E0,0E0,3.5753336E0,9.157302E0,0E0,1.2619852E1,0E0,0E0,0E0,0E0,0E0,0E0,0E0,0E0,0E0,0E0,0E0,0E0,0E0,0E0,0E0,0E0,0E0,0E0,0E0,0E0],"parents":[2147483647,0,0,1,1,2,2,3,3,4,4,5,5,6,6,7,7,8,8,9,9,10,10,11,11,13,13,14,14,16,16,17,17,18,18,19,19,20,20,21,21,22,22,25,25,26,26,28,28],"right_children":[2,4,6,8,10,12,14,16,18,20,22,24,-1,26,28,-1,30,32,34,36,38,40,42,-1,-1,44,46,-1,48,-1,-1,-1,-1,-1,-1,-1,-1,-1,-1,-1,-1,-1,-1,-1,-1,-1,-1,-1,-1],"split_conditions":[2.0043316E0,-1.7145386E-2,-6.241808E-2,6.2945085E-3,1.8744517E-2,1.3180824E-2,-4.120752E-3,-1.24193326E-1,3.0258654E-2,-1.6571458E-2,-8.309284E-2,-1.3835782E0,-0E0,-1.1138563E-2,2.1724606E0,1.3835795E-1,-2.3686184E-2,3.2217726E-2,-5.4548055E-2,1.7096512E-2,-4.8675213E-2,4.228525E-2,-1.4352363E-2,-0E0,1.8529978E-1,-1.7785516E-3,-4.287391E-3,-0E0,-1.9759193E-2,-6.2297267E-1,-1.0020888E-1,1.6707462E-1,-0E0,-2.53596E-1,1.1389988E-1,8.675383E-2,-1.4284156E-1,-0E0,-4.1686264E-1,-2.9892525E-1,1.0608886E-2,-8.365372E-2,8.1374936E-2,-0E0,1.0531926E-1,-2.3038486E-1,4.8838895E-2,-0E0,-3.627823E-1],"split_indices":[26,57,33,41,48,55,29,34,38,57,35,28,0,40,26,0,15,41,63,5,10,14,59,0,0,38,29,0,41,0,0,0,0,0,0,0,0,0,0,0,0,0,0,0,0,0,0,0,0],"split_type":[0,0,0,0,0,0,0,0,0,0,0,0,0,0,0,0,0,0,0,0,0,0,0,0,0,0,0,0,0,0,0,0,0,0,0,0,0,0,0,0,0,0,0,0,0,0,0,0,0],"sum_hessian":[1.7234514E3,1.5488728E3,1.7457858E2,3.3657486E2,1.212298E3,1.0009432E2,7.448427E1,4.9933865E1,2.86641E2,9.006214E2,3.1167657E2,9.508975E1,5.0045667E0,5.7897366E1,1.6586903E1,2.8081015E1,2.185285E1,2.1218047E2,7.4460526E1,2.9942206E2,6.0119934E2,8.745202E1,2.2422455E2,3.417889E0,9.167186E1,4.3885483E1,1.4011886E1,3.821255E0,1.2765647E1,1.4511278E1,7.341571E0,1.9429037E2,1.7890099E1,3.2366074E1,4.2094448E1,2.8107733E2,1.8344727E1,5.701416E2,3.1057753E1,7.342329E1,1.4028734E1,1.6648976E2,5.773479E1,6.040596E0,3.7844887E1,6.602201E0,7.4096847E0,4.773949E0,7.991698E0],"tree_param":{"num_deleted":"0","num_feature":"64","num_nodes":"49","size_leaf_vector":"0"}},{"base_weights":[4.565434E-2,2.828523E-1,-3.4126148E-2,3.796766E-2,7.677005E-1,-1.2852883E-1,4.494294E-1,-7.84583E-1,1.6606128E-1,8.6618626E-1,-0E0,-3.3523986E0,-9.987914E-2,4.8935816E-2,6.986825E-1,-1.9990033E0,-0E0,-2.9251787E-3,5.900635E-1,9.050332E-1,-0E0,-1.0422891E0,-0E0,-1.1322336E-1,-4.391569E0,-3.8661584E-1,1.0135728E-1,3.1996217E-1,-5.840602E-1,8.155144E-1,-0E0,-0E0,-3.0045667E0,3.844508E-1,-0E0,1.1903709E-1,-8.80157E-1,-4.0953764E-1,7.07798E-1,-0E0,9.252768E-1,-8.385995E-2,-1.1784071E0,3.7623549E-1,-1.5486208E-1,5.638818E-1,-1.9078115E-1,-1.8597997E0,-0E0,8.5050094E-1,-0E0,-6.888603E-1,3.8124752E-1],"categories":[],"categories_nodes":[],"categories_segments":[],"categories_sizes":[],"default_left":[true,true,true,false,false,true,true,true,true,true,true,false,true,false,true,false,false,true,false,true,false,false,false,false,false,false,false,false,false,true,false,false,false,false,false,false,false,false,false,false,false,false,false,false,false,false,false,false,false,false,false,false,false],"id":31,"left_children":[1,3,5,7,9,11,13,15,17,19,21,23,25,27,29,31,33,35,37,39,-1,-1,-1,-1,-1,41,43,45,47,49,51,-1,-1,-1,-1,-1,-1,-1,-1,-1,-1,-1,-1,-1,-1,-1,-1,-1,-1,-1,-1,-1,-1],"loss_changes":[3.261723E1,4.7388527E1,5.4308315E1,2.7945211E1,1.472319E1,7.818927E1,1.5369541E1,4.2037174E1,2.157528E1,5.3761215E0,4.7470794E0,2.9424896E0,6.0620636E1,1.2597071E1,6.5513725E0,3.897887E1,1.5160635E0,2.2804613E1,1.1208359E1,2.0157166E0,0E0,0E0,0E0,0E0,0E0,9.756044E1,4.284033E1,9.631091E0,2.101904E1,2.0625725E0,4.19288E0,0E0,0E0,0E0,0E0,0E0,0E0,0E0,0E0,0E0,0E0,0E0,0E0,0E0,0E0,0E0,0E0,0E0,0E0,0E0,0E0,0E0,0E0],"parents":[2147483647,0,0,1,1,2,2,3,3,4,4,5,5,6,6,7,7,8,8,9,9,10,10,11,11,12,12,13,13,14,14,15,15,16,16,17,17,18,18,19,19,25,25,26,26,27,27,28,28,29,29,30,30],"right_children":[2,4,6,8,10,12,14,16,18,20,22,24,26,28,30,32,34,36,38,40,-1,-1,-1,-1,-1,42,44,46,48,50,52,-1,-1,-1,-1,-1,-1,-1,-1,-1,-1,-1,-1,-1,-1,-1,-1,-1,-1,-1,-1,-1,-1],"split_conditions":[-1.577773E-2,1.2357083E-2,4.0931985E-2,-7.072402E-4,1.3725365E-2,-4.4691555E-2,-2.6726402E-2,2.308136E-2,1.1991456E-2,2.9128027E-1,8.341137E-3,-4.0987268E-2,2.4215154E-2,-1.4154119E-2,4.5841377E-2,-3.0060861E-2,-1.6126715E-2,-1.5589283E-2,-1.13235794E-4,-5.3018874E-1,-0E0,-2.0845783E-1,-0E0,-2.2644673E-2,-8.7831384E-1,-1.0875336E-2,-1.4141436E-2,1.06982365E-1,2.3674559E-2,-1.4937908E-2,-1.4496125E-2,-0E0,-6.0091335E-1,7.689016E-2,-0E0,2.380742E-2,-1.760314E-1,-8.190753E-2,1.415596E-1,-0E0,1.8505536E-1,-1.677199E-2,-2.3568141E-1,7.52471E-2,-3.0972416E-2,1.1277636E-1,-3.815623E-2,-3.7195995E-1,-0E0,1.701002E-1,-0E0,-1.3777207E-1,7.62495E-2],"split_indices":[45,4,60,29,4,56,50,28,4,60,12,36,2,46,34,15,45,59,61,47,0,0,0,0,0,8,45,8,19,59,45,0,0,0,0,0,0,0,0,0,0,0,0,0,0,0,0,0,0,0,0,0,0],"split_type":[0,0,0,0,0,0,0,0,0,0,0,0,0,0,0,0,0,0,0,0,0,0,0,0,0,0,0,0,0,0,0,0,0,0,0,0,0,0,0,0,0,0,0,0,0,0,0,0,0,0,0,0,0],"sum_hessian":[1.6578939E3,4.3305023E2,1.2248436E3,2.9457852E2,1.384717E2,1.033431E3,1.9141267E2,3.44331E1,2.6014545E2,1.2839688E2,1.0074815E1,7.565667E0,1.0258654E3,8.112424E1,1.10288445E2,1.582406E1,1.8609041E1,1.7757884E2,8.256659E1,1.2417461E2,4.2222676E0,4.3696847E0,5.70513E0,3.0063062E0,4.559361E0,4.3330554E2,5.9255975E2,6.2333984E1,1.879025E1,9.0802536E1,1.948591E1,4.501664E0,1.1322396E1,1.0257365E1,8.351676E0,1.5089941E2,2.667942E1,4.225173E0,7.8341415E1,3.0196345E0,1.21154976E2,3.1801968E2,1.15285866E2,2.9528528E2,2.972745E2,4.8812077E1,1.3521907E1,7.930048E0,1.0860204E1,8.633702E1,4.465515E0,4.133344E0,1.5352566E1],"tree_param":{"num_deleted":"0","num_feature":"64","num_nodes":"53","size_leaf_vector":"0"}},{"base_weights":[3.9571125E-2,4.180953E-1,-9.638707E-6,-0E0,6.8925476E-1,-6.5098986E-2,3.308697E-1,-1.0712453E0,2.3849295E-1,8.806818E-1,-0E0,-1.2628324E-1,4.2667937E-1,4.259644E-1,-2.9112202E-1,-0E0,-1.7520062E0,-4.233335E-1,4.414274E-1,-0E0,8.989396E-1,-1.0483834E0,9.122987E-2,2.3782405E-1,-1.9677962E-1,5.11974E-1,-5.577795E-1,-0E0,5.224267E-1,-1.4535599E0,2.1668985E-1,-0E0,-2.2645302E0,5.6952035E-1,-0E0,2.2200863E-1,-0E0,4.1513866E-1,-9.432794E-1,-1.1271403E0,-1.0691643E-1,-0E0,6.367291E-1,5.087067E-1,-9.9587065E-1,1.1992002E-1,7.410565E-1,3.4956995E-1,-0E0],"categories":[],"categories_nodes":[],"categories_segments":[],"categories_sizes":[],"default_left":[true,true,true,true,true,true,true,false,false,false,true,false,false,false,true,false,true,false,false,false,false,false,false,true,true,true,false,false,true,false,true,false,false,false,false,false,false,false,false,false,false,false,false,false,false,false,false,false,false],"id":32,"left_children":[1,3,5,7,9,11,13,15,17,19,21,23,25,27,29,-1,31,-1,33,-1,-1,-1,35,37,39,41,-1,43,45,-1,47,-1,-1,-1,-1,-1,-1,-1,-1,-1,-1,-1,-1,-1,-1,-1,-1,-1,-1],"loss_changes":[2.6323416E1,2.0175816E1,2.9950356E1,1.7571346E1,1.708709E1,3.539488E1,1.4048351E1,1.2613552E1,6.6693707E0,3.1924438E-1,5.488505E0,2.801992E1,1.0404844E1,8.35257E0,1.976876E1,0E0,2.863659E0,0E0,4.450592E0,0E0,0E0,0E0,3.7351504E-1,3.230464E1,7.181256E1,9.597664E0,0E0,1.8991484E1,1.0270176E1,0E0,4.185061E-1,0E0,0E0,0E0,0E0,0E0,0E0,0E0,0E0,0E0,0E0,0E0,0E0,0E0,0E0,0E0,0E0,0E0,0E0],"parents":[2147483647,0,0,1,1,2,2,3,3,4,4,5,5,6,6,7,7,8,8,9,9,10,10,11,11,12,12,13,13,14,14,16,16,18,18,22,22,23,23,24,24,25,25,27,27,28,28,30,30],"right_children":[2,4,6,8,10,12,14,16,18,20,22,24,26,28,30,-1,32,-1,34,-1,-1,-1,36,38,40,42,-1,44,46,-1,48,-1,-1,-1,-1,-1,-1,-1,-1,-1,-1,-1,-1,-1,-1,-1,-1,-1,-1],"split_conditions":[-1.6164463E-2,1.1724084E-2,3.628523E-2,-1.1184651E-2,5.0877556E-2,1.0363637E-1,2.0773154E-1,-1.1313718E-2,-5.8849324E-3,-2.2894379E-2,-6.5449867E-3,8.700743E-3,-7.764657E-3,-1.5817266E-2,1.8301413E0,-0E0,-6.1110344E-2,-8.46667E-2,1.000758E-1,-0E0,1.7978792E-1,-2.0967667E-1,1.0954099E-2,-1.9182E-2,-1.247242E-1,-1.0331666E-2,-1.115559E-1,-5.9596676E-2,-2.681352E-2,-2.9071197E-1,1.9994626E0,-0E0,-4.5290604E-1,1.13904074E-1,-0E0,4.4401728E-2,-0E0,8.3027735E-2,-1.8865588E-1,-2.2542806E-1,-2.1383286E-2,-0E0,1.2734583E-1,1.0174134E-1,-1.9917414E-1,2.3984006E-2,1.482113E-1,6.991399E-2,-0E0],"split_indices":[45,4,60,31,60,54,34,40,44,31,9,55,11,45,35,0,33,0,19,0,0,0,55,58,47,47,0,39,50,0,35,0,0,0,0,0,0,0,0,0,0,0,0,0,0,0,0,0,0],"split_type":[0,0,0,0,0,0,0,0,0,0,0,0,0,0,0,0,0,0,0,0,0,0,0,0,0,0,0,0,0,0,0,0,0,0,0,0,0,0,0,0,0,0,0,0,0,0,0,0,0],"sum_hessian":[1.6174437E3,1.6507735E2,1.4523663E3,6.186787E1,1.0320948E2,1.2262535E3,2.2611278E2,1.2883955E1,4.8983913E1,8.524883E1,1.7960651E1,1.0996132E3,1.266404E2,2.0310004E2,2.3012735E1,3.9579027E0,8.926052E0,5.713167E0,4.327075E1,3.032639E0,8.2216194E1,4.894659E0,1.3065991E1,1.668618E2,9.327514E2,1.21216965E2,5.42344E0,3.7474262E1,1.6562578E2,9.990207E0,1.3022529E1,3.0247583E0,5.901294E0,3.9716705E1,3.5540404E0,9.784602E0,3.2813895E0,1.4876204E2,1.8099756E1,7.7257576E1,8.5549384E2,1.9173834E1,1.0204313E2,2.479472E1,1.2679544E1,6.6347305E1,9.927847E1,8.428637E0,4.593892E0],"tree_param":{"num_deleted":"0","num_feature":"64","num_nodes":"49","size_leaf_vector":"0"}},{"base_weights":[3.3750523E-2,-1.1330452E-2,4.8268607E-1,2.9789573E-1,-9.456856E-2,8.188514E-1,-0E0,-4.1955155E-1,4.5501107E-1,-8.766161E-1,-4.022288E-2,8.8402075E-1,-0E0,1.8307686E-1,-2.988634E-1,6.607518E-1,-2.0042727E0,7.3645556E-1,-4.9736407E-2,-0E0,-1.323108E0,8.5812084E-2,-3.1758988E-1,-0E0,9.113752E-1,5.479723E-1,-0E0,1.1097565E-3,-8.6889994E-1,8.0836564E-1,-0E0,5.933117E-1,-9.0741414E-1,2.7429515E-1,-7.026906E-1,-1.426382E0,-0E0,4.099646E-1,-4.388E-2,3.1528056E-1,-5.1887536E-1,-0E0,9.3447846E-1,6.1426646E-1,-0E0,-7.941999E-1,3.260096E-1,-0E0,-1.495726E0],"categories":[],"categories_nodes":[],"categories_segments":[],"categories_sizes":[],"default_left":[false,false,true,false,true,false,false,true,true,true,false,true,false,false,false,false,false,true,false,true,false,false,false,false,false,true,false,false,false,false,false,false,false,false,false,false,false,false,false,false,false,false,false,false,false,false,false,false,false],"id":33,"left_children":[1,3,5,7,9,11,13,15,17,19,21,23,-1,25,27,-1,-1,29,31,33,35,37,39,-1,41,43,45,-1,47,-1,-1,-1,-1,-1,-1,-1,-1,-1,-1,-1,-1,-1,-1,-1,-1,-1,-1,-1,-1],"loss_changes":[3.445801E1,3.5823837E1,2.1104565E1,3.295944E1,4.3886562E1,6.2677383E0,3.237959E0,8.637474E1,3.813756E1,2.982608E1,3.8645653E1,1.200077E0,0E0,3.9533553E0,7.1149354E0,0E0,0E0,9.8148575E0,4.6295887E1,3.0592022E0,6.9466095E0,3.230579E1,4.5275707E1,0E0,4.704132E-1,2.5696278E-1,9.194078E0,0E0,7.370453E0,0E0,0E0,0E0,0E0,0E0,0E0,0E0,0E0,0E0,0E0,0E0,0E0,0E0,0E0,0E0,0E0,0E0,0E0,0E0,0E0],"parents":[2147483647,0,0,1,1,2,2,3,3,4,4,5,5,6,6,7,7,8,8,9,9,10,10,11,11,13,13,14,14,17,17,18,18,19,19,20,20,21,21,22,22,24,24,25,25,26,26,28,28],"right_children":[2,4,6,8,10,12,14,16,18,20,22,24,-1,26,28,-1,-1,30,32,34,36,38,40,-1,42,44,46,-1,48,-1,-1,-1,-1,-1,-1,-1,-1,-1,-1,-1,-1,-1,-1,-1,-1,-1,-1,-1,-1],"split_conditions":[2.0043316E0,-1.7145386E-2,-6.241808E-2,6.2945085E-3,-6.564264E-2,1.3180824E-2,-4.120752E-3,-1.24193326E-1,2.8535295E-2,-8.255018E-2,7.02822E-3,-1.1252012E0,-0E0,-1.4455955E-2,2.1724606E0,1.3215037E-1,-4.0085456E-1,2.7972028E-2,-6.86031E-3,-2.3935555E-2,1.445398E-1,-1.6571295E-2,1.1002062E-2,-0E0,-1.3228592E-1,1.6829005E-2,