{"learner":{"attributes":{"scikit_learn":"{\"use_label_encoder\": true, \"n_estimators\": 100, \"objective\": \"binary:logistic\", \"max_depth\": null, \"learning_rate\": null, \"verbosity\": null, \"booster\": null, \"tree_method\": null, \"gamma\": null, \"min_child_weight\": null, \"max_delta_step\": null, \"subsample\": null, \"colsample_bytree\": null, \"colsample_bylevel\": null, \"colsample_bynode\": null, \"reg_alpha\": null, \"reg_lambda\": null, \"scale_pos_weight\": 4.5, \"base_score\": null, \"missing\": NaN, \"num_parallel_tree\": null, \"kwargs\": {\"eval_metric\": \"logloss\"}, \"random_state\": 42, \"n_jobs\": null, \"monotone_constraints\": null, \"interaction_constraints\": null, \"importance_type\": \"gain\", \"gpu_id\": null, \"validate_parameters\": null, \"classes_\": [0, 1], \"n_classes_\": 2, \"_le\": {\"classes_\": [0, 1]}, \"_features_count\": 64, \"n_features_in_\": 64, \"type\": \"XGBClassifier\"}"},"gradient_booster":{"model":{"gbtree_model_param":{"num_trees":"100","size_leaf_vector":"0"},"tree_info":[0,0,0,0,0,0,0,0,0,0,0,0,0,0,0,0,0,0,0,0,0,0,0,0,0,0,0,0,0,0,0,0,0,0,0,0,0,0,0,0,0,0,0,0,0,0,0,0,0,0,0,0,0,0,0,0,0,0,0,0,0,0,0,0,0,0,0,0,0,0,0,0,0,0,0,0,0,0,0,0,0,0,0,0,0,0,0,0,0,0,0,0,0,0,0,0,0,0,0,0],"trees":[{"base_weights":[-1.2839E0,-2.4385247E-1,-1.5429888E0,1.0615495E0,-9.553536E-1,-1.6800114E0,-2.6850033E-1,-7.2727275E-1,1.6605593E0,-1.174014E0,2.9166666E-1,-1.4226133E0,-1.876237E0,5.882353E-1,-8.886389E-1,-5.2173913E-2,-1.8769231E0,1.8352214E0,-8.108108E-1,-9.1287386E-1,-1.8016E0,1.3816425E0,-9.4054055E-1,-1.9380282E0,-1.2653407E0,1.0588236E0,-1.880612E0,-1.68E0,7.682119E-1,-1.1823205E0,3.815029E-1,-6.666667E-1,1.625E0,2.2222222E-1,1.9470782E0,9.3333334E-1,-1.6923077E0,-6.1733204E-1,-1.4836223E0,1.0588236E0,-1.8571428E0,1.5532995E0,-1.1111112E0,9.3333334E-1,-1.2392638E0,1.0588236E0,-1.9631467E0,-3.882353E-1,-1.4099655E0,-1.8849969E0,1.0588236E0,-9.8039216E-1,9.16221E-1,-1.3372781E0,8.5714287E-1,1.119266E0,-7.777778E-1,-1.1328671E0,1.1794872E0,-1.4285715E0,1.0769231E0,2.6086956E-1,1.9730942E0,-4.6153846E-1,-1.8571428E0,-1.597536E0,2E-1,-1.9709091E0,-8.108108E-1,-1E0,1.7037038E0,1.0588236E0,-1.4285715E0,-1.9884726E0,-3.2258064E-1,-1.0300602E0,1.3227513E0,-1.5342618E0,-4.4067797E-1,4.7619048E-1,-1.889336E0,1.0588236E0,-1.6190476E0,1.0018349E0,-1.3333334E0,-6.770428E-1,-1.7096019E0,1.4782609E0,-1.1111112E0,-1.1111112E0,1.4343435E0,7.5E-1,-1.6666666E0],"categories":[],"categories_nodes":[],"categories_segments":[],"categories_sizes":[],"default_left":[true,true,false,true,false,true,false,false,false,false,false,false,false,false,true,false,false,false,true,true,false,true,false,false,false,false,false,false,true,true,false,false,false,false,true,false,false,false,false,false,false,false,false,false,false,false,false,false,false,false,false,true,false,false,false,false,false,false,false,false,false,false,false,false,false,false,false,false,false,false,false,false,false,false,false,false,false,false,false,false,false,false,false,false,false,false,false,false,false,false,false,false,false],"id":0,"left_children":[1,3,5,7,9,11,13,15,17,19,21,23,25,27,29,31,-1,33,35,37,39,41,43,45,47,-1,49,-1,51,53,55,57,-1,59,61,-1,-1,63,65,-1,67,69,-1,-1,71,-1,73,75,77,79,-1,81,83,85,87,89,91,-1,-1,-1,-1,-1,-1,-1,-1,-1,-1,-1,-1,-1,-1,-1,-1,-1,-1,-1,-1,-1,-1,-1,-1,-1,-1,-1,-1,-1,-1,-1,-1,-1,-1,-1,-1],"loss_changes":[6.573867E2,4.5426614E2,3.407837E2,1.8617917E2,8.660962E1,8.6433105E1,1.01933624E2,3.405169E1,5.7441254E1,4.2502655E1,6.576714E1,5.9741577E1,1.4804932E1,3.425511E1,4.1902596E1,3.0713408E1,0E0,2.146643E1,1.580097E1,3.1512848E1,1.4378601E1,1.2797764E1,1.4101322E1,1.5440186E1,7.438995E1,0E0,1.4843018E1,0E0,2.0438362E1,2.9746994E1,1.9365852E1,2.0055943E1,0E0,1.4236874E1,4.458832E0,0E0,0E0,2.3939075E1,1.2761719E1,0E0,7.5678406E0,1.116037E1,0E0,0E0,1.03766575E1,0E0,6.6867065E0,9.470558E1,6.0376526E1,1.1100342E1,0E0,1.0016806E1,1.4841362E1,1.9614426E1,1.0200138E1,1.1168566E1,1.3472221E1,0E0,0E0,0E0,0E0,0E0,0E0,0E0,0E0,0E0,0E0,0E0,0E0,0E0,0E0,0E0,0E0,0E0,0E0,0E0,0E0,0E0,0E0,0E0,0E0,0E0,0E0,0E0,0E0,0E0,0E0,0E0,0E0,0E0,0E0,0E0,0E0],"parents":[2147483647,0,0,1,1,2,2,3,3,4,4,5,5,6,6,7,7,8,8,9,9,10,10,11,11,12,12,13,13,14,14,15,15,17,17,18,18,19,19,20,20,21,21,22,22,23,23,24,24,26,26,28,28,29,29,30,30,31,31,33,33,34,34,37,37,38,38,40,40,41,41,44,44,46,46,47,47,48,48,49,49,51,51,52,52,53,53,54,54,55,55,56,56],"right_children":[2,4,6,8,10,12,14,16,18,20,22,24,26,28,30,32,-1,34,36,38,40,42,44,46,48,-1,50,-1,52,54,56,58,-1,60,62,-1,-1,64,66,-1,68,70,-1,-1,72,-1,74,76,78,80,-1,82,84,86,88,90,92,-1,-1,-1,-1,-1,-1,-1,-1,-1,-1,-1,-1,-1,-1,-1,-1,-1,-1,-1,-1,-1,-1,-1,-1,-1,-1,-1,-1,-1,-1,-1,-1,-1,-1,-1,-1],"split_conditions":[-3.1087857E-2,-6.354368E-2,1.759026E2,-3.6405563E-2,-3.0228177E-3,2.0947453E-2,-2.4970677E-2,-6.0939E-2,1.3180824E-2,-1.1137235E-2,-1.5624804E-2,-6.627567E-2,-2.5265304E-2,-7.210468E-2,2.0609166E-2,-3.1095777E-2,-5.63077E-1,-1.3484247E-1,-1.6690013E-1,-6.580954E-2,-1.6496385E-2,-9.771207E-3,-4.631031E-2,-1.654393E-2,-1.601433E-2,3.176471E-1,3.8577013E-2,-5.04E-1,-3.9512493E-2,5.782609E-1,-1.6807107E-2,-6.5666705E-2,4.875E-1,-8.1618756E-2,-1.0276721E-1,2.8E-1,-5.0769234E-1,1.4512425E-2,-1.1140335E-2,3.176471E-1,2.684332E-1,-8.27077E-2,-3.3333337E-1,2.8E-1,-9.1938496E-2,3.176471E-1,-2.5830895E-3,-2.5673974E-2,4.7123108E-2,-2.116473E-2,3.176471E-1,-4.308778E-1,1.9594955E-1,-1.4880614E-2,1.3888689E-2,-3.0970791E-2,8.910899E-2,-3.3986014E-1,3.538462E-1,-4.2857146E-1,3.2307696E-1,7.826087E-2,5.919283E-1,-1.3846155E-1,-5.5714285E-1,-4.792608E-1,6.0000002E-2,-5.912728E-1,-2.4324325E-1,-3E-1,5.1111114E-1,3.176471E-1,-4.2857146E-1,-5.965418E-1,-9.67742E-2,-3.0901808E-1,3.968254E-1,-4.6027857E-1,-1.322034E-1,1.4285715E-1,-5.6680083E-1,3.176471E-1,-4.8571432E-1,3.0055046E-1,-4.0000004E-1,-2.0311284E-1,-5.1288056E-1,4.434783E-1,-3.3333337E-1,-3.3333337E-1,4.3030307E-1,2.2500001E-1,-5E-1],"split_indices":[26,33,20,48,20,24,15,41,55,40,45,33,7,33,50,26,0,8,8,63,45,58,12,45,45,0,57,0,50,32,57,33,0,63,5,0,0,4,40,0,8,12,0,0,14,0,20,43,14,57,0,0,8,45,38,26,36,0,0,0,0,0,0,0,0,0,0,0,0,0,0,0,0,0,0,0,0,0,0,0,0,0,0,0,0,0,0,0,0,0,0,0,0],"split_type":[0,0,0,0,0,0,0,0,0,0,0,0,0,0,0,0,0,0,0,0,0,0,0,0,0,0,0,0,0,0,0,0,0,0,0,0,0,0,0,0,0,0,0,0,0,0,0,0,0,0,0,0,0,0,0,0,0,0,0,0,0,0,0,0,0,0,0,0,0,0,0,0,0,0,0,0,0,0,0,0,0,0,0,0,0,0,0,0,0,0,0,0,0],"sum_hessian":[2.44E3,4.87E2,1.953E3,1.71625E2,3.15375E2,1.763125E3,1.89875E2,4.3E1,1.28625E2,2.68375E2,4.7E1,7.6625E2,9.96875E2,7.975E1,1.10125E2,2.775E1,1.525E1,1.20375E2,8.25E0,1.9125E2,7.7125E1,2.4875E1,2.2125E1,1.765E2,5.8975E2,1.125E0,9.9575E2,5.25E0,7.45E1,8.95E1,2.0625E1,2.075E1,7E0,8E0,1.12375E2,2.75E0,5.5E0,1.27375E2,6.3875E1,1.125E0,7.6E1,2.3625E1,1.25E0,2.75E0,1.9375E1,1.125E0,1.75375E2,8.4E1,5.0575E2,9.94625E2,1.125E0,5.375E0,6.9125E1,8.35E1,6E0,1.2625E1,8E0,1.6875E1,3.875E0,2.5E0,5.5E0,1.875E0,1.105E2,1.14375E2,1.3E1,5.9875E1,4E0,6.775E1,8.25E0,1E0,2.2625E1,1.125E0,1.825E1,1.725E2,2.875E0,6.1375E1,2.2625E1,4.4775E2,5.8E1,1.625E0,9.93E2,1.125E0,4.25E0,6.7125E1,2E0,3.1125E1,5.2375E1,4.75E0,1.25E0,1.25E0,1.1375E1,3E0,5E0],"tree_param":{"num_deleted":"0","num_feature":"64","num_nodes":"93","size_leaf_vector":"0"}},{"base_weights":[-9.675687E-1,-1.8301503E-1,-1.1654483E0,8.0991876E-1,-7.08222E-1,-1.271793E0,-2.0616302E-1,-5.412889E-1,1.2751012E0,5.600465E-3,-9.464132E-1,-9.770177E-1,-1.3948283E0,1.6892633E-1,-1.023672E0,-1.884263E-2,-1.465533E0,1.4139643E0,-6.2449175E-1,4.5692506E-1,-1.3683267E0,-1.015638E0,8.706239E-1,-1.5228223E0,-7.368984E-1,-1.5424101E0,-1.2989275E0,8.183614E-1,-1.3478346E-1,6.3191515E-1,-1.3249038E0,-1.5117689E0,4.4702488E-1,1.4562523E0,-1.0661159E0,8.4955555E-1,-1.3999516E0,6.7590827E-1,-1.4198408E0,-1.5809082E0,4.207951E-1,-6.024197E-1,-1.3130573E0,1.5063914E0,-1.0123559E0,9.039286E-1,-1.5470346E0,-9.297846E-1,-1.7515962E-1,-6.966863E-1,-1.5606309E0,-1.3150166E0,1.2322792E0,3.1266055E-1,1.5753553E0,5.975258E-1,-4.883937E-1,-1.2525611E0,1.1896749E0,9.987553E-2,-1.5358648E0,9.848506E-1,-1.3932354E0,4.23116E-1,1.5333194E0,1.2404004E0,1.4829959E-1,-2.306932E-1,-1.4534788E0,6.07867E-1,-1.3675575E0,1.7142653E0,4.7442088E-1,8.7320054E-1,-9.8204947E-1,3.4845874E-1,-9.5163536E-1,1.1485019E0,-1.4015577E0,-1.0633408E0,-1.5708432E0,-5.124766E-1,-1.3484626E0,1.617971E0,3.5689443E-1,6.255166E-1,-1.5819563E0,4.001425E-1,1.6731697E0,9.2100817E-1,-1.3343474E0,1.1542449E0,-7.2347885E-1,2.1996148E-1,1.3913357E0,-1.333497E0,1.3237722E0,-1.6375716E0,-4.174383E-1],"categories":[],"categories_nodes":[],"categories_segments":[],"categories_sizes":[],"default_left":[true,true,false,true,true,true,true,false,false,false,true,false,true,false,true,false,false,true,false,false,true,false,true,false,true,false,false,false,true,false,true,false,true,false,false,false,false,false,false,false,false,false,false,false,false,false,false,true,false,false,true,false,true,true,true,false,false,false,true,false,true,false,false,false,false,false,false,false,false,false,false,false,false,false,false,false,false,false,false,false,false,false,false,false,false,false,false,false,false,false,false,false,false,false,false,false,false,false,false],"id":1,"left_children":[1,3,5,7,9,11,13,15,17,19,21,23,25,27,29,31,-1,33,35,37,39,41,43,45,47,49,51,53,55,57,59,-1,61,63,-1,-1,-1,65,-1,-1,-1,67,69,71,-1,-1,-1,73,75,77,79,81,83,85,87,89,91,-1,93,95,97,-1,-1,-1,-1,-1,-1,-1,-1,-1,-1,-1,-1,-1,-1,-1,-1,-1,-1,-1,-1,-1,-1,-1,-1,-1,-1,-1,-1,-1,-1,-1,-1,-1,-1,-1,-1,-1,-1],"loss_changes":[3.5584717E2,2.4209883E2,1.8656445E2,1.0169411E2,5.1599426E1,5.8421387E1,5.658064E1,2.018307E1,3.249373E1,4.8319828E1,2.9504105E1,6.293344E1,1.4423584E1,2.5151226E1,2.9761784E1,1.997829E1,0E0,1.3296646E1,1.1313544E1,2.5062382E1,7.993946E0,2.6202957E1,1.2166044E1,1.0117371E1,3.6824814E1,5.875E0,3.0528442E1,1.504767E1,2.2914368E1,1.1586098E1,1.4999535E1,0E0,2.3071484E1,8.151245E0,0E0,0E0,0E0,1.5659576E1,0E0,0E0,0E0,2.9331085E1,1.4113327E1,6.984434E-1,0E0,0E0,0E0,2.4781342E1,3.6308514E1,1.6352537E1,5.716553E-1,1.8254883E1,1.1105914E0,1.615456E1,1.170929E0,1.9287823E1,2.3797802E1,0E0,1.243618E0,1.4587634E1,4.2172546E0,0E0,0E0,0E0,0E0,0E0,0E0,0E0,0E0,0E0,0E0,0E0,0E0,0E0,0E0,0E0,0E0,0E0,0E0,0E0,0E0,0E0,0E0,0E0,0E0,0E0,0E0,0E0,0E0,0E0,0E0,0E0,0E0,0E0,0E0,0E0,0E0,0E0,0E0],"parents":[2147483647,0,0,1,1,2,2,3,3,4,4,5,5,6,6,7,7,8,8,9,9,10,10,11,11,12,12,13,13,14,14,15,15,17,17,18,18,19,19,20,20,21,21,22,22,23,23,24,24,25,25,26,26,27,27,28,28,29,29,30,30,32,32,33,33,37,37,41,41,42,42,43,43,47,47,48,48,49,49,50,50,51,51,52,52,53,53,54,54,55,55,56,56,58,58,59,59,60,60],"right_children":[2,4,6,8,10,12,14,16,18,20,22,24,26,28,30,32,-1,34,36,38,40,42,44,46,48,50,52,54,56,58,60,-1,62,64,-1,-1,-1,66,-1,-1,-1,68,70,72,-1,-1,-1,74,76,78,80,82,84,86,88,90,92,-1,94,96,98,-1,-1,-1,-1,-1,-1,-1,-1,-1,-1,-1,-1,-1,-1,-1,-1,-1,-1,-1,-1,-1,-1,-1,-1,-1,-1,-1,-1,-1,-1,-1,-1,-1,-1,-1,-1,-1,-1],"split_conditions":[-3.1087857E-2,-6.354368E-2,1.759026E2,-3.6405563E-2,-1.3430929E-2,4.5588855E-3,1.2858812E-2,-6.0939E-2,1.3180824E-2,-1.2727575E-2,1.2718323E-1,-6.627567E-2,-5.697561E-2,-1.5799211E-2,-1.9926613E-2,-3.009714E-1,-4.3965992E-1,6.2457133E-2,-1.1144281E-2,-1.1093282E-2,4.0616646E-1,-2.6958019E-2,-5.884891E-2,-1.654393E-2,-1.5170375E-2,-1.1366241E-2,-1.0916945E-2,1.235712E-2,-1.5709002E-2,-3.0810734E-2,-1.12483546E-1,-4.535307E-1,6.3642776E-1,-1.2525234E-1,-3.1983477E-1,2.548667E-1,-4.199855E-1,-1.6064817E-2,-4.2595226E-1,-4.7427246E-1,1.2623854E-1,-6.0420807E-2,-6.0675524E-2,1.4592238E-2,-3.037068E-1,2.7117857E-1,-4.641104E-1,-3.81883E-2,-1.6548224E-2,-1.6870134E-2,6.5130712E-3,-6.029901E-2,-4.3732215E-2,-1.09013125E-1,-1.2393177E0,-4.466735E-2,-3.791576E-2,-3.7576833E-1,-7.9917955E-1,-3.0930705E-2,2.8948262E-2,2.954552E-1,-4.1797066E-1,1.2693481E-1,4.5999584E-1,3.7212014E-1,4.448988E-2,-6.920797E-2,-4.3604365E-1,1.8236011E-1,-4.1026726E-1,5.142796E-1,1.4232627E-1,2.6196018E-1,-2.9461485E-1,1.0453763E-1,-2.8549063E-1,3.4455058E-1,-4.2046732E-1,-3.1900224E-1,-4.7125298E-1,-1.53743E-1,-4.0453878E-1,4.853913E-1,1.0706834E-1,1.8765499E-1,-4.745869E-1,1.2004275E-1,5.019509E-1,2.7630246E-1,-4.0030423E-1,3.4627348E-1,-2.1704367E-1,6.5988444E-2,4.1740075E-1,-4.0004912E-1,3.9713168E-1,-4.912715E-1,-1.2523149E-1],"split_indices":[26,33,20,48,20,37,12,41,55,49,54,33,33,45,37,23,0,37,40,40,23,15,1,45,58,40,31,4,59,26,34,0,28,8,0,0,0,57,0,0,0,63,39,4,0,0,0,50,57,57,37,39,0,54,28,23,43,0,28,26,54,0,0,0,0,0,0,0,0,0,0,0,0,0,0,0,0,0,0,0,0,0,0,0,0,0,0,0,0,0,0,0,0,0,0,0,0,0,0],"split_type":[0,0,0,0,0,0,0,0,0,0,0,0,0,0,0,0,0,0,0,0,0,0,0,0,0,0,0,0,0,0,0,0,0,0,0,0,0,0,0,0,0,0,0,0,0,0,0,0,0,0,0,0,0,0,0,0,0,0,0,0,0,0,0,0,0,0,0,0,0,0,0,0,0,0,0,0,0,0,0,0,0,0,0,0,0,0,0,0,0,0,0,0,0,0,0,0,0,0,0],"sum_hessian":[2.292506E3,4.6213943E2,1.8303667E3,1.5969147E2,3.0244797E2,1.6474119E3,1.8295485E2,4.0855515E1,1.1883595E2,7.591598E1,2.2653198E2,4.877567E2,1.1596552E3,1.2595676E2,5.6998096E1,2.6753172E1,1.4102345E1,1.1097888E2,7.857075E0,5.7646854E1,1.8269121E1,2.1864325E2,7.8887367E0,1.473897E2,3.4036703E2,4.5081348E2,7.088417E2,3.959487E1,8.6361885E1,8.605272E0,4.8392822E1,5.8288584E0,2.0924313E1,1.0952419E2,1.4546868E0,2.6755862E0,5.181489E0,5.2196377E1,5.450479E0,1.6432953E1,1.8361679E0,9.277382E1,1.2586942E2,6.047022E0,1.8417149E0,1.0970924E0,1.462926E2,2.528797E2,8.748733E1,1.033524E1,4.404782E2,7.04842E2,3.9996839E0,2.4584507E1,1.5010363E1,2.7897585E1,5.8464302E1,1.6807851E0,6.9244876E0,6.3091197E0,4.2083702E1,1.6551794E1,4.3725176E0,8.053373E0,1.0147082E2,2.4564096E1,2.7632278E1,6.545527E1,2.7318552E1,3.1924968E0,1.22676926E2,4.4828634E0,1.5641584E0,6.6814733E0,2.4619823E2,5.2580658E1,3.4906666E1,2.6828332E0,7.652407E0,1.0978924E1,4.294993E2,2.8852177E1,6.759898E2,2.1875565E0,1.8121272E0,2.1675158E1,2.9093502E0,1.5444969E0,1.3465865E1,2.4344482E1,3.5531034E0,6.8300405E0,5.163426E1,1.5520403E0,5.3724475E0,2.8646364E0,3.4444833E0,3.8150246E1,3.933457E0],"tree_param":{"num_deleted":"0","num_feature":"64","num_nodes":"99","size_leaf_vector":"0"}},{"base_weights":[-7.857358E-1,-1.4748238E-1,-9.509153E-1,6.672408E-1,-5.5134326E-1,-1.0450373E0,-1.5953186E-1,-4.5856982E-1,1.0788614E0,3.3554718E-1,-6.859755E-1,-8.802256E-1,-1.2803645E0,4.3546744E-2,-1.2126608E0,1.00169316E-1,-1.0984321E0,1.1655345E0,-1.1567583E0,6.237289E-1,-1.3871281E0,-1.3766518E-1,-8.653467E-1,-1.2770166E0,-7.182004E-1,-1.3057959E0,-4.32894E-1,1.6368653E-1,-9.1137767E-1,-1.302353E0,1.8766019E-1,-1.172543E0,5.057131E-1,9.564102E-2,-1.3797884E0,1.4530078E-1,1.2899805E0,1.0430633E0,-6.124036E-1,6.824782E-1,-6.2872326E-1,-9.1809815E-1,4.3820572E-1,-7.567181E-1,-1.3526042E0,-1.8128918E-2,-8.543098E-1,-3.7105167E-1,-1.3127191E0,-9.686494E-1,1.08986E0,-7.710675E-1,3.3617324E-1,1.0169609E0,-1.4647391E0,-1.397598E0,2.3277412E-1,9.1190624E-1,-1.0630499E0,9.6104777E-1,-1.0053837E0,-6.085541E-1,1.0162344E0,1.3364271E0,-2.5005862E-1,-9.2677116E-1,1.1793927E0,-1.5149796E0,1.4518406E0,-6.6714644E-1,1.4152812E0,-9.758907E-1,3.6809605E-1,-9.562393E-1,6.929178E-1,1.1139888E0,-9.660943E-1,-1.0638875E0,4.1207662E-1,7.900556E-1,-1.3667412E0,-6.404116E-1,1.3957744E0,-9.447807E-1,-2.3184398E-2,1.2654258E0,-1.0932231E0,-1.3199887E0,-5.262142E-1,1.4266167E0,-1.2729061E0,1.8372687E0,-7.844145E-1,-1.2688913E0,6.484471E-1,-9.7290725E-1,4.1232252E-1],"categories":[],"categories_nodes":[],"categories_segments":[],"categories_sizes":[],"default_left":[true,true,false,true,false,true,true,false,false,true,false,false,true,true,false,false,false,false,false,false,false,false,true,true,false,false,false,true,true,false,false,false,true,true,false,false,true,false,true,false,true,true,false,false,false,false,true,true,true,false,true,true,false,false,false,false,false,false,false,false,false,false,false,false,false,false,false,false,false,false,false,false,false,false,false,false,false,false,false,false,false,false,false,false,false,false,false,false,false,false,false,false,false,false,false,false,false],"id":2,"left_children":[1,3,5,7,9,11,13,15,17,19,21,23,25,27,29,31,33,35,-1,37,-1,39,41,43,45,47,49,51,53,55,-1,-1,57,59,-1,61,63,65,67,69,71,73,75,77,79,81,83,85,87,89,91,93,95,-1,-1,-1,-1,-1,-1,-1,-1,-1,-1,-1,-1,-1,-1,-1,-1,-1,-1,-1,-1,-1,-1,-1,-1,-1,-1,-1,-1,-1,-1,-1,-1,-1,-1,-1,-1,-1,-1,-1,-1,-1,-1,-1,-1],"loss_changes":[2.1438464E2,1.3840746E2,1.20226074E2,6.513622E1,3.37871E1,5.4890503E1,3.704764E1,1.3712896E1,2.1198563E1,1.9586544E1,2.3910591E1,5.3898254E1,1.220874E1,1.6896788E1,3.7609596E0,1.1549676E1,6.1188145E0,1.2397034E1,0E0,1.7742508E1,0E0,2.5163158E1,1.3048843E1,8.648346E0,5.788974E1,3.2335815E0,1.6363571E1,2.1302546E1,1.9059757E1,4.191078E0,0E0,0E0,1.1672872E1,5.0952125E0,0E0,8.433289E0,6.6441956E0,7.808878E0,1.894563E1,2.4166084E1,1.3833131E1,1.1543518E1,8.506775E0,1.2453175E1,7.545746E0,8.882554E1,3.823297E1,8.02638E0,2.566162E0,1.2317343E1,8.941429E0,1.5405178E1,1.1454284E1,0E0,0E0,0E0,0E0,0E0,0E0,0E0,0E0,0E0,0E0,0E0,0E0,0E0,0E0,0E0,0E0,0E0,0E0,0E0,0E0,0E0,0E0,0E0,0E0,0E0,0E0,0E0,0E0,0E0,0E0,0E0,0E0,0E0,0E0,0E0,0E0,0E0,0E0,0E0,0E0,0E0,0E0,0E0,0E0],"parents":[2147483647,0,0,1,1,2,2,3,3,4,4,5,5,6,6,7,7,8,8,9,9,10,10,11,11,12,12,13,13,14,14,15,15,16,16,17,17,19,19,21,21,22,22,23,23,24,24,25,25,26,26,27,27,28,28,29,29,32,32,33,33,35,35,36,36,37,37,38,38,39,39,40,40,41,41,42,42,43,43,44,44,45,45,46,46,47,47,48,48,49,49,50,50,51,51,52,52],"right_children":[2,4,6,8,10,12,14,16,18,20,22,24,26,28,30,32,34,36,-1,38,-1,40,42,44,46,48,50,52,54,56,-1,-1,58,60,-1,62,64,66,68,70,72,74,76,78,80,82,84,86,88,90,92,94,96,-1,-1,-1,-1,-1,-1,-1,-1,-1,-1,-1,-1,-1,-1,-1,-1,-1,-1,-1,-1,-1,-1,-1,-1,-1,-1,-1,-1,-1,-1,-1,-1,-1,-1,-1,-1,-1,-1,-1,-1,-1,-1,-1,-1],"split_conditions":[-3.1087857E-2,-6.354368E-2,1.759026E2,-3.6405563E-2,-4.1811585E-2,3.7546135E-2,1.9879289E-2,-1.5729163E-2,1.9870014E-3,1.14344314E-1,-5.9389107E-2,-6.194794E-2,1.0706389E-1,2.0012245E-2,9.455526E-2,-3.009714E-1,-3.4231895E-1,-1.2525234E-1,-3.470275E-1,-1.3869436E-2,-4.1613844E-1,-3.2800667E-2,1.2092771E-1,-8.16824E-2,-1.5934808E-2,-1.141913E-2,-2.2815526E-3,-3.7742957E-2,-7.13681E-2,9.998992E-2,5.629806E-2,-3.5176292E-1,5.4898626E-1,-1.485127E-2,-4.1393653E-1,-7.6011354E-3,-7.966708E-2,-4.1161925E-2,2.8352338E-1,-1.6171306E-2,-9.7687945E-2,1.1097093E0,-1.1130497E-2,-8.175577E-2,-1.6531896E-2,-2.5673974E-2,6.1887003E-2,4.053998E-2,1.0824702E0,-5.1638797E-2,-2.2993937E-2,-3.0026715E-3,-7.217556E-2,3.0508828E-1,-4.3942174E-1,-4.1927943E-1,6.983224E-2,2.7357188E-1,-3.1891498E-1,2.8831434E-1,-3.0161512E-1,-1.8256624E-1,3.0487034E-1,4.0092814E-1,-7.501759E-2,-2.7803135E-1,3.5381782E-1,-4.544939E-1,4.355522E-1,-2.0014395E-1,4.2458436E-1,-2.9276723E-1,1.1042882E-1,-2.868718E-1,2.0787536E-1,3.3419663E-1,-2.898283E-1,-3.1916624E-1,1.2362299E-1,2.3701668E-1,-4.1002238E-1,-1.9212349E-1,4.1873232E-1,-2.834342E-1,-6.9553195E-3,3.7962776E-1,-3.2796693E-1,-3.9599663E-1,-1.5786426E-1,4.27985E-1,-3.8187185E-1,5.5118066E-1,-2.3532437E-1,-3.8066742E-1,1.9453414E-1,-2.9187217E-1,1.2369676E-1],"split_indices":[26,33,20,48,12,24,12,45,40,50,39,33,2,5,19,23,38,8,0,57,0,43,54,63,45,40,61,50,27,11,0,0,28,20,0,20,8,36,1,45,54,63,40,63,45,43,60,24,34,42,31,43,33,0,0,0,0,0,0,0,0,0,0,0,0,0,0,0,0,0,0,0,0,0,0,0,0,0,0,0,0,0,0,0,0,0,0,0,0,0,0,0,0,0,0,0,0],"split_type":[0,0,0,0,0,0,0,0,0,0,0,0,0,0,0,0,0,0,0,0,0,0,0,0,0,0,0,0,0,0,0,0,0,0,0,0,0,0,0,0,0,0,0,0,0,0,0,0,0,0,0,0,0,0,0,0,0,0,0,0,0,0,0,0,0,0,0,0,0,0,0,0,0,0,0,0,0,0,0,0,0,0,0,0,0,0,0,0,0,0,0,0,0,0,0,0,0],"sum_hessian":[2.0338304E3,4.1852878E2,1.6153016E3,1.384919E2,2.8003687E2,1.4433219E3,1.7197978E2,3.7048264E1,1.0144363E2,3.671095E1,2.4332593E2,8.5162555E2,5.916963E2,1.449812E2,2.699859E1,2.0228142E1,1.6820124E1,9.811831E1,3.3253152E0,3.1996305E1,4.7146444E0,6.0414776E1,1.8291115E2,2.4492813E2,6.066974E2,5.739326E2,1.7763712E1,1.2951535E2,1.5465841E1,2.5439144E1,1.5594457E0,4.4310265E0,1.5797114E1,3.3333778E0,1.3486746E1,1.090277E1,8.721554E1,2.4008175E1,7.9881296E0,2.247995E1,3.7934826E1,1.7608128E2,6.829863E0,3.246566E1,2.1246248E2,9.893967E1,5.0775775E2,4.6209927E0,5.693116E2,1.3409639E1,4.354073E0,1.9635384E1,1.09879974E2,3.2617161E0,1.2204125E1,2.4037365E1,1.40178E0,1.2880684E1,2.9164307E0,1.937575E0,1.395803E0,6.005686E0,4.8970847E0,8.479053E1,2.4250157E0,1.1787199E0,2.2829454E1,5.7430897E0,2.24504E0,7.9421883E0,1.4537763E1,2.815139E1,9.783436E0,1.7240598E2,3.675305E0,4.750526E0,2.0793374E0,2.5780165E1,6.6854935E0,1.0328563E0,2.1142961E2,6.9082405E1,2.985727E1,4.5778906E2,4.9968685E1,1.1845318E0,3.436461E0,5.634256E2,5.886036E0,1.0956053E0,1.23140335E1,3.126897E0,1.227176E0,1.4615748E1,5.0196347E0,5.3929853E0,1.04486984E2],"tree_param":{"num_deleted":"0","num_feature":"64","num_nodes":"97","size_leaf_vector":"0"}},{"base_weights":[-6.559897E-1,-3.7808937E-1,-9.6309173E-1,-5.006958E-1,4.3773338E-1,-1.041525E0,-4.598272E-1,-1.1287756E0,-3.16318E-1,1.039801E0,-2.1627279E-1,-1.111607E0,-5.613588E-1,-7.674918E-1,7.566149E-1,8.513687E-2,-1.2053331E0,2.8466856E-1,-4.9460694E-1,1.1943548E0,-1.0949192E0,1.1510226E0,-4.7904566E-1,-3.8425878E-1,-1.1464554E0,-7.3202795E-1,9.662021E-1,1.00207075E-1,-1.0276759E0,-3.0514568E-1,1.4503268E0,7.833046E-1,-1.0300454E0,-1.2382059E0,1.5869465E-1,1.5372697E0,-1.6311988E-1,-6.3764125E-1,1.6255626E-1,3.908977E-1,1.2192161E0,1.4767128E0,-7.231229E-1,3.2628912E-1,-8.817875E-1,1.1494796E0,-6.872331E-1,-1.2219275E0,-9.4053876E-1,-9.7276676E-1,-4.5083955E-2,2.166848E0,1.0248507E-1,-1.1583833E0,6.6995025E-1,-1.1894101E0,-2.500817E-1,-1.1299247E0,9.7145295E-1,1.0726445E0,1.8932955E0,1.1161869E0,-7.1582097E-1,-1.2552294E0,7.8103024E-1,1.1047689E0,-9.110846E-1,1.7745564E0,-1.1218804E0,-1.2606145E0,5.265922E-1,6.199707E-1,-6.822568E-1,3.9875308E-1,-1.1287407E0,1.6902477E0,3.3915573E-1,-6.7169535E-1,1.1187401E0,-1.1295341E0,9.5955485E-1,-7.3817587E-1,1.8973516E0,-1.2258911E0,2.896181E-1,-8.841577E-2,-1.2318735E0,1.9410671E0,-9.881062E-1,6.636473E-1,-1.1038084E0,4.599488E-1,-1.12803E0,8.2282716E-1,-9.679609E-1,-2.7296063E-1,1.4454292E0,-1.2586905E0,9.379066E-1,1.3470529E0,-1.1658353E0,-2.0614566E-1,1.7987417E0],"categories":[],"categories_nodes":[],"categories_segments":[],"categories_sizes":[],"default_left":[true,false,false,true,false,false,true,false,false,false,false,true,true,false,false,false,true,false,false,true,false,true,false,false,false,false,false,true,true,true,false,true,false,false,false,false,true,false,false,false,false,true,false,false,false,false,true,false,false,true,false,false,true,false,true,true,false,false,false,false,false,false,false,false,false,false,false,false,false,false,false,false,false,false,false,false,false,false,false,false,false,false,false,false,false,false,false,false,false,false,false,false,false,false,false,false,false,false,false,false,false,false,false],"id":3,"left_children":[1,3,5,7,9,11,13,15,17,19,21,23,25,27,29,31,33,35,37,39,-1,41,43,45,47,49,51,53,55,57,59,61,-1,63,65,67,69,71,73,-1,-1,75,-1,77,79,81,83,85,87,89,91,-1,93,-1,95,97,99,-1,101,-1,-1,-1,-1,-1,-1,-1,-1,-1,-1,-1,-1,-1,-1,-1,-1,-1,-1,-1,-1,-1,-1,-1,-1,-1,-1,-1,-1,-1,-1,-1,-1,-1,-1,-1,-1,-1,-1,-1,-1,-1,-1,-1,-1],"loss_changes":[1.5069238E2,9.3323715E1,3.2684692E1,9.340556E1,4.8320084E1,2.3809692E1,4.3647987E1,1.7142563E1,6.7356735E1,2.234726E1,2.188407E1,1.5593811E1,2.5343725E1,2.0950073E1,1.7923332E1,1.0003175E1,7.933243E0,8.1107925E1,4.5612747E1,7.207718E-1,0E0,7.0895443E0,1.6670078E1,1.4928888E1,8.224548E0,1.4107269E1,1.0073423E1,1.6704239E1,8.647919E0,1.1842438E1,3.9977074E-1,4.7074094E0,0E0,6.775757E0,6.013152E0,2.6005127E1,8.1731766E1,2.2744095E1,2.7088507E1,0E0,0E0,1.5481701E0,0E0,1.4645559E1,1.656728E1,9.014355E0,1.4053719E1,4.829529E0,2.4688095E1,1.4309883E1,1.323731E1,0E0,6.058222E0,0E0,1.2038604E1,9.819336E0,2.1334583E1,0E0,4.7966948E0,0E0,0E0,0E0,0E0,0E0,0E0,0E0,0E0,0E0,0E0,0E0,0E0,0E0,0E0,0E0,0E0,0E0,0E0,0E0,0E0,0E0,0E0,0E0,0E0,0E0,0E0,0E0,0E0,0E0,0E0,0E0,0E0,0E0,0E0,0E0,0E0,0E0,0E0,0E0,0E0,0E0,0E0,0E0,0E0],"parents":[2147483647,0,0,1,1,2,2,3,3,4,4,5,5,6,6,7,7,8,8,9,9,10,10,11,11,12,12,13,13,14,14,15,15,16,16,17,17,18,18,19,19,21,21,22,22,23,23,24,24,25,25,26,26,27,27,28,28,29,29,30,30,31,31,33,33,34,34,35,35,36,36,37,37,38,38,41,41,43,43,44,44,45,45,46,46,47,47,48,48,49,49,50,50,52,52,54,54,55,55,56,56,58,58],"right_children":[2,4,6,8,10,12,14,16,18,20,22,24,26,28,30,32,34,36,38,40,-1,42,44,46,48,50,52,54,56,58,60,62,-1,64,66,68,70,72,74,-1,-1,76,-1,78,80,82,84,86,88,90,92,-1,94,-1,96,98,100,-1,102,-1,-1,-1,-1,-1,-1,-1,-1,-1,-1,-1,-1,-1,-1,-1,-1,-1,-1,-1,-1,-1,-1,-1,-1,-1,-1,-1,-1,-1,-1,-1,-1,-1,-1,-1,-1,-1,-1,-1,-1,-1,-1,-1,-1],"split_conditions":[-2.327896E-2,-2.9980872E-2,-2.0155605E-2,-6.820213E-2,-6.892665E-2,-1.0269358E-2,4.599299E-1,-1.7420592E-2,-1.670264E-2,1.2692599E-2,-2.8479695E-2,-1.577647E-2,2.5575882E-1,-1.5264324E-2,-1.7041838E-2,-6.0675237E-2,4.0121162E-1,4.083422E-3,-3.0228177E-3,-1.4939865E0,-3.2847577E-1,4.8310314E-3,-1.11554675E-2,-1.5312461E-2,1.4962243E-2,1.6231779E-2,-9.606237E-3,-6.0205236E-2,-1.6623668E-2,-2.861144E-3,1.571748E-2,1.1060076E-2,-3.0901363E-1,-1.291873E-4,-3.7199184E-2,1.33257415E-2,-1.09828666E-1,-1.6415685E-2,4.9685235E-3,1.17269315E-1,3.6576486E-1,-2.5791079E-2,-2.1693687E-1,-4.7208546E-3,-8.528249E-4,1.2475785E-2,8.104302E-2,-1.480333E-2,1.5133823E-2,-4.9433053E-2,1.5408559E-2,6.500544E-1,8.422717E-3,-3.47515E-1,-1.54020935E-2,4.0015755E0,-2.4719214E-2,-3.389774E-1,-3.157588E-2,3.2179335E-1,5.679887E-1,3.3485606E-1,-2.147463E-1,-3.7656882E-1,2.3430908E-1,3.3143067E-1,-2.7332538E-1,5.3236693E-1,-3.3656412E-1,-3.7818438E-1,1.5797767E-1,1.8599121E-1,-2.0467706E-1,1.19625926E-1,-3.386222E-1,5.070743E-1,1.0174672E-1,-2.0150861E-1,3.3562204E-1,-3.3886024E-1,2.8786647E-1,-2.2145277E-1,5.692055E-1,-3.6776733E-1,8.688544E-2,-2.6524732E-2,-3.6956206E-1,5.8232015E-1,-2.9643187E-1,1.9909419E-1,-3.3114254E-1,1.3798465E-1,-3.38409E-1,2.4684815E-1,-2.903883E-1,-8.188819E-2,4.3362877E-1,-3.7760717E-1,2.81372E-1,4.041159E-1,-3.4975058E-1,-6.18437E-2,5.3962255E-1],"split_indices":[25,26,26,33,33,20,28,57,57,55,26,59,63,3,57,53,29,38,20,28,0,24,40,45,8,33,20,27,57,44,12,12,0,40,11,4,21,45,12,0,0,52,0,44,31,4,2,29,8,5,38,0,24,0,59,52,14,0,42,0,0,0,0,0,0,0,0,0,0,0,0,0,0,0,0,0,0,0,0,0,0,0,0,0,0,0,0,0,0,0,0,0,0,0,0,0,0,0,0,0,0,0,0],"split_type":[0,0,0,0,0,0,0,0,0,0,0,0,0,0,0,0,0,0,0,0,0,0,0,0,0,0,0,0,0,0,0,0,0,0,0,0,0,0,0,0,0,0,0,0,0,0,0,0,0,0,0,0,0,0,0,0,0,0,0,0,0,0,0,0,0,0,0,0,0,0,0,0,0,0,0,0,0,0,0,0,0,0,0,0,0,0,0,0,0,0,0,0,0,0,0,0,0,0,0,0,0,0,0],"sum_hessian":[1.7689774E3,9.298111E2,8.391663E2,8.086664E2,1.2114472E2,7.250919E2,1.1407438E2,1.8235506E2,6.2631134E2,6.2769882E1,5.837484E1,6.3159357E2,9.3498375E1,9.134126E1,2.2733116E1,1.0811614E1,1.7154346E2,1.4315604E2,4.8315527E2,5.8942924E1,3.826958E0,8.865319E0,4.950952E1,2.9427017E1,6.0216656E2,8.45704E1,8.927976E0,2.1212769E1,7.0128494E1,9.204815E0,1.3528301E1,6.831995E0,3.979619E0,1.6759665E2,3.9468045E0,3.7058647E1,1.0609738E2,3.9681628E2,8.633901E1,2.271058E0,5.6671864E1,7.733455E0,1.1318643E0,1.6568493E1,3.294103E1,4.393243E0,2.5033775E1,4.3704697E2,1.6511958E2,6.231581E1,2.225459E1,3.1041603E0,5.8238153E0,6.288344E0,1.4924424E1,5.761531E1,1.2513186E1,5.661776E0,3.5430393E0,9.149111E0,4.379191E0,5.799624E0,1.0323709E0,1.6657071E2,1.0259324E0,2.077145E0,1.8696597E0,3.432807E1,2.7305727E0,4.0625267E1,6.547212E1,1.3153497E1,3.8366278E2,7.35727E1,1.2766309E1,6.102143E0,1.6313123E0,7.4006987E0,9.167794E0,2.9375256E1,3.5657747E0,1.2503302E0,3.1429129E0,1.5971683E1,9.062092E0,3.887534E0,4.3315942E2,2.0349815E0,1.6308461E2,4.3188415E0,5.799697E1,1.5569172E1,6.685416E0,3.619467E0,2.2043483E0,7.0275645E0,7.89686E0,5.6193573E1,1.4217381E0,4.3884544E0,8.124732E0,1.7718E0,1.7712393E0],"tree_param":{"num_deleted":"0","num_feature":"64","num_nodes":"103","size_leaf_vector":"0"}},{"base_weights":[-5.533733E-1,-2.2479638E-1,-7.929634E-1,-4.201492E-1,1.6222557E-1,-1.0993876E0,-6.03959E-1,-1.1705271E0,-2.6082534E-1,-1.7156656E-1,7.029847E-1,1.3219412E-1,-1.1180356E0,-7.287403E-2,-7.629169E-1,1.3125251E-1,-5.2139467E-1,-1.0955193E0,1.5624384E-2,8.28098E-1,-1.0560037E0,-9.32313E-1,1.6107299E0,-1.1752189E0,-7.257899E-1,-4.6470895E-1,1.4197507E0,-8.361849E-1,-3.5637174E-2,-2.1086241E-1,8.1411093E-1,-7.5661105E-1,2.0890513E-1,6.096614E-1,-1.3253497E0,-2.4476261E-1,7.3132294E-1,-9.8346815E-2,1.0825741E0,-1.1880813E0,4.6178815E-1,-9.09322E-1,2.1744854E0,9.0466005E-1,-6.771536E-1,-1.0334973E0,1.8627433E0,-5.7032865E-1,-1.0379202E0,7.005883E-1,-6.2970954E-1,-5.157023E-1,6.820438E-1,-2.4582471E-1,1.7603399E0,-2.2609112E-1,-9.449578E-1,1.3969723E0,-3.4236234E-1,-1.3914139E0,-7.0913635E-2,7.7897954E-1,-5.473977E-1,1.3456174E0,-7.987054E-2,4.653938E-1,-1.165665E0,1.4736103E0,4.2262363E-1,-1.1954819E0,-4.307182E-1,-1.2117581E0,-6.957777E-2,1.0889475E0,-6.300427E-1,-2.6312113E-1,-1.1214948E0,2.0142875E0,-6.2347597E-1,-6.9819796E-1,5.9962124E-1,1.0857673E0,-1.0566443E0,4.9763028E-2,1.419651E0,9.8074347E-1,-1.0919853E0],"categories":[],"categories_nodes":[],"categories_segments":[],"categories_sizes":[],"default_left":[true,false,false,true,true,true,false,false,false,true,false,false,false,false,true,false,true,true,false,false,false,false,false,false,false,false,true,false,true,false,false,false,false,false,true,false,false,false,true,false,false,false,false,false,false,false,true,true,false,true,false,false,false,false,false,false,false,false,false,false,false,false,false,false,false,false,false,false,false,false,false,false,false,false,false,false,false,false,false,false,false,false,false,false,false,false,false],"id":4,"left_children":[1,3,5,7,9,11,13,-1,15,17,19,21,23,25,27,29,31,33,35,37,-1,-1,-1,39,41,43,45,47,49,51,53,55,57,-1,59,61,63,65,67,69,-1,71,-1,73,75,-1,77,79,81,83,85,-1,-1,-1,-1,-1,-1,-1,-1,-1,-1,-1,-1,-1,-1,-1,-1,-1,-1,-1,-1,-1,-1,-1,-1,-1,-1,-1,-1,-1,-1,-1,-1,-1,-1,-1,-1],"loss_changes":[1.2036008E2,4.8990273E1,5.0596313E1,5.1137558E1,3.9429256E1,7.874634E0,4.6345825E1,0E0,3.6460976E1,2.3445705E1,1.9209831E1,1.0807416E1,6.58313E0,7.535979E1,2.2506363E1,3.358325E1,3.6952927E1,9.756952E0,2.1354095E1,1.8576435E1,0E0,0E0,0E0,6.6069946E0,2.5822374E1,3.0262232E1,3.1054794E1,2.001233E1,1.7827417E1,2.6503159E1,4.851635E1,1.5996971E1,3.5168182E1,0E0,1.5950546E0,2.6470917E1,1.5337004E1,1.1251862E1,1.5259567E1,1.086792E0,0E0,1.0794678E1,0E0,4.6785173E0,1.6042023E1,0E0,9.94458E0,2.5546486E1,9.784378E0,8.458513E0,1.7841259E1,0E0,0E0,0E0,0E0,0E0,0E0,0E0,0E0,0E0,0E0,0E0,0E0,0E0,0E0,0E0,0E0,0E0,0E0,0E0,0E0,0E0,0E0,0E0,0E0,0E0,0E0,0E0,0E0,0E0,0E0,0E0,0E0,0E0,0E0,0E0,0E0],"parents":[2147483647,0,0,1,1,2,2,3,3,4,4,5,5,6,6,8,8,9,9,10,10,11,11,12,12,13,13,14,14,15,15,16,16,17,17,18,18,19,19,23,23,24,24,25,25,26,26,27,27,28,28,29,29,30,30,31,31,32,32,34,34,35,35,36,36,37,37,38,38,39,39,41,41,43,43,44,44,46,46,47,47,48,48,49,49,50,50],"right_children":[2,4,6,8,10,12,14,-1,16,18,20,22,24,26,28,30,32,34,36,38,-1,-1,-1,40,42,44,46,48,50,52,54,56,58,-1,60,62,64,66,68,70,-1,72,-1,74,76,-1,78,80,82,84,86,-1,-1,-1,-1,-1,-1,-1,-1,-1,-1,-1,-1,-1,-1,-1,-1,-1,-1,-1,-1,-1,-1,-1,-1,-1,-1,-1,-1,-1,-1,-1,-1,-1,-1,-1,-1],"split_conditions":[-2.3892451E-2,-3.0996531E-2,-3.0974682E-2,-7.2332054E-2,7.972095E-2,-1.9830252E-1,-1.5350825E-2,-3.5115814E-1,-1.5801396E-2,1.1773458E-2,1.3075411E-2,-1.09310085E-2,-7.894759E-3,1.2537432E-2,9.121134E-2,1.2117265E-2,-4.622387E-2,-1.5924923E-1,-2.5412992E-2,1.1404877E-2,-3.1680113E-1,-2.7969393E-1,4.83219E-1,1.9382723E-3,-2.7748477E-3,-7.0210904E-2,-1.5555687E-2,2.9778609E-2,-1.568255E-2,-3.692263E-3,-2.930817E-2,-1.4722619E-2,-5.7990354E-2,1.8289843E-1,-1.4965598E-2,-1.5721917E-2,-1.6494298E-2,-8.136998E-2,-2.4278834E-2,2.0173594E-1,1.3853645E-1,-3.0990452E-2,6.5234566E-1,3.5316482E-2,-2.3008078E-2,-3.100492E-1,3.6422864E-2,1.2308006E-1,-3.0974338E-2,2.685913E-2,-4.666038E-2,-1.547107E-1,2.0461315E-1,-7.374742E-2,5.28102E-1,-6.782734E-2,-2.8348735E-1,4.190917E-1,-1.02708705E-1,-4.174242E-1,-2.1274092E-2,2.3369387E-1,-1.642193E-1,4.0368524E-1,-2.3961162E-2,1.3961814E-1,-3.4969953E-1,4.420831E-1,1.267871E-1,-3.5864457E-1,-1.2921546E-1,-3.6352745E-1,-2.087333E-2,3.2668427E-1,-1.8901281E-1,-7.893634E-2,-3.3644843E-1,6.0428625E-1,-1.870428E-1,-2.094594E-1,1.7988637E-1,3.257302E-1,-3.169933E-1,1.4928909E-2,4.2589533E-1,2.9422304E-1,-3.2759562E-1],"split_indices":[25,26,26,33,28,6,45,0,45,4,4,20,33,4,52,4,60,54,60,4,0,0,0,14,29,33,47,23,59,20,43,38,39,0,57,45,57,23,25,8,0,26,0,12,25,0,24,54,26,56,42,0,0,0,0,0,0,0,0,0,0,0,0,0,0,0,0,0,0,0,0,0,0,0,0,0,0,0,0,0,0,0,0,0,0,0,0],"split_type":[0,0,0,0,0,0,0,0,0,0,0,0,0,0,0,0,0,0,0,0,0,0,0,0,0,0,0,0,0,0,0,0,0,0,0,0,0,0,0,0,0,0,0,0,0,0,0,0,0,0,0,0,0,0,0,0,0,0,0,0,0,0,0,0,0,0,0,0,0,0,0,0,0,0,0,0,0,0,0,0,0,0,0,0,0,0,0],"sum_hessian":[1.5301555E3,6.46068E2,8.840875E2,4.292929E2,2.1677507E2,3.354389E2,5.486486E2,7.407418E1,3.5521875E2,1.3446014E2,8.2314926E1,4.9124727E0,3.3052643E2,1.2672236E2,4.2192627E2,1.4201921E2,2.1319952E2,2.1834612E1,1.1262553E2,7.7342896E1,4.972028E0,3.0709233E0,1.8415494E0,2.867296E2,4.3796825E1,1.009185E2,2.580386E1,3.831746E2,3.87517E1,9.507662E1,4.694258E1,1.612332E2,5.1966328E1,2.397106E0,1.9437506E1,8.306328E1,2.956225E1,1.6798796E1,6.05441E1,2.8476636E2,1.9632413E0,4.1835884E1,1.9609429E0,1.3116199E1,8.780231E1,3.742926E0,2.2060932E1,1.6696602E2,2.1620856E2,1.7225315E1,2.1526388E1,7.119348E1,2.3883146E1,2.2490093E1,2.4452486E1,4.282044E1,1.18412766E2,1.5984066E1,3.5982258E1,1.8361322E1,1.0761842E0,1.8593138E1,6.447014E1,1.6447899E1,1.3114352E1,1.136169E1,5.4371057E0,3.724353E1,2.3300573E1,2.814378E2,3.3285675E0,3.0432522E1,1.1403362E1,1.1969365E1,1.1468339E0,4.6275463E1,4.152684E1,2.0972406E1,1.0885273E0,1.5087898E2,1.6087048E1,1.3915462E0,2.14817E2,9.602907E0,7.6224074E0,4.5508423E0,1.6975546E1],"tree_param":{"num_deleted":"0","num_feature":"64","num_nodes":"87","size_leaf_vector":"0"}},{"base_weights":[-4.6423998E-1,-1.7945121E-1,-6.8963045E-1,-9.6125714E-2,-7.9734355E-1,-1.0218136E0,-5.042237E-1,-2.7102527E-1,2.5394386E-1,3.8337773E-1,-1.0286771E0,-1.0995195E0,-5.7476133E-1,-3.1071663E-1,-8.765834E-1,-9.800205E-1,-8.182045E-2,-2.0934983E-1,5.5580384E-1,-7.2366667E-1,8.7112594E-1,-3.011055E-1,-1.2532698E0,-1.1174152E0,-6.511316E-1,4.1949517E-1,-1.0797603E0,9.206491E-1,-4.2482758E-1,-1.0691032E0,-5.2518034E-1,-1.1023123E0,4.424775E-1,5.108465E-1,-2.8693038E-1,-7.463003E-1,2.8208798E-1,-2.9375678E-1,7.53156E-1,-1.0427753E0,1.08532935E-1,2.003902E-1,1.4669147E0,9.260493E-1,-8.533745E-1,-8.04906E-1,-1.1347991E0,1.5542E0,-1.0441483E0,1.0484729E0,-9.9665254E-1,-1.1533111E0,4.2796633E-1,-4.4510114E-1,1.0848144E0,-1.449435E-1,-7.517614E-1,-1.156461E0,-4.4104737E-1,5.6769645E-1,-7.356902E-1,-1.1331673E0,4.476653E-1,-7.630766E-1,1.0151601E0,1.4098325E0,-1.2407661E-1,-1.3548455E-1,-1.3343798E0,7.502883E-1,-9.914599E-1,1.0523088E0,-2.7696192E-1,-7.42877E-1,9.5469236E-1,8.3493125E-1,-1.1399145E0,8.4060454E-1,-8.0916667E-1,1.490324E0,-6.3700414E-1,6.6984725E-1,-1.1389421E0,-1.0736833E0,1.4009994E0,-7.6249564E-1,1.4959888E0,1.6870911E-1,-7.4260294E-1,1.1677723E0,-1.14340186E-1,5.555322E-1,-4.6900862E-1,-8.376212E-1,1.0084366E0,-1.0808554E0,8.980553E-1,-8.886208E-1,1.139183E0,9.766452E-1,-8.2675093E-1],"categories":[],"categories_nodes":[],"categories_segments":[],"categories_sizes":[],"default_left":[false,false,false,false,false,false,false,false,true,false,false,true,false,false,true,false,false,true,false,false,false,false,false,false,false,false,true,false,true,false,false,false,false,true,true,false,true,false,true,false,false,true,false,true,true,false,false,false,false,false,false,false,false,false,false,false,true,false,true,false,false,false,false,false,false,false,false,false,false,false,false,false,false,false,false,false,false,false,false,false,false,false,false,false,false,false,false,false,false,false,false,false,false,false,false,false,false,false,false,false,false],"id":5,"left_children":[1,3,5,7,9,11,13,15,17,19,21,23,25,27,29,31,33,35,37,39,41,43,-1,45,47,49,51,53,55,57,59,61,63,65,67,69,71,73,75,-1,-1,77,-1,79,81,83,-1,-1,-1,85,-1,-1,-1,87,89,91,93,-1,95,97,99,-1,-1,-1,-1,-1,-1,-1,-1,-1,-1,-1,-1,-1,-1,-1,-1,-1,-1,-1,-1,-1,-1,-1,-1,-1,-1,-1,-1,-1,-1,-1,-1,-1,-1,-1,-1,-1,-1,-1,-1],"loss_changes":[8.5714905E1,3.0410769E1,4.543875E1,3.208564E1,1.9576374E1,8.6189575E0,3.4374023E1,4.676158E1,2.4552746E1,7.2361097E0,9.262661E0,1.0840759E0,2.1304626E1,4.5067963E1,1.05254135E1,1.3267654E1,3.378543E1,1.8592287E1,1.8005707E1,1.2518439E0,3.2809973E0,1.1112934E1,0E0,2.5845337E-1,1.1210127E1,1.414625E1,3.578724E0,6.599697E0,2.6580322E1,5.245903E0,1.4214586E1,3.7562485E0,5.2824936E0,4.098929E1,3.253174E1,1.3058226E1,1.6265211E1,1.2324238E1,1.4320488E1,0E0,0E0,4.1487384E0,0E0,5.5417666E0,5.558428E0,1.0283222E1,0E0,0E0,0E0,9.789897E0,0E0,0E0,0E0,7.8934634E-1,2.5852318E0,3.6213634E1,2.1140137E1,0E0,1.3331169E1,9.54328E0,8.716093E0,0E0,0E0,0E0,0E0,0E0,0E0,0E0,0E0,0E0,0E0,0E0,0E0,0E0,0E0,0E0,0E0,0E0,0E0,0E0,0E0,0E0,0E0,0E0,0E0,0E0,0E0,0E0,0E0,0E0,0E0,0E0,0E0,0E0,0E0,0E0,0E0,0E0,0E0,0E0,0E0],"parents":[2147483647,0,0,1,1,2,2,3,3,4,4,5,5,6,6,7,7,8,8,9,9,10,10,11,11,12,12,13,13,14,14,15,15,16,16,17,17,18,18,19,19,20,20,21,21,23,23,24,24,25,25,26,26,27,27,28,28,29,29,30,30,31,31,32,32,33,33,34,34,35,35,36,36,37,37,38,38,41,41,43,43,44,44,45,45,49,49,53,53,54,54,55,55,56,56,58,58,59,59,60,60],"right_children":[2,4,6,8,10,12,14,16,18,20,22,24,26,28,30,32,34,36,38,40,42,44,-1,46,48,50,52,54,56,58,60,62,64,66,68,70,72,74,76,-1,-1,78,-1,80,82,84,-1,-1,-1,86,-1,-1,-1,88,90,92,94,-1,96,98,100,-1,-1,-1,-1,-1,-1,-1,-1,-1,-1,-1,-1,-1,-1,-1,-1,-1,-1,-1,-1,-1,-1,-1,-1,-1,-1,-1,-1,-1,-1,-1,-1,-1,-1,-1,-1,-1,-1,-1,-1],"split_conditions":[-2.3892451E-2,1.3085014E-2,-3.0974682E-2,-3.099474E-2,-4.938902E-2,-1.0858358E-2,2.0055266E-2,-6.820213E-2,-3.7297714E-1,-1.1158998E-2,-1.1199459E-2,3.0639216E-2,1.094644E-2,-6.162288E-2,-3.7289236E-2,1.638078E-2,-1.6505564E-2,-5.1807925E-2,1.1407252E-2,-2.6512401E-2,-1.2629779E-1,-2.6224129E-2,-3.7598094E-1,2.9473316E-3,3.4328125E-2,-1.4780837E-2,9.8891765E-2,-2.306118E-2,2.0556865E-2,1.4642717E2,-7.6872185E-2,1.307228E-2,-7.223466E-2,-1.18571386E-1,-1.12754494E-1,-5.0260518E-2,-1.3295539E-2,-1.6205922E-2,-2.6168179E-2,-3.128326E-1,3.2559883E-2,-2.039783E-2,4.400744E-1,3.338679E-2,-2.3990836E0,2.896644E-3,-3.4043974E-1,4.6626005E-1,-3.1324452E-1,-5.581425E-2,-2.9899576E-1,-3.4599334E-1,1.2838991E-1,-1.5196899E-2,-1.1029441E-2,-1.6796455E-2,1.2298232E-2,-3.469383E-1,1.961052E-2,-4.3309223E-2,-1.6198225E-2,-3.399502E-1,1.3429959E-1,-2.28923E-1,3.0454803E-1,4.2294976E-1,-3.7222985E-2,-4.0645365E-2,-4.0031394E-1,2.250865E-1,-2.97438E-1,3.1569266E-1,-8.308858E-2,-2.2286311E-1,2.864077E-1,2.504794E-1,-3.4197438E-1,2.5218138E-1,-2.4275E-1,4.470972E-1,-1.9110125E-1,2.0095418E-1,-3.4168264E-1,-3.22105E-1,4.2029986E-1,-2.287487E-1,4.4879666E-1,5.0612736E-2,-2.227809E-1,3.503317E-1,-3.4302056E-2,1.6665967E-1,-1.4070259E-1,-2.512864E-1,3.0253097E-1,-3.2425663E-1,2.694166E-1,-2.6658624E-1,3.417549E-1,2.9299358E-1,-2.4802528E-1],"split_indices":[25,4,26,26,38,20,12,33,28,40,40,52,55,33,52,55,57,52,4,11,8,11,0,12,52,45,5,26,24,26,63,4,33,34,6,42,20,57,27,0,0,5,0,37,28,12,0,0,0,33,0,0,0,49,40,57,3,0,5,19,45,0,0,0,0,0,0,0,0,0,0,0,0,0,0,0,0,0,0,0,0,0,0,0,0,0,0,0,0,0,0,0,0,0,0,0,0,0,0,0,0],"split_type":[0,0,0,0,0,0,0,0,0,0,0,0,0,0,0,0,0,0,0,0,0,0,0,0,0,0,0,0,0,0,0,0,0,0,0,0,0,0,0,0,0,0,0,0,0,0,0,0,0,0,0,0,0,0,0,0,0,0,0,0,0,0,0,0,0,0,0,0,0,0,0,0,0,0,0,0,0,0,0,0,0,0,0,0,0,0,0,0,0,0,0,0,0,0,0,0,0,0,0,0,0],"sum_hessian":[1.3362867E3,5.911474E2,7.4513934E2,5.219198E2,6.9227615E1,2.6530164E2,4.798377E2,3.4818674E2,1.7373306E2,1.1233718E1,5.7993893E1,2.2477258E2,4.0529053E1,3.1695676E2,1.6288094E2,7.246469E1,2.7572205E2,6.866016E1,1.05072914E2,3.2877676E0,7.9459505E0,1.4231474E1,4.376242E1,2.1471114E2,1.0061446E1,1.3708558E1,2.6820494E1,2.6281912E1,2.9067484E2,1.03910255E2,5.8970684E1,6.693536E1,5.5293307E0,7.050542E1,2.0521664E2,3.256293E1,3.6097225E1,1.9715073E1,8.535784E1,2.1935942E0,1.0941733E0,4.366506E0,3.5794446E0,4.2068796E0,1.0024594E1,1.3806938E1,2.009042E2,1.074965E0,8.986482E0,9.6722765E0,4.036282E0,2.5797108E1,1.0233856E0,2.6365132E0,2.36454E1,1.5738382E2,1.3329103E2,9.048337E1,1.3426886E1,9.250306E0,4.972038E1,6.589257E1,1.0427895E0,1.6736563E0,3.8556743E0,2.867876E1,4.1826656E1,1.8028012E2,2.4936514E1,4.2933807E0,2.826955E1,1.4810296E1,2.128693E1,1.4796944E1,4.918129E0,8.2359116E1,2.9987245E0,2.7744384E0,1.5920676E0,3.125191E0,1.0816884E0,1.3702093E0,8.654386E0,1.2764878E1,1.0420601E0,1.7770848E0,7.895191E0,1.002028E0,1.6344851E0,2.2139923E1,1.5054772E0,4.9555016E1,1.07828804E2,1.2759144E2,5.699588E0,9.216295E0,4.21059E0,2.4505782E0,6.799728E0,2.0195181E0,4.7700863E1],"tree_param":{"num_deleted":"0","num_feature":"64","num_nodes":"101","size_leaf_vector":"0"}},{"base_weights":[-3.9040706E-1,-9.005747E-2,-5.741529E-1,2.896676E-1,-2.4204457E-1,-8.9400476E-1,-3.8781908E-1,4.437958E-1,-8.2159775E-1,-3.5520542E-1,4.2633873E-1,-1.0271327E0,-2.8862253E-1,-6.411074E-2,-6.244874E-1,-6.5266556E-1,6.156371E-1,-1.1280203E0,8.299221E-1,3.5651088E-2,-5.5993176E-1,-1.1052371E0,5.4858273E-1,9.571153E-3,-1.0603738E0,5.9291935E-1,-8.750728E-1,-2.7762395E-1,1.2514473E0,-8.6485076E-1,-3.633943E-1,-1.2598586E0,6.085123E-1,-6.7788434E-1,8.079489E-1,-8.2871936E-2,1.3933221E0,-2.904608E-1,-8.7671375E-1,8.1447506E-1,-1.0427994E-1,-8.627934E-1,7.1621794E-1,3.412722E-1,-1.0722209E0,-1.2119771E-1,1.2754453E0,4.698108E-1,-1.0430204E0,1.0270021E-1,-7.3645157E-1,-1.0028133E0,1.8431014E0,1.0844625E-1,-9.6036863E-1,-6.0651267E-1,3.9678812E-1,-6.165592E-1,9.948103E-1,-1.0102915E0,5.962651E-1,-5.388456E-1,9.620878E-1,4.0492322E-2,-1.1559018E0,-6.4973027E-1,1.798743E0,9.265718E-1,-5.2436787E-1,-4.835708E-1,-1.1421691E0,-1.0852373E0,9.606164E-1,-5.727467E-1,8.5907537E-1,1.1864314E0,-1.4847142E-1,-1.0905929E0,-6.1560345E-1,-1.1501567E0,1.0799047E0,-3.9691696E-1,1.773016E0,1.1802138E0,-6.6261023E-1,-1.1109923E0,3.5816985E-1,-8.990143E-1,3.177829E-1,-8.91922E-1,3.1009552E-1,1.1799042E0,2.5949636E0,1.9673711E0,-4.0054855E-1,-9.915549E-1,1.433402E0,-7.973655E-1,2.0540826E-1,1.3691167E0,-1.1449136E-1],"categories":[],"categories_nodes":[],"categories_segments":[],"categories_sizes":[],"default_left":[true,false,false,false,false,false,false,false,true,true,true,false,false,true,false,false,false,false,false,true,false,false,false,true,false,false,false,true,false,false,true,false,false,false,true,true,true,false,false,true,true,false,false,false,true,false,false,false,false,true,true,false,false,false,true,true,false,false,false,false,false,false,false,false,false,false,false,false,false,false,false,false,false,false,false,false,false,false,false,false,false,false,false,false,false,false,false,false,false,false,false,false,false,false,false,false,false,false,false,false,false],"id":6,"left_children":[1,3,5,7,9,11,13,15,17,19,21,23,25,27,29,31,33,-1,-1,35,37,-1,39,41,43,45,47,49,51,53,55,-1,57,59,61,63,65,67,69,71,73,-1,75,-1,77,79,81,83,85,87,89,-1,91,93,95,97,99,-1,-1,-1,-1,-1,-1,-1,-1,-1,-1,-1,-1,-1,-1,-1,-1,-1,-1,-1,-1,-1,-1,-1,-1,-1,-1,-1,-1,-1,-1,-1,-1,-1,-1,-1,-1,-1,-1,-1,-1,-1,-1,-1,-1],"loss_changes":[6.476816E1,2.5867754E1,4.3073242E1,2.2326958E1,2.4337154E1,2.1255539E1,3.5363358E1,2.1741522E1,9.017521E0,2.1946285E1,9.359946E0,7.5509186E0,2.615944E1,5.54813E1,1.6431381E1,1.288937E1,2.503236E1,0E0,0E0,1.542341E1,1.5100948E1,0E0,7.7171755E0,5.419711E0,3.886795E0,1.0102297E1,7.308405E0,2.9687727E1,3.864594E1,1.295285E1,2.4197315E1,0E0,3.3671682E0,6.228324E0,1.8401321E1,1.1753434E1,7.541712E0,2.8581985E1,8.025032E0,9.74777E0,6.634541E0,0E0,2.1480355E0,0E0,1.0944366E0,1.4697392E1,9.459629E0,4.032661E0,2.983406E0,2.0465296E1,1.2810188E1,0E0,8.011009E0,1.3324766E1,1.0824333E1,1.5444195E1,1.607252E1,0E0,0E0,0E0,0E0,0E0,0E0,0E0,0E0,0E0,0E0,0E0,0E0,0E0,0E0,0E0,0E0,0E0,0E0,0E0,0E0,0E0,0E0,0E0,0E0,0E0,0E0,0E0,0E0,0E0,0E0,0E0,0E0,0E0,0E0,0E0,0E0,0E0,0E0,0E0,0E0,0E0,0E0,0E0,0E0],"parents":[2147483647,0,0,1,1,2,2,3,3,4,4,5,5,6,6,7,7,8,8,9,9,10,10,11,11,12,12,13,13,14,14,15,15,16,16,19,19,20,20,22,22,23,23,24,24,25,25,26,26,27,27,28,28,29,29,30,30,32,32,33,33,34,34,35,35,36,36,37,37,38,38,39,39,40,40,42,42,44,44,45,45,46,46,47,47,48,48,49,49,50,50,52,52,53,53,54,54,55,55,56,56],"right_children":[2,4,6,8,10,12,14,16,18,20,22,24,26,28,30,32,34,-1,-1,36,38,-1,40,42,44,46,48,50,52,54,56,-1,58,60,62,64,66,68,70,72,74,-1,76,-1,78,80,82,84,86,88,90,-1,92,94,96,98,100,-1,-1,-1,-1,-1,-1,-1,-1,-1,-1,-1,-1,-1,-1,-1,-1,-1,-1,-1,-1,-1,-1,-1,-1,-1,-1,-1,-1,-1,-1,-1,-1,-1,-1,-1,-1,-1,-1,-1,-1,-1,-1,-1,-1],"split_conditions":[-2.4227507E-2,-1.652386E-2,-3.0974682E-2,-1.0150177E-2,-3.0954268E-2,-1.0858358E-2,-1.4855929E-2,1.0433751E-2,-7.866142E-3,-3.798225E-1,-3.4528047E-1,-1.6499025E-1,9.2058E-3,1.2652582E-2,-3.0403044E-2,5.9197027E-2,-6.990697E-2,-3.384061E-1,2.4897663E-1,1.0752516E-2,-1.6275067E-2,-3.3157116E-1,-1.4607389E-2,-4.6090923E-2,-6.0689617E-2,9.688815E-3,1.5034114E-3,-3.091834E-2,1.5373451E-2,-3.7009288E-2,-1.6650267E-2,-3.779576E-1,-1.8195266E-2,1.0002404E-6,-7.195236E-3,-1.1977414E-2,-4.155615E-1,1.6191232E-3,-1.2429503E-1,-8.31109E-2,8.868551E-2,-2.5883803E-1,5.9257005E-3,1.0238167E-1,3.0639216E-2,-1.639101E-2,-3.0998461E-2,-4.1098047E-2,7.84055E-1,-7.903707E-2,-1.5195001E-2,-3.00844E-1,2.5575288E-2,-5.59762E-2,2.0345595E0,4.8026514E-1,-1.1135576E-2,-1.8496777E-1,2.984431E-1,-3.0308744E-1,1.7887953E-1,-1.6165368E-1,2.8862634E-1,1.2147698E-2,-3.4677055E-1,-1.949191E-1,5.396229E-1,2.7797154E-1,-1.5731037E-1,-1.4507125E-1,-3.4265074E-1,-3.2557118E-1,2.8818494E-1,-1.7182401E-1,2.5772262E-1,3.5592943E-1,-4.4541426E-2,-3.2717788E-1,-1.8468104E-1,-3.4504703E-1,3.2397142E-1,-1.1907509E-1,5.319048E-1,3.5406417E-1,-1.9878308E-1,-3.332977E-1,1.0745096E-1,-2.697043E-1,9.533488E-2,-2.675766E-1,9.302866E-2,3.5397127E-1,7.784891E-1,5.9021133E-1,-1.20164566E-1,-2.974665E-1,4.300206E-1,-2.3920965E-1,6.162248E-2,4.10735E-1,-3.4347408E-2],"split_indices":[25,57,26,40,26,20,45,4,47,21,23,8,18,4,26,29,33,0,0,55,57,0,45,50,39,22,38,26,48,43,57,0,57,26,30,20,28,18,8,63,2,0,61,0,52,57,26,36,63,63,31,0,48,39,36,28,40,0,0,0,0,0,0,0,0,0,0,0,0,0,0,0,0,0,0,0,0,0,0,0,0,0,0,0,0,0,0,0,0,0,0,0,0,0,0,0,0,0,0,0,0],"split_type":[0,0,0,0,0,0,0,0,0,0,0,0,0,0,0,0,0,0,0,0,0,0,0,0,0,0,0,0,0,0,0,0,0,0,0,0,0,0,0,0,0,0,0,0,0,0,0,0,0,0,0,0,0,0,0,0,0,0,0,0,0,0,0,0,0,0,0,0,0,0,0,0,0,0,0,0,0,0,0,0,0,0,0,0,0,0,0,0,0,0,0,0,0,0,0,0,0,0,0,0,0],"sum_hessian":[1.1735287E3,4.459964E2,7.275323E2,1.2722676E2,3.1876962E2,2.6641647E2,4.611158E2,1.1225769E2,1.4969068E1,2.7301526E2,4.5754375E1,2.1781964E2,4.859683E1,1.9528345E2,2.6583237E2,1.4830596E1,9.742709E1,1.2893745E1,2.0753214E0,9.413046E1,1.788848E2,2.7876096E0,4.2966766E1,6.7893343E0,2.1103032E2,1.940961E1,2.918722E1,1.6869366E2,2.6589773E1,1.3720682E2,1.2862556E2,1.0011577E1,4.81902E0,1.2283213E1,8.514388E1,8.743633E1,6.694125E0,9.7696266E1,8.118852E1,3.0356062E1,1.26107025E1,2.9395068E0,3.8498275E0,1.5356888E0,2.0949463E2,9.887202E0,9.522408E0,3.040695E0,2.6146524E1,9.266195E1,7.6031715E1,5.3834314E0,2.1206343E1,1.2249802E1,1.24957016E2,9.761037E1,3.1015196E1,1.012379E0,3.8066409E0,9.905973E0,2.377239E0,8.487573E0,7.665631E1,7.9283516E1,8.152816E0,1.0086403E0,5.685485E0,1.5272301E1,8.2423965E1,3.386124E1,4.7327286E1,1.7093987E0,2.8646664E1,8.75751E0,3.8531923E0,2.2527204E0,1.597107E0,2.0005699E2,9.437634E0,5.348054E0,4.539149E0,2.2298954E0,7.2925124E0,1.8425819E0,1.198113E0,2.5134361E1,1.0121636E0,1.5816976E1,7.684498E1,6.632632E1,9.705398E0,1.2632695E1,8.5736475E0,2.01726E0,1.0232542E1,1.23928246E2,1.0287724E0,7.9047195E1,1.856317E1,1.0110215E1,2.0904982E1],"tree_param":{"num_deleted":"0","num_feature":"64","num_nodes":"101","size_leaf_vector":"0"}},{"base_weights":[-3.2652393E-1,-1.2122271E-1,-5.452153E-1,2.3477346E-1,-2.4943176E-1,-9.252993E-1,-3.642908E-1,-3.53479E-1,5.4999644E-1,-1.17261216E-1,-1.0011772E0,8.7003715E-2,-9.7853464E-1,-1.3277298E-1,-6.1759347E-1,7.6386946E-1,-1.1293894E0,-3.58258E-1,7.863681E-1,-2.2697501E-1,4.5725775E-1,-1.0645818E0,8.5242647E-1,6.181982E-1,-8.218771E-1,-1.0039581E0,1.2156854E-1,-7.8049093E-1,2.7869675E-2,-7.760192E-1,3.0305758E-1,-6.55038E-1,9.959049E-1,-2.4262919E-1,-1.1524673E0,-9.2402095E-1,5.556429E-1,-1.0825063E0,9.3151444E-1,-1.0538636E0,-1.2081968E-1,6.847699E-1,-2.5072402E-1,-4.334175E-1,-1.2289177E0,1.0213603E0,-2.9403818E-1,-7.790765E-1,-1.0881854E0,-7.228289E-1,8.759097E-1,-1.0711803E0,2.820496E-1,-9.6817434E-2,7.1296436E-1,7.198205E-1,-8.2720506E-1,-1.0445647E0,7.6279515E-1,-9.065961E-1,-1.5804509E-2,1.1549274E0,-6.8008024E-1,-1.0334978E0,1.6751996E-1,1.0052935E0,-8.593501E-1,1.4118694E0,3.4612995E-1,1.0109948E0,-1.7750324E-1,9.120244E-1,-4.2136303E-1,-6.6098756E-1,6.3979876E-1,-8.473577E-1,9.8523504E-1,3.4446E-1,1.2032425E0,3.0194494E-1,-9.6737576E-1,9.38732E-2,-1.1895992E0,-7.3732334E-1,1.6223054E0,3.310269E-1,-4.76521E-1,9.8632026E-1,-8.860885E-1,-7.8932816E-1,2.322175E0,-2.7969682E-1,-9.9866873E-1,-8.757871E-1,1.0844096E0],"categories":[],"categories_nodes":[],"categories_segments":[],"categories_sizes":[],"default_left":[false,false,false,true,false,true,false,true,true,false,false,false,true,false,true,true,true,false,false,false,false,false,false,true,false,false,false,true,true,true,true,true,false,false,false,false,true,false,false,false,false,false,true,false,false,true,false,false,false,false,false,false,false,false,false,false,false,false,true,false,false,false,false,false,false,false,false,false,false,false,false,false,false,false,false,false,false,false,false,false,false,false,false,false,false,false,false,false,false,false,false,false,false,false,false],"id":7,"left_children":[1,3,5,7,9,11,13,15,17,19,21,23,25,27,29,31,33,35,37,39,41,43,-1,45,-1,47,49,51,53,55,57,59,61,-1,-1,63,65,-1,67,-1,69,71,73,75,-1,77,-1,79,-1,-1,-1,81,83,85,87,89,91,-1,93,-1,-1,-1,-1,-1,-1,-1,-1,-1,-1,-1,-1,-1,-1,-1,-1,-1,-1,-1,-1,-1,-1,-1,-1,-1,-1,-1,-1,-1,-1,-1,-1,-1,-1,-1,-1],"loss_changes":[4.6710846E1,2.4644337E1,3.4334427E1,2.673781E1,3.9280468E1,8.812775E0,2.0046978E1,4.4689354E1,2.0374708E1,2.1431725E1,7.860214E0,4.85786E0,4.4275665E0,1.8813936E1,2.4102062E1,7.669756E0,3.3918E-1,1.0861898E1,2.1238476E1,2.486996E1,8.964233E0,5.4466476E0,0E0,2.6015124E0,0E0,2.0042572E0,3.416184E0,1.13984165E1,1.2513352E1,1.130632E1,1.6126574E1,5.6438696E-1,5.7734222E0,0E0,0E0,1.6952105E0,6.1302676E0,0E0,1.9121944E1,0E0,1.6443207E1,1.0836239E1,5.5405283E0,8.735292E0,0E0,1.4728546E-1,0E0,9.360319E0,0E0,0E0,0E0,4.0321655E0,1.2821049E1,2.0322994E1,1.0731147E1,1.4318645E1,1.2462509E1,0E0,1.0976947E1,0E0,0E0,0E0,0E0,0E0,0E0,0E0,0E0,0E0,0E0,0E0,0E0,0E0,0E0,0E0,0E0,0E0,0E0,0E0,0E0,0E0,0E0,0E0,0E0,0E0,0E0,0E0,0E0,0E0,0E0,0E0,0E0,0E0,0E0,0E0,0E0],"parents":[2147483647,0,0,1,1,2,2,3,3,4,4,5,5,6,6,7,7,8,8,9,9,10,10,11,11,12,12,13,13,14,14,15,15,16,16,17,17,18,18,19,19,20,20,21,21,23,23,25,25,26,26,27,27,28,28,29,29,30,30,31,31,32,32,35,35,36,36,38,38,40,40,41,41,42,42,43,43,45,45,47,47,51,51,52,52,53,53,54,54,55,55,56,56,58,58],"right_children":[2,4,6,8,10,12,14,16,18,20,22,24,26,28,30,32,34,36,38,40,42,44,-1,46,-1,48,50,52,54,56,58,60,62,-1,-1,64,66,-1,68,-1,70,72,74,76,-1,78,-1,80,-1,-1,-1,82,84,86,88,90,92,-1,94,-1,-1,-1,-1,-1,-1,-1,-1,-1,-1,-1,-1,-1,-1,-1,-1,-1,-1,-1,-1,-1,-1,-1,-1,-1,-1,-1,-1,-1,-1,-1,-1,-1,-1,-1,-1],"split_conditions":[5.726057E-3,-1.6571295E-2,-3.0974546E-2,-1.1607289E-1,-2.2470735E-2,-2.5233763E-1,2.8372552E-2,-1.3183585E-1,-6.1507978E-2,-3.0973136E-2,2.6396116E-2,-5.847827E-2,3.5797093E-2,-4.0860802E-2,1.1960123E-2,-2.6512401E-2,-1.3426168E-1,-3.098676E-2,1.0406104E-2,-7.2332054E-2,-1.4495355E-2,1.0726765E-2,2.5572795E-1,-3.3370464E-3,-2.4656315E-1,1.1261834E-2,5.7543177E-2,-1.51317455E-2,6.448521E-3,1.8595443E-4,-5.6021962E-2,-1.9564543E-2,6.7509543E-3,-7.278876E-2,-3.457402E-1,-1.0523027E-2,-8.476123E-2,-3.247519E-1,1.0981484E-2,-3.161591E-1,-1.6523223E-2,-1.0944164E-2,8.868551E-2,9.997748E-7,-3.6867532E-1,-1.674371E-1,-8.8211454E-2,-1.6632725E-2,-3.2645565E-1,-2.1684869E-1,2.6277292E-1,-7.079172E-2,-5.2053124E-2,-4.0621616E-2,2.1835282E-2,1.1856489E-1,-1.7553538E-2,-3.1336942E-1,-8.632356E-1,-2.7197886E-1,-4.741353E-3,3.4647822E-1,-2.0402408E-1,-3.1004936E-1,5.0255988E-2,3.0158806E-1,-2.5780505E-1,4.2356083E-1,1.0383899E-1,3.0329844E-1,-5.3250976E-2,2.736073E-1,-1.2640892E-1,-1.9829628E-1,1.9193964E-1,-2.542073E-1,2.9557052E-1,1.0333801E-1,3.6097276E-1,9.058349E-2,-2.9021275E-1,2.8161962E-2,-3.5687977E-1,-2.2119701E-1,4.8669162E-1,9.930808E-2,-1.429563E-1,2.9589608E-1,-2.6582655E-1,-2.3679845E-1,6.9665253E-1,-8.390905E-2,-2.9960063E-1,-2.6273614E-1,3.253229E-1],"split_indices":[12,57,26,21,11,34,23,21,33,26,48,39,48,36,50,11,34,26,4,33,45,30,0,50,0,55,19,59,60,5,63,31,38,0,0,46,8,0,18,0,57,40,2,20,0,10,0,57,0,0,0,33,19,33,41,33,57,0,28,0,0,0,0,0,0,0,0,0,0,0,0,0,0,0,0,0,0,0,0,0,0,0,0,0,0,0,0,0,0,0,0,0,0,0,0],"split_type":[0,0,0,0,0,0,0,0,0,0,0,0,0,0,0,0,0,0,0,0,0,0,0,0,0,0,0,0,0,0,0,0,0,0,0,0,0,0,0,0,0,0,0,0,0,0,0,0,0,0,0,0,0,0,0,0,0,0,0,0,0,0,0,0,0,0,0,0,0,0,0,0,0,0,0,0,0,0,0,0,0,0,0,0,0,0,0,0,0,0,0,0,0,0,0],"sum_hessian":[1.0408582E3,5.376665E2,5.031916E2,1.4214458E2,3.9552194E2,1.6095181E2,3.4223978E2,4.9551964E1,9.259261E1,3.373633E2,5.815863E1,8.009622E0,1.5294218E2,1.7960529E2,1.6263449E2,2.031414E1,2.9237823E1,1.9014402E1,7.357821E1,2.837765E2,5.358683E1,5.6646637E1,1.5119922E0,5.2569985E0,2.7526228E0,1.4957294E2,3.3692458E0,3.492553E1,1.4467976E2,1.3889119E2,2.3743313E1,2.598878E0,1.7715263E1,1.0336468E0,2.8204176E1,1.1737233E1,7.2771697E0,4.837214E0,6.8741E1,3.1270422E1,2.5250606E2,4.0579323E1,1.3007508E1,1.2453582E1,4.4193054E1,3.5627997E0,1.6941988E0,4.3549156E1,1.0602379E2,1.6094393E0,1.7598064E0,2.7416737E1,7.5087914E0,1.2312898E2,2.1550772E1,4.1632338E0,1.3472795E2,5.715998E0,1.8027315E1,1.5648184E0,1.0340594E0,1.6464006E1,1.2512571E0,1.0715673E1,1.02156E0,5.742032E0,1.5351374E0,3.6982235E1,3.1758759E1,1.1239929E1,2.4126613E2,3.3808804E1,6.770518E0,9.081444E0,3.9260645E0,9.952348E0,2.501234E0,1.3674616E0,2.1953382E0,6.370831E0,3.7178326E1,2.5487118E0,2.4868025E1,4.520471E0,2.9883206E0,5.7954693E1,6.517429E1,1.8731785E1,2.8189876E0,2.4052691E0,1.7579644E0,3.275804E1,1.0196991E2,2.6750746E0,1.535224E1],"tree_param":{"num_deleted":"0","num_feature":"64","num_nodes":"95","size_leaf_vector":"0"}},{"base_weights":[-2.7251804E-1,-1.5601015E-1,-5.7633936E-1,6.457114E-1,-2.081243E-1,-6.960083E-1,-7.5210065E-2,1.6067997E-1,2.2107027E0,-9.583825E-2,-7.145276E-1,-8.081629E-1,-7.3479526E-2,5.9562945E-1,-4.0855294E-1,8.611429E-1,-4.2793253E-1,6.706452E-1,2.6946213E0,-1.329863E-1,1.2482165E0,-9.34007E-1,-1.2572612E-1,-8.362286E-1,9.532081E-1,-7.61779E-1,4.3104956E-1,-9.3746406E-1,1.2268964E0,-7.9360443E-1,5.4120237E-1,1.1615815E0,-7.8746897E-1,-8.624325E-1,5.6859684E-1,8.5877115E-1,2.5950453E-1,1.1875274E0,3.6144397E0,1.02812245E-1,-2.8911206E-1,-9.769041E-1,1.8674277E0,-1.0168402E0,-1.515723E-1,3.1829602E-1,-1.012599E0,3.1018397E-1,-8.821786E-1,2.2451453E-1,1.2405293E0,3.8964826E-1,-1.0605884E0,9.177221E-1,-6.3329643E-1,1.5566543E0,-6.7499983E-1,-1.0424473E0,2.4512288E-1,1.1979525E0,-8.636456E-1,2.6009908E-1,1.7318277E0,5.15408E-1,-1.0216314E0,1.0414165E0,-6.681297E-1,-1.3567002E-1,9.018756E-1,-3.74507E-1,9.026713E-1,3.486105E-1,1.9844046E0,-1.4095296E-2,-1.0514948E0,-8.7557197E-1,4.2226493E-1,-6.405248E-1,1.1299387E0,1.1371046E0,-8.3925843E-1,-9.684986E-1,-3.9283395E-1,-2.0262425E-1,9.266062E-1,1.2003969E0,-4.5113984E-1,-9.182736E-1,4.784395E-1,2.1941519E0,5.883174E-1,-1.1054881E0,8.129754E-2,1.1448145E0,-8.1983477E-1,-6.1706907E-1,1.6178042E0],"categories":[],"categories_nodes":[],"categories_segments":[],"categories_sizes":[],"default_left":[false,false,true,false,false,false,false,true,true,true,true,true,false,false,false,false,false,true,true,false,true,false,false,false,true,true,true,false,false,true,false,false,false,true,false,false,false,false,false,true,true,false,false,true,false,false,false,true,false,false,false,true,false,false,true,false,false,true,true,false,false,false,false,false,false,false,false,false,false,false,false,false,false,false,false,false,false,false,false,false,false,false,false,false,false,false,false,false,false,false,false,false,false,false,false,false,false],"id":8,"left_children":[1,3,5,7,9,11,13,15,17,19,21,23,25,27,29,31,33,35,37,39,41,43,45,47,49,51,53,-1,55,57,59,61,-1,63,65,-1,-1,-1,-1,67,69,-1,71,73,75,77,-1,79,81,-1,-1,83,-1,85,87,89,-1,91,93,95,-1,-1,-1,-1,-1,-1,-1,-1,-1,-1,-1,-1,-1,-1,-1,-1,-1,-1,-1,-1,-1,-1,-1,-1,-1,-1,-1,-1,-1,-1,-1,-1,-1,-1,-1,-1,-1],"loss_changes":[3.2913055E1,2.8348742E1,1.5423424E1,3.1116096E1,3.6029274E1,1.4476585E1,1.1618078E1,1.3862839E1,5.445057E0,2.616753E1,1.4751827E1,9.512894E0,1.1747286E1,1.788541E1,1.3073463E1,8.481358E0,8.480207E0,6.007588E-2,5.512829E0,1.87191E1,2.1255161E1,5.26812E0,1.3080722E1,9.443695E0,3.9828992E-1,5.322789E0,1.0740343E1,0E0,9.004335E0,6.719097E0,1.0785163E1,6.3999424E0,0E0,3.4323425E0,4.3243923E0,0E0,0E0,0E0,0E0,3.8800903E1,3.1449526E1,0E0,1.3293381E0,2.6080017E0,4.18538E0,1.8117455E1,0E0,8.033936E0,6.700302E0,0E0,0E0,1.3553638E0,0E0,5.9072905E0,2.576504E0,5.567711E0,0E0,1.532465E0,6.3447647E0,6.8053894E0,0E0,0E0,0E0,0E0,0E0,0E0,0E0,0E0,0E0,0E0,0E0,0E0,0E0,0E0,0E0,0E0,0E0,0E0,0E0,0E0,0E0,0E0,0E0,0E0,0E0,0E0,0E0,0E0,0E0,0E0,0E0,0E0,0E0,0E0,0E0,0E0,0E0],"parents":[2147483647,0,0,1,1,2,2,3,3,4,4,5,5,6,6,7,7,8,8,9,9,10,10,11,11,12,12,13,13,14,14,15,15,16,16,17,17,18,18,19,19,20,20,21,21,22,22,23,23,24,24,25,25,26,26,28,28,29,29,30,30,31,31,33,33,34,34,39,39,40,40,42,42,43,43,44,44,45,45,47,47,48,48,51,51,53,53,54,54,55,55,57,57,58,58,59,59],"right_children":[2,4,6,8,10,12,14,16,18,20,22,24,26,28,30,32,34,36,38,40,42,44,46,48,50,52,54,-1,56,58,60,62,-1,64,66,-1,-1,-1,-1,68,70,-1,72,74,76,78,-1,80,82,-1,-1,84,-1,86,88,90,-1,92,94,96,-1,-1,-1,-1,-1,-1,-1,-1,-1,-1,-1,-1,-1,-1,-1,-1,-1,-1,-1,-1,-1,-1,-1,-1,-1,-1,-1,-1,-1,-1,-1,-1,-1,-1,-1,-1,-1],"split_conditions":[-1.4132186E-2,-4.178916E-3,1.1495596E-1,-3.0811612E-2,-2.2955062E-2,8.992208E-2,-7.2774746E-2,-8.63374E-2,3.516124E-2,2.2140181E-1,-5.393914E-2,9.5999575E-1,-2.292265E-2,-7.741006E-2,2.1657951E-2,-1.4009427E-2,-1.0097143E-2,-1.07242815E-1,-1.5625702E-2,-1.5801396E-2,-4.8510604E-2,-2.7335487E-2,-1.4795313E-2,-7.9952024E-2,-5.514088E-2,4.8676424E-2,-1.5681598E-2,-2.8123924E-1,-3.930419E-3,3.169576E-1,-3.3059712E-3,-4.8589725E-2,-2.362407E-1,-6.289899E-2,-4.6543904E-2,2.5763136E-1,7.785136E-2,3.5625824E-1,1.084332E0,1.2356046E-2,6.520906E-2,-2.9307124E-1,-5.6078903E-2,-2.5231212E-1,-1.7469648E-2,-4.380909E-3,-3.0377972E-1,4.7832523E-3,-2.3461108E-3,6.735436E-2,3.721588E-1,-1.3476671E-2,-3.181765E-1,-5.1030726E-3,5.126819E-1,-2.2594298E-3,-2.0249996E-1,1.1208143E-1,1.9799603E-2,-3.370646E-3,-2.590937E-1,7.802973E-2,5.1954836E-1,1.546224E-1,-3.064894E-1,3.1242496E-1,-2.0043892E-1,-4.070101E-2,2.705627E-1,-1.1235211E-1,2.708014E-1,1.0458315E-1,5.953214E-1,-4.228589E-3,-3.1544846E-1,-2.626716E-1,1.2667948E-1,-1.9215745E-1,3.3898163E-1,3.411314E-1,-2.5177753E-1,-2.9054958E-1,-1.1785019E-1,-6.0787275E-2,2.7798188E-1,3.6011907E-1,-1.3534196E-1,-2.754821E-1,1.4353186E-1,6.5824556E-1,1.7649522E-1,-3.3164644E-1,2.4389263E-2,3.4344435E-1,-2.4595045E-1,-1.8512073E-1,4.8534128E-1],"split_indices":[45,29,33,43,25,53,63,34,9,23,27,36,32,63,44,46,20,0,59,45,28,26,45,14,1,2,59,0,44,60,61,42,0,24,42,0,0,0,0,4,60,0,33,34,57,44,0,5,26,0,0,59,0,26,28,39,0,5,24,61,0,0,0,0,0,0,0,0,0,0,0,0,0,0,0,0,0,0,0,0,0,0,0,0,0,0,0,0,0,0,0,0,0,0,0,0,0],"split_type":[0,0,0,0,0,0,0,0,0,0,0,0,0,0,0,0,0,0,0,0,0,0,0,0,0,0,0,0,0,0,0,0,0,0,0,0,0,0,0,0,0,0,0,0,0,0,0,0,0,0,0,0,0,0,0,0,0,0,0,0,0,0,0,0,0,0,0,0,0,0,0,0,0,0,0,0,0,0,0,0,0,0,0,0,0,0,0,0,0,0,0,0,0,0,0,0,0],"sum_hessian":[9.31351E2,6.742909E2,2.5706015E2,4.0460354E1,6.338305E2,2.0719371E2,4.986644E1,3.1729296E1,8.73106E0,5.197699E2,1.1406061E2,1.7531146E2,3.1882242E1,1.6292196E1,3.3574245E1,1.427669E1,1.7452606E1,2.657979E0,6.0730815E0,5.066673E2,1.3102618E1,8.2661674E1,3.1398933E1,1.7307887E2,2.2326002E0,1.3269525E1,1.8612717E1,4.610382E0,1.1681814E1,2.4006073E1,9.568172E0,1.2325873E1,1.950816E0,1.224722E1,5.2053857E0,1.0766037E0,1.5813754E0,3.170068E0,2.9030132E0,2.0197044E2,3.0469684E2,2.726684E0,1.0375935E1,7.4477455E1,8.184217E0,2.1350624E1,1.0048309E1,6.4483204E0,1.6663055E2,1.1351303E0,1.0974699E0,2.6714394E0,1.0598085E1,1.2867025E1,5.7456923E0,1.0110366E1,1.5714482E0,1.9363638E1,4.6424356E0,6.620458E0,2.9477148E0,5.3400655E0,6.9858074E0,1.0367556E0,1.12104645E1,3.8799472E0,1.3254387E0,1.5618645E2,4.5783985E1,2.8496405E2,1.9732798E1,1.026616E0,9.3493185E0,2.5349357E0,7.194252E1,3.3861527E0,4.7980647E0,9.884528E0,1.1466097E1,3.7565522E0,2.6917684E0,1.4081221E2,2.5818344E1,1.5663626E0,1.1050769E0,1.0766727E1,2.1002972E0,4.7118874E0,1.0338048E0,5.3333178E0,4.777048E0,1.8350447E1,1.0131903E0,2.4758315E0,2.166604E0,1.1554987E0,5.464959E0],"tree_param":{"num_deleted":"0","num_feature":"64","num_nodes":"97","size_leaf_vector":"0"}},{"base_weights":[-2.1889582E-1,-3.0572593E-1,1.7721903E-1,5.8891088E-2,-4.054086E-1,2.505024E-1,-7.516216E-1,7.2825265E-1,-2.459107E-1,-9.4575524E-1,-2.6886395E-1,-9.5380807E-1,2.9577965E-1,-1.0122356E0,7.017758E-1,9.0240335E-1,-7.4202603E-1,4.4056523E-1,-4.3841785E-1,-9.713607E-1,3.0920315E-1,-1.0741161E-1,-6.5011907E-1,-1.2745322E0,1.4204574E-1,8.161567E-1,1.5192457E-1,-8.1882244E-1,9.757783E-1,-9.218438E-1,3.9315537E-2,-3.5223645E-1,1.0015461E0,-5.48126E-1,7.3202145E-1,-1.0010133E0,-2.4048366E-1,-9.881171E-1,-3.0386137E-2,-1.0395377E0,-4.297365E-1,-4.449545E-1,9.820662E-1,3.321759E-2,8.0026215E-1,2.2740282E-1,1.1549332E0,5.14494E-1,-7.533855E-1,1.3705524E0,-8.132655E-1,-8.569568E-1,-1.1052189E-1,1.2117677E0,-7.794285E-1,-1.0219646E0,1.09794445E-1,3.6199564E-1,-8.329452E-1,-1.1564673E0,1.444337E0,7.6396205E-2,-6.69833E-1,-2.1725249E-2,-1.062979E0,1.4250263E0,-5.3516763E-1,-1.1327175E0,7.16577E-1,1.0959616E0,-4.3711832E-1,2.5319296E-1,-3.2599333E-1,1.1599072E0,-3.4678188E-1],"categories":[],"categories_nodes":[],"categories_segments":[],"categories_sizes":[],"default_left":[false,true,false,true,true,false,true,false,false,true,false,false,true,false,false,false,false,false,true,true,false,false,true,false,false,true,false,false,true,false,false,false,true,false,false,false,true,false,false,true,false,true,false,false,false,false,false,false,false,false,false,false,false,false,false,false,false,false,false,false,false,false,false,false,false,false,false,false,false,false,false,false,false,false,false],"id":9,"left_children":[1,3,5,7,9,11,13,15,17,19,21,23,25,-1,-1,27,29,31,33,35,-1,37,39,-1,-1,41,43,-1,45,-1,-1,47,49,51,53,55,57,59,61,63,65,67,69,71,73,-1,-1,-1,-1,-1,-1,-1,-1,-1,-1,-1,-1,-1,-1,-1,-1,-1,-1,-1,-1,-1,-1,-1,-1,-1,-1,-1,-1,-1,-1],"loss_changes":[2.9366226E1,2.5443123E1,1.0661125E1,3.0991364E1,4.027717E1,8.0990095E0,5.066757E0,1.2833427E1,1.4005392E1,3.848503E0,2.700963E1,2.0898662E0,1.0275773E1,0E0,0E0,6.2203064E0,8.201959E-1,1.0755154E1,1.0947124E1,2.1096878E0,0E0,2.1016243E1,1.0768166E1,0E0,0E0,6.684332E0,8.444355E0,0E0,5.3185196E0,0E0,0E0,4.0146723E0,1.0461638E1,1.0130705E1,6.3585944E0,2.530426E0,2.2806718E0,1.1875177E1,1.9602167E1,1.0868759E0,1.7414738E1,4.134657E0,4.7946663E0,7.516179E0,7.411273E0,0E0,0E0,0E0,0E0,0E0,0E0,0E0,0E0,0E0,0E0,0E0,0E0,0E0,0E0,0E0,0E0,0E0,0E0,0E0,0E0,0E0,0E0,0E0,0E0,0E0,0E0,0E0,0E0,0E0,0E0],"parents":[2147483647,0,0,1,1,2,2,3,3,4,4,5,5,6,6,7,7,8,8,9,9,10,10,11,11,12,12,15,15,16,16,17,17,18,18,19,19,21,21,22,22,25,25,26,26,28,28,31,31,32,32,33,33,34,34,35,35,36,36,37,37,38,38,39,39,40,40,41,41,42,42,43,43,44,44],"right_children":[2,4,6,8,10,12,14,16,18,20,22,24,26,-1,-1,28,30,32,34,36,-1,38,40,-1,-1,42,44,-1,46,-1,-1,48,50,52,54,56,58,60,62,64,66,68,70,72,74,-1,-1,-1,-1,-1,-1,-1,-1,-1,-1,-1,-1,-1,-1,-1,-1,-1,-1,-1,-1,-1,-1,-1,-1,-1,-1,-1,-1,-1,-1],"split_conditions":[-7.3121507E-3,-3.12894E-2,2.4534697E-2,-6.156598E-2,-6.194794E-2,-8.894401E-3,1.14924096E-1,1.3180824E-2,-3.2182887E-2,4.6135128E-1,1.2856387E-2,4.1445095E-2,-3.229689E-1,-3.036707E-1,2.1053274E-1,-2.0952621E-1,8.744465E-2,-1.8773932E-2,-3.133653E-2,-1.0528628E-2,9.276095E-2,1.1198936E-2,-5.3909328E-2,-3.8235968E-1,4.2613722E-2,-8.341412E-2,2.5846276E-2,-2.4564674E-1,-4.4769275E-1,-2.7655315E-1,1.1794661E-2,-1.03205405E-2,-6.299448E-2,-4.6657465E-2,-2.908165E-4,2.5073872E1,1.7244037E-2,-3.8498393E-3,1.4178047E-2,-5.888051E-1,-5.311269E-2,4.0291837E-1,-4.382404E-2,-8.064784E-2,-1.3779591E-2,6.822085E-2,3.4647998E-1,1.5434821E-1,-2.2601566E-1,4.1116574E-1,-2.4397966E-1,-2.5708705E-1,-3.315657E-2,3.635303E-1,-2.3382856E-1,-3.0658937E-1,3.2938335E-2,1.08598694E-1,-2.4988358E-1,-3.4694022E-1,4.3330112E-1,2.2918861E-2,-2.009499E-1,-6.5175747E-3,-3.188937E-1,4.275079E-1,-1.605503E-1,-3.3981526E-1,2.149731E-1,3.287885E-1,-1.3113551E-1,7.5957894E-2,-9.7798005E-2,3.4797218E-1,-1.04034565E-1],"split_indices":[20,26,38,33,33,44,14,55,15,19,4,42,34,0,0,52,27,8,26,40,0,4,27,0,0,27,48,0,35,0,0,29,63,39,29,27,1,31,12,34,53,63,39,23,49,0,0,0,0,0,0,0,0,0,0,0,0,0,0,0,0,0,0,0,0,0,0,0,0,0,0,0,0,0,0],"split_type":[0,0,0,0,0,0,0,0,0,0,0,0,0,0,0,0,0,0,0,0,0,0,0,0,0,0,0,0,0,0,0,0,0,0,0,0,0,0,0,0,0,0,0,0,0,0,0,0,0,0,0,0,0,0,0,0,0,0,0,0,0,0,0,0,0,0,0,0,0,0,0,0,0,0,0],"sum_hessian":[8.512258E2,6.983685E2,1.5285725E2,1.5002385E2,5.483447E2,1.42356E2,1.0501251E1,4.6505634E1,1.0351821E2,1.0941834E2,4.3892636E2,4.431025E0,1.3792497E2,9.16193E0,1.339321E0,4.1925865E1,4.579772E0,2.2389437E1,8.112878E1,1.07451935E2,1.9664062E0,3.0924875E2,1.2967763E2,3.301673E0,1.1293519E0,2.8858746E1,1.0906623E2,1.2988191E0,4.0627045E1,3.576789E0,1.0029831E0,9.431936E0,1.29575E1,7.466219E1,6.466577E0,1.0290726E2,4.5446777E0,2.3920015E1,2.8532874E2,4.5522274E1,8.415535E1,3.1596577E0,2.5699087E1,9.3075806E1,1.5990422E1,8.285543E0,3.23415E1,2.8948078E0,6.537129E0,1.0971465E1,1.9860357E0,4.3209568E1,3.145263E1,5.0590644E0,1.4075125E0,1.0108073E2,1.8265349E0,2.4461567E0,2.0985208E0,2.2862284E1,1.0577315E0,2.4525389E2,4.0074844E1,1.0681992E0,4.4454075E1,3.8531892E0,8.030216E1,2.0001445E0,1.1595132E0,2.4000687E1,1.6984001E0,5.7908596E1,3.516721E1,1.21649885E1,3.8254344E0],"tree_param":{"num_deleted":"0","num_feature":"64","num_nodes":"75","size_leaf_vector":"0"}},{"base_weights":[-1.7770803E-1,-1.3390543E-1,-7.545831E-1,-6.628986E-2,-5.416742E-1,-8.29433E-1,1.3711323E0,-3.8714793E-2,-1.1141517E0,-7.4942064E-1,6.380878E-1,-9.9027896E-1,1.6004483E-1,-6.329134E-2,7.955055E-1,-8.3783644E-1,6.2192965E-1,-9.9440366E-1,9.5407104E-1,9.7927116E-2,-1.0549093E0,-6.5592253E-1,7.3168766E-1,-1.0202673E-2,-7.5507E-1,1.0652794E0,-7.421013E-1,-8.8443536E-1,1.1655254E0,1.3721609E0,-7.0426357E-1,1.0558834E0,-8.179231E-2,-6.446473E-1,7.3284525E-1,-3.6272922E-1,-1.1013641E0,-7.9627585E-1,-1.2540993E-1,-1.262455E-2,9.662152E-1,5.477117E-2,-4.6687382E-1,-8.9414155E-1,7.7532E-1,-5.298076E-1,1.2170773E0,9.1189474E-2,-9.620614E-1,-7.357591E-1,4.1998136E-1],"categories":[],"categories_nodes":[],"categories_segments":[],"categories_sizes":[],"default_left":[false,true,true,false,false,false,false,false,false,true,true,true,false,true,false,true,false,false,false,false,false,true,true,false,false,false,false,true,false,false,false,false,false,false,false,true,false,false,false,false,false,false,false,false,false,false,false,false,false,false,false],"id":10,"left_children":[1,3,5,7,9,11,-1,13,-1,15,17,19,21,23,25,27,29,-1,31,33,35,37,39,41,43,45,-1,47,-1,-1,-1,-1,-1,-1,-1,49,-1,-1,-1,-1,-1,-1,-1,-1,-1,-1,-1,-1,-1,-1,-1],"loss_changes":[1.9590034E1,1.9966965E1,9.853138E0,1.7971102E1,2.5734762E1,8.679386E0,0E0,1.2525796E1,0E0,1.120071E1,9.186358E0,3.352028E0,4.373336E0,2.1734013E1,8.044321E0,8.795254E0,6.8453684E0,0E0,1.5512495E0,2.1247842E0,1.0052681E0,1.954416E-1,9.515269E-1,1.636945E1,9.670576E0,4.346409E0,0E0,6.286499E0,0E0,0E0,0E0,0E0,0E0,0E0,0E0,1.5465946E0,0E0,0E0,0E0,0E0,0E0,0E0,0E0,0E0,0E0,0E0,0E0,0E0,0E0,0E0,0E0],"parents":[2147483647,0,0,1,1,2,2,3,3,4,4,5,5,7,7,9,9,10,10,11,11,12,12,13,13,14,14,15,15,16,16,18,18,19,19,20,20,21,21,22,22,23,23,24,24,25,25,27,27,35,35],"right_children":[2,4,6,8,10,12,-1,14,-1,16,18,20,22,24,26,28,30,-1,32,34,36,38,40,42,44,46,-1,48,-1,-1,-1,-1,-1,-1,-1,50,-1,-1,-1,-1,-1,-1,-1,-1,-1,-1,-1,-1,-1,-1,-1],"split_conditions":[1.4113897E-2,2.0787437E-2,3.0173278E0,6.454325E-1,2.0416307E0,-9.500174E-3,4.113397E-1,1.375437E-2,-3.3424553E-1,1.5900064E-2,-6.76929E-1,-5.1966023E-1,-3.0137882E-2,2.0588465E-2,-1.1120277E-2,-9.7386055E-3,-2.4279226E-2,-2.983211E-1,1.4794344E-2,-2.6489687E-1,1.4254775E-2,6.4228615E-3,1.6075987E-2,-1.385227E-2,1.6775179E-3,2.2168665E0,-2.226304E-1,-6.757877E-2,3.4965765E-1,4.116483E-1,-2.1127908E-1,3.1676504E-1,-2.4537694E-2,-1.933942E-1,2.1985358E-1,1.0628793E-1,-3.3040926E-1,-2.3888277E-1,-3.762298E-2,-3.787365E-3,2.8986457E-1,1.6431352E-2,-1.4006215E-1,-2.6824248E-1,2.3259601E-1,-1.589423E-1,3.6512318E-1,2.7356843E-2,-2.8861845E-1,-2.2072773E-1,1.2599441E-1],"split_indices":[4,5,54,23,26,31,0,4,0,55,28,6,52,12,40,40,25,0,55,23,4,38,4,45,3,36,0,27,0,0,0,0,0,0,0,2,0,0,0,0,0,0,0,0,0,0,0,0,0,0,0],"split_type":[0,0,0,0,0,0,0,0,0,0,0,0,0,0,0,0,0,0,0,0,0,0,0,0,0,0,0,0,0,0,0,0,0,0,0,0,0,0,0,0,0,0,0,0,0,0,0,0,0,0,0],"sum_hessian":[7.7826953E2,7.244905E2,5.377905E1,6.2244086E2,1.0204958E2,5.253888E1,1.2401706E0,6.0749133E2,1.4949526E1,8.708023E1,1.4969348E1,4.5191845E1,7.347032E0,5.910042E2,1.6487152E1,8.21714E1,4.9088354E0,2.0793917E0,1.2889956E1,2.5046632E0,4.2687183E1,2.9659617E0,4.3810706E0,5.498242E2,4.118001E1,1.4287574E1,2.1995778E0,8.0849335E1,1.3220601E0,3.11309E0,1.7957454E0,1.1718816E1,1.1711401E0,1.1473942E0,1.357269E0,3.2386923E0,3.944849E1,1.9492966E0,1.0166651E0,1.2763935E0,3.104677E0,4.8211093E2,6.771327E1,3.8130695E1,3.0493183E0,1.0251471E0,1.3262426E1,5.945832E0,7.49035E1,2.233988E0,1.0047042E0],"tree_param":{"num_deleted":"0","num_feature":"64","num_nodes":"51","size_leaf_vector":"0"}},{"base_weights":[-1.3998234E-1,-2.0858301E-1,1.5233418E-1,-1.1545283E-1,-4.6750727E-1,2.5390217E-1,-2.6271334E-1,1.6171455E-1,-2.6646E-1,-9.2047495E-1,-2.9349488E-1,-1.3051795E0,2.902825E-1,-4.3365368E-1,7.582675E-1,5.049034E-1,-1.4323683E-1,-1.336033E-1,-9.072984E-1,-9.184492E-2,-1.0238303E0,-8.216614E-1,-1.3365807E-1,6.613012E-1,1.2600403E-1,-8.585981E-1,2.549691E-1,-4.1727477E-1,7.4754494E-1,-2.4995987E-1,1.2672213E0,-7.544557E-1,-5.1691964E-2,7.114753E-1,-9.767228E-1,-5.704915E-1,1.0274682E0,8.4825456E-1,-9.2490816E-1,2.6528066E-1,-3.7648326E-1,8.188118E-1,-2.1394698E-1,-6.5818936E-1,3.2903796E-1,-1.0827736E0,3.6602187E-1,7.3244375E-1,-8.15539E-1,-1.1037785E0,4.2005804E-1,5.6001097E-2,1.0718567E0,2.529207E-2,-9.696878E-1,1.6862711E0,1.4795321E-1,-1.0686486E0,5.0413394E-1,-2.4575727E-1,2.103434E-1,-1.0494713E0,3.0396298E-1,1.4309804E-1,-8.0315053E-1,-7.256227E-2,-1.0548617E0,-6.5948534E-1,6.076232E-1,2.6406103E-1,-6.6526055E-1,1.0839918E0,3.1006888E-1,7.943941E-1,-1.2465856E0,-8.5073626E-1,5.879898E-1,1.0976958E0,1.327133E-1,-1.3760014E-1,-1.1535287E0,5.493996E-1,2.4112152E-2,1.2426318E0,-5.790622E-2],"categories":[],"categories_nodes":[],"categories_segments":[],"categories_sizes":[],"default_left":[false,false,true,false,false,false,true,true,true,false,true,false,false,true,false,true,true,false,false,false,false,false,false,true,true,true,false,false,true,false,false,false,true,false,false,true,false,false,false,false,false,false,false,true,true,true,false,false,false,false,false,false,false,false,false,false,false,false,false,false,false,false,false,false,false,false,false,false,false,false,false,false,false,false,false,false,false,false,false,false,false,false,false,false,false],"id":11,"left_children":[1,3,5,7,9,11,13,15,17,19,21,-1,23,25,-1,27,29,31,33,35,-1,37,39,41,43,45,47,49,51,53,55,57,59,-1,61,63,-1,-1,65,67,69,71,73,75,77,79,81,83,-1,-1,-1,-1,-1,-1,-1,-1,-1,-1,-1,-1,-1,-1,-1,-1,-1,-1,-1,-1,-1,-1,-1,-1,-1,-1,-1,-1,-1,-1,-1,-1,-1,-1,-1,-1,-1],"loss_changes":[1.4807748E1,1.4346945E1,5.9951134E0,1.8482235E1,1.2156456E1,6.8161073E0,5.2400203E0,1.6398233E1,2.4191252E1,3.6132355E0,9.629497E0,0E0,6.7261686E0,7.45864E0,0E0,1.6784496E1,1.2867601E1,1.2049047E1,6.186241E0,3.7465947E0,0E0,5.3720875E0,8.79505E0,4.869508E0,1.2742357E1,4.6593084E0,5.8171897E0,9.64769E0,1.3091644E1,1.5545923E1,2.5786858E0,1.1465326E1,1.0784794E1,0E0,4.723503E0,9.076959E-1,0E0,0E0,2.7520523E0,1.1338449E1,1.0573124E1,3.5850086E0,7.2233543E0,4.4624314E0,9.385267E0,7.3595333E-1,1.8425947E-1,3.1320744E0,0E0,0E0,0E0,0E0,0E0,0E0,0E0,0E0,0E0,0E0,0E0,0E0,0E0,0E0,0E0,0E0,0E0,0E0,0E0,0E0,0E0,0E0,0E0,0E0,0E0,0E0,0E0,0E0,0E0,0E0,0E0,0E0,0E0,0E0,0E0,0E0,0E0],"parents":[2147483647,0,0,1,1,2,2,3,3,4,4,5,5,6,6,7,7,8,8,9,9,10,10,12,12,13,13,15,15,16,16,17,17,18,18,19,19,21,21,22,22,23,23,24,24,25,25,26,26,27,27,28,28,29,29,30,30,31,31,32,32,34,34,35,35,38,38,39,39,40,40,41,41,42,42,43,43,44,44,45,45,46,46,47,47],"right_children":[2,4,6,8,10,12,14,16,18,20,22,-1,24,26,-1,28,30,32,34,36,-1,38,40,42,44,46,48,50,52,54,56,58,60,-1,62,64,-1,-1,66,68,70,72,74,76,78,80,82,84,-1,-1,-1,-1,-1,-1,-1,-1,-1,-1,-1,-1,-1,-1,-1,-1,-1,-1,-1,-1,-1,-1,-1,-1,-1,-1,-1,-1,-1,-1,-1,-1,-1,-1,-1,-1,-1],"split_conditions":[-7.3121507E-3,1.0822354E-2,3.4310587E-2,-1.6586794E-2,-3.0966016E-2,-4.147067E-2,5.782609E-1,6.307967E-4,-5.8696352E-2,2.8632137E-3,1.4366142E-2,-3.9155385E-1,-1.5982587E-2,-1.2716062E-2,2.2748026E-1,1.1733778E-2,3.1890953E-1,-8.059639E-2,-1.6410317E-2,2.6393556E-3,-3.071491E-1,-3.0965736E-2,2.6468467E-2,-1.0912077E-1,-5.748199E-2,1.4607843E-2,-1.2274967E-2,5.2891592E-3,-3.1006727E-2,-1.4139038E-2,-2.8617631E-3,-3.0867841E-2,-6.447938E-2,2.1344261E-1,2.6396116E-2,-1.7085463E-1,3.0824047E-1,2.5447637E-1,-6.8943486E-2,-1.515823E-2,-1.7553538E-2,-1.1887782E-1,-1.625314E-2,5.8059353E-2,-2.4804082E-2,-8.4014535E-2,-3.1800263E-2,-2.697581E-3,-2.446617E-1,-3.3113354E-1,1.2601742E-1,1.680033E-2,3.2155704E-1,7.5876215E-3,-2.9090637E-1,5.0588137E-1,4.4385966E-2,-3.2059458E-1,1.5124018E-1,-7.372718E-2,6.310303E-2,-3.148414E-1,9.118889E-2,4.2929415E-2,-2.4094518E-1,-2.1768682E-2,-3.1645852E-1,-1.9784561E-1,1.8228698E-1,7.921831E-2,-1.9957818E-1,3.2519755E-1,9.302066E-2,2.3831823E-1,-3.739757E-1,-2.552209E-1,1.7639695E-1,3.2930875E-1,3.981399E-2,-4.1280042E-2,-3.460586E-1,1.648199E-1,7.2336458E-3,3.7278956E-1,-1.7371867E-2],"split_indices":[20,12,37,57,26,36,32,2,10,38,38,0,45,43,0,4,33,63,45,38,0,26,23,54,52,29,45,61,26,45,45,26,60,0,48,10,0,0,33,49,57,23,45,19,24,38,19,29,0,0,0,0,0,0,0,0,0,0,0,0,0,0,0,0,0,0,0,0,0,0,0,0,0,0,0,0,0,0,0,0,0,0,0,0,0],"split_type":[0,0,0,0,0,0,0,0,0,0,0,0,0,0,0,0,0,0,0,0,0,0,0,0,0,0,0,0,0,0,0,0,0,0,0,0,0,0,0,0,0,0,0,0,0,0,0,0,0,0,0,0,0,0,0,0,0,0,0,0,0,0,0,0,0,0,0,0,0,0,0,0,0,0,0,0,0,0,0,0,0,0,0,0,0],"sum_hessian":[7.3584186E2,5.962101E2,1.396318E2,4.3955597E2,1.5665411E2,1.12491745E2,2.7140057E1,1.5499611E2,2.8455984E2,4.2287296E1,1.1436682E2,1.7698228E0,1.10721924E2,2.3740501E1,3.3995564E0,7.2617516E1,8.23786E1,2.3669702E2,4.7862835E1,4.8990216E0,3.7388275E1,2.5607733E1,8.875909E1,3.305118E1,7.767074E1,1.4528332E1,9.212169E0,1.4976907E1,5.7640606E1,7.7348755E1,5.0298514E0,2.6631466E1,2.1006555E2,1.5879651E0,4.6274868E1,3.7750397E0,1.1239822E0,1.0709153E0,2.4536818E1,3.3548923E1,5.5210163E1,2.8065046E1,4.986135E0,1.551278E1,6.215796E1,1.2378236E1,2.150096E0,6.5890694E0,2.6230998E0,8.054808E0,6.9220996E0,1.8776133E1,3.8864475E1,5.664888E1,2.0699873E1,3.2910945E0,1.7387569E0,2.1432096E1,5.199368E0,1.207209E2,8.934466E1,4.395838E1,2.3164864E0,1.0228372E0,2.7522025E0,3.4522703E0,2.1084547E1,8.813831E0,2.473509E1,1.7182598E1,3.802757E1,1.7705439E1,1.0359609E1,2.6394775E0,2.3466573E0,1.3711537E1,1.8012426E0,1.1711889E1,5.044607E1,1.0671788E0,1.1311057E1,1.0044956E0,1.1456004E0,3.6564784E0,2.932591E0],"tree_param":{"num_deleted":"0","num_feature":"64","num_nodes":"85","size_leaf_vector":"0"}},{"base_weights":[-1.1380487E-1,-7.851105E-2,-6.7103547E-1,-5.843615E-2,-1.0494153E0,4.2732656E-2,-9.2280704E-1,-1.2548621E-1,2.2803807E-1,-9.1281134E-1,9.7053564E-1,-1.0331299E0,2.797607E-1,-8.1282955E-1,-3.9196204E-2,8.472704E-1,4.1082248E-2,1.4657303E0,-7.296211E-2,-1.0595082E0,-1.6517578E-1,-1.811145E-1,6.2384415E-1,-9.9190766E-1,3.061591E-1,7.383246E-3,-8.9013135E-1,9.7069776E-1,-3.9169282E-1,-4.720263E-1,3.5579905E-1,4.1992682E-1,-5.298896E-1,-1.03296E0,5.067345E-1,-4.887259E-1,7.576829E-1,4.058827E-1,-9.8051354E-2,-1.11305475E-1,-1.0023513E0,-9.568064E-2,1.0228982E0,4.3441065E-2,-6.056816E-1,-7.788395E-1,6.371279E-1,9.93427E-1,-1.09253325E-1],"categories":[],"categories_nodes":[],"categories_segments":[],"categories_sizes":[],"default_left":[false,false,false,false,false,true,true,true,true,false,false,true,false,true,false,false,false,false,true,false,false,false,false,true,false,false,true,true,false,false,false,false,false,false,false,false,false,false,false,false,false,false,false,false,false,false,false,false,false],"id":12,"left_children":[1,3,5,7,-1,9,11,13,15,-1,17,19,21,23,25,27,29,-1,31,-1,-1,-1,-1,33,35,37,39,41,43,45,47,-1,-1,-1,-1,-1,-1,-1,-1,-1,-1,-1,-1,-1,-1,-1,-1,-1,-1],"loss_changes":[1.3506863E1,1.2598513E1,7.395817E0,1.2272435E1,0E0,1.1196555E1,4.3096886E0,3.0642445E1,1.4002312E1,0E0,3.406458E0,4.6541786E-1,6.4161265E-1,1.1852894E1,1.8260729E1,4.6723137E0,1.5377102E1,0E0,8.998607E-1,0E0,0E0,0E0,0E0,3.5946274E0,3.4982984E0,1.842727E1,1.9781322E0,1.5347099E0,3.2942307E-1,1.28274145E1,1.7588356E1,0E0,0E0,0E0,0E0,0E0,0E0,0E0,0E0,0E0,0E0,0E0,0E0,0E0,0E0,0E0,0E0,0E0,0E0],"parents":[2147483647,0,0,1,1,2,2,3,3,5,5,6,6,7,7,8,8,10,10,11,11,12,12,13,13,14,14,15,15,16,16,18,18,23,23,24,24,25,25,26,26,27,27,28,28,29,29,30,30],"right_children":[2,4,6,8,-1,10,12,14,16,-1,18,20,22,24,26,28,30,-1,32,-1,-1,-1,-1,34,36,38,40,42,44,46,48,-1,-1,-1,-1,-1,-1,-1,-1,-1,-1,-1,-1,-1,-1,-1,-1,-1,-1],"split_conditions":[1.4113897E-2,6.454325E-1,-1.0344726E-2,-3.0403044E-2,-3.148246E-1,-6.324007E-2,1.0992466E-2,-6.724397E-2,-6.755401E-2,-2.738434E-1,-2.1662496E-3,1.927879E-2,-2.5031384E-2,-9.622984E-3,2.2121437E-2,1.3123461E-2,-5.0134704E-2,4.397191E-1,-1.0850154E-1,-3.1785247E-1,-4.9552735E-2,-5.433435E-2,1.8715325E-1,4.1732955E-1,-2.6301509E-3,-1.6796455E-2,-1.1169474E0,-1.4939865E0,-3.4025922E-2,3.201001E-2,-1.4002164E-2,1.2597805E-1,-1.5896688E-1,-3.0988804E-1,1.5202035E-1,-1.4661777E-1,2.2730489E-1,1.2176481E-1,-2.9415408E-2,-3.3391643E-2,-3.007054E-1,-2.8704192E-2,3.0686948E-1,1.303232E-2,-1.8170449E-1,-2.3365186E-1,1.9113837E-1,2.980281E-1,-3.2775998E-2],"split_indices":[4,23,29,26,0,50,61,33,33,0,61,46,15,51,22,55,39,0,0,0,0,0,0,32,20,57,28,28,42,48,45,0,0,0,0,0,0,0,0,0,0,0,0,0,0,0,0,0,0],"split_type":[0,0,0,0,0,0,0,0,0,0,0,0,0,0,0,0,0,0,0,0,0,0,0,0,0,0,0,0,0,0,0,0,0,0,0,0,0,0,0,0,0,0,0,0,0,0,0,0,0],"sum_hessian":[6.8846405E2,6.485285E2,3.9935535E1,6.3642957E2,1.20989485E1,1.0629985E1,2.930555E1,5.161786E2,1.2025101E2,5.2446647E0,5.38532E0,2.6972046E1,2.3335032E0,5.6634724E1,4.5954382E2,2.7067268E1,9.318374E1,3.377762E0,2.0075583E0,2.596232E1,1.0097257E0,1.1999235E0,1.1335797E0,4.8919437E1,7.715286E0,4.366342E2,2.2909653E1,2.4811987E1,2.2552822E0,3.523591E1,5.794783E1,1.0047302E0,1.0028281E0,4.791756E1,1.0018747E0,2.7650907E0,4.9501953E0,9.075772E1,3.4587646E2,3.136141E0,1.9773512E1,1.119025E0,2.369296E1,1.0062085E0,1.2490736E0,2.7834236E1,7.4016733E0,2.3960163E1,3.3987667E1],"tree_param":{"num_deleted":"0","num_feature":"64","num_nodes":"49","size_leaf_vector":"0"}},{"base_weights":[-9.069037E-2,7.471513E-2,-2.0047343E-1,1.7737922E-1,-4.9223456E-1,1.0414806E-1,-3.972254E-1,2.8031656E-1,-1.8166003E-1,1.9740793E-1,-8.295289E-1,-2.113408E-1,9.8716366E-1,2.216451E-1,-4.740015E-1,4.9014714E-1,-1.2259225E-1,-5.9824073E-1,5.2864677E-1,-3.8677797E-1,8.2157916E-1,2.4316922E-1,-9.130403E-1,-5.1256156E-1,1.2984024E-1,1.2935779E0,-8.2047176E-1,-8.2663476E-1,4.9769658E-1,-6.71305E-1,-1.7335403E-1,2.0438874E-1,9.0975016E-1,-5.7202727E-1,1.7470522E-1,-1.46198515E-2,-1.0457515E0,1.6624868E0,1.4772893E-1,3.0815646E-1,-5.936952E-1,1.2427574E0,-5.2236074E-1,-1.0426573E0,-4.0817177E-1,-8.255074E-1,-3.7470337E-3,9.364749E-1,-2.0489699E-1,5.359341E-1,1.5379652E0,-9.362345E-1,-9.0033E-2,-9.2848873E-1,-1.6999559E-1,8.3980674E-1,-3.0389744E-1,-8.3769226E-1,-3.3251652E-1,4.9689624E-1,-3.224537E-1,6.6319346E-1,-1.5083744E-1,1.2651051E0,1.846561E-1,7.926111E-1,-7.2512186E-1,-2.9519928E-1,8.708182E-1,7.56144E-1,-3.5648817E-1,-8.1054306E-1,4.422602E-1,-8.858574E-1,2.5886726E-1,-1.0924169E0,-1.0844786E-1,-6.95042E-1,4.7615412E-1,1.2977476E-2,-9.7578776E-1,6.446235E-1,-4.0204573E-1,-3.382711E-1,1.3577788E0,-7.314757E-1,4.7444698E-1,9.137018E-1,-5.3889996E-1,1.2361894E0,2.249595E0,1.0634664E0,-6.7078644E-1,-8.648575E-1,7.3414356E-1,-8.758586E-1,8.726247E-1,-7.4826086E-1,2.932097E-1,4.1112274E-2,1.585678E0,2.3516573E-1,-5.117666E-1],"categories":[],"categories_nodes":[],"categories_segments":[],"categories_sizes":[],"default_left":[true,true,false,true,true,true,false,false,false,true,false,true,false,false,true,false,false,true,false,false,true,false,true,false,true,false,false,true,false,false,false,false,false,false,false,false,false,false,true,false,true,false,false,true,false,false,false,false,false,false,false,false,false,false,false,true,false,false,false,true,false,false,false,false,false,false,false,false,false,false,false,false,false,false,false,false,false,false,false,false,false,false,false,false,false,false,false,false,false,false,false,false,false,false,false,false,false,false,false,false,false,false,false],"id":13,"left_children":[1,3,5,7,9,11,13,15,17,19,21,23,25,27,29,31,33,35,37,39,41,-1,43,45,47,49,51,53,55,57,59,61,63,65,67,69,-1,-1,71,-1,73,-1,-1,75,77,79,81,83,85,87,89,-1,-1,-1,-1,91,93,95,97,99,101,-1,-1,-1,-1,-1,-1,-1,-1,-1,-1,-1,-1,-1,-1,-1,-1,-1,-1,-1,-1,-1,-1,-1,-1,-1,-1,-1,-1,-1,-1,-1,-1,-1,-1,-1,-1,-1,-1,-1,-1,-1,-1],"loss_changes":[1.185148E1,1.526554E1,2.3539759E1,8.238144E0,9.525423E0,4.3290966E1,1.1433285E1,1.4648565E1,1.5101416E1,5.432234E0,2.6604042E0,1.1860888E1,2.3707169E1,8.223081E0,1.2484238E1,1.3443188E1,8.102426E0,8.333079E0,7.9614778E0,1.3225423E0,4.668719E0,0E0,1.2407494E0,9.734428E0,1.4937224E1,5.720646E0,4.6853685E-1,2.4363041E-1,6.286116E0,6.931511E0,8.706213E0,1.1330459E1,1.1556911E1,5.605238E0,1.2298847E1,4.1922083E0,0E0,0E0,4.682762E0,0E0,1.8355653E0,0E0,0E0,7.9351234E-1,2.0674858E0,4.783329E0,6.532763E0,9.157123E0,1.44468355E1,4.6160383E0,2.8438072E0,0E0,0E0,0E0,0E0,6.0107365E0,4.8930492E0,6.3206177E0,1.1609955E1,7.8525667E0,7.5690923E0,0E0,0E0,0E0,0E0,0E0,0E0,0E0,0E0,0E0,0E0,0E0,0E0,0E0,0E0,0E0,0E0,0E0,0E0,0E0,0E0,0E0,0E0,0E0,0E0,0E0,0E0,0E0,0E0,0E0,0E0,0E0,0E0,0E0,0E0,0E0,0E0,0E0,0E0,0E0,0E0,0E0,0E0],"parents":[2147483647,0,0,1,1,2,2,3,3,4,4,5,5,6,6,7,7,8,8,9,9,10,10,11,11,12,12,13,13,14,14,15,15,16,16,17,17,18,18,19,19,20,20,22,22,23,23,24,24,25,25,26,26,27,27,28,28,29,29,30,30,31,31,32,32,33,33,34,34,35,35,38,38,40,40,43,43,44,44,45,45,46,46,47,47,48,48,49,49,50,50,55,55,56,56,57,57,58,58,59,59,60,60],"right_children":[2,4,6,8,10,12,14,16,18,20,22,24,26,28,30,32,34,36,38,40,42,-1,44,46,48,50,52,54,56,58,60,62,64,66,68,70,-1,-1,72,-1,74,-1,-1,76,78,80,82,84,86,88,90,-1,-1,-1,-1,92,94,96,98,100,102,-1,-1,-1,-1,-1,-1,-1,-1,-1,-1,-1,-1,-1,-1,-1,-1,-1,-1,-1,-1,-1,-1,-1,-1,-1,-1,-1,-1,-1,-1,-1,-1,-1,-1,-1,-1,-1,-1,-1,-1,-1,-1],"split_conditions":[-1.5657015E-2,-1.0097783E-2,-1.5457943E-2,3.586139E-2,-1.3438679E-2,1.2459045E-2,-4.7875565E-2,-6.559995E-2,-3.023696E-2,-7.254879E-2,-2.8890181E-2,1.2170451E-2,1.336024E-2,1.2636041E-2,-8.2430534E-2,-1.5526688E-2,-1.2613602E-2,-5.038403E-1,-2.9981693E-2,-4.1388825E-2,-1.1688186E-2,7.2950765E-2,1.7246876E-2,-2.3331914E-2,-1.2388525E-1,-3.0718558E-2,-2.240582E-2,4.6287447E-2,1.30239865E-2,-1.1280144E-2,-1.0663295E-1,-1.5654128E-2,-1.7920313E-2,-3.318643E0,-1.4992341E-2,-6.804518E-2,-3.1372544E-1,4.9874607E-1,-6.1065268E-2,9.244694E-2,7.9188526E-2,3.7282723E-1,-1.5670823E-1,-2.6970439E-2,1.0002404E-6,-1.1314319E-2,-4.9075093E-3,-3.1157274E-2,-8.436191E-4,-4.5919556E-2,-5.796375E-3,-2.8087035E-1,-2.7009903E-2,-2.7854663E-1,-5.099868E-2,-1.9238867E-2,9.084539E-2,7.175764E-1,-4.684429E-3,3.0844294E-2,-1.485336E-2,1.9895805E-1,-4.525123E-2,3.7953156E-1,5.5396833E-2,2.3778334E-1,-2.1753657E-1,-8.8559784E-2,2.6124546E-1,2.2684321E-1,-1.0694645E-1,-2.4316293E-1,1.3267806E-1,-2.6575723E-1,7.766018E-2,-3.2772508E-1,-3.2534357E-2,-2.0851262E-1,1.4284624E-1,3.893243E-3,-2.9273635E-1,1.9338706E-1,-1.20613724E-1,-1.0148134E-1,4.0733364E-1,-2.1944273E-1,1.423341E-1,2.7411056E-1,-1.6167E-1,3.7085682E-1,6.748785E-1,3.1903994E-1,-2.0123594E-1,-2.5945726E-1,2.2024308E-1,-2.627576E-1,2.617874E-1,-2.2447826E-1,8.796291E-2,1.2333683E-2,4.7570342E-1,7.054972E-2,-1.5352999E-1],"split_indices":[59,46,45,37,20,4,42,63,26,63,15,4,4,4,54,45,46,28,26,36,9,0,5,19,54,43,11,28,4,20,8,49,43,23,45,41,0,0,50,0,2,0,0,36,26,40,38,8,29,42,33,0,0,0,0,58,27,8,14,5,45,0,0,0,0,0,0,0,0,0,0,0,0,0,0,0,0,0,0,0,0,0,0,0,0,0,0,0,0,0,0,0,0,0,0,0,0,0,0,0,0,0,0],"split_type":[0,0,0,0,0,0,0,0,0,0,0,0,0,0,0,0,0,0,0,0,0,0,0,0,0,0,0,0,0,0,0,0,0,0,0,0,0,0,0,0,0,0,0,0,0,0,0,0,0,0,0,0,0,0,0,0,0,0,0,0,0,0,0,0,0,0,0,0,0,0,0,0,0,0,0,0,0,0,0,0,0,0,0,0,0,0,0,0,0,0,0,0,0,0,0,0,0,0,0,0,0,0,0],"sum_hessian":[6.508356E2,2.597702E2,3.9106534E2,2.2052444E2,3.924576E1,1.5364891E2,2.3741644E2,1.7155772E2,4.896672E1,1.3026372E1,2.621939E1,1.137635E2,3.988541E1,2.5994572E1,2.1142188E2,1.1266598E2,5.889175E1,3.0964457E1,1.8002262E1,6.9251714E0,6.1012006E0,1.755701E0,2.446369E1,6.0153267E1,5.3610226E1,3.4347507E1,5.5379014E0,5.002718E0,2.0991854E1,1.26905655E2,8.451622E1,6.790699E1,4.4758984E1,2.3078732E1,3.581302E1,1.388674E1,1.7077717E1,3.6809938E0,1.4321269E1,1.4766263E0,5.448545E0,4.702705E0,1.3984959E0,1.8618483E1,5.8452067E0,3.6860092E1,2.3293177E1,1.5195397E1,3.841483E1,9.155819E0,2.5191689E1,4.5371017E0,1.0007999E0,3.9725223E0,1.0301957E0,1.467926E1,6.3125925E0,8.411977E1,4.278589E1,1.4955202E1,6.956102E1,2.9254877E1,3.8652115E1,2.9538147E1,1.5220836E1,1.9066018E0,2.117213E1,2.172422E1,1.4088798E1,3.8945134E0,9.992227E0,2.9550128E0,1.1366256E1,4.0288553E0,1.4196897E0,1.7516155E1,1.1023273E0,4.57511E0,1.2700965E0,5.7411513E0,3.111894E1,8.628625E0,1.4664551E1,3.8235385E0,1.137186E1,2.1597364E1,1.6817465E1,6.8856573E0,2.2701616E0,1.9612062E1,5.5796256E0,1.3043955E1,1.6353052E0,4.206322E0,2.1062706E0,8.2760826E1,1.3589411E0,2.5588547E1,1.7197344E1,1.1273619E1,3.6815834E0,1.7569122E1,5.1991898E1],"tree_param":{"num_deleted":"0","num_feature":"64","num_nodes":"103","size_leaf_vector":"0"}},{"base_weights":[-7.442391E-2,-5.8164906E-2,-9.97452E-1,-4.1280586E-2,-9.131782E-1,1.108976E-1,-1.34914E-1,-1.0218375E0,1.0746335E-1,-8.062331E-2,5.264298E-1,-9.887245E-1,-7.151505E-2,7.480853E-2,-4.3438876E-1,7.194602E-1,-4.7165352E-1,4.58345E-2,-1.0929605E0,4.82297E-1,-1.9318761E-1,2.9293495E-1,-3.254707E-1,1.9251193E-1,-8.537114E-1,-4.9164224E-1,8.033079E-1,1.250796E-1,-9.3906754E-1,-5.827477E-1,6.391771E-1,9.3709207E-1,-4.2015585E-1,-6.727504E-1,-7.980119E-2],"categories":[],"categories_nodes":[],"categories_segments":[],"categories_sizes":[],"default_left":[false,false,false,true,false,true,true,false,false,true,false,false,false,false,true,true,true,true,false,false,true,false,false,false,false,false,false,false,false,false,false,false,false,false,false],"id":14,"left_children":[1,3,-1,5,7,9,11,-1,-1,13,15,17,19,21,23,25,27,29,-1,31,33,-1,-1,-1,-1,-1,-1,-1,-1,-1,-1,-1,-1,-1,-1],"loss_changes":[9.00362E0,8.543489E0,0E0,8.335686E0,1.3811426E0,1.778832E1,1.952284E1,0E0,0E0,8.47304E0,1.3918648E1,2.7397728E0,2.2870604E1,9.481241E0,1.2520285E1,6.432663E0,3.471888E0,1.581898E0,0E0,2.550116E1,1.5054789E1,0E0,0E0,0E0,0E0,0E0,0E0,0E0,0E0,0E0,0E0,0E0,0E0,0E0,0E0],"parents":[2147483647,0,0,1,1,3,3,4,4,5,5,6,6,9,9,10,10,11,11,12,12,13,13,14,14,15,15,16,16,17,17,19,19,20,20],"right_children":[2,4,-1,6,8,10,12,-1,-1,14,16,18,20,22,24,26,28,30,-1,32,34,-1,-1,-1,-1,-1,-1,-1,-1,-1,-1,-1,-1,-1,-1],"split_conditions":[6.454325E-1,-7.233948E-3,-2.992356E-1,-3.1026259E-2,-1.605447E-2,1.0659134E-2,-1.1605152E-1,-3.0655125E-1,3.223901E-2,-3.1144675E-2,1.3701407E-2,-1.5072592E-2,-1.715035E-2,-2.9626396E-2,-4.58631E-2,-8.160077E-2,-7.892867E-2,-4.1113496E-2,-3.2788816E-1,3.0258654E-2,-5.513928E-2,8.788049E-2,-9.764121E-2,5.775358E-2,-2.5611344E-1,-1.4749268E-1,2.4099238E-1,3.752388E-2,-2.8172028E-1,-1.7482431E-1,1.9175313E-1,2.8112763E-1,-1.2604676E-1,-2.0182513E-1,-2.3940356E-2],"split_indices":[23,40,0,26,57,55,21,0,0,26,55,46,57,33,24,63,63,36,0,38,33,0,0,0,0,0,0,0,0,0,0,0,0,0,0],"split_type":[0,0,0,0,0,0,0,0,0,0,0,0,0,0,0,0,0,0,0,0,0,0,0,0,0,0,0,0,0,0,0,0,0,0,0],"sum_hessian":[6.0280646E2,5.9341656E2,9.389931E0,5.82953E2,1.0463546E1,2.219855E2,3.6096747E2,9.455704E0,1.007842E0,1.5250237E2,6.948315E1,2.3941786E1,3.370257E2,1.0649905E2,4.600332E1,5.845671E1,1.1026432E1,2.242718E0,2.1699068E1,6.0173325E1,2.7685236E2,6.910787E1,3.739117E1,1.865476E1,2.734856E1,3.4701467E0,5.4986565E1,5.164928E0,5.861504E0,1.0976902E0,1.1450276E0,3.998455E1,2.0188772E1,5.1997597E1,2.2485478E2],"tree_param":{"num_deleted":"0","num_feature":"64","num_nodes":"35","size_leaf_vector":"0"}},{"base_weights":[-6.150383E-2,-4.1103914E-2,-7.746285E-1,1.03626095E-1,-1.3410543E-1,4.4053927E-1,-9.103592E-1,-1.04062095E-1,3.4480682E-1,-5.426311E-1,-8.223442E-2,-1.0014455E0,-8.293197E-2,1.5489803E-1,-5.6122434E-1,-5.247436E-2,5.921632E-1,-1.1842632E-1,-8.869759E-1,5.20319E-1,-1.4100842E-1,-1.0404882E-1,6.971704E-1,-7.530311E-1,5.6932867E-1,5.2686983E-1,-4.6226594E-1,7.1111286E-1,-4.2008945E-1,4.292542E-1,-5.205946E-1,1.2736394E-1,-9.46269E-1,-4.9313042E-2,8.9570576E-1,-3.9629114E-1,-1.2279339E-2,1.553866E-1,-7.2789884E-1,-5.6950986E-1,8.860848E-1,4.8920453E-1,-8.7235576E-1,1.1253763E0,-6.7210025E-1,-5.774866E-1,7.0451325E-1,-9.1973287E-1,2.6678535E-1,7.936581E-1,-6.7951757E-1,4.7707948E-1,-9.4279426E-1,7.96907E-1,-6.8429404E-1,2.733216E-1,-7.927005E-1,-1.1046513E0,-2.969388E-1,3.367691E-1,-8.692977E-1,-5.7437265E-1,1.0677828E0,-1.6348402E-1,-8.582052E-1,-8.688367E-1,2.9144306E-2],"categories":[],"categories_nodes":[],"categories_segments":[],"categories_sizes":[],"default_left":[false,true,false,true,false,false,true,false,false,false,false,false,false,true,true,true,true,true,false,true,false,false,false,false,false,false,true,true,false,false,false,false,true,true,true,false,false,false,false,false,false,false,false,false,false,false,false,false,false,false,false,false,false,false,false,false,false,false,false,false,false,false,false,false,false,false,false],"id":15,"left_children":[1,3,5,7,9,-1,11,13,15,17,19,-1,-1,21,23,25,27,29,31,33,35,37,39,41,43,45,47,49,51,53,55,-1,57,59,61,63,65,-1,-1,-1,-1,-1,-1,-1,-1,-1,-1,-1,-1,-1,-1,-1,-1,-1,-1,-1,-1,-1,-1,-1,-1,-1,-1,-1,-1,-1,-1],"loss_changes":[8.346853E0,7.564822E0,3.0336714E0,1.105696E1,7.20176E0,0E0,1.0236349E0,1.4173617E1,1.0058073E1,5.4966707E0,1.0861073E1,0E0,0E0,1.084896E1,9.8061495E0,9.7568035E0,7.8800716E0,4.2621665E0,1.3842945E0,5.878587E0,9.141628E0,8.660567E0,6.4709425E0,5.9708824E0,5.479353E0,3.7553577E0,8.250605E0,7.0495815E0,3.8494883E0,3.9480891E0,2.598268E0,0E0,1.7258415E0,4.02403E0,4.7869663E0,9.889612E0,6.62699E0,0E0,0E0,0E0,0E0,0E0,0E0,0E0,0E0,0E0,0E0,0E0,0E0,0E0,0E0,0E0,0E0,0E0,0E0,0E0,0E0,0E0,0E0,0E0,0E0,0E0,0E0,0E0,0E0,0E0,0E0],"parents":[2147483647,0,0,1,1,2,2,3,3,4,4,6,6,7,7,8,8,9,9,10,10,13,13,14,14,15,15,16,16,17,17,18,18,19,19,20,20,21,21,22,22,23,23,24,24,25,25,26,26,27,27,28,28,29,29,30,30,32,32,33,33,34,34,35,35,36,36],"right_children":[2,4,6,8,10,-1,12,14,16,18,20,-1,-1,22,24,26,28,30,32,34,36,38,40,42,44,46,48,50,52,54,56,-1,58,60,62,64,66,-1,-1,-1,-1,-1,-1,-1,-1,-1,-1,-1,-1,-1,-1,-1,-1,-1,-1,-1,-1,-1,-1,-1,-1,-1,-1,-1,-1,-1,-1],"split_conditions":[1.641922E-2,-5.8926832E-2,-1.0684604E-1,-5.6584887E-2,-8.004433E-2,1.3216178E-1,-1.0796902E-2,5.9438087E-3,-5.598527E-2,-6.286721E-2,-1.1528413E-1,-3.0043367E-1,-2.4879593E-2,3.6300384E-3,3.1163216E-2,-3.1070773E-2,-3.7025165E-2,6.746459E-3,-5.587547E-2,-1.5703596E-2,-3.0994628E-2,-1.5823364E-2,-3.968013E-2,-1.7185085E-2,2.2218797E-2,-1.2970538E-2,-1.09892E-2,-3.5263961E-3,-1.6043734E-2,-1.5093312E-1,-1.5875451E-2,3.820918E-2,-3.933491E-3,-1.5758794E-2,1.4801031E-2,4.9560675E-3,-1.550481E-2,4.661598E-2,-2.1836966E-1,-1.7085296E-1,2.6582545E-1,1.4676136E-1,-2.6170674E-1,3.3761293E-1,-2.0163009E-1,-1.7324598E-1,2.1135399E-1,-2.7591988E-1,8.003561E-2,2.3809743E-1,-2.0385528E-1,1.4312385E-1,-2.8283828E-1,2.3907211E-1,-2.0528822E-1,8.1996486E-2,-2.3781016E-1,-3.3139542E-1,-8.9081645E-2,1.0103074E-1,-2.607893E-1,-1.723118E-1,3.2033485E-1,-4.904521E-2,-2.5746158E-1,-2.6065102E-1,8.743292E-3],"split_indices":[4,39,12,28,63,0,51,38,33,33,8,0,0,24,48,26,36,37,42,59,26,45,36,57,38,20,40,58,45,8,45,0,42,59,5,38,49,0,0,0,0,0,0,0,0,0,0,0,0,0,0,0,0,0,0,0,0,0,0,0,0,0,0,0,0,0,0],"split_type":[0,0,0,0,0,0,0,0,0,0,0,0,0,0,0,0,0,0,0,0,0,0,0,0,0,0,0,0,0,0,0,0,0,0,0,0,0,0,0,0,0,0,0,0,0,0,0,0,0,0,0,0,0,0,0,0,0,0,0,0,0,0,0,0,0,0,0],"sum_hessian":[5.749469E2,5.599854E2,1.4961518E1,2.190238E2,3.4096158E2,1.2776154E0,1.3683903E1,1.17988655E2,1.0103516E2,3.7348793E1,3.036128E2,1.2137452E1,1.5464501E0,7.574435E1,4.2244305E1,3.9070908E1,6.196425E1,1.7336077E1,2.0012714E1,2.6285006E1,2.773278E2,5.18114E1,2.3932947E1,3.640231E1,5.841996E0,1.606842E1,2.3002485E1,5.5714718E1,6.2495313E0,7.3116207E0,1.0024456E1,1.0418315E0,1.8970884E1,1.0786153E1,1.5498853E1,9.226954E1,1.8505826E2,3.712391E1,1.4687492E1,2.844668E0,2.1088278E1,2.9185734E0,3.3483738E1,4.0993443E0,1.7426518E0,1.9146694E0,1.4153751E1,1.3973077E1,9.029408E0,5.299813E1,2.7165878E0,2.3328028E0,3.9167285E0,5.7105575E0,1.6010634E0,2.557638E0,7.4668183E0,1.4687213E1,4.2836704E0,7.733979E0,3.0521739E0,1.3791025E0,1.411975E1,6.2249428E1,3.0020111E1,7.6152773E0,1.7744298E2],"tree_param":{"num_deleted":"0","num_feature":"64","num_nodes":"67","size_leaf_vector":"0"}},{"base_weights":[-5.381913E-2,-5.206004E-1,-2.695233E-2,1.3281354E-1,-8.924255E-1,-8.133183E-2,2.5184044E-1,-8.738191E-1,4.561081E-1,1.7169815E-1,-9.722856E-1,-4.3536033E-3,-2.9802734E-1,-2.0826505E-1,5.8756495E-1,6.960365E-1,-4.160914E-1,-1.827143E-1,-1.0390073E0,-3.9160028E-2,1.063767E0,-4.8846158E-1,1.3659467E-1,6.859748E-2,-7.2204894E-1,-6.773463E-1,6.818465E-1,-2.631547E-1,8.867764E-1,-1.0107019E-3,-6.8612003E-1,1.3351895E-1,1.301226E0,-1.0240841E0,-2.739952E-1,-6.5230465E-1,4.6108547E-1,-4.4095305E-1,3.9213753E-1,-1.0487283E0,1.24344185E-1,-1.7345484E-1,-7.923249E-1,1.0191433E0,2.5341907E-1,1.9434367E-1,1.0007478E0,5.6675788E-2,-4.496146E-1,-8.3346015E-1,6.360172E-1,-1.6846947E-2,2.315615E-1,3.5814798E-1,1.3916354E0,1.2991972E-1,-1.0971447E0,6.5155566E-1,-4.4570103E-1,-9.035348E-1,2.630382E-1,5.975214E-1,-5.6199837E-1,-9.186683E-1,8.989866E-2,7.566692E-1,-2.2281536E-1,-6.014107E-1,5.363529E-1,1.1713566E0,-7.152762E-1,1.0528013E0,-3.2816255E-1],"categories":[],"categories_nodes":[],"categories_segments":[],"categories_sizes":[],"default_left":[true,false,true,false,false,false,true,false,true,false,true,false,true,true,true,true,false,false,false,false,false,false,true,false,false,true,false,false,false,true,true,true,true,false,true,true,false,false,false,false,false,false,false,false,false,false,false,false,false,false,false,false,false,false,false,false,false,false,false,false,false,false,false,false,false,false,false,false,false,false,false,false,false],"id":16,"left_children":[1,3,5,7,9,11,13,-1,15,-1,17,19,21,23,25,27,-1,-1,-1,29,31,33,35,37,39,41,43,-1,45,47,49,51,53,55,57,59,61,63,65,-1,67,-1,-1,69,71,-1,-1,-1,-1,-1,-1,-1,-1,-1,-1,-1,-1,-1,-1,-1,-1,-1,-1,-1,-1,-1,-1,-1,-1,-1,-1,-1,-1],"loss_changes":[6.877678E0,7.371725E0,7.9143662E0,4.205427E0,1.7948666E0,7.2791367E0,1.328754E1,0E0,2.2799582E0,0E0,7.568016E-1,1.2052413E1,9.534384E0,5.268939E0,6.36944E0,1.666513E0,0E0,0E0,0E0,7.7450876E0,2.0862207E0,8.881363E0,9.422276E0,4.2543526E0,3.7070417E0,9.0709805E-2,6.4755516E0,0E0,3.392191E-1,7.720697E0,3.9340897E0,5.1000312E-2,1.8676567E-1,2.0344238E0,9.558478E0,2.7210016E0,3.9417572E0,2.6401932E0,3.6817062E0,0E0,1.6670358E0,0E0,0E0,7.63356E0,1.0507086E1,0E0,0E0,0E0,0E0,0E0,0E0,0E0,0E0,0E0,0E0,0E0,0E0,0E0,0E0,0E0,0E0,0E0,0E0,0E0,0E0,0E0,0E0,0E0,0E0,0E0,0E0,0E0,0E0],"parents":[2147483647,0,0,1,1,2,2,3,3,4,4,5,5,6,6,8,8,10,10,11,11,12,12,13,13,14,14,15,15,19,19,20,20,21,21,22,22,23,23,24,24,25,25,26,26,28,28,29,29,30,30,31,31,32,32,33,33,34,34,35,35,36,36,37,37,38,38,40,40,43,43,44,44],"right_children":[2,4,6,8,10,12,14,-1,16,-1,18,20,22,24,26,28,-1,-1,-1,30,32,34,36,38,40,42,44,-1,46,48,50,52,54,56,58,60,62,64,66,-1,68,-1,-1,70,72,-1,-1,-1,-1,-1,-1,-1,-1,-1,-1,-1,-1,-1,-1,-1,-1,-1,-1,-1,-1,-1,-1,-1,-1,-1,-1,-1,-1],"split_conditions":[1.0149168E-2,-1.614901E-2,2.0248365E-2,-6.254047E-3,-7.3557556E-2,-1.1905142E-2,-4.1256655E-2,-2.6214576E-1,1.684248E-2,5.1509447E-2,-4.8998767E-1,-1.8930398E-2,-1.3199075E-2,-1.2255942E-2,-1.5738823E-2,2.1432087E-2,-1.2482743E-1,-5.481429E-2,-3.117022E-1,1.4060602E-2,-1.3839233E-1,-1.2396906E-2,-1.9203939E-2,-1.2427025E-2,9.447513E-3,-4.2290285E-1,-1.650187E-2,-7.894641E-2,-7.1594715E-2,2.0995801E-2,3.0173278E0,1.5001932E-2,-8.760326E-3,-7.406452E-2,-1.0985052E-1,6.620484E-2,-8.193843E-3,-3.0988073E-2,-3.3748724E-2,-3.1461853E-1,5.4400265E-2,-5.2036453E-2,-2.3769748E-1,-1.4971887E-2,7.475327E-3,5.8303103E-2,3.0022436E-1,1.7002737E-2,-1.3488439E-1,-2.5003806E-1,1.9080517E-1,-5.0540846E-3,6.946845E-2,1.074444E-1,4.1749063E-1,3.8975917E-2,-3.2914343E-1,1.9546671E-1,-1.3371031E-1,-2.7106047E-1,7.891146E-2,1.7925644E-1,-1.6859952E-1,-2.7560052E-1,2.6969599E-2,2.2700077E-1,-6.684461E-2,-1.8042322E-1,1.6090587E-1,3.51407E-1,-2.1458286E-1,3.158404E-1,-9.844877E-2],"split_indices":[4,49,14,44,33,51,36,0,5,0,21,31,31,20,59,61,0,0,0,4,32,20,19,20,18,35,57,0,33,5,54,56,44,33,24,43,46,26,8,0,14,0,0,45,30,0,0,0,0,0,0,0,0,0,0,0,0,0,0,0,0,0,0,0,0,0,0,0,0,0,0,0,0],"split_type":[0,0,0,0,0,0,0,0,0,0,0,0,0,0,0,0,0,0,0,0,0,0,0,0,0,0,0,0,0,0,0,0,0,0,0,0,0,0,0,0,0,0,0,0,0,0,0,0,0,0,0,0,0,0,0,0,0,0,0,0,0,0,0,0,0,0,0,0,0,0,0,0,0],"sum_hessian":[5.485377E2,2.8854002E1,5.196837E2,1.0697655E1,1.8156347E1,4.3545502E2,8.422874E1,2.1865623E0,8.511092E0,1.1871936E0,1.6969152E1,3.2206555E2,1.1338945E2,3.5692436E1,4.8536304E1,6.8333263E0,1.6777658E0,1.6135212E0,1.5355632E1,3.128347E2,9.230883E0,7.875725E1,3.4632202E1,2.3756996E1,1.1935438E1,2.9377842E0,4.559852E1,1.0704752E0,5.762851E0,2.9636072E2,1.6473957E1,2.194844E0,7.036039E0,2.1439013E1,5.7318233E1,9.798916E0,2.4833286E1,9.085359E0,1.4671638E1,8.439152E0,3.4962862E0,1.0118699E0,1.9259144E0,2.4741205E1,2.0857313E1,1.196814E0,4.566037E0,2.6336765E2,3.2993084E1,1.5154714E1,1.3192428E0,1.1931306E0,1.0017134E0,1.0495348E0,5.986504E0,1.2301615E0,2.020885E1,8.532211E0,4.8786022E1,7.6987686E0,2.1001475E0,2.2278269E1,2.5550158E0,4.3974886E0,4.6878705E0,9.066656E0,5.604982E0,1.0996118E0,2.3966742E0,2.3043537E1,1.6976677E0,8.442661E0,1.2414652E1],"tree_param":{"num_deleted":"0","num_feature":"64","num_nodes":"73","size_leaf_vector":"0"}},{"base_weights":[-4.4495907E-2,-6.335278E-1,-2.4419865E-2,4.4153994E-1,-1.0411521E0,8.759638E-1,-3.856873E-2,-3.4352317E-1,8.391543E-1,-1.1352174E0,3.5221808E-2,1.2586304E0,-6.4937747E-1,-1.4142632E-1,9.239441E-2,4.332951E-1,1.4497455E0,-2.0807882E-1,3.7573943E-1,2.2329809E-1,-1.16474956E-1,2.03282E-2,-3.1451085E-1,5.70575E-1,-5.9622383E-1,8.739389E-2,5.2305996E-1,-6.047355E-1,1.952502E-2,5.6344366E-1,-1.6428626E-1,-6.187814E-1,-1.4426048E-1,-7.426354E-1,7.441307E-1,3.1146395E-1,-9.3415016E-1,2.5202507E-1,-1.956823E-1,6.835162E-1,-1.6328512E-1,4.128469E-1,-8.332082E-1,-8.493342E-2,8.6838686E-1],"categories":[],"categories_nodes":[],"categories_segments":[],"categories_sizes":[],"default_left":[true,false,false,true,false,false,false,false,false,false,false,false,false,true,true,false,false,true,false,false,false,false,false,true,false,false,false,false,false,false,false,false,false,false,false,false,false,false,false,false,false,false,false,false,false],"id":17,"left_children":[1,3,5,7,9,11,13,-1,-1,-1,-1,15,-1,17,19,-1,-1,21,23,25,27,29,31,33,35,37,39,41,43,-1,-1,-1,-1,-1,-1,-1,-1,-1,-1,-1,-1,-1,-1,-1,-1],"loss_changes":[6.2056274E0,8.040676E0,6.5280647E0,1.9920465E0,1.3401432E0,5.4454813E0,6.786731E0,0E0,0E0,0E0,0E0,4.2536068E-1,0E0,9.800264E0,6.0906334E0,0E0,0E0,6.0956497E0,6.505439E0,5.5231056E0,5.7299886E0,8.169939E0,8.765112E0,6.850091E0,2.1084387E0,4.488474E0,4.7855597E0,4.7128434E0,6.131845E0,0E0,0E0,0E0,0E0,0E0,0E0,0E0,0E0,0E0,0E0,0E0,0E0,0E0,0E0,0E0,0E0],"parents":[2147483647,0,0,1,1,2,2,3,3,4,4,5,5,6,6,11,11,13,13,14,14,17,17,18,18,19,19,20,20,21,21,22,22,23,23,24,24,25,25,26,26,27,27,28,28],"right_children":[2,4,6,8,10,12,14,-1,-1,-1,-1,16,-1,18,20,-1,-1,22,24,26,28,30,32,34,36,38,40,42,44,-1,-1,-1,-1,-1,-1,-1,-1,-1,-1,-1,-1,-1,-1,-1,-1],"split_conditions":[-5.791048E-1,-1.523246E0,-4.7750148E-1,-3.5962307E-1,